~o
<STREAMINFO> 1 39
<VECSIZE> 39<NULLD><MFCC_D_A_0><DIAGC>
~s "silst"
<MEAN> 39
 -1.655985e+01 1.988809e+00 -3.514792e-02 5.631224e+00 3.407209e+00 3.905283e+00 2.998678e+00 2.446150e+00 3.088697e-01 3.810719e-01 5.292121e-01 1.261121e+00 5.785587e+01 -4.927402e-02 -5.286208e-02 -1.530617e-02 -9.910329e-03 1.227054e-02 5.939175e-02 5.842314e-02 7.607975e-02 5.563369e-02 1.273830e-01 9.320457e-02 6.081345e-02 -4.699015e-02 -8.040721e-03 2.707097e-03 -3.310015e-02 -3.222841e-02 -3.413233e-02 -4.028309e-02 -1.660830e-02 -3.288307e-02 -1.660681e-02 -2.910323e-02 -1.778315e-02 -2.084783e-02 1.945480e-02
<VARIANCE> 39
 1.877589e+00 3.308021e+00 4.490302e+00 5.608265e+00 8.666725e+00 1.171056e+01 1.478729e+01 1.586661e+01 1.832835e+01 1.485074e+01 1.520903e+01 1.145766e+01 8.027551e-01 1.534233e-01 2.980750e-01 4.505740e-01 5.778274e-01 7.866642e-01 1.000642e+00 1.183376e+00 1.362064e+00 1.464786e+00 1.344497e+00 1.265027e+00 1.073794e+00 4.957059e-02 2.931179e-02 5.766596e-02 8.914827e-02 1.145843e-01 1.635754e-01 2.158280e-01 2.443877e-01 2.820479e-01 2.941324e-01 2.640702e-01 2.483144e-01 2.198045e-01 8.923147e-03
<GCONST> 6.397443e+01
~h "b"
<BEGINHMM>
<NUMSTATES> 5
<STATE> 2
<MEAN> 39
 -4.814149e+00 7.077416e+00 -4.859535e-01 7.202915e-01 -4.223418e+00 -4.217466e+00 -9.043818e+00 -1.056418e+01 -6.881881e+00 -3.791879e+00 -4.649692e+00 -3.324299e+00 6.511976e+01 4.087627e-01 -4.947836e-01 -4.331456e-01 -3.774736e-01 -5.561690e-01 -1.743248e-01 -9.385341e-02 4.259864e-01 5.044577e-01 -2.119713e-01 -2.801871e-01 6.338563e-02 4.405684e-01 -9.195649e-02 -5.244035e-02 9.416145e-02 8.769836e-02 -4.040456e-02 -4.413632e-02 9.678890e-02 1.424637e-01 2.599907e-03 -1.257684e-01 -7.592881e-02 6.455727e-02 -2.665159e-02
<VARIANCE> 39
 7.938190e+00 1.004247e+01 2.273187e+01 2.196085e+01 3.087650e+01 1.568828e+01 1.294582e+01 1.797855e+01 1.684073e+01 1.793662e+01 2.009123e+01 8.403209e+00 6.297215e+00 2.252786e-01 5.087564e-01 1.485460e+00 1.236372e+00 1.065208e+00 1.421736e+00 1.156749e+00 1.600984e+00 1.600989e+00 1.517769e+00 1.458720e+00 8.924760e-01 9.643134e-02 3.442675e-02 8.718506e-02 2.495707e-01 1.697347e-01 3.016786e-01 2.483148e-01 2.891515e-01 2.789581e-01 3.708774e-01 2.738029e-01 3.218684e-01 1.931120e-01 1.915114e-02
<GCONST> 8.176714e+01
<STATE> 3
<MEAN> 39
 -4.619263e+00 2.382827e+00 3.733130e+00 1.347195e-01 -1.561943e+01 -9.831534e+00 -6.142548e+00 -3.078736e+00 -7.234919e+00 -6.652748e+00 -2.711879e+00 1.769932e-01 6.814190e+01 -1.493937e-01 -2.321258e-02 2.915261e-01 4.128238e-01 -1.562418e-01 -6.984234e-01 2.782523e-03 2.110756e-01 -2.598996e-01 -6.503483e-02 5.561340e-01 4.881610e-01 -1.110066e-01 -8.131437e-03 1.578984e-01 -2.169183e-01 4.723985e-02 4.590105e-01 1.203759e-01 -2.037677e-01 -2.668911e-01 1.102743e-01 1.360175e-01 -9.598239e-02 -1.302636e-01 -1.181008e-01
<VARIANCE> 39
 3.069709e+00 1.047711e+01 1.270040e+01 7.829691e+00 1.433058e+01 1.470082e+01 1.283252e+01 1.272030e+01 1.757151e+01 1.260352e+01 2.324692e+01 8.577206e+00 1.903133e+00 1.472257e-01 3.493132e-01 1.323048e+00 5.520641e-01 1.984067e+00 7.547352e-01 1.499007e+00 1.101715e+00 1.546801e+00 8.648344e-01 9.426708e-01 5.372393e-01 9.923625e-02 2.186428e-02 7.823529e-02 7.577845e-02 9.573831e-02 2.041370e-01 1.956251e-01 1.720915e-01 2.041340e-01 2.719300e-01 1.929916e-01 2.412082e-01 1.228350e-01 2.131755e-02
<GCONST> 6.827532e+01
<STATE> 4
<MEAN> 39
 -6.827079e+00 5.574008e+00 2.979708e+00 4.415764e+00 -8.295347e+00 -1.150594e+01 -9.037272e+00 -5.263436e+00 -5.959002e+00 -4.657403e+00 -1.485263e+00 4.225362e-01 6.443636e+01 -4.334970e-01 4.950183e-01 -3.483807e-01 2.450328e-01 1.437899e+00 8.132378e-01 -8.791097e-02 -3.799765e-01 2.623073e-01 4.064219e-01 -2.982969e-01 -3.311198e-01 -6.173102e-01 -1.637083e-02 -1.301248e-01 1.214517e-01 -1.295807e-01 -2.821531e-01 1.374942e-01 2.666802e-01 1.129783e-01 -8.538366e-02 3.639736e-02 1.098924e-01 1.349060e-02 8.331374e-02
<VARIANCE> 39
 8.843651e+00 1.143693e+01 1.190569e+01 7.945301e+00 3.218313e+01 2.466319e+01 1.579560e+01 1.587164e+01 1.475449e+01 1.405589e+01 1.722419e+01 1.088232e+01 7.386408e+00 6.276227e-01 1.179599e+00 1.163833e+00 8.080290e-01 4.201506e+00 2.844961e+00 1.962710e+00 2.093407e+00 1.552659e+00 1.128759e+00 1.165341e+00 1.049684e+00 6.627188e-01 1.335747e-01 2.491774e-01 1.413212e-01 1.393311e-01 6.597189e-01 7.643802e-01 3.130920e-01 4.405135e-01 3.098045e-01 2.789091e-01 2.128637e-01 2.399214e-01 1.470703e-01
<GCONST> 9.215919e+01
<TRANSP> 5
 0.000000e+00 1.000000e+00 0.000000e+00 0.000000e+00 0.000000e+00
 0.000000e+00 8.409625e-01 1.590374e-01 0.000000e+00 0.000000e+00
 0.000000e+00 0.000000e+00 8.597791e-01 1.402209e-01 0.000000e+00
 0.000000e+00 0.000000e+00 0.000000e+00 8.458501e-01 1.541500e-01
 0.000000e+00 0.000000e+00 0.000000e+00 0.000000e+00 0.000000e+00
<ENDHMM>
~h "f"
<BEGINHMM>
<NUMSTATES> 5
<STATE> 2
<MEAN> 39
 -7.648252e+00 7.653790e+00 7.056540e+00 1.471953e+00 -8.009894e+00 -8.447546e+00 -1.323832e+01 -8.896854e+00 -7.921909e+00 -5.523207e+00 -4.661470e+00 -3.150307e+00 6.412153e+01 3.311065e-01 -1.378468e+00 -1.461537e-02 -7.797993e-01 -1.921839e+00 -8.317929e-01 3.866599e-01 1.966662e+00 8.958369e-02 -4.253696e-01 1.360190e+00 1.062310e+00 9.774409e-01 1.751552e-01 -5.307263e-01 -2.559538e-02 -4.136035e-01 -9.250603e-01 -3.450668e-01 1.417926e-01 7.050269e-01 3.534715e-01 9.468094e-02 5.366146e-01 4.852778e-01 4.284309e-01
<VARIANCE> 39
 1.713531e+00 6.279972e+00 6.506646e+00 6.128833e+00 9.500703e+00 1.089839e+01 1.119109e+01 2.265901e+01 1.058878e+01 1.200050e+01 1.200588e+01 1.170743e+01 2.500750e+00 2.522240e-01 1.316223e+00 6.572363e-01 1.246458e+00 3.188099e+00 1.625898e+00 1.096962e+00 3.095878e+00 1.366473e+00 9.540001e-01 2.047395e+00 1.725996e+00 7.514281e-01 2.831716e-02 1.402174e-01 1.490929e-01 1.642243e-01 2.038852e-01 2.672001e-01 2.055411e-01 4.716236e-01 2.422576e-01 2.208903e-01 2.547093e-01 2.677529e-01 4.950310e-02
<GCONST> 7.832827e+01
<STATE> 3
<MEAN> 39
 -5.280527e+00 -4.014210e-02 6.880705e+00 -2.254073e+00 -2.053668e+01 -1.278578e+01 -1.079337e+01 -1.311190e-01 -6.015375e+00 -4.950298e+00 2.519433e+00 1.722706e+00 6.991325e+01 2.257191e-01 -2.778863e-01 -4.059823e-01 6.226333e-01 -7.448188e-02 -2.041888e-01 6.296440e-01 4.361181e-01 3.003839e-01 3.592011e-01 1.472765e-01 2.600714e-01 1.500421e-01 -1.909411e-01 4.038270e-01 -1.641650e-01 4.060012e-01 9.545646e-01 3.306829e-01 1.023280e-01 -3.335435e-01 1.261248e-01 1.395895e-01 -3.520259e-01 -1.824135e-01 -3.450094e-01
<VARIANCE> 39
 2.306750e+00 9.179872e+00 1.054626e+01 1.312953e+01 1.214388e+01 9.763744e+00 1.348913e+01 9.019087e+00 9.042882e+00 9.794383e+00 7.523413e+00 8.293408e+00 2.914487e+00 2.275968e-01 1.942276e+00 1.271816e+00 2.780902e+00 7.379261e+00 1.290862e+00 1.395506e+00 1.669506e+00 1.680690e+00 9.419141e-01 2.136940e+00 1.160580e+00 9.565570e-01 9.793976e-02 1.556725e-01 1.921399e-01 2.502678e-01 2.511309e-01 3.305256e-01 2.358876e-01 3.300227e-01 4.515569e-01 1.687539e-01 2.562008e-01 2.431323e-01 3.909540e-02
<GCONST> 8.294225e+01
<STATE> 4
<MEAN> 39
 -1.414968e+01 1.535852e+00 -1.727904e+00 4.904844e+00 -1.982180e+00 -1.878568e+00 -4.086176e+00 -1.675351e+00 -3.653993e-01 2.121510e-01 3.254171e-01 2.162844e+00 6.435746e+01 -6.092266e-01 1.594561e-01 -5.953590e-01 -2.604241e-01 1.122766e+00 1.246523e+00 5.759995e-01 -9.540042e-02 1.208870e-01 7.379053e-02 -1.310441e-01 -4.695752e-02 -5.646641e-01 3.362199e-01 8.320478e-02 7.422639e-02 -4.279372e-01 -5.680256e-01 -1.853015e-01 -6.071962e-02 -3.757635e-04 -2.735207e-01 -2.428560e-01 -5.372819e-02 -6.095483e-02 1.278945e-01
<VARIANCE> 39
 2.557942e+01 7.685273e+00 1.372677e+01 9.571010e+00 2.544135e+01 3.667044e+01 1.875495e+01 1.665435e+01 1.640460e+01 1.474600e+01 1.235380e+01 1.074749e+01 6.925288e+00 4.092567e+00 1.604255e+00 1.143408e+00 1.679448e+00 4.748431e+00 2.329748e+00 1.349559e+00 1.766377e+00 2.949356e+00 2.214875e+00 1.741142e+00 1.253325e+00 4.849118e-01 4.891525e-01 3.278677e-01 2.070429e-01 3.615645e-01 5.871561e-01 3.741117e-01 3.162742e-01 3.653570e-01 4.255047e-01 3.740053e-01 3.611722e-01 2.425282e-01 1.332743e-01
<GCONST> 1.000867e+02
<TRANSP> 5
 0.000000e+00 1.000000e+00 0.000000e+00 0.000000e+00 0.000000e+00
 0.000000e+00 6.571693e-01 3.428307e-01 0.000000e+00 0.000000e+00
 0.000000e+00 0.000000e+00 8.690794e-01 1.309206e-01 0.000000e+00
 0.000000e+00 0.000000e+00 0.000000e+00 9.130690e-01 8.693098e-02
 0.000000e+00 0.000000e+00 0.000000e+00 0.000000e+00 0.000000e+00
<ENDHMM>
~h "g"
<BEGINHMM>
<NUMSTATES> 5
<STATE> 2
<MEAN> 39
 -1.443447e+01 5.037488e+00 2.068659e+00 6.977479e+00 2.616532e+00 1.960514e+00 -1.008491e+00 -1.325036e+00 -5.690311e+00 -4.750634e+00 -4.151040e+00 -1.694750e+00 5.908547e+01 1.180932e+00 1.295279e+00 1.305520e+00 6.162960e-01 -5.463439e-01 -1.307332e+00 -1.985725e+00 -2.079202e+00 -1.748747e+00 -1.372680e+00 -1.280842e+00 -1.193477e+00 5.069538e-01 1.521983e-01 2.687135e-02 -6.118326e-03 -1.752771e-01 -4.718339e-01 -5.172974e-01 -3.424665e-01 -4.666632e-01 -9.474905e-02 4.002187e-01 3.056508e-01 2.953894e-01 1.790911e-01
<VARIANCE> 39
 1.004305e+01 1.533298e+01 7.658453e+00 6.612177e+00 1.344929e+01 2.445525e+01 2.520821e+01 4.083185e+01 2.094790e+01 1.649815e+01 1.560451e+01 1.529817e+01 3.198680e+00 1.483654e+00 2.136227e+00 6.115041e-01 7.487086e-01 1.823069e+00 2.970749e+00 3.456010e+00 3.249368e+00 2.306610e+00 1.848107e+00 1.315591e+00 1.731561e+00 4.754486e-01 1.399925e-01 2.426388e-01 1.747233e-01 1.300604e-01 2.328158e-01 2.927920e-01 5.400704e-01 5.069637e-01 3.634143e-01 3.775276e-01 2.828676e-01 4.130916e-01 4.969899e-02
<GCONST> 9.358171e+01
<STATE> 3
<MEAN> 39
 -9.906738e+00 9.651399e+00 4.945193e+00 6.996649e+00 -1.338042e+00 -5.371242e+00 -8.745348e+00 -9.424145e+00 -1.075215e+01 -5.656176e+00 -4.315287e+00 -1.513514e+00 6.111141e+01 2.340974e-02 -3.418068e-01 9.584884e-02 -1.584361e-01 -3.711424e-01 -1.841031e-01 -3.913133e-02 -5.340725e-01 -3.786455e-01 2.166180e-01 2.835669e-02 2.271424e-01 1.955726e-01 -3.539241e-01 -6.411654e-01 -2.966039e-01 -2.756581e-01 -1.588278e-01 4.426719e-01 9.191700e-01 6.128591e-01 4.902744e-01 4.710762e-01 1.922842e-01 -1.872208e-02 9.034178e-02
<VARIANCE> 39
 7.010885e+00 5.197906e+00 3.718994e+00 5.504576e+00 8.537647e+00 1.631178e+01 1.276270e+01 1.029694e+01 1.004665e+01 1.436394e+01 1.224033e+01 1.037996e+01 1.617572e+00 1.295678e+00 1.961824e+00 5.491329e-01 6.924569e-01 1.679576e+00 3.253131e+00 3.190350e+00 2.830456e+00 1.508279e+00 2.357250e+00 1.799657e+00 1.340748e+00 5.499935e-01 2.147140e-01 2.352207e-01 9.714127e-02 2.307168e-01 6.510401e-01 5.700233e-01 3.830018e-01 3.347130e-01 2.572956e-01 5.635314e-01 4.161368e-01 2.856495e-01 1.453567e-01
<GCONST> 8.800171e+01
<STATE> 4
<MEAN> 39
 -1.264543e+01 4.250843e+00 3.338106e+00 5.953609e+00 -2.331625e+00 -1.988663e+00 -2.880426e+00 -7.209541e+00 -9.037896e+00 -3.798054e+00 -4.488854e+00 -2.019325e+00 6.186078e+01 1.587647e-03 -1.572762e+00 -5.641786e-02 -1.408931e+00 -2.589576e+00 -5.138887e-01 1.933578e+00 4.081466e-02 9.669188e-01 2.389421e+00 8.825172e-01 -2.685187e-01 1.414395e+00 5.692061e-01 4.167577e-01 3.730545e-01 -3.029026e-01 -9.184373e-01 -7.414899e-01 -3.911259e-01 1.680337e-02 -7.391086e-02 9.744904e-02 6.202832e-01 7.160636e-02 2.657625e-01
<VARIANCE> 39
 4.772985e+00 1.431168e+01 6.381781e+00 9.948975e+00 2.588708e+01 9.543147e+00 2.113099e+01 1.043924e+01 1.967366e+01 3.198871e+01 7.925026e+00 7.326583e+00 8.325294e+00 6.668519e-01 1.170443e+00 9.934582e-01 1.234966e+00 1.861126e+00 2.051929e+00 1.290579e+00 1.926487e+00 1.273518e+00 1.118709e+00 1.154536e+00 8.347470e-01 6.406410e-01 1.222756e-01 3.066060e-01 1.646480e-01 3.017693e-01 4.582029e-01 3.374328e-01 4.781274e-01 3.066625e-01 3.969188e-01 6.851662e-01 2.283665e-01 2.950018e-01 1.610208e-01
<GCONST> 8.976438e+01
<TRANSP> 5
 0.000000e+00 1.000000e+00 0.000000e+00 0.000000e+00 0.000000e+00
 0.000000e+00 5.207803e-01 4.792196e-01 0.000000e+00 0.000000e+00
 0.000000e+00 0.000000e+00 6.366267e-01 3.633732e-01 0.000000e+00
 0.000000e+00 0.000000e+00 0.000000e+00 4.924327e-01 5.075672e-01
 0.000000e+00 0.000000e+00 0.000000e+00 0.000000e+00 0.000000e+00
<ENDHMM>
~h "j"
<BEGINHMM>
<NUMSTATES> 5
<STATE> 2
<MEAN> 39
 -1.152452e+01 1.263794e+00 -8.126290e+00 -8.800068e+00 -1.776912e+00 8.342398e+00 3.843677e+00 -2.652390e+00 -7.502953e-01 -1.789151e+00 2.744811e+00 1.557119e+00 6.491354e+01 1.042320e+00 5.572355e-01 1.235712e-01 -5.929146e-01 -1.172656e+00 -3.957320e-01 -5.440420e-01 -5.364932e-01 -4.632226e-01 -2.501896e-02 8.631066e-02 -6.485951e-02 4.377196e-01 9.618443e-02 -6.305484e-02 -6.407052e-02 1.442266e-02 -3.929119e-02 -9.778415e-02 -1.785592e-01 -5.918439e-02 1.591350e-02 1.307787e-01 2.268199e-02 -1.335126e-02 3.330793e-02
<VARIANCE> 39
 5.317730e+01 2.083118e+01 1.986779e+01 3.805065e+01 5.899424e+01 4.153353e+01 3.565528e+01 2.638064e+01 3.531007e+01 2.163566e+01 2.483660e+01 1.662387e+01 9.431530e+00 3.346141e+00 1.725385e+00 1.354970e+00 3.263701e+00 3.160597e+00 2.719995e+00 3.358469e+00 2.535096e+00 3.105770e+00 2.507137e+00 2.743095e+00 1.732376e+00 1.175221e+00 4.498927e-01 3.627524e-01 2.359875e-01 6.325431e-01 5.575743e-01 4.566590e-01 4.670366e-01 4.291541e-01 5.962561e-01 4.743897e-01 6.083866e-01 2.966174e-01 1.932151e-01
<GCONST> 1.148679e+02
<STATE> 3
<MEAN> 39
 -1.313409e+00 4.357545e+00 -8.770456e+00 -9.822966e+00 -1.087177e+01 -9.171674e-01 -8.086847e+00 -9.775279e+00 -3.332338e+00 4.690922e+00 4.918352e+00 6.448239e-01 6.879446e+01 -9.382201e-01 -6.350322e-01 3.686704e-01 2.409749e+00 1.799443e+00 -9.468401e-01 -1.032648e+00 5.577325e-01 9.804482e-01 4.534416e-01 -2.716663e-01 -4.058278e-01 -5.807773e-01 -2.533761e-01 -5.022361e-02 2.675919e-01 5.920146e-01 4.198177e-01 -1.314477e-01 9.710603e-02 5.786502e-01 1.015744e-01 -5.334094e-01 -5.168501e-01 -1.337312e-01 -1.657579e-01
<VARIANCE> 39
 3.793866e+01 9.710581e+00 2.182726e+01 5.233894e+01 3.188680e+01 1.585763e+01 2.829881e+01 2.916735e+01 1.718944e+01 1.890761e+01 1.446290e+01 1.385610e+01 9.603353e+00 1.394238e+00 1.050541e+00 1.116940e+00 3.752479e+00 3.514552e+00 1.948131e+00 1.539103e+00 5.263394e+00 2.229208e+00 4.033649e+00 2.857785e+00 1.450888e+00 6.031033e-01 2.683014e-01 1.782800e-01 1.895795e-01 4.921560e-01 5.679820e-01 2.839360e-01 3.061831e-01 5.897217e-01 3.398567e-01 5.178968e-01 3.308471e-01 2.450198e-01 1.445101e-01
<GCONST> 1.047261e+02
<STATE> 4
<MEAN> 39
 -1.142587e+01 1.546723e-01 -1.247942e+00 5.765349e+00 -8.090814e-01 -3.842934e+00 -6.934936e+00 1.983693e+00 1.069197e+00 1.206098e+00 -5.856449e-01 -1.991009e+00 6.584495e+01 -1.025408e+00 -7.530262e-02 1.000645e+00 4.233828e-01 -2.093964e-02 3.801280e-01 1.144174e+00 7.538261e-01 -1.909759e-01 -1.387423e-01 -2.545125e-01 5.744967e-02 -1.267398e-01 2.114322e-01 1.979929e-01 -1.297521e-01 -5.217804e-01 -3.623118e-01 1.442323e-01 1.888193e-01 -3.624297e-01 -2.551746e-01 1.986060e-01 2.095518e-01 4.420120e-02 4.083151e-02
<VARIANCE> 39
 2.175418e+01 1.384965e+01 1.956260e+01 1.920020e+01 2.437187e+01 2.144502e+01 4.164054e+01 3.410011e+01 2.438465e+01 1.913157e+01 2.640131e+01 1.594309e+01 7.289698e+00 1.347368e+00 1.891369e+00 1.360370e+00 4.840920e+00 3.045613e+00 1.975560e+00 2.247575e+00 4.667747e+00 2.927533e+00 2.683705e+00 3.396494e+00 2.362128e+00 4.763530e-01 2.545092e-01 4.250095e-01 2.581455e-01 6.970543e-01 6.292084e-01 4.625177e-01 4.075265e-01 9.457647e-01 6.709683e-01 4.652313e-01 6.626623e-01 5.127363e-01 1.209075e-01
<GCONST> 1.108893e+02
<TRANSP> 5
 0.000000e+00 1.000000e+00 0.000000e+00 0.000000e+00 0.000000e+00
 0.000000e+00 7.950654e-01 2.049346e-01 0.000000e+00 0.000000e+00
 0.000000e+00 0.000000e+00 7.263385e-01 2.736615e-01 0.000000e+00
 0.000000e+00 0.000000e+00 0.000000e+00 7.709523e-01 2.290477e-01
 0.000000e+00 0.000000e+00 0.000000e+00 0.000000e+00 0.000000e+00
<ENDHMM>
~h "k"
<BEGINHMM>
<NUMSTATES> 5
<STATE> 2
<MEAN> 39
 -1.540657e+01 1.717390e+00 -5.125036e-01 4.302693e+00 3.399990e-01 1.078696e+00 3.045981e-01 -1.362937e-01 -2.219854e+00 -9.106931e-01 -1.909657e+00 6.391379e-01 5.906792e+01 -9.127691e-02 -2.214174e-01 -4.610183e-01 -6.130344e-01 -3.127338e-01 -1.473964e-02 1.674457e-01 3.929034e-01 2.571193e-01 3.855936e-01 5.393533e-01 4.689889e-01 6.621107e-02 7.339244e-01 2.352789e-01 -4.586465e-01 -7.441587e-01 -3.801785e-01 -2.539702e-01 -4.550537e-01 -3.172820e-01 -3.214345e-01 -5.872970e-02 4.066375e-02 -1.494328e-01 4.574114e-01
<VARIANCE> 39
 9.320609e+00 6.822461e+00 8.488785e+00 9.680157e+00 1.716648e+01 1.513772e+01 2.299854e+01 2.129121e+01 2.173171e+01 1.965390e+01 1.829338e+01 1.548492e+01 5.836635e+00 1.657181e+00 9.224434e-01 2.734251e+00 3.662716e+00 1.766172e+00 1.715228e+00 1.485532e+00 1.629383e+00 1.507806e+00 1.796610e+00 1.828332e+00 1.533461e+00 5.992674e-01 1.453477e-01 1.631631e-01 2.242839e-01 3.714553e-01 4.056179e-01 4.071863e-01 3.777487e-01 4.716220e-01 5.053813e-01 3.777194e-01 3.665100e-01 2.712064e-01 7.429264e-02
<GCONST> 9.537907e+01
<STATE> 3
<MEAN> 39
 -1.436073e+01 1.401646e+00 -1.976910e+00 2.043939e+00 -1.368956e+00 -3.143907e-01 -2.234658e-01 4.167223e-01 -9.457378e-01 2.684861e-01 -1.070351e+00 7.735430e-01 6.010224e+01 1.792084e+00 4.560969e-01 -1.696022e+00 -2.801218e+00 -1.299186e+00 -4.142672e-01 -7.787609e-01 -2.489022e-01 -5.011357e-01 3.056500e-01 7.328127e-01 4.311512e-03 1.224618e+00 4.289175e-01 3.137139e-01 1.819353e-03 -2.169578e-01 -1.954486e-01 -1.280198e-01 -2.006707e-01 -3.424156e-01 -4.013251e-01 -3.148473e-01 -1.460586e-01 -1.249909e-01 1.690312e-01
<VARIANCE> 39
 1.237694e+01 8.530762e+00 1.186069e+01 1.920226e+01 2.063708e+01 1.661584e+01 2.307688e+01 2.294440e+01 2.336564e+01 1.483428e+01 1.755008e+01 1.412020e+01 9.870193e+00 1.994926e+00 1.525311e+00 4.707166e+00 6.472394e+00 4.291921e+00 4.401443e+00 2.471250e+00 2.523640e+00 2.414592e+00 2.547483e+00 3.303093e+00 1.488663e+00 1.090251e+00 2.673156e-01 2.020339e-01 3.253208e-01 6.016664e-01 4.560264e-01 3.506801e-01 3.211780e-01 3.960692e-01 3.624639e-01 2.973251e-01 3.243923e-01 2.603026e-01 9.073470e-02
<GCONST> 1.047751e+02
<STATE> 4
<MEAN> 39
 -9.040756e+00 3.761215e+00 -5.015115e+00 -3.822340e+00 -4.672221e+00 -1.892981e+00 -3.036132e+00 -1.651343e+00 -3.975213e+00 -5.894159e-01 -3.223321e-01 -4.346402e-03 6.315329e+01 8.414873e-01 1.068385e+00 3.658338e-01 -3.742093e-01 -7.136752e-01 -4.768013e-01 -3.698179e-01 -9.324731e-01 -1.129422e+00 -9.227486e-01 -2.859950e-01 -2.577280e-02 1.784627e-01 -1.659061e-01 1.061757e-01 3.747836e-01 2.825837e-01 -1.020320e-01 -1.937462e-03 1.731970e-01 -3.473851e-02 3.633130e-02 -2.557921e-01 -2.576907e-01 8.147737e-02 -1.783367e-01
<VARIANCE> 39
 1.189237e+01 1.263938e+01 4.520516e+01 5.442686e+01 3.996431e+01 4.938360e+01 3.456755e+01 3.807841e+01 3.673587e+01 1.981833e+01 3.140040e+01 1.789145e+01 7.937033e+00 2.841808e+00 1.669844e+00 3.333555e+00 5.419713e+00 4.881898e+00 4.068883e+00 2.865266e+00 2.579786e+00 2.148799e+00 2.234330e+00 3.265483e+00 1.675305e+00 1.380347e+00 4.593631e-01 3.776082e-01 1.107008e+00 1.699961e+00 1.208728e+00 9.748343e-01 5.441048e-01 5.758879e-01 5.325036e-01 5.212126e-01 6.765381e-01 3.591211e-01 2.236541e-01
<GCONST> 1.209821e+02
<TRANSP> 5
 0.000000e+00 1.000000e+00 0.000000e+00 0.000000e+00 0.000000e+00
 0.000000e+00 4.477065e-01 5.522935e-01 0.000000e+00 0.000000e+00
 0.000000e+00 0.000000e+00 3.043289e-01 6.956710e-01 0.000000e+00
 0.000000e+00 0.000000e+00 0.000000e+00 6.751849e-01 3.248151e-01
 0.000000e+00 0.000000e+00 0.000000e+00 0.000000e+00 0.000000e+00
<ENDHMM>
~h "l"
<BEGINHMM>
<NUMSTATES> 5
<STATE> 2
<MEAN> 39
 -1.669057e+01 6.725124e-01 -1.278474e+00 4.225498e+00 9.291862e-01 2.338156e+00 1.434532e+00 1.750066e+00 1.871570e-01 6.290891e-01 -2.487555e-02 1.738131e+00 5.812757e+01 -1.888527e-01 -7.886817e-02 -3.091259e-02 4.911523e-02 1.895344e-01 1.519223e-01 1.417935e-01 7.011280e-02 2.798595e-02 5.915862e-02 1.284238e-01 1.336038e-01 -1.309395e-01 5.106506e-02 2.023911e-02 2.515488e-02 -1.412778e-02 -6.113588e-02 -4.918191e-02 -4.751182e-02 -5.384571e-02 -4.938210e-02 -3.268395e-02 -3.537622e-02 -5.883381e-02 4.395658e-02
<VARIANCE> 39
 8.319462e+00 5.251656e+00 6.071765e+00 7.421231e+00 1.517256e+01 1.802749e+01 2.042096e+01 1.782471e+01 1.713830e+01 1.575076e+01 1.476134e+01 1.406015e+01 4.192110e+00 2.954755e-01 4.179472e-01 5.700405e-01 7.441218e-01 1.277378e+00 1.192096e+00 1.224175e+00 1.612142e+00 1.591231e+00 1.382389e+00 1.386564e+00 1.424848e+00 1.706851e-01 4.217816e-02 7.767245e-02 1.117074e-01 1.472107e-01 2.238674e-01 2.341087e-01 2.431152e-01 3.203588e-01 3.195631e-01 2.722221e-01 2.822480e-01 2.714651e-01 2.354738e-02
<GCONST> 7.690045e+01
<STATE> 3
<MEAN> 39
 -1.415578e+01 2.192716e+00 6.814115e-01 3.698774e+00 -1.921895e+00 -1.118492e+00 -1.910499e+00 -1.329071e+00 -2.533859e+00 -9.617344e-01 -1.189993e+00 3.529829e-01 6.011875e+01 5.303482e-01 9.628949e-01 8.539855e-01 6.601816e-01 4.148816e-01 -2.476399e-01 -7.837384e-01 -1.234127e+00 -1.301462e+00 -1.092145e+00 -1.141206e+00 -1.190342e+00 1.358644e-01 4.212260e-01 3.698130e-01 1.818549e-01 -7.670490e-02 -2.197419e-01 -3.757634e-01 -6.410345e-01 -3.871660e-01 -1.930026e-01 -1.821094e-01 -1.496727e-01 -6.017775e-02 2.120310e-01
<VARIANCE> 39
 1.856702e+01 1.412419e+01 1.108809e+01 1.281947e+01 3.299123e+01 4.133976e+01 3.868486e+01 2.771296e+01 2.104365e+01 1.434063e+01 1.591271e+01 1.455838e+01 1.049148e+01 1.301804e+00 1.235291e+00 7.917545e-01 1.012661e+00 2.805738e+00 2.093263e+00 2.807269e+00 2.207709e+00 1.826515e+00 1.755291e+00 1.834455e+00 1.641547e+00 6.658488e-01 1.263617e-01 2.101916e-01 1.966073e-01 2.965264e-01 6.512501e-01 4.722428e-01 5.332664e-01 4.772919e-01 4.055846e-01 3.372412e-01 3.227125e-01 3.644347e-01 9.510251e-02
<GCONST> 1.001131e+02
<STATE> 4
<MEAN> 39
 -8.599991e+00 7.708958e+00 4.788156e+00 4.487232e+00 -3.117602e+00 -5.710036e+00 -1.104630e+01 -8.276951e+00 -6.863164e+00 -4.823673e+00 -4.880031e+00 -2.133186e+00 6.266118e+01 8.552344e-01 3.388480e-01 2.781816e-01 -2.666722e-01 -6.401262e-01 -6.724373e-01 -9.989812e-01 -6.797582e-01 -3.676384e-01 -9.273055e-02 1.454969e-01 1.016379e-02 5.825500e-01 -3.368190e-02 -2.815263e-01 -2.237137e-01 -2.264624e-01 -3.032224e-01 4.258332e-02 3.200656e-01 3.497738e-01 2.178253e-01 2.404716e-01 3.401649e-01 2.346757e-01 7.676051e-02
<VARIANCE> 39
 9.600784e+00 5.985532e+00 1.406106e+01 1.323858e+01 1.838545e+01 2.139416e+01 3.006748e+01 2.075968e+01 1.593895e+01 1.509978e+01 1.510273e+01 1.326157e+01 4.538361e+00 1.297958e+00 1.460084e+00 1.327081e+00 9.866882e-01 2.013129e+00 3.465444e+00 5.061442e+00 3.458122e+00 1.952902e+00 1.565985e+00 1.818779e+00 1.560429e+00 5.615447e-01 1.823733e-01 1.760065e-01 1.738670e-01 1.902414e-01 4.421723e-01 5.907245e-01 6.157355e-01 4.184304e-01 3.854748e-01 3.132096e-01 2.699142e-01 2.714944e-01 9.756353e-02
<GCONST> 9.635814e+01
<TRANSP> 5
 0.000000e+00 1.000000e+00 0.000000e+00 0.000000e+00 0.000000e+00
 0.000000e+00 9.176956e-01 8.230439e-02 0.000000e+00 0.000000e+00
 0.000000e+00 0.000000e+00 4.858899e-01 5.141100e-01 0.000000e+00
 0.000000e+00 0.000000e+00 0.000000e+00 7.446896e-01 2.553104e-01
 0.000000e+00 0.000000e+00 0.000000e+00 0.000000e+00 0.000000e+00
<ENDHMM>
~h "m"
<BEGINHMM>
<NUMSTATES> 5
<STATE> 2
<MEAN> 39
 -1.776816e+01 -7.096721e-03 -1.922437e+00 4.125706e+00 1.884360e+00 3.338585e+00 2.264578e+00 2.818562e+00 3.505315e-01 1.324318e+00 6.248842e-01 2.149065e+00 5.734586e+01 -6.317575e-02 -1.004967e-02 -3.141557e-02 -2.312715e-03 9.179215e-02 9.843531e-02 7.127985e-02 3.985726e-02 3.496799e-03 1.925393e-03 5.605696e-02 5.629555e-02 -4.304430e-02 2.020981e-02 1.063671e-02 1.161976e-02 -6.006004e-03 -1.722291e-02 -7.780336e-03 -7.458488e-03 -1.782523e-02 -1.336291e-02 -1.068342e-02 -1.175516e-02 -2.367462e-02 1.863953e-02
<VARIANCE> 39
 1.908270e+00 2.293788e+00 3.881856e+00 5.155927e+00 7.770354e+00 1.040930e+01 1.149255e+01 1.308263e+01 1.236091e+01 1.178890e+01 1.237198e+01 9.671983e+00 1.008761e+00 1.322050e-01 2.369826e-01 3.988866e-01 5.183423e-01 7.964610e-01 9.838191e-01 1.131510e+00 1.261225e+00 1.243042e+00 1.185622e+00 1.245775e+00 1.084410e+00 5.532564e-02 2.496889e-02 4.910334e-02 8.260349e-02 1.055948e-01 1.622002e-01 1.982150e-01 2.421695e-01 2.600778e-01 2.630823e-01 2.334883e-01 2.520528e-01 2.206581e-01 9.731596e-03
<GCONST> 6.023810e+01
<STATE> 3
<MEAN> 39
 -1.795835e+01 4.395049e-02 -2.022631e+00 3.566394e+00 2.242354e+00 3.947826e+00 2.549079e+00 2.666332e+00 9.076531e-01 1.899733e+00 8.102098e-01 2.277222e+00 5.730419e+01 2.089310e-01 2.019009e-01 1.540356e-01 1.633841e-01 7.577604e-03 -1.595462e-01 -1.211814e-01 -4.900585e-01 -3.939474e-01 -3.655075e-01 -2.935630e-01 -1.809578e-01 1.207106e-01 2.460184e-01 2.529180e-01 2.374804e-01 1.534822e-01 1.694709e-03 -1.666187e-01 -2.979102e-01 -3.940580e-01 -4.164999e-01 -4.037482e-01 -3.225589e-01 -3.068684e-01 1.366503e-01
<VARIANCE> 39
 1.453561e+00 3.015956e+00 6.357266e+00 5.853412e+00 8.404711e+00 1.012396e+01 1.335965e+01 1.200411e+01 1.415232e+01 1.449275e+01 1.122895e+01 1.156055e+01 8.049638e-01 1.296125e-01 2.827387e-01 5.122128e-01 9.802927e-01 6.804581e-01 1.064832e+00 9.879527e-01 1.519229e+00 1.482122e+00 1.487145e+00 1.429374e+00 1.341297e+00 7.104805e-02 4.145702e-02 8.903295e-02 1.349755e-01 1.759569e-01 1.821572e-01 2.098644e-01 2.750069e-01 2.587382e-01 2.854466e-01 2.605723e-01 2.305888e-01 2.637768e-01 1.418019e-02
<GCONST> 6.624764e+01
<STATE> 4
<MEAN> 39
 -1.716219e+01 -3.484654e-01 -4.349133e+00 1.700961e-01 2.404701e+00 6.003941e+00 3.919272e+00 4.863529e-01 -3.218725e-01 -4.000798e-01 1.608715e+00 2.887953e+00 5.902119e+01 4.297450e-01 4.695229e-01 3.290845e-01 6.015936e-02 3.479252e-02 3.865597e-02 -1.325682e-01 -4.672925e-01 -5.316307e-01 -7.666033e-01 -5.940269e-01 -7.953447e-01 2.958294e-01 3.416317e-01 3.250847e-01 2.695089e-01 1.413272e-01 -9.008064e-02 -2.735616e-01 -4.452316e-01 -3.307794e-01 -3.719774e-01 -2.413625e-01 -2.318641e-01 -2.384240e-01 1.618705e-01
<VARIANCE> 39
 1.898248e+00 4.784449e+00 2.044613e+01 3.993459e+01 1.052663e+01 2.564984e+01 2.172882e+01 1.742229e+01 1.520697e+01 1.692813e+01 1.853340e+01 1.615604e+01 5.000983e+00 2.291615e-01 3.982735e-01 8.566935e-01 1.639875e+00 1.273091e+00 1.364522e+00 1.525984e+00 1.643955e+00 2.045054e+00 1.662025e+00 1.635065e+00 1.582483e+00 1.040675e-01 1.279863e-01 1.589298e-01 1.464506e-01 2.064301e-01 2.300117e-01 3.319391e-01 4.081453e-01 4.542313e-01 4.381278e-01 3.629552e-01 2.948136e-01 2.910452e-01 6.137899e-02
<GCONST> 8.557822e+01
<TRANSP> 5
 0.000000e+00 1.000000e+00 0.000000e+00 0.000000e+00 0.000000e+00
 0.000000e+00 9.339035e-01 6.609648e-02 0.000000e+00 0.000000e+00
 0.000000e+00 0.000000e+00 3.849727e-01 6.150274e-01 0.000000e+00
 0.000000e+00 0.000000e+00 0.000000e+00 3.894730e-01 6.105270e-01
 0.000000e+00 0.000000e+00 0.000000e+00 0.000000e+00 0.000000e+00
<ENDHMM>
~h "n"
<BEGINHMM>
<NUMSTATES> 5
<STATE> 2
<MEAN> 39
 -5.772288e+00 7.651598e+00 -2.298837e-01 -8.946821e-02 -3.057255e+00 -1.614094e+00 -9.770430e+00 -1.077990e+01 -7.171430e+00 -3.292428e+00 -2.738837e+00 -1.688890e+00 6.434578e+01 6.234034e-01 -3.851869e-01 -1.283453e+00 -1.633175e+00 -2.808579e-01 1.113874e+00 3.955055e-01 2.586679e-01 6.955194e-02 -7.245545e-01 -1.763742e-01 2.522972e-03 5.405177e-01 1.036821e-01 7.788605e-03 -3.120793e-01 -3.569828e-01 -5.990007e-02 1.863449e-01 3.231612e-01 2.278637e-01 -1.044263e-01 -1.516359e-01 1.326851e-02 1.248263e-02 3.172486e-02
<VARIANCE> 39
 8.885544e+00 9.823595e+00 2.661110e+01 4.210738e+01 1.194479e+01 2.663790e+01 1.711068e+01 1.768974e+01 1.381690e+01 1.356234e+01 1.108767e+01 8.795174e+00 6.459567e+00 8.613763e-01 9.873893e-01 3.234323e+00 4.370345e+00 7.306992e-01 2.873626e+00 1.874424e+00 1.783654e+00 1.575950e+00 1.401228e+00 1.039285e+00 1.046243e+00 5.665044e-01 1.388150e-01 2.144369e-01 5.595385e-01 8.007872e-01 1.266714e-01 5.780913e-01 2.261840e-01 2.232320e-01 3.358116e-01 2.335321e-01 1.945203e-01 2.161119e-01 1.389823e-01
<GCONST> 9.345977e+01
<STATE> 3
<MEAN> 39
 -3.086632e+00 7.367033e+00 -7.422747e+00 -9.296481e+00 -5.731524e+00 3.899554e+00 -1.305875e+00 -5.104175e+00 -9.562737e+00 -9.855331e+00 -5.701133e+00 -1.461369e+00 6.564194e+01 -5.235758e-01 3.000778e-01 5.251857e-01 6.691169e-01 1.055900e-01 -2.527201e-01 1.005235e+00 7.510462e-01 -3.953724e-01 -6.431641e-01 -8.813578e-01 -3.660998e-01 -5.094630e-01 -2.513158e-01 -4.942726e-02 3.747715e-01 5.129909e-01 1.864132e-01 -2.010932e-01 -2.389497e-01 -1.075220e-01 1.523177e-01 2.497857e-01 1.529137e-02 -1.033450e-01 -1.287442e-01
<VARIANCE> 39
 5.511939e+00 4.420281e+00 1.033675e+01 1.665134e+01 1.253390e+01 1.412772e+01 1.679066e+01 1.654348e+01 1.305072e+01 1.405292e+01 1.625687e+01 1.220208e+01 3.027942e+00 3.854863e-01 2.299785e-01 1.053942e+00 1.708788e+00 8.365330e-01 9.953201e-01 1.355300e+00 1.105751e+00 1.266119e+00 1.117043e+00 1.045259e+00 1.345683e+00 1.400108e-01 2.932807e-02 5.678418e-02 1.281367e-01 1.460606e-01 1.141003e-01 1.786588e-01 1.755186e-01 2.187141e-01 2.467021e-01 2.118109e-01 2.346183e-01 2.483727e-01 1.913164e-02
<GCONST> 7.226030e+01
<STATE> 4
<MEAN> 39
 -9.616923e+00 7.909180e+00 1.232588e+00 2.501769e+00 -1.095646e+00 5.253273e-02 -1.868387e+00 -4.689138e+00 -9.384562e+00 -9.036146e+00 -8.250605e+00 -4.131492e+00 6.112997e+01 -9.055643e-01 -4.490425e-01 4.538890e-01 1.008981e+00 6.855752e-01 -9.607191e-04 -1.365670e-01 3.089171e-02 3.767984e-01 5.845249e-01 4.030093e-01 2.305416e-01 -4.944585e-01 1.933914e-02 -1.319917e-01 -2.380088e-01 -2.513945e-01 -8.634166e-02 7.304850e-02 -7.667978e-03 2.570352e-02 1.261694e-01 1.801358e-01 2.870677e-01 2.442312e-01 4.207189e-02
<VARIANCE> 39
 9.567636e+00 5.959554e+00 1.075737e+01 1.908701e+01 1.545285e+01 1.871003e+01 2.438702e+01 2.044360e+01 1.449739e+01 1.427357e+01 1.301154e+01 1.024584e+01 2.980587e+00 3.901227e-01 3.799010e-01 9.003517e-01 1.416521e+00 1.016812e+00 1.323291e+00 1.411395e+00 1.491014e+00 1.468192e+00 1.366135e+00 1.269837e+00 1.286300e+00 1.331962e-01 3.132523e-02 5.723465e-02 1.135148e-01 1.787841e-01 1.789186e-01 2.330860e-01 2.556228e-01 2.723966e-01 2.681163e-01 2.838193e-01 2.830720e-01 2.678298e-01 1.061208e-02
<GCONST> 7.702263e+01
<TRANSP> 5
 0.000000e+00 1.000000e+00 0.000000e+00 0.000000e+00 0.000000e+00
 0.000000e+00 7.902983e-01 2.097018e-01 0.000000e+00 0.000000e+00
 0.000000e+00 0.000000e+00 8.222567e-01 1.777433e-01 0.000000e+00
 0.000000e+00 0.000000e+00 0.000000e+00 8.137209e-01 1.862791e-01
 0.000000e+00 0.000000e+00 0.000000e+00 0.000000e+00 0.000000e+00
<ENDHMM>
~h "r"
<BEGINHMM>
<NUMSTATES> 5
<STATE> 2
<MEAN> 39
 -1.206020e+01 1.980656e+00 -1.490425e+00 1.133196e+00 -3.521423e+00 -4.165418e+00 -2.899621e+00 -1.016247e+00 -2.487181e+00 -8.315055e-01 -3.339136e-01 1.303470e+00 6.299718e+01 1.365527e+00 5.430279e-02 -1.888046e-01 -6.273763e-01 -1.183376e+00 -1.154453e+00 -9.133964e-01 -3.060703e-01 -1.307911e-03 -3.388342e-01 -4.954540e-01 -5.154470e-01 1.145205e+00 3.007408e-01 2.998812e-02 1.476921e-03 4.336460e-02 -1.417962e-01 -3.399403e-02 -2.314277e-01 -5.736276e-02 8.810779e-02 8.442907e-02 -8.521897e-02 -2.321631e-01 1.098105e-02
<VARIANCE> 39
 2.132496e+01 2.548909e+01 1.847177e+01 2.322529e+01 2.692070e+01 3.632098e+01 3.461900e+01 3.799036e+01 2.680559e+01 1.883773e+01 1.897733e+01 1.667099e+01 1.595197e+01 2.765351e+00 2.850543e+00 2.834482e+00 3.156217e+00 3.888171e+00 6.289891e+00 4.616101e+00 3.495525e+00 2.830233e+00 2.124271e+00 2.074667e+00 2.025000e+00 1.704783e+00 3.919283e-01 4.654363e-01 3.804434e-01 6.546629e-01 6.717799e-01 7.860382e-01 6.540665e-01 5.596750e-01 4.834686e-01 4.590389e-01 4.555542e-01 3.519887e-01 3.805811e-01
<GCONST> 1.178143e+02
<STATE> 3
<MEAN> 39
 -4.115127e+00 2.050442e+00 -4.373187e+00 -2.330985e+00 -8.094718e+00 -6.858437e+00 -7.334678e+00 -2.491922e+00 -2.662217e+00 -1.904856e+00 -1.656795e+00 -2.107832e+00 6.739543e+01 1.100152e+00 -8.007088e-01 -1.308081e+00 -6.759407e-01 -1.050090e-01 2.165444e-01 -3.292718e-01 4.087771e-01 9.527126e-01 1.065348e-01 -7.257422e-01 -1.083674e+00 7.077696e-01 -4.724070e-01 -1.013293e-01 2.897944e-02 1.949851e-01 5.024055e-01 4.255584e-01 3.388662e-01 1.735037e-02 -7.427031e-02 6.779458e-02 1.507895e-02 8.041402e-02 -2.421535e-01
<VARIANCE> 39
 2.590141e+01 2.805392e+01 3.894686e+01 3.543782e+01 3.681427e+01 6.491107e+01 3.046539e+01 4.571045e+01 2.677597e+01 2.137945e+01 1.658389e+01 2.443242e+01 1.277810e+01 1.704866e+00 2.306722e+00 3.337904e+00 3.728433e+00 2.271390e+00 2.732609e+00 2.886039e+00 4.235972e+00 2.815143e+00 2.198669e+00 2.741668e+00 2.116099e+00 9.668087e-01 4.051818e-01 4.740497e-01 5.850763e-01 6.980256e-01 5.610461e-01 9.845386e-01 8.780490e-01 6.084946e-01 4.887364e-01 3.856957e-01 4.797122e-01 3.804244e-01 1.655865e-01
<GCONST> 1.182488e+02
<STATE> 4
<MEAN> 39
 -3.384384e+00 -1.464549e+00 -8.728848e+00 -3.430833e+00 -6.371840e+00 -4.706063e+00 -5.402012e+00 1.020793e+00 9.118959e-01 -1.383940e+00 -7.297600e+00 -7.481308e+00 6.868185e+01 -5.306462e-01 1.773982e-01 4.407633e-01 3.637136e-01 1.711259e-01 2.940984e-01 2.591268e-01 -1.471721e-01 -1.577885e-02 1.301398e-01 -5.057822e-02 9.995310e-02 -4.057578e-01 -1.191461e-01 9.460212e-02 1.443945e-01 5.071202e-02 1.982236e-02 3.394159e-02 3.672811e-02 -5.601380e-02 -1.157435e-01 3.278945e-03 1.692024e-01 1.476244e-01 -9.812962e-02
<VARIANCE> 39
 2.239937e+01 2.077825e+01 3.134429e+01 2.031076e+01 1.616066e+01 2.262649e+01 1.870076e+01 2.462325e+01 1.738922e+01 2.586741e+01 2.645345e+01 2.254491e+01 1.501297e+01 1.287633e+00 1.503926e+00 1.671762e+00 1.356809e+00 1.425077e+00 1.623930e+00 1.645458e+00 1.828917e+00 1.458372e+00 1.927354e+00 1.883006e+00 1.611472e+00 8.632734e-01 1.930011e-01 3.286406e-01 2.530523e-01 2.567790e-01 2.418498e-01 2.663214e-01 2.912627e-01 3.373859e-01 3.257586e-01 3.427980e-01 3.070222e-01 2.757980e-01 1.363804e-01
<GCONST> 9.972855e+01
<TRANSP> 5
 0.000000e+00 1.000000e+00 0.000000e+00 0.000000e+00 0.000000e+00
 0.000000e+00 5.842602e-01 4.157398e-01 0.000000e+00 0.000000e+00
 0.000000e+00 0.000000e+00 4.493554e-01 5.506446e-01 0.000000e+00
 0.000000e+00 0.000000e+00 0.000000e+00 8.440056e-01 1.559944e-01
 0.000000e+00 0.000000e+00 0.000000e+00 0.000000e+00 0.000000e+00
<ENDHMM>
~h "s"
<BEGINHMM>
<NUMSTATES> 5
<STATE> 2
<MEAN> 39
 -1.775463e+01 5.625443e+00 6.119406e-01 5.525177e+00 7.285643e-01 -1.158204e+00 -6.395665e-01 -4.646157e+00 -1.437273e+00 -4.372466e+00 -1.962623e+00 -5.459217e-02 6.168951e+01 -2.540221e+00 -2.806039e-01 -1.336064e+00 1.041693e-02 6.615489e-01 7.301542e-01 1.250047e+00 7.349782e-01 1.857617e+00 4.197274e-01 9.403402e-01 6.741689e-01 2.188395e-01 1.721289e-01 6.851126e-02 -1.627984e-01 -3.617606e-01 -4.579556e-01 -1.125360e-01 -2.158570e-01 4.139010e-02 -1.884775e-01 1.604743e-01 1.771259e-01 1.628139e-01 9.874564e-02
<VARIANCE> 39
 1.786384e+01 7.502037e+00 1.192864e+01 1.222547e+01 1.586659e+01 2.877985e+01 3.550974e+01 2.642472e+01 2.581343e+01 1.940046e+01 1.698684e+01 1.456391e+01 4.227803e+00 1.309441e+00 8.947714e-01 1.392293e+00 1.291468e+00 2.316713e+00 2.005021e+00 2.762100e+00 2.194229e+00 2.198565e+00 1.802653e+00 1.745385e+00 1.528759e+00 2.735023e-01 2.740792e-01 1.219013e-01 1.980182e-01 2.536768e-01 2.740058e-01 3.105845e-01 4.621504e-01 3.570165e-01 4.348357e-01 3.113732e-01 3.225730e-01 3.243149e-01 4.049949e-02
<GCONST> 9.472009e+01
<STATE> 3
<MEAN> 39
 -2.465860e+01 5.973484e+00 -4.911943e+00 4.094409e+00 7.574565e-01 6.765107e-01 2.428032e+00 -1.270272e+00 3.403899e+00 -2.056434e+00 1.833230e+00 2.108524e+00 6.253544e+01 -1.777119e-01 -9.408151e-02 -2.101497e-01 1.588534e-02 -4.944031e-03 1.712314e-01 2.858466e-01 2.794371e-01 2.622611e-01 1.538866e-01 2.104990e-01 8.356193e-02 -8.473902e-02 2.537799e-01 -7.001954e-02 1.725146e-01 4.376716e-02 2.597782e-02 -1.777221e-02 -3.831147e-02 -4.877177e-02 -1.338217e-01 -2.365890e-02 -9.656584e-02 -6.903762e-02 -7.594731e-02
<VARIANCE> 39
 4.804844e+00 5.915992e+00 1.166108e+01 1.287913e+01 1.501619e+01 2.466436e+01 3.662707e+01 2.093116e+01 1.670254e+01 1.542429e+01 1.374750e+01 1.175576e+01 2.920997e+00 5.252876e-01 3.689585e-01 6.809236e-01 6.801455e-01 9.349803e-01 1.196234e+00 1.340922e+00 1.499949e+00 1.461078e+00 1.364188e+00 1.323027e+00 1.089032e+00 1.591019e-01 8.169182e-02 6.355234e-02 1.135626e-01 1.393223e-01 1.814686e-01 2.429522e-01 3.008854e-01 3.038820e-01 3.198932e-01 2.771112e-01 2.724029e-01 2.270402e-01 1.656796e-02
<GCONST> 7.769108e+01
<STATE> 4
<MEAN> 39
 -1.970305e+01 1.549547e+00 -2.606186e+00 4.376343e+00 2.117034e+00 2.902257e+00 3.078104e+00 1.942904e+00 1.757006e+00 5.398472e-01 1.401928e+00 2.540696e+00 5.861202e+01 1.147953e-01 -1.054107e-01 5.591391e-02 7.994944e-03 2.893094e-02 -1.497371e-02 6.491321e-02 3.491136e-02 -7.108684e-02 6.250972e-02 -6.138238e-02 -3.206425e-02 -7.855999e-02 1.954343e-02 3.243351e-02 1.826362e-02 -6.880788e-03 -2.148323e-02 -2.369787e-02 -4.651521e-02 -3.873604e-02 -3.270316e-02 -3.617518e-02 -3.570839e-02 -2.142742e-02 2.119574e-02
<VARIANCE> 39
 8.739333e+00 8.596647e+00 7.584008e+00 7.010966e+00 1.010499e+01 1.544757e+01 1.715396e+01 1.498340e+01 1.518624e+01 1.312342e+01 1.188095e+01 1.049875e+01 3.755577e+00 3.636835e-01 4.623927e-01 5.313353e-01 6.015419e-01 8.783041e-01 1.111055e+00 1.341647e+00 1.412845e+00 1.351393e+00 1.282127e+00 1.161180e+00 1.058302e+00 1.384037e-01 6.006354e-02 7.451762e-02 9.617367e-02 1.197330e-01 1.775328e-01 2.171079e-01 2.754228e-01 2.827598e-01 2.803877e-01 2.560412e-01 2.382791e-01 2.166326e-01 1.656039e-02
<GCONST> 7.310326e+01
<TRANSP> 5
 0.000000e+00 1.000000e+00 0.000000e+00 0.000000e+00 0.000000e+00
 0.000000e+00 6.159045e-01 3.840955e-01 0.000000e+00 0.000000e+00
 0.000000e+00 0.000000e+00 8.820509e-01 1.179491e-01 0.000000e+00
 0.000000e+00 0.000000e+00 0.000000e+00 9.301175e-01 6.988252e-02
 0.000000e+00 0.000000e+00 0.000000e+00 0.000000e+00 0.000000e+00
<ENDHMM>
~h "t"
<BEGINHMM>
<NUMSTATES> 5
<STATE> 2
<MEAN> 39
 -1.531179e+01 2.962902e+00 7.385737e-01 4.751989e+00 5.204566e-01 3.115219e-01 -6.589903e-01 -2.083702e+00 -4.464272e+00 -2.280563e+00 -3.126862e+00 -3.770469e-02 5.868584e+01 -7.010389e-01 -7.505622e-01 -6.223291e-01 -3.234237e-02 5.940289e-01 6.091653e-01 6.651696e-01 8.445488e-01 7.801483e-01 6.753283e-01 7.232944e-01 7.089252e-01 -3.946400e-01 1.333320e-01 4.852578e-02 3.018137e-03 -1.488654e-01 -2.274521e-01 -1.179959e-01 -3.462931e-02 -4.726957e-03 6.243737e-02 9.142485e-02 9.570024e-02 3.321639e-02 1.177891e-01
<VARIANCE> 39
 4.321217e+00 6.438709e+00 9.879142e+00 8.403101e+00 9.931623e+00 1.274658e+01 1.633803e+01 2.131323e+01 2.123373e+01 1.614679e+01 1.845340e+01 1.712671e+01 1.521014e+00 2.653848e-01 3.581061e-01 6.025627e-01 7.365106e-01 1.161720e+00 1.179120e+00 1.296139e+00 1.485002e+00 1.254264e+00 1.372252e+00 1.390210e+00 1.317465e+00 8.779220e-02 5.528941e-02 8.387493e-02 1.127987e-01 1.782629e-01 2.385692e-01 2.446674e-01 2.886792e-01 3.246620e-01 2.710569e-01 2.864506e-01 3.152062e-01 2.946880e-01 2.204897e-02
<GCONST> 7.541237e+01
<STATE> 3
<MEAN> 39
 -1.780487e+01 1.375764e-01 -1.753722e+00 4.040695e+00 2.043000e+00 2.841288e+00 2.840124e+00 2.564941e+00 3.307631e-01 1.399868e+00 7.661945e-01 2.839719e+00 5.753661e+01 -5.075135e-02 -4.243250e-02 -2.494776e-02 8.156479e-03 4.945600e-02 8.080375e-02 9.036683e-02 8.659207e-02 1.167029e-01 8.721915e-02 4.330754e-02 2.063661e-02 -2.394699e-02 1.854653e-02 2.358392e-02 9.415049e-03 -2.952395e-03 -1.999228e-02 -3.076469e-02 -3.274253e-02 -4.581686e-02 -4.369205e-02 -5.922877e-02 -3.987930e-02 -3.165311e-02 2.406882e-02
<VARIANCE> 39
 1.377795e+00 2.382185e+00 3.881290e+00 5.538611e+00 7.495700e+00 1.015866e+01 1.058934e+01 1.169781e+01 1.213630e+01 1.151366e+01 1.120506e+01 9.743390e+00 8.283669e-01 1.084136e-01 2.112566e-01 3.517019e-01 5.655941e-01 6.600129e-01 8.859424e-01 1.031563e+00 1.165349e+00 1.139122e+00 1.158162e+00 1.055467e+00 9.589406e-01 4.064049e-02 2.295395e-02 4.551198e-02 7.440702e-02 1.205967e-01 1.404811e-01 1.864648e-01 2.141293e-01 2.504991e-01 2.336518e-01 2.454385e-01 2.244681e-01 1.980999e-01 1.106900e-02
<GCONST> 5.725178e+01
<STATE> 4
<MEAN> 39
 -1.865796e+01 -2.685783e-01 -1.971214e+00 3.157592e+00 1.823622e+00 2.107232e+00 3.169819e+00 1.948778e+00 1.613726e+00 1.373839e+00 1.151754e+00 2.242233e+00 5.699635e+01 7.230566e-02 -2.260087e-02 -1.163770e-01 -2.032996e-01 -1.699915e-01 -1.697966e-01 -4.366740e-02 -5.027875e-02 -1.980537e-02 -1.502164e-01 -8.276002e-03 4.671295e-02 2.028200e-01 1.806837e-01 8.762100e-02 -7.207870e-03 -1.567670e-01 -2.400696e-01 -2.613216e-01 -1.295021e-01 -9.466883e-02 -5.347237e-02 -1.353541e-01 -2.322227e-02 -2.271710e-02 2.368264e-01
<VARIANCE> 39
 3.184578e+00 3.466369e+00 4.898755e+00 7.309602e+00 8.830967e+00 1.119039e+01 1.192805e+01 1.276702e+01 1.296601e+01 1.188729e+01 1.155932e+01 1.100170e+01 2.806932e+00 2.455885e-01 3.745057e-01 5.404081e-01 9.497710e-01 1.133875e+00 1.234819e+00 1.291026e+00 1.304448e+00 1.359251e+00 1.233686e+00 1.233519e+00 1.094490e+00 3.070417e-01 8.797567e-02 9.737312e-02 1.292108e-01 2.202832e-01 2.715705e-01 3.004103e-01 2.963327e-01 3.126206e-01 2.914714e-01 2.709634e-01 2.528786e-01 2.519257e-01 9.626081e-02
<GCONST> 7.479523e+01
<TRANSP> 5
 0.000000e+00 1.000000e+00 0.000000e+00 0.000000e+00 0.000000e+00
 0.000000e+00 7.139534e-01 2.860466e-01 0.000000e+00 0.000000e+00
 0.000000e+00 0.000000e+00 9.111348e-01 8.886517e-02 0.000000e+00
 0.000000e+00 0.000000e+00 0.000000e+00 7.556295e-01 2.443705e-01
 0.000000e+00 0.000000e+00 0.000000e+00 0.000000e+00 0.000000e+00
<ENDHMM>
~h "w"
<BEGINHMM>
<NUMSTATES> 5
<STATE> 2
<MEAN> 39
 -3.556310e+00 9.701684e+00 -3.798514e+00 -9.368814e+00 -1.288900e+01 -5.618596e+00 -2.314081e+00 -2.293811e+00 -4.684282e+00 -5.263376e+00 -4.273419e+00 -4.665899e-01 6.494730e+01 1.367116e+00 -2.998272e-01 -1.585815e+00 -2.347917e+00 -1.071345e+00 9.472663e-01 4.199587e-01 -4.405672e-01 -2.854874e-01 2.779242e-01 1.254743e+00 1.143167e+00 9.909116e-01 -4.115309e-01 -6.842360e-01 -2.934934e-01 3.270052e-01 8.198216e-01 7.923642e-01 2.629954e-01 6.068433e-02 2.006760e-01 4.644189e-01 3.847106e-01 -5.436705e-02 -9.317011e-02
<VARIANCE> 39
 2.076159e+01 9.674869e+00 1.313142e+01 4.646928e+01 4.438248e+01 2.034771e+01 1.394998e+01 1.724127e+01 1.385546e+01 1.059821e+01 1.314639e+01 1.181997e+01 7.110659e+00 1.658343e+00 1.473772e+00 1.201614e+00 3.379698e+00 4.102103e+00 3.231861e+00 1.524059e+00 1.616169e+00 1.422378e+00 1.714476e+00 1.793931e+00 1.038303e+00 5.708625e-01 1.471348e-01 1.725153e-01 2.808231e-01 6.326088e-01 5.833491e-01 4.294437e-01 4.062432e-01 3.930637e-01 3.045710e-01 2.819930e-01 3.840344e-01 3.920515e-01 4.817206e-02
<GCONST> 9.841154e+01
<STATE> 3
<MEAN> 39
 -1.753893e+00 4.318606e+00 -9.868374e+00 -1.284079e+01 -8.702513e+00 3.124392e+00 -1.145607e+00 -5.981431e+00 -6.101036e+00 -1.928255e+00 1.394273e+00 3.541523e-01 6.759709e+01 -6.142874e-02 -1.679847e+00 -8.981968e-01 5.433195e-01 1.803424e+00 1.377298e+00 -6.303626e-01 -7.843945e-01 4.770633e-01 1.373161e+00 3.631078e-01 -1.567516e+00 4.542420e-01 -2.216061e-01 2.540096e-02 4.806177e-01 6.232372e-01 5.392234e-02 -6.497279e-01 -3.232396e-01 3.426026e-01 4.042950e-01 -6.210320e-02 -7.473238e-01 -6.399249e-01 -1.223853e-01
<VARIANCE> 39
 2.466590e+01 1.257828e+01 2.691623e+01 5.094258e+01 3.144448e+01 2.169670e+01 1.564358e+01 1.948017e+01 1.218970e+01 1.769006e+01 1.683663e+01 1.742913e+01 1.247454e+01 2.549202e-01 7.023482e-01 1.038206e+00 1.210654e+00 1.558131e+00 2.770029e+00 1.765730e+00 1.684538e+00 1.653425e+00 1.111797e+00 2.445112e+00 2.951635e+00 2.271374e-01 4.373612e-02 1.203452e-01 1.127396e-01 2.116435e-01 3.968836e-01 3.604081e-01 2.427416e-01 3.352789e-01 2.258011e-01 2.988680e-01 3.123962e-01 4.098415e-01 2.420727e-02
<GCONST> 9.071778e+01
<STATE> 4
<MEAN> 39
 -3.512003e+00 -4.386777e-02 -8.530352e+00 -6.766028e+00 -3.796109e+00 -1.088303e+00 -6.169804e+00 -2.957005e+00 2.577249e-01 1.694472e+00 -5.909452e+00 -8.426188e+00 6.819528e+01 -7.977728e-01 2.548659e-01 9.523375e-01 1.340458e+00 2.366856e-01 -1.173607e+00 -2.368517e-01 7.895773e-01 7.712309e-01 3.138436e-02 -8.048296e-01 5.457285e-02 -6.014705e-01 -1.698649e-01 2.333259e-01 1.621406e-01 7.151034e-03 -1.332419e-01 9.724828e-02 3.048332e-01 2.310295e-02 -2.455566e-01 -2.230949e-01 2.741307e-01 4.469831e-01 -2.067561e-01
<VARIANCE> 39
 1.589819e+01 1.799697e+01 2.292375e+01 2.499522e+01 1.267040e+01 3.159898e+01 1.949420e+01 2.142561e+01 1.956646e+01 1.493160e+01 2.408874e+01 1.917209e+01 1.302758e+01 6.420065e-01 1.551370e+00 8.377064e-01 8.755321e-01 1.064242e+00 2.252924e+00 2.215942e+00 1.509098e+00 1.758464e+00 1.187292e+00 3.132781e+00 2.864595e+00 8.660085e-01 8.111799e-02 2.311831e-01 1.414209e-01 1.588804e-01 2.243581e-01 5.600094e-01 4.033003e-01 3.856263e-01 2.658476e-01 2.652274e-01 4.305500e-01 3.113918e-01 5.924021e-02
<GCONST> 9.545056e+01
<TRANSP> 5
 0.000000e+00 1.000000e+00 0.000000e+00 0.000000e+00 0.000000e+00
 0.000000e+00 5.839578e-01 4.160422e-01 0.000000e+00 0.000000e+00
 0.000000e+00 0.000000e+00 6.261662e-01 3.738338e-01 0.000000e+00
 0.000000e+00 0.000000e+00 0.000000e+00 7.933614e-01 2.066386e-01
 0.000000e+00 0.000000e+00 0.000000e+00 0.000000e+00 0.000000e+00
<ENDHMM>
~h "y"
<BEGINHMM>
<NUMSTATES> 5
<STATE> 2
<MEAN> 39
 -1.326560e+01 5.484756e+00 4.713539e+00 3.865639e+00 -5.012266e+00 -3.067540e+00 -3.426119e+00 -7.236883e+00 -4.374140e+00 -3.445440e+00 -2.042386e+00 -5.195407e-01 6.293216e+01 1.770824e+00 8.093691e-01 2.213651e+00 -3.301117e-01 -1.254287e+00 -4.637678e-01 -2.583775e+00 -1.362159e+00 -1.886645e+00 -1.169509e+00 -6.675222e-01 -4.235276e-01 1.617701e-01 -1.206947e-01 1.240021e-01 -4.644914e-02 -1.933264e-01 -2.148909e-01 -3.114235e-02 -1.407448e-01 3.891668e-02 2.482351e-02 -8.924477e-03 2.605546e-01 1.203799e-01 1.437292e-01
<VARIANCE> 39
 5.276928e+01 1.504117e+01 3.144275e+01 1.340959e+01 5.828811e+01 2.849373e+01 8.812990e+01 2.746608e+01 4.617363e+01 2.403773e+01 1.873929e+01 1.238887e+01 9.935692e+00 3.038945e+00 1.693679e+00 1.603871e+00 1.144631e+00 3.163709e+00 2.245416e+00 6.701253e+00 2.836085e+00 3.410306e+00 2.126242e+00 2.545466e+00 1.311538e+00 6.778271e-01 4.812269e-01 4.578825e-01 3.862522e-01 1.804071e-01 4.126077e-01 4.666094e-01 1.649113e+00 6.351151e-01 9.309133e-01 6.048614e-01 4.641645e-01 2.483355e-01 8.434191e-02
<GCONST> 1.133243e+02
<STATE> 3
<MEAN> 39
 -7.883533e+00 6.803636e+00 1.025635e+01 -8.285443e-02 -1.400590e+01 -6.912102e+00 -1.089387e+01 -9.328091e+00 -9.409035e+00 -5.015419e+00 -4.804524e-01 -4.557765e-01 6.556860e+01 -2.032538e-01 5.558111e-02 -2.015028e-01 2.379456e-01 5.622709e-01 8.306388e-03 3.340225e-02 9.316614e-02 -5.072976e-02 -1.138151e-01 -1.464648e-01 5.660105e-02 -2.456362e-01 -9.888469e-02 -2.173420e-02 -2.173192e-01 1.513089e-01 3.388767e-01 6.578109e-02 1.565196e-01 6.286747e-02 7.723618e-02 3.902296e-02 -7.678577e-02 4.194080e-03 -1.097905e-01
<VARIANCE> 39
 4.012006e+00 9.399524e+00 1.353349e+01 1.033987e+01 2.786250e+01 1.855532e+01 1.295517e+01 1.283009e+01 1.111876e+01 1.698343e+01 1.080250e+01 9.898998e+00 4.094396e+00 3.731740e-01 6.298765e-01 1.050780e+00 1.198882e+00 3.643124e+00 1.454639e+00 1.120297e+00 1.036490e+00 8.829909e-01 1.195164e+00 1.072272e+00 7.153664e-01 5.177315e-01 5.937420e-02 9.951609e-02 1.535760e-01 1.344820e-01 2.811054e-01 2.719798e-01 2.774156e-01 1.988362e-01 1.905090e-01 2.051932e-01 1.654008e-01 1.333120e-01 4.015577e-02
<GCONST> 7.791164e+01
<STATE> 4
<MEAN> 39
 -1.218171e+01 7.324054e+00 5.522409e+00 5.594659e+00 -1.765108e+00 -3.916942e+00 -7.677391e+00 -8.693800e+00 -9.392920e+00 -6.684534e+00 -4.028766e+00 -4.817882e-01 6.074263e+01 -9.528483e-01 -2.591482e-01 -9.063988e-01 5.194798e-01 1.317013e+00 7.443024e-01 1.305928e+00 2.956908e-01 7.694278e-01 1.464130e-01 -1.726938e-01 4.132687e-02 -4.313802e-01 -1.374005e-01 -1.241871e-01 -9.532610e-02 -1.982009e-01 -3.344055e-01 -1.531903e-02 2.546248e-01 1.391618e-01 3.044386e-01 1.643126e-01 2.370226e-01 4.398427e-02 1.816034e-01
<VARIANCE> 39
 4.595390e+00 6.029311e+00 1.180045e+01 7.047332e+00 1.374422e+01 1.313220e+01 1.641023e+01 1.494676e+01 1.561123e+01 1.570318e+01 1.225865e+01 1.301983e+01 2.670828e+00 7.766628e-01 3.645072e-01 6.514513e-01 7.105099e-01 2.014819e+00 1.815616e+00 1.686730e+00 1.374239e+00 1.738922e+00 1.238584e+00 1.239606e+00 9.907168e-01 4.211598e-01 1.547950e-01 7.501476e-02 1.182248e-01 1.361342e-01 2.696355e-01 2.637109e-01 2.304271e-01 2.660878e-01 2.912603e-01 2.346113e-01 2.358357e-01 2.210710e-01 3.382580e-02
<GCONST> 7.884393e+01
<TRANSP> 5
 0.000000e+00 1.000000e+00 0.000000e+00 0.000000e+00 0.000000e+00
 0.000000e+00 6.735689e-01 3.264311e-01 0.000000e+00 0.000000e+00
 0.000000e+00 0.000000e+00 8.957482e-01 1.042518e-01 0.000000e+00
 0.000000e+00 0.000000e+00 0.000000e+00 8.121840e-01 1.878160e-01
 0.000000e+00 0.000000e+00 0.000000e+00 0.000000e+00 0.000000e+00
<ENDHMM>
~h "ah"
<BEGINHMM>
<NUMSTATES> 5
<STATE> 2
<MEAN> 39
 -1.510243e+01 1.797885e+00 -9.238427e-01 3.582219e+00 7.611852e-02 1.081137e+00 4.536451e-01 7.757219e-01 -5.902421e-01 -1.417038e-01 -1.210899e+00 4.094132e-01 5.926420e+01 -2.092571e-01 1.041823e-01 2.152757e-01 2.117447e-01 3.545417e-01 2.435361e-01 8.206113e-02 -1.083167e-01 -3.191776e-01 -2.504766e-01 -1.041363e-02 -1.694900e-02 -1.369649e-01 2.579011e-01 1.075194e-02 -1.342183e-02 -1.136912e-01 -2.190514e-01 -2.687775e-01 -2.498380e-01 -8.766888e-02 -7.833735e-02 -2.427549e-02 -3.176324e-02 -5.459740e-02 2.205662e-01
<VARIANCE> 39
 1.452321e+01 6.590109e+00 1.142724e+01 1.099110e+01 2.264196e+01 2.213653e+01 2.618121e+01 2.071199e+01 1.978967e+01 1.632537e+01 1.978402e+01 1.668005e+01 7.099816e+00 1.181963e+00 9.891647e-01 1.099003e+00 1.193662e+00 1.639934e+00 2.201258e+00 2.314317e+00 2.189557e+00 1.964994e+00 1.843407e+00 2.086733e+00 1.798978e+00 6.218635e-01 1.344043e-01 1.856276e-01 1.625974e-01 2.149189e-01 3.397335e-01 4.165616e-01 3.951701e-01 4.110131e-01 3.326321e-01 2.755817e-01 3.290187e-01 2.560250e-01 9.273650e-02
<GCONST> 9.453108e+01
<STATE> 3
<MEAN> 39
 -1.244524e+01 4.831106e+00 2.036288e+00 4.158454e+00 -3.303059e-01 -1.053564e+00 -3.345286e+00 -3.462167e+00 -5.327534e+00 -3.694079e+00 -3.346115e+00 -1.973043e+00 6.093219e+01 1.356933e+00 8.939112e-01 5.462523e-01 -2.415223e-01 -9.966796e-01 -1.396202e+00 -1.624506e+00 -1.403441e+00 -1.142560e+00 -4.637010e-01 -7.597432e-02 -1.396849e-01 9.189341e-01 1.577621e-01 -2.240278e-01 -3.119500e-01 -3.044382e-01 -3.152000e-01 -1.595967e-01 2.053405e-02 1.898293e-01 3.409607e-01 3.828956e-01 3.408468e-01 2.881946e-01 1.703084e-01
<VARIANCE> 39
 1.708265e+01 1.722092e+01 2.232601e+01 1.979227e+01 3.183821e+01 2.863429e+01 3.375137e+01 3.792575e+01 3.095430e+01 2.277575e+01 2.276197e+01 1.630516e+01 9.087819e+00 2.526291e+00 2.534699e+00 2.117942e+00 1.632052e+00 2.466346e+00 3.083868e+00 3.869071e+00 4.777949e+00 3.338460e+00 2.580636e+00 3.004513e+00 2.314098e+00 1.200029e+00 2.783405e-01 2.911711e-01 2.531694e-01 3.278896e-01 5.015286e-01 5.669987e-01 5.853875e-01 5.997255e-01 5.061010e-01 4.513133e-01 4.811941e-01 4.236068e-01 1.612619e-01
<GCONST> 1.122246e+02
<STATE> 4
<MEAN> 39
 -5.562484e+00 3.146169e+00 -2.472268e+00 -2.762784e-01 -5.251091e+00 -4.954530e+00 -6.789379e+00 -3.615612e+00 -3.845770e+00 -3.287663e+00 -4.281689e+00 -3.339450e+00 6.628992e+01 -4.387952e-02 -9.423701e-02 -2.655627e-01 -5.735439e-04 1.422993e-01 9.425395e-02 1.695894e-01 1.189848e-01 1.365256e-01 1.389159e-01 2.847166e-02 -3.047007e-03 -6.166817e-02 -7.726983e-02 -4.201779e-02 -3.654277e-02 3.091381e-03 6.394622e-02 8.843545e-02 9.249626e-02 7.878695e-02 5.194778e-02 -7.757620e-03 -1.267566e-03 -1.424493e-02 -3.518046e-02
<VARIANCE> 39
 2.206785e+01 3.125421e+01 5.421524e+01 2.120454e+01 3.643628e+01 2.311150e+01 2.105910e+01 5.194770e+01 3.549784e+01 2.268555e+01 3.804770e+01 3.108152e+01 1.529048e+01 1.510317e+00 2.052320e+00 3.352458e+00 2.084687e+00 3.141394e+00 1.810919e+00 1.775597e+00 3.707557e+00 2.780571e+00 1.797781e+00 2.945579e+00 2.521462e+00 1.080060e+00 2.058758e-01 3.552397e-01 5.768653e-01 3.699777e-01 5.149547e-01 3.355271e-01 3.686647e-01 6.256196e-01 4.958791e-01 3.352269e-01 5.408396e-01 4.791039e-01 1.315419e-01
<GCONST> 1.133222e+02
<TRANSP> 5
 0.000000e+00 1.000000e+00 0.000000e+00 0.000000e+00 0.000000e+00
 0.000000e+00 6.206073e-01 3.793927e-01 0.000000e+00 0.000000e+00
 0.000000e+00 0.000000e+00 4.619685e-01 5.380315e-01 0.000000e+00
 0.000000e+00 0.000000e+00 0.000000e+00 8.895314e-01 1.104685e-01
 0.000000e+00 0.000000e+00 0.000000e+00 0.000000e+00 0.000000e+00
<ENDHMM>
~h "ch"
<BEGINHMM>
<NUMSTATES> 5
<STATE> 2
<MEAN> 39
 -1.990529e+01 -3.190761e+00 9.970337e-02 2.417383e+00 -3.089358e+00 -1.819882e+00 5.397738e+00 -5.116344e+00 1.412710e+00 5.624208e-01 1.991507e+00 1.059246e+00 6.342303e+01 -1.533426e+00 -1.009934e+00 8.135455e-01 7.598082e-02 -1.222997e-01 -9.548537e-01 1.599403e+00 -5.358589e-01 1.825779e+00 8.192847e-03 3.157652e-01 -2.787361e-01 1.499335e+00 8.207991e-02 3.074288e-01 1.204111e-01 2.287365e-01 4.152945e-01 -2.390750e-01 -4.256970e-01 1.728819e-01 9.589793e-02 -1.482648e-01 -2.699779e-01 5.787392e-02 -1.465773e-01
<VARIANCE> 39
 2.559691e+01 1.494180e+01 2.031294e+01 1.545010e+01 1.978752e+01 2.137604e+01 3.203661e+01 2.389648e+01 3.317664e+01 1.884196e+01 1.474119e+01 1.271076e+01 1.650835e+01 2.010193e+00 1.774107e+00 2.307110e+00 2.171640e+00 3.324376e+00 2.139756e+00 2.573999e+00 3.199974e+00 2.381769e+00 2.392542e+00 1.882645e+00 1.624292e+00 8.729267e-01 8.520189e-01 3.147171e-01 5.566632e-01 4.199324e-01 5.480636e-01 4.039823e-01 8.258598e-01 6.543857e-01 5.862228e-01 4.495878e-01 3.889566e-01 2.924291e-01 4.004315e-01
<GCONST> 1.108958e+02
<STATE> 3
<MEAN> 39
 -1.948347e+01 -1.588021e+00 1.672235e+00 3.900542e+00 1.017814e+00 -6.042167e+00 3.620141e+00 -4.654941e+00 6.075744e+00 -3.766087e-01 -9.546896e-01 7.526927e-01 6.511214e+01 1.839314e+00 9.733904e-01 -5.476764e-01 4.420194e-01 9.312200e-01 2.722646e-01 -1.897189e+00 3.246779e-01 -3.371789e-01 2.639409e-01 -1.095808e+00 -4.382284e-01 -9.037943e-01 7.539130e-01 3.560097e-01 -2.824400e-01 -4.154629e-01 -5.195022e-01 4.769520e-01 -4.112044e-01 -3.244604e-01 -8.762355e-01 1.225122e-01 1.024432e-01 -1.051777e-01 -1.604812e-01
<VARIANCE> 39
 4.783415e+01 2.287126e+01 1.455994e+01 2.890314e+01 2.673256e+01 2.565669e+01 3.427432e+01 2.139829e+01 5.867279e+01 2.319094e+01 1.957954e+01 1.631601e+01 9.928243e+00 3.830228e+00 1.800217e+00 1.403552e+00 3.144551e+00 3.454302e+00 2.949441e+00 4.481604e+00 3.278326e+00 5.703791e+00 1.920553e+00 2.580969e+00 2.095872e+00 6.812179e-01 9.039426e-01 3.108346e-01 3.392255e-01 7.596043e-01 8.010403e-01 4.520626e-01 8.864461e-01 7.693486e-01 1.044831e+00 4.618966e-01 5.292516e-01 4.610881e-01 2.567754e-01
<GCONST> 1.177226e+02
<STATE> 4
<MEAN> 39
 -1.768412e+01 -2.250977e-01 -1.639294e+00 4.126796e+00 2.909856e+00 2.189021e+00 3.729632e+00 1.650944e+00 2.261811e+00 1.407210e+00 3.841459e-01 1.951826e+00 5.796829e+01 4.223353e-01 2.751008e-01 -7.016786e-02 -1.837387e-01 -2.041095e-01 1.496654e-01 -2.669491e-01 -7.769635e-02 -3.650034e-01 2.084507e-02 -3.623094e-02 -5.591720e-02 -5.432718e-02 6.861302e-02 3.925177e-02 -1.850872e-02 -1.798778e-01 -1.876764e-01 -3.475372e-02 1.183192e-03 -1.136017e-01 -8.502882e-02 -5.476857e-02 4.244235e-02 2.039420e-02 9.975202e-02
<VARIANCE> 39
 2.261934e+00 2.563091e+00 4.925768e+00 6.678284e+00 7.905996e+00 1.324681e+01 1.531634e+01 1.499935e+01 1.407759e+01 1.116612e+01 1.457065e+01 1.212757e+01 2.900110e+00 2.107477e+00 9.757755e-01 5.428802e-01 1.013427e+00 1.286842e+00 1.285165e+00 2.324371e+00 1.536896e+00 2.665662e+00 1.346246e+00 1.472803e+00 1.184698e+00 1.019797e-01 7.704867e-02 6.854899e-02 1.208932e-01 3.021218e-01 3.544837e-01 2.444553e-01 2.797712e-01 3.292328e-01 3.462940e-01 2.653853e-01 3.700266e-01 2.487218e-01 5.525780e-02
<GCONST> 7.871191e+01
<TRANSP> 5
 0.000000e+00 1.000000e+00 0.000000e+00 0.000000e+00 0.000000e+00
 0.000000e+00 8.037181e-01 1.962819e-01 0.000000e+00 0.000000e+00
 0.000000e+00 0.000000e+00 7.408842e-01 2.591158e-01 0.000000e+00
 0.000000e+00 0.000000e+00 0.000000e+00 8.860632e-01 1.139368e-01
 0.000000e+00 0.000000e+00 0.000000e+00 0.000000e+00 0.000000e+00
<ENDHMM>
~h "dh"
<BEGINHMM>
<NUMSTATES> 5
<STATE> 2
<MEAN> 39
 -1.042331e+01 5.528752e+00 2.673202e+00 2.362595e+00 -1.632959e+00 -9.628611e-01 -8.183727e+00 -7.137997e+00 -5.450144e+00 -3.757037e+00 -2.949029e+00 -1.482299e+00 6.231024e+01 1.238018e+00 2.330002e-01 -2.944210e-01 -1.547734e+00 -1.166034e+00 -4.442122e-02 -1.283527e+00 -1.270616e+00 3.778977e-02 3.226528e-01 5.612238e-01 4.021767e-01 9.358349e-01 1.417572e-02 1.633995e-03 -2.030025e-01 -2.168333e-01 -1.141016e-01 1.222765e-01 2.665324e-01 3.636469e-02 9.063696e-03 6.343602e-02 1.378933e-01 2.703854e-01 -3.522343e-02
<VARIANCE> 39
 2.168448e+01 1.902618e+01 1.501147e+01 5.648617e+01 2.879145e+01 2.000796e+01 4.736081e+01 3.925346e+01 4.129169e+01 2.879157e+01 2.393236e+01 1.302592e+01 1.905083e+01 2.203737e+00 2.607861e+00 2.133252e+00 4.640275e+00 2.419885e+00 2.772355e+00 5.544381e+00 5.128150e+00 4.937363e+00 3.458245e+00 2.750630e+00 2.308432e+00 1.349408e+00 4.579369e-01 4.077272e-01 1.920668e-01 5.406273e-01 4.388487e-01 4.394768e-01 1.402577e+00 1.074606e+00 8.804876e-01 6.685737e-01 4.683655e-01 3.504651e-01 3.179140e-01
<GCONST> 1.197127e+02
<STATE> 3
<MEAN> 39
 -1.961649e+00 6.144732e+00 -4.665695e+00 -1.450177e+01 -1.230175e+01 3.121105e+00 -9.055560e+00 -1.237330e+01 -4.309918e+00 -1.518418e+00 2.959312e+00 6.995780e+00 6.803050e+01 5.348943e-02 4.820483e-01 -4.369608e-01 -8.860038e-01 -6.869078e-01 2.201019e-01 1.857932e+00 1.177302e+00 -6.964363e-01 -1.612332e+00 -8.627994e-01 9.563171e-01 -2.881564e-01 -3.259084e-01 -1.372359e-01 3.306843e-01 4.856966e-01 2.877045e-01 -2.449082e-01 -6.241615e-02 5.849760e-01 2.356150e-01 -1.873889e-01 -3.727936e-01 -5.173548e-01 -1.104682e-01
<VARIANCE> 39
 1.094633e+01 6.242161e+00 1.671519e+01 5.124597e+01 2.060938e+01 1.679303e+01 2.021822e+01 1.769839e+01 1.173201e+01 1.898108e+01 1.822345e+01 1.325460e+01 7.135052e+00 1.705282e-01 3.459832e-01 5.940504e-01 8.831952e-01 7.402135e-01 1.031820e+00 1.132063e+00 1.208282e+00 1.094022e+00 1.142818e+00 1.259849e+00 1.481964e+00 8.687930e-02 8.501246e-02 8.004113e-02 1.317073e-01 1.733909e-01 1.456305e-01 1.823377e-01 3.772817e-01 5.659846e-01 1.925131e-01 4.469199e-01 3.186330e-01 1.690872e-01 4.273066e-02
<GCONST> 7.974317e+01
<STATE> 4
<MEAN> 39
 -2.976142e+00 7.828865e+00 -4.382957e+00 -1.498858e+01 -1.312014e+01 1.612682e+00 -4.479323e+00 -7.101224e+00 -5.430059e+00 -5.836170e+00 -6.607754e-01 7.297635e+00 6.645947e+01 -3.160704e-01 -9.134323e-03 1.468501e-01 5.498784e-01 4.392329e-01 -1.342458e-01 2.727983e-02 -5.608924e-03 -1.409701e-01 7.148770e-02 6.662311e-02 -7.336001e-02 -2.491105e-01 -3.980593e-02 -4.875282e-02 2.262995e-02 1.967226e-01 1.481070e-01 -6.817459e-03 -1.281567e-01 -2.076163e-01 -2.809875e-02 1.882212e-01 1.408726e-01 -6.509060e-02 -7.400554e-03
<VARIANCE> 39
 6.306628e+00 3.744252e+00 8.915539e+00 3.541261e+01 1.774757e+01 1.731372e+01 1.744873e+01 1.291743e+01 1.224691e+01 1.103403e+01 1.592574e+01 9.838167e+00 4.003740e+00 7.509228e-02 2.251799e-01 2.651735e-01 7.589897e-01 5.848823e-01 6.578830e-01 9.716746e-01 1.240934e+00 7.186434e-01 9.406337e-01 8.928529e-01 5.747318e-01 6.208457e-02 1.313232e-02 3.470665e-02 6.126743e-02 1.052119e-01 9.796205e-02 1.118329e-01 1.618408e-01 1.417649e-01 1.332797e-01 1.500867e-01 1.566804e-01 1.335886e-01 1.452793e-02
<GCONST> 5.976168e+01
<TRANSP> 5
 0.000000e+00 1.000000e+00 0.000000e+00 0.000000e+00 0.000000e+00
 0.000000e+00 8.844672e-01 1.155328e-01 0.000000e+00 0.000000e+00
 0.000000e+00 0.000000e+00 6.912410e-01 3.087591e-01 0.000000e+00
 0.000000e+00 0.000000e+00 0.000000e+00 8.590506e-01 1.409494e-01
 0.000000e+00 0.000000e+00 0.000000e+00 0.000000e+00 0.000000e+00
<ENDHMM>
~h "eh"
<BEGINHMM>
<NUMSTATES> 5
<STATE> 2
<MEAN> 39
 -1.656147e+01 2.026569e+00 -8.048825e-01 3.740932e+00 6.486730e-02 -3.071012e-01 9.411747e-01 3.705485e-01 -4.027488e-01 -3.972541e-01 -9.458169e-02 2.143523e+00 5.992436e+01 8.120983e-01 5.743661e-03 3.140993e-01 -1.672729e-01 -7.751858e-01 -5.985773e-01 -2.124915e-01 -2.020989e-02 -3.151892e-01 -3.446951e-01 -4.891042e-02 -1.332482e-01 4.237252e-01 3.943689e-01 1.915032e-01 2.107510e-01 -1.090225e-01 -5.230350e-01 -4.369969e-01 -3.963546e-01 -2.324693e-01 -3.014326e-01 -1.315379e-01 -2.377830e-02 -7.510203e-02 2.306933e-01
<VARIANCE> 39
 1.903350e+01 8.067440e+00 1.457654e+01 1.063924e+01 2.108240e+01 2.368826e+01 2.849156e+01 2.200659e+01 2.311774e+01 1.672622e+01 1.514259e+01 1.325191e+01 1.035349e+01 2.533887e+00 1.192179e+00 1.539401e+00 1.398938e+00 3.028490e+00 2.765801e+00 2.862627e+00 2.530233e+00 2.663322e+00 1.938292e+00 1.875677e+00 1.438158e+00 1.044093e+00 1.893369e-01 1.712320e-01 2.547091e-01 2.907757e-01 5.166262e-01 4.232288e-01 4.293792e-01 4.089034e-01 4.035203e-01 3.298101e-01 3.499031e-01 2.639747e-01 1.460135e-01
<GCONST> 1.010465e+02
<STATE> 3
<MEAN> 39
 -8.328135e+00 4.915635e+00 3.254043e+00 1.767224e+00 -9.711969e+00 -9.376808e+00 -6.037913e+00 -2.947689e+00 -5.025103e+00 -3.743366e+00 -9.129865e-01 6.159492e-01 6.519822e+01 2.035141e+00 2.412019e-01 1.200773e+00 -9.783199e-01 -3.351043e+00 -2.275297e+00 -1.895988e+00 -6.775851e-01 -1.220087e+00 -7.432493e-02 4.167527e-01 -1.267270e-01 1.302408e+00 -4.677253e-01 -2.561572e-01 -1.930617e-01 -4.823966e-02 2.234616e-01 4.233678e-01 3.070226e-01 1.468648e-01 2.894043e-01 3.148822e-01 2.230001e-01 1.543509e-01 -1.578338e-01
<VARIANCE> 39
 1.801003e+01 1.438591e+01 2.015820e+01 1.892688e+01 4.934221e+01 3.609277e+01 3.246709e+01 2.177529e+01 2.167345e+01 1.353681e+01 1.986381e+01 1.369975e+01 1.175369e+01 2.444216e+00 2.297241e+00 2.103759e+00 1.827489e+00 3.198120e+00 2.575868e+00 3.340889e+00 2.711933e+00 2.241891e+00 1.990430e+00 2.337428e+00 1.626328e+00 7.677948e-01 4.081975e-01 2.632751e-01 4.081736e-01 3.414227e-01 7.960513e-01 5.691515e-01 6.750540e-01 4.610642e-01 4.455779e-01 3.328162e-01 3.718989e-01 2.680054e-01 1.979464e-01
<GCONST> 1.089337e+02
<STATE> 4
<MEAN> 39
 -6.755114e+00 3.708960e+00 6.343422e+00 9.222751e-02 -1.624426e+01 -1.157993e+01 -7.713030e+00 -4.463629e+00 -7.832874e+00 -2.047181e+00 1.421477e+00 8.282066e-01 6.674280e+01 -2.843562e-01 2.097967e-01 -4.421757e-02 1.881166e-01 5.813342e-01 4.817353e-01 1.164465e-01 -2.754425e-01 7.309350e-03 -3.820889e-02 -2.821341e-01 -1.419035e-01 -3.260255e-01 -1.828780e-01 3.772700e-02 -1.394754e-01 1.547022e-01 4.650282e-01 2.526957e-01 1.263827e-01 1.836448e-02 1.300889e-01 -6.086322e-02 -1.401650e-01 -4.125794e-02 -1.511611e-01
<VARIANCE> 39
 7.659182e+00 1.260122e+01 1.308660e+01 1.114846e+01 3.265393e+01 1.710045e+01 1.450985e+01 1.543783e+01 1.448784e+01 1.066850e+01 1.673885e+01 1.130546e+01 8.122255e+00 3.737862e-01 6.314240e-01 8.832718e-01 8.354018e-01 2.565099e+00 1.116935e+00 1.012780e+00 1.021076e+00 1.067039e+00 9.406349e-01 1.206339e+00 8.055164e-01 3.866927e-01 9.566126e-02 1.458033e-01 1.343158e-01 1.610808e-01 3.520417e-01 2.496961e-01 2.438695e-01 2.235789e-01 1.963226e-01 1.882370e-01 2.142481e-01 1.681906e-01 6.501316e-02
<GCONST> 8.090697e+01
<TRANSP> 5
 0.000000e+00 1.000000e+00 0.000000e+00 0.000000e+00 0.000000e+00
 0.000000e+00 6.787152e-01 3.212847e-01 0.000000e+00 0.000000e+00
 0.000000e+00 0.000000e+00 5.805550e-01 4.194451e-01 0.000000e+00
 0.000000e+00 0.000000e+00 0.000000e+00 8.415781e-01 1.584219e-01
 0.000000e+00 0.000000e+00 0.000000e+00 0.000000e+00 0.000000e+00
<ENDHMM>
~h "ih"
<BEGINHMM>
<NUMSTATES> 5
<STATE> 2
<MEAN> 39
 -1.559765e+01 5.040155e+00 3.311259e+00 5.375783e+00 -9.081749e-01 4.411799e-01 -2.936810e-01 -6.516114e+00 -3.757122e+00 -4.648143e+00 -3.124560e+00 -1.736367e+00 6.160329e+01 2.562902e+00 1.094663e+00 1.768420e+00 -5.245949e-01 -1.638178e+00 -8.149931e-01 -2.564858e+00 -1.431775e+00 -1.949053e+00 -1.129381e+00 -4.421891e-01 -8.805540e-01 4.700567e-01 1.297401e-01 3.701512e-01 1.024263e-01 -3.393614e-01 -4.688133e-01 -3.387828e-01 -5.368304e-01 -1.278079e-01 -1.816522e-01 1.477986e-01 3.848252e-01 1.305900e-01 2.774157e-01
<VARIANCE> 39
 2.148750e+01 1.100480e+01 1.238620e+01 8.769952e+00 1.960618e+01 1.598055e+01 3.582172e+01 2.149565e+01 3.602888e+01 1.935582e+01 2.138087e+01 1.440703e+01 8.056950e+00 4.570639e+00 2.400187e+00 2.378150e+00 1.073426e+00 3.366208e+00 2.273591e+00 9.345233e+00 3.258963e+00 5.807802e+00 2.138758e+00 2.712650e+00 1.315637e+00 1.040492e+00 3.079499e-01 2.432941e-01 4.539612e-01 2.150052e-01 3.919149e-01 3.154787e-01 7.459512e-01 4.563851e-01 6.384103e-01 4.600510e-01 5.732299e-01 3.269765e-01 1.606015e-01
<GCONST> 1.083894e+02
<STATE> 3
<MEAN> 39
 -8.130853e+00 9.796036e+00 8.873706e+00 8.035224e-01 -8.300133e+00 -3.991067e+00 -1.052680e+01 -1.073329e+01 -9.696040e+00 -5.250083e+00 -1.562730e+00 -2.162176e+00 6.412460e+01 1.480282e+00 6.736905e-01 9.936062e-01 -1.219587e+00 -1.617010e+00 -4.585711e-01 -2.446769e+00 -9.171103e-01 -1.027851e+00 4.488141e-01 9.456044e-01 9.386843e-02 5.616701e-01 -9.416409e-01 -5.612723e-01 -6.932396e-01 1.901194e-01 7.373990e-01 4.865348e-01 1.018373e+00 5.565578e-01 8.092066e-01 4.805900e-01 2.215727e-01 2.360176e-01 -1.812609e-01
<VARIANCE> 39
 2.928643e+00 3.879153e+00 7.708728e+00 1.292817e+01 1.585108e+01 7.918863e+00 1.258995e+01 1.055766e+01 8.900672e+00 1.220648e+01 1.066275e+01 9.412146e+00 1.976274e+00 2.015532e+00 1.198147e+00 1.549582e+00 9.966457e-01 2.254484e+00 1.897702e+00 3.280325e+00 2.429096e+00 2.481511e+00 1.714888e+00 1.779278e+00 1.119260e+00 3.546261e-01 1.703059e-01 1.112518e-01 1.350171e-01 2.534510e-01 3.215385e-01 2.248532e-01 5.002905e-01 2.493377e-01 3.768760e-01 3.409818e-01 4.366346e-01 2.310362e-01 6.261582e-02
<GCONST> 8.518928e+01
<STATE> 4
<MEAN> 39
 -8.896505e+00 8.606192e+00 9.047449e+00 6.404659e-01 -8.087173e+00 -2.567750e+00 -1.188992e+01 -1.077342e+01 -9.191089e+00 -4.044436e+00 -1.011675e+00 -2.460394e+00 6.387833e+01 -1.494666e-02 -2.131842e-01 -4.371009e-01 2.689961e-01 2.263480e-01 -1.319827e-01 2.509621e-01 -2.170516e-02 2.722502e-02 3.113717e-01 -2.191074e-01 2.362292e-03 -7.882329e-02 -5.516185e-02 -6.967485e-02 -1.594400e-01 1.734289e-01 8.959839e-02 -1.268597e-01 2.793855e-01 1.166340e-01 5.639589e-02 -5.949379e-02 -1.130755e-01 3.034264e-02 -3.967673e-02
<VARIANCE> 39
 3.770703e+00 4.486641e+00 1.506725e+01 1.255533e+01 2.262287e+01 1.148078e+01 1.292870e+01 1.224010e+01 1.029086e+01 2.188068e+01 1.411855e+01 1.012130e+01 3.839276e+00 1.586759e-01 3.286746e-01 5.979115e-01 8.517839e-01 1.414980e+00 1.182102e+00 1.213975e+00 1.077374e+00 9.288708e-01 9.600726e-01 1.038876e+00 7.808594e-01 1.388343e-01 4.643071e-02 7.170316e-02 1.171305e-01 1.672776e-01 2.793764e-01 1.950729e-01 2.035917e-01 2.134707e-01 2.001612e-01 2.222171e-01 2.833557e-01 1.605034e-01 2.692221e-02
<GCONST> 7.145152e+01
<TRANSP> 5
 0.000000e+00 1.000000e+00 0.000000e+00 0.000000e+00 0.000000e+00
 0.000000e+00 5.823637e-01 4.176363e-01 0.000000e+00 0.000000e+00
 0.000000e+00 0.000000e+00 6.217169e-01 3.782832e-01 0.000000e+00
 0.000000e+00 0.000000e+00 0.000000e+00 8.250654e-01 1.749346e-01
 0.000000e+00 0.000000e+00 0.000000e+00 0.000000e+00 0.000000e+00
<ENDHMM>
~h "ll"
<BEGINHMM>
<NUMSTATES> 5
<STATE> 2
<MEAN> 39
 -1.773663e+01 -2.927440e-02 -2.042888e+00 4.433196e+00 2.153443e+00 3.777351e+00 2.910067e+00 3.192882e+00 7.064759e-01 1.468707e+00 1.346689e+00 2.906679e+00 5.747653e+01 -9.065267e-03 -6.207066e-03 -4.063155e-03 5.477807e-04 -7.896648e-03 -1.235136e-02 -1.649689e-02 -1.787548e-02 -9.552769e-03 -1.433062e-02 -1.659463e-02 -3.094589e-02 -4.231994e-03 -3.168622e-03 -6.143988e-04 8.640016e-04 -6.523203e-04 4.348772e-03 5.110114e-03 2.440533e-03 -9.472751e-04 2.223134e-03 1.714154e-03 -1.512979e-03 -5.313104e-03 -8.842818e-04
<VARIANCE> 39
 9.255859e-01 1.680460e+00 3.430104e+00 4.251348e+00 6.854289e+00 7.897396e+00 9.210661e+00 9.980018e+00 1.147018e+01 1.091903e+01 9.809983e+00 8.678654e+00 4.455686e-01 8.126928e-02 1.631386e-01 2.845843e-01 4.420959e-01 6.691514e-01 7.671957e-01 9.005784e-01 9.861814e-01 1.152867e+00 1.102619e+00 9.504099e-01 8.407860e-01 3.210748e-02 1.446132e-02 3.243848e-02 5.674917e-02 8.954364e-02 1.366106e-01 1.571981e-01 1.860761e-01 1.968425e-01 2.386921e-01 2.271663e-01 1.933645e-01 1.732620e-01 5.075220e-03
<GCONST> 4.948390e+01
<STATE> 3
<MEAN> 39
 -1.907230e+01 3.350422e-01 -1.017127e+00 3.894210e+00 3.321095e+00 3.586423e+00 4.105927e+00 3.198088e+00 2.677397e+00 1.984183e+00 2.071221e+00 2.083852e+00 5.625753e+01 -3.644541e-03 -7.133416e-03 -1.037979e-02 -2.037852e-02 -6.629640e-03 7.442224e-03 2.737609e-03 -1.402536e-02 -1.173905e-02 -3.311326e-02 -2.034522e-02 -4.272834e-03 -1.138207e-03 1.038256e-02 1.876711e-03 2.816136e-03 -4.947314e-03 -2.133515e-02 -1.771632e-02 -1.746930e-02 -7.110766e-03 -1.957663e-02 -1.079661e-02 -8.308104e-03 5.507017e-03 6.981669e-03
<VARIANCE> 39
 1.159494e+00 2.626673e+00 3.883672e+00 6.223330e+00 8.702450e+00 9.743328e+00 1.232411e+01 1.217960e+01 1.488271e+01 1.227105e+01 1.270027e+01 1.035233e+01 6.332262e-01 9.511405e-02 2.354572e-01 3.850614e-01 5.666978e-01 8.722743e-01 9.551662e-01 1.133802e+00 1.302842e+00 1.239325e+00 1.205824e+00 1.201896e+00 1.017914e+00 3.545111e-02 1.891267e-02 4.963361e-02 8.173527e-02 1.197576e-01 1.881891e-01 2.047372e-01 2.405161e-01 2.766251e-01 2.604074e-01 2.518745e-01 2.619272e-01 2.130958e-01 6.282875e-03
<GCONST> 5.896314e+01
<STATE> 4
<MEAN> 39
 -1.805707e+01 -3.111473e-01 -1.726412e+00 4.119763e+00 1.813236e+00 3.302022e+00 2.618814e+00 2.834671e+00 1.008022e+00 1.002649e+00 1.426085e+00 2.360074e+00 5.760615e+01 7.876392e-02 1.060117e-01 1.426126e-01 7.283388e-03 -1.519789e-01 -2.401913e-01 -1.998792e-01 -2.702442e-01 -2.721714e-01 -1.205418e-01 -2.129793e-01 -1.065095e-01 1.014055e-01 7.448558e-02 1.270545e-01 1.107945e-01 3.707666e-02 6.040767e-03 -8.835001e-02 -9.651493e-02 -1.766547e-01 -1.464183e-01 -9.302943e-02 -1.342757e-01 -1.036599e-01 5.497809e-02
<VARIANCE> 39
 1.716062e+00 3.044942e+00 5.067191e+00 6.592462e+00 1.042648e+01 1.127818e+01 1.284629e+01 1.349446e+01 1.136895e+01 9.644042e+00 1.128933e+01 9.204045e+00 1.037481e+00 2.079895e-01 3.051877e-01 5.188074e-01 8.192430e-01 1.230904e+00 1.598172e+00 1.388691e+00 1.552761e+00 1.216112e+00 1.049480e+00 1.354287e+00 1.065244e+00 1.139846e-01 5.210810e-02 8.718937e-02 1.267860e-01 1.687408e-01 2.680687e-01 3.646434e-01 3.107249e-01 3.661256e-01 2.990147e-01 2.447011e-01 2.833417e-01 2.441764e-01 2.594032e-02
<GCONST> 6.973493e+01
<TRANSP> 5
 0.000000e+00 1.000000e+00 0.000000e+00 0.000000e+00 0.000000e+00
 0.000000e+00 9.714476e-01 2.855234e-02 0.000000e+00 0.000000e+00
 0.000000e+00 0.000000e+00 9.279259e-01 7.207403e-02 0.000000e+00
 0.000000e+00 0.000000e+00 0.000000e+00 7.840937e-01 2.159062e-01
 0.000000e+00 0.000000e+00 0.000000e+00 0.000000e+00 0.000000e+00
<ENDHMM>
~h "ng"
<BEGINHMM>
<NUMSTATES> 5
<STATE> 2
<MEAN> 39
 -7.641363e+00 9.344542e+00 4.270481e+00 4.174614e+00 -3.285396e+00 -5.376788e+00 -9.905954e+00 -1.269339e+01 -1.082100e+01 -2.859341e+00 -2.628481e+00 -1.110015e+00 6.275310e+01 -1.792310e-01 2.135435e-02 -4.167225e-02 5.504682e-01 3.800960e-01 -2.892913e-01 3.112242e-02 1.173558e-01 -2.339925e-01 -5.905346e-01 -3.122725e-01 1.459295e-01 -2.259426e-01 -7.552776e-02 -6.430735e-02 9.391043e-02 5.019044e-03 -1.329488e-02 5.774890e-02 -6.399072e-03 8.112004e-02 2.114546e-02 -8.049572e-02 -4.611667e-02 -5.221612e-02 -4.400037e-03
<VARIANCE> 39
 2.213489e+00 4.078522e+00 3.282801e+00 6.137654e+00 9.076137e+00 7.472334e+00 7.985686e+00 1.046906e+01 9.638068e+00 1.261560e+01 1.148081e+01 8.587685e+00 1.219264e+00 7.745759e-02 3.317154e-01 4.169598e-01 6.470109e-01 5.675998e-01 7.853669e-01 6.720243e-01 7.142570e-01 6.508427e-01 8.852127e-01 8.908518e-01 7.497075e-01 5.231145e-02 1.457344e-02 7.335593e-02 6.824873e-02 1.241512e-01 1.169929e-01 1.429646e-01 1.525074e-01 1.460994e-01 1.330840e-01 1.787518e-01 1.774005e-01 1.651216e-01 1.050420e-02
<GCONST> 5.336275e+01
<STATE> 3
<MEAN> 39
 -9.896811e+00 7.964993e+00 5.394949e+00 8.524500e+00 -1.330837e+00 -6.802455e+00 -9.921322e+00 -1.090505e+01 -1.207692e+01 -7.103834e+00 -5.778548e+00 -1.578079e+00 6.149841e+01 -9.983035e-01 -6.886479e-01 -2.053147e-01 2.965722e-01 9.824591e-01 1.067448e+00 1.062196e+00 9.579872e-01 3.591484e-01 -5.363120e-01 -6.974979e-01 -4.493193e-01 -5.502884e-01 -1.970219e-01 -1.828742e-01 -3.529483e-01 -3.926310e-01 8.510365e-02 4.804832e-01 4.818261e-01 3.678083e-01 4.262846e-01 4.110005e-01 3.358324e-01 1.579823e-01 -1.126093e-01
<VARIANCE> 39
 2.332083e+00 1.391670e+01 3.715680e+00 1.472209e+01 1.085464e+01 1.593835e+01 1.128505e+01 1.260186e+01 1.233906e+01 1.821845e+01 1.358711e+01 1.094847e+01 2.814139e+00 2.934389e-01 1.493710e+00 5.138800e-01 2.140550e+00 6.518046e-01 2.204238e+00 1.692952e+00 1.624105e+00 1.432355e+00 1.835736e+00 1.255400e+00 1.206686e+00 2.000044e-01 2.842373e-02 3.342884e-01 8.314102e-02 3.734577e-01 1.388635e-01 3.097842e-01 2.306384e-01 2.843097e-01 2.566647e-01 4.480846e-01 2.771160e-01 2.669816e-01 3.447560e-02
<GCONST> 7.900542e+01
<STATE> 4
<MEAN> 39
 -1.422887e+01 4.716293e+00 2.484498e+00 6.669631e+00 2.226823e+00 -6.304872e-01 -3.863378e+00 -5.893115e+00 -8.238487e+00 -6.082479e+00 -5.439291e+00 -1.182317e+00 5.899828e+01 -1.086239e+00 -1.215622e+00 -1.133582e+00 -6.675113e-01 2.818486e-01 1.118361e+00 1.659548e+00 1.780858e+00 1.648973e+00 1.340128e+00 1.037771e+00 8.311784e-01 -5.007119e-01 3.520634e-01 9.252355e-02 -2.273472e-01 -3.648770e-01 -3.487692e-01 -2.739702e-01 -2.930955e-01 -1.917717e-01 -5.226497e-02 2.574775e-01 3.807248e-01 2.387943e-01 2.333513e-01
<VARIANCE> 39
 2.226631e+00 3.604530e+00 4.967841e+00 5.072970e+00 8.082718e+00 1.185528e+01 1.782651e+01 1.740459e+01 1.672421e+01 1.548287e+01 1.258482e+01 1.199016e+01 8.738810e-01 2.783407e-01 4.648402e-01 4.125311e-01 5.882460e-01 8.119063e-01 1.498141e+00 1.463219e+00 1.348064e+00 1.373885e+00 1.474525e+00 1.134693e+00 1.125532e+00 9.828371e-02 1.027976e-01 9.143747e-02 1.779409e-01 2.577001e-01 1.444851e-01 3.064983e-01 2.765989e-01 2.709382e-01 2.798721e-01 3.698440e-01 2.880993e-01 2.838678e-01 4.983496e-02
<GCONST> 7.254154e+01
<TRANSP> 5
 0.000000e+00 1.000000e+00 0.000000e+00 0.000000e+00 0.000000e+00
 0.000000e+00 8.967309e-01 1.032691e-01 0.000000e+00 0.000000e+00
 0.000000e+00 0.000000e+00 6.929350e-01 3.070650e-01 0.000000e+00
 0.000000e+00 0.000000e+00 0.000000e+00 6.552731e-01 3.447268e-01
 0.000000e+00 0.000000e+00 0.000000e+00 0.000000e+00 0.000000e+00
<ENDHMM>
~h "oh"
<BEGINHMM>
<NUMSTATES> 5
<STATE> 2
<MEAN> 39
 -6.585979e+00 5.319752e+00 -3.426927e+00 -4.231798e+00 -6.711902e+00 -1.555190e+00 -4.605602e+00 -6.018499e+00 -4.507260e+00 -1.810943e+00 -1.738064e+00 9.134322e-02 6.425484e+01 1.539128e+00 8.656014e-01 -8.461928e-01 -2.382849e+00 -1.416758e+00 3.942338e-01 -2.992520e-01 -1.014725e+00 -6.986083e-01 -6.601758e-02 5.216148e-01 4.582732e-01 6.491340e-01 -2.963223e-01 -1.951707e-01 -4.954556e-02 1.180682e-02 1.891622e-01 2.342253e-01 2.801999e-01 2.492787e-01 1.258668e-01 -2.750998e-02 1.652898e-01 2.655109e-01 -3.192996e-02
<VARIANCE> 39
 2.875759e+01 1.389016e+01 1.412115e+01 5.775221e+01 3.618683e+01 2.553526e+01 4.258678e+01 3.982812e+01 2.705965e+01 3.793290e+01 2.625693e+01 1.737369e+01 1.230060e+01 3.090814e+00 1.739218e+00 1.899357e+00 5.452960e+00 4.788605e+00 3.168187e+00 2.546928e+00 2.843764e+00 3.131975e+00 3.513249e+00 3.367958e+00 2.349327e+00 1.044210e+00 4.660484e-01 3.245198e-01 3.279477e-01 1.135791e+00 8.202470e-01 4.149448e-01 6.442589e-01 6.601745e-01 5.578135e-01 7.786738e-01 5.820890e-01 3.891553e-01 1.922218e-01
<GCONST> 1.186542e+02
<STATE> 3
<MEAN> 39
 -3.990328e+00 6.974868e+00 -5.519337e+00 -9.370735e+00 -8.944778e+00 1.834076e-01 -3.975677e+00 -7.664107e+00 -7.073898e+00 -3.269308e+00 -2.514859e-01 2.794759e+00 6.540385e+01 -7.866300e-01 -1.686133e-03 5.411512e-01 1.219919e+00 8.871807e-01 -1.290906e-01 2.116719e-01 5.654113e-01 8.662426e-02 -2.468675e-01 -4.427791e-01 -4.601961e-01 -5.375423e-01 -3.693854e-01 -1.054532e-01 2.940133e-01 5.651416e-01 2.972037e-01 -8.884344e-02 1.660177e-03 2.382874e-01 2.016728e-01 1.860716e-02 -1.855311e-01 -2.042835e-01 -1.756003e-01
<VARIANCE> 39
 1.319301e+01 5.703138e+00 9.332446e+00 3.304455e+01 2.258345e+01 1.653296e+01 2.670517e+01 2.961712e+01 1.508903e+01 2.573119e+01 2.577003e+01 1.912546e+01 6.518781e+00 7.817726e-01 5.753465e-01 1.194605e+00 3.323283e+00 1.611038e+00 1.867799e+00 2.692064e+00 3.128307e+00 1.945342e+00 3.008624e+00 2.726582e+00 2.445962e+00 3.208248e-01 1.060479e-01 1.156192e-01 1.862316e-01 4.161692e-01 3.112313e-01 4.123601e-01 3.709681e-01 4.806019e-01 3.447536e-01 4.728423e-01 5.119519e-01 4.448411e-01 5.030881e-02
<GCONST> 9.768220e+01
<STATE> 4
<MEAN> 39
 -1.588759e+01 1.894271e+00 -1.380203e+00 3.224829e+00 1.100290e+00 1.915391e+00 9.938396e-01 9.411194e-01 -1.543127e+00 -4.864177e-01 -8.576714e-01 1.511214e+00 5.848287e+01 -5.159213e-01 -2.524711e-01 9.817123e-02 3.369308e-01 3.838413e-01 1.826637e-01 1.878491e-01 3.008096e-01 2.805565e-01 2.498610e-01 1.859628e-01 1.261320e-01 -2.040666e-01 9.451206e-02 2.780984e-02 -6.819326e-02 -1.529529e-01 -1.175179e-01 -2.267455e-02 -2.831705e-02 -8.777160e-02 -3.220309e-02 -7.149830e-03 1.986389e-02 2.881790e-02 9.000023e-02
<VARIANCE> 39
 1.083058e+01 8.368892e+00 6.121804e+00 1.039836e+01 1.332399e+01 1.579221e+01 2.004207e+01 2.242442e+01 2.071997e+01 2.031180e+01 1.891885e+01 1.552244e+01 3.551068e+00 7.795056e-01 5.003971e-01 7.325030e-01 1.391815e+00 1.226843e+00 1.284640e+00 1.442435e+00 1.668891e+00 1.586405e+00 1.662173e+00 1.571182e+00 1.456787e+00 2.225203e-01 7.041291e-02 8.405700e-02 1.272424e-01 2.193776e-01 2.118888e-01 2.510419e-01 2.823606e-01 3.178040e-01 3.014364e-01 3.104160e-01 3.297648e-01 3.278856e-01 2.576667e-02
<GCONST> 8.318772e+01
<TRANSP> 5
 0.000000e+00 1.000000e+00 0.000000e+00 0.000000e+00 0.000000e+00
 0.000000e+00 5.916346e-01 4.083653e-01 0.000000e+00 0.000000e+00
 0.000000e+00 0.000000e+00 7.738692e-01 2.261309e-01 0.000000e+00
 0.000000e+00 0.000000e+00 0.000000e+00 8.896994e-01 1.103006e-01
 0.000000e+00 0.000000e+00 0.000000e+00 0.000000e+00 0.000000e+00
<ENDHMM>
~h "sp"
<BEGINHMM>
<NUMSTATES> 3
<STATE> 2
~s "silst"
<TRANSP> 3
 0.000000e+00 7.000000e-01 3.000000e-01
 0.000000e+00 9.000000e-01 9.999999e-02
 0.000000e+00 0.000000e+00 0.000000e+00
<ENDHMM>
~h "th"
<BEGINHMM>
<NUMSTATES> 5
<STATE> 2
<MEAN> 39
 -2.011170e+01 2.163501e+00 -2.755478e+00 3.597246e+00 3.149226e+00 1.878701e+00 3.305902e+00 2.568755e+00 7.446873e-01 1.048586e+00 1.047679e+00 2.599719e+00 5.884962e+01 -4.375421e-01 2.553548e-01 -2.468704e-01 -2.011599e-02 1.106351e-01 -1.716743e-01 2.208578e-01 -3.673178e-05 2.565494e-01 4.496237e-02 1.028953e-01 6.630584e-02 1.976265e-01 -3.090803e-03 2.127799e-02 -5.512560e-03 -1.651106e-04 -3.117074e-02 -2.282322e-02 5.375050e-03 -2.698997e-02 -2.839451e-03 -3.606336e-02 -1.853985e-02 -1.354830e-02 3.185578e-02
<VARIANCE> 39
 1.173238e+01 9.815907e+00 7.468131e+00 9.442269e+00 1.134360e+01 1.267681e+01 1.445521e+01 1.551097e+01 1.715857e+01 1.333395e+01 1.275079e+01 1.016411e+01 4.049695e+00 4.049363e-01 4.580956e-01 5.132042e-01 6.633980e-01 8.402916e-01 1.065219e+00 1.223286e+00 1.382834e+00 1.493392e+00 1.276785e+00 1.215335e+00 1.045367e+00 1.377621e-01 5.370868e-02 6.893606e-02 8.755974e-02 1.325043e-01 1.710942e-01 2.034393e-01 2.315491e-01 2.727167e-01 2.862360e-01 2.553930e-01 2.459997e-01 2.116771e-01 1.251372e-02
<GCONST> 7.318410e+01
<STATE> 3
<MEAN> 39
 -2.656796e+01 6.251452e+00 -6.621904e+00 3.429461e+00 2.655489e+00 -1.202424e+00 6.074912e+00 6.592790e-01 4.374022e+00 -2.288474e-01 1.971659e+00 2.857734e+00 6.323567e+01 6.265032e-02 -3.193831e-01 2.582089e-01 1.967217e-02 -2.943338e-01 -1.335862e-01 1.478007e-01 -1.308816e-01 1.313023e-01 -6.905369e-02 -4.599681e-02 -6.254551e-04 1.577431e-01 3.937487e-01 -1.156302e-01 3.198984e-01 3.697738e-02 -4.246136e-02 -3.132926e-03 -2.066045e-01 -8.264742e-02 -2.182709e-01 -4.264110e-02 -1.341399e-01 -6.279121e-02 -1.362519e-01
<VARIANCE> 39
 2.517431e+00 3.242610e+00 6.347213e+00 1.015884e+01 1.486804e+01 1.394721e+01 1.203401e+01 1.663637e+01 1.408495e+01 1.352754e+01 1.281736e+01 1.084518e+01 2.398731e+00 6.085523e-01 5.435506e-01 9.458639e-01 7.612090e-01 9.411201e-01 1.438554e+00 1.285961e+00 1.536143e+00 1.301575e+00 1.342004e+00 1.229420e+00 1.202500e+00 2.077646e-01 1.712255e-01 8.444045e-02 1.346294e-01 1.541592e-01 2.087412e-01 2.811989e-01 3.705119e-01 3.100779e-01 3.196534e-01 2.978394e-01 2.700695e-01 2.467910e-01 2.263845e-02
<GCONST> 7.660382e+01
<STATE> 4
<MEAN> 39
 -2.304486e+01 2.320070e+00 -1.926141e+00 3.697841e+00 1.510788e+00 -1.156124e+00 6.407001e+00 6.135824e-02 3.873153e+00 2.538023e-01 1.207066e+00 3.163582e+00 6.202765e+01 3.266356e+00 -1.605798e-02 2.334572e+00 5.196440e-01 -6.719092e-01 -2.991950e-01 -2.323529e+00 -1.201549e+00 -2.135912e+00 -1.040247e+00 -1.465913e+00 -8.536385e-01 -6.683871e-01 9.993702e-01 7.482351e-01 2.327761e-01 -2.625289e-01 -8.171764e-01 -5.824502e-01 -1.267391e+00 -5.212760e-01 -9.620950e-01 -3.863330e-01 -1.172762e-01 -3.347366e-01 3.388622e-01
<VARIANCE> 39
 9.524093e+00 6.102063e+00 1.017801e+01 9.176967e+00 1.514053e+01 2.383257e+01 1.500618e+01 2.065348e+01 2.021542e+01 1.628016e+01 1.183506e+01 1.067881e+01 5.449753e+00 1.322244e+00 1.201549e+00 1.009069e+00 8.505587e-01 1.745439e+00 2.635432e+00 2.988919e+00 2.493670e+00 2.199629e+00 1.914857e+00 1.351581e+00 1.441757e+00 2.518417e-01 2.030324e-01 1.506052e-01 1.731545e-01 2.200428e-01 3.900829e-01 3.854833e-01 3.672508e-01 3.487759e-01 3.601248e-01 3.638784e-01 3.063923e-01 2.309939e-01 8.928052e-02
<GCONST> 9.100246e+01
<TRANSP> 5
 0.000000e+00 1.000000e+00 0.000000e+00 0.000000e+00 0.000000e+00
 0.000000e+00 9.389461e-01 6.105385e-02 0.000000e+00 0.000000e+00
 0.000000e+00 0.000000e+00 8.597296e-01 1.402704e-01 0.000000e+00
 0.000000e+00 0.000000e+00 0.000000e+00 4.501224e-01 5.498776e-01
 0.000000e+00 0.000000e+00 0.000000e+00 0.000000e+00 0.000000e+00
<ENDHMM>
~h "uh"
<BEGINHMM>
<NUMSTATES> 5
<STATE> 2
<MEAN> 39
 -8.239416e+00 7.226733e+00 -7.419334e-01 -1.076552e+00 -5.932204e+00 -3.663249e+00 -3.053782e+00 -1.190403e+00 -2.619288e+00 -3.077811e+00 -5.254216e+00 -3.456029e+00 6.234375e+01 2.397693e+00 1.710937e+00 -1.081567e-01 -1.966656e+00 -2.495904e+00 -1.584616e+00 -1.095766e+00 -5.236635e-01 -1.715852e-01 -3.999586e-01 -5.876309e-01 -1.167893e+00 1.237938e+00 -1.503395e-01 -8.582768e-02 -3.582773e-02 3.096942e-02 1.373757e-01 1.583878e-01 6.384340e-02 9.147077e-02 1.891459e-01 2.961318e-01 2.928495e-01 1.522552e-01 -8.012402e-02
<VARIANCE> 39
 3.880777e+01 2.257081e+01 6.887359e+00 3.817480e+01 5.227835e+01 3.378949e+01 3.103262e+01 3.201816e+01 1.728986e+01 2.198323e+01 2.416766e+01 2.751139e+01 1.238768e+01 1.748472e+00 1.538110e+00 9.184360e-01 2.128070e+00 3.390850e+00 2.761739e+00 1.972782e+00 1.933676e+00 2.189778e+00 3.275386e+00 3.311129e+00 2.725276e+00 4.650318e-01 6.839492e-01 4.474119e-01 1.914449e-01 6.919362e-01 1.077770e+00 7.158706e-01 4.818674e-01 4.117642e-01 3.685140e-01 5.884659e-01 5.988512e-01 6.084779e-01 1.901413e-01
<GCONST> 1.127185e+02
<STATE> 3
<MEAN> 39
 -2.936855e+00 1.092872e+01 -1.660541e+00 -4.558494e+00 -8.575360e+00 -5.047812e+00 -5.439044e+00 -4.699349e+00 -5.495842e+00 -3.883582e+00 -4.986878e+00 -4.039050e+00 6.504607e+01 -1.797138e-01 -1.561655e-01 2.005653e-01 5.526936e-01 6.616187e-01 3.909683e-01 -3.048794e-01 -8.407907e-01 -7.753282e-01 -1.639777e-01 2.428245e-01 3.602799e-01 -6.193399e-02 -1.899984e-01 -7.943417e-02 2.135819e-01 3.070105e-01 1.241207e-01 -7.407562e-02 -5.913836e-02 -2.827933e-02 -1.053625e-02 -2.561238e-02 -5.825414e-02 -2.359828e-02 -9.435723e-02
<VARIANCE> 39
 2.843939e+00 5.302791e+00 6.709932e+00 1.768150e+01 2.362517e+01 1.841395e+01 1.785703e+01 3.407529e+01 3.127253e+01 2.611072e+01 1.999524e+01 1.687935e+01 1.514287e+00 2.050744e-01 3.581875e-01 9.649920e-01 1.399880e+00 1.439393e+00 1.793438e+00 1.521710e+00 1.778574e+00 1.875669e+00 2.743005e+00 1.719037e+00 1.292465e+00 8.227697e-02 4.844927e-02 7.217702e-02 1.728774e-01 1.877577e-01 2.482449e-01 3.926210e-01 3.037245e-01 3.564598e-01 4.431346e-01 5.626871e-01 3.433393e-01 2.620775e-01 2.078165e-02
<GCONST> 8.286129e+01
<STATE> 4
<MEAN> 39
 -7.205237e+00 9.415342e+00 4.005903e+00 5.305161e+00 -1.669735e+00 -4.968630e+00 -9.972855e+00 -1.165539e+01 -8.907012e+00 -2.530457e+00 -3.476857e+00 -1.897445e+00 6.279954e+01 -3.062326e-01 -8.468565e-02 6.213757e-01 6.284833e-01 -2.722874e-02 -4.187585e-01 -3.014145e-01 -6.578006e-02 1.731224e-01 1.677826e-01 -6.551456e-02 -7.802014e-02 -1.267130e-01 1.535896e-01 -9.771640e-02 -3.060796e-01 -4.170933e-01 -1.592386e-01 2.664259e-01 2.149478e-01 1.270199e-01 -3.387458e-02 -2.531662e-01 -7.025039e-02 3.863921e-02 1.394992e-01
<VARIANCE> 39
 3.048095e+00 3.301668e+00 4.762290e+00 6.765353e+00 1.149487e+01 8.281034e+00 1.014142e+01 9.951035e+00 9.938297e+00 1.222080e+01 1.098235e+01 8.308826e+00 1.830556e+00 2.660288e-01 2.542289e-01 1.215743e+00 1.325446e+00 7.952698e-01 1.233048e+00 1.192129e+00 9.278971e-01 1.108787e+00 1.436679e+00 8.320211e-01 6.741797e-01 1.412870e-01 3.397035e-02 6.069003e-02 1.594918e-01 1.863745e-01 1.355816e-01 2.004068e-01 2.279087e-01 2.089611e-01 2.048485e-01 1.982341e-01 1.833154e-01 1.417430e-01 1.873566e-02
<GCONST> 6.516043e+01
<TRANSP> 5
 0.000000e+00 1.000000e+00 0.000000e+00 0.000000e+00 0.000000e+00
 0.000000e+00 7.028288e-01 2.971711e-01 0.000000e+00 0.000000e+00
 0.000000e+00 0.000000e+00 8.790900e-01 1.209100e-01 0.000000e+00
 0.000000e+00 0.000000e+00 0.000000e+00 8.129951e-01 1.870049e-01
 0.000000e+00 0.000000e+00 0.000000e+00 0.000000e+00 0.000000e+00
<ENDHMM>
~h "sil"
<BEGINHMM>
<NUMSTATES> 5
<STATE> 2
<MEAN> 39
 -1.628756e+01 1.556587e+00 -1.379824e+00 3.975705e+00 1.238458e+00 1.751476e+00 1.860950e+00 7.663148e-01 2.261123e-01 -4.280889e-01 -6.783615e-01 7.503061e-01 5.945371e+01 7.154246e-02 -2.917759e-01 1.111612e-01 6.757388e-02 1.780471e-01 2.615292e-01 -1.432434e-02 3.011080e-01 1.192729e-01 3.328110e-01 1.931122e-01 3.126408e-01 -2.844343e-01 -1.406286e-02 4.085702e-02 -1.583802e-02 1.603407e-02 -8.445021e-03 4.961047e-02 8.780593e-02 1.013360e-01 4.625796e-02 5.373688e-02 4.189721e-02 3.361276e-02 3.187339e-02
<VARIANCE> 39
 2.160783e+01 1.026088e+01 1.445882e+01 1.318006e+01 1.966415e+01 2.309750e+01 2.209646e+01 2.786586e+01 2.515078e+01 1.978348e+01 2.905946e+01 2.304887e+01 8.835483e+00 9.231226e-01 6.353680e-01 1.035729e+00 9.112211e-01 1.477550e+00 1.908693e+00 1.887707e+00 2.161539e+00 1.961995e+00 1.741321e+00 1.880751e+00 1.725522e+00 3.952827e-01 1.068568e-01 1.052765e-01 1.538479e-01 1.732829e-01 2.532558e-01 3.177468e-01 3.219965e-01 3.818552e-01 3.328707e-01 2.990264e-01 2.675416e-01 2.837635e-01 5.315245e-02
<GCONST> 9.254691e+01
<STATE> 3
~s "silst"
<STATE> 4
<MEAN> 39
 -1.794131e+01 4.280119e-02 -1.936388e+00 4.102530e+00 2.294237e+00 3.529336e+00 3.128259e+00 3.071476e+00 9.130039e-01 1.511017e+00 1.319240e+00 2.863820e+00 5.728344e+01 -8.523067e-03 -8.920201e-03 -1.357914e-02 -1.354482e-02 -1.611738e-02 -2.947565e-02 -2.032713e-02 -1.370559e-02 -2.292294e-02 -2.127983e-02 -2.172326e-02 -1.477520e-02 -2.417669e-03 -1.436098e-03 5.703590e-03 2.991910e-03 3.785379e-03 1.786086e-03 -2.688786e-03 -6.978338e-04 -3.227084e-03 -9.129050e-04 -5.387994e-03 -4.861672e-03 -4.945725e-03 5.388893e-03
<VARIANCE> 39
 1.288530e+00 2.030322e+00 3.469273e+00 4.999433e+00 7.272195e+00 9.062004e+00 1.039260e+01 1.115981e+01 1.191772e+01 1.080886e+01 1.115057e+01 9.665912e+00 6.645616e-01 9.548636e-02 1.981804e-01 3.329421e-01 5.148218e-01 7.150437e-01 8.854885e-01 1.018827e+00 1.137042e+00 1.136358e+00 1.110946e+00 1.067582e+00 9.372895e-01 3.468929e-02 1.789607e-02 4.042492e-02 6.755634e-02 1.051126e-01 1.451430e-01 1.806560e-01 2.078068e-01 2.291148e-01 2.300094e-01 2.292568e-01 2.178090e-01 1.892763e-01 5.889797e-03
<GCONST> 5.426430e+01
<TRANSP> 5
 0.000000e+00 1.000000e+00 0.000000e+00 0.000000e+00 0.000000e+00
 0.000000e+00 4.198637e-01 3.614917e-01 2.186446e-01 0.000000e+00
 0.000000e+00 0.000000e+00 9.065368e-01 9.346315e-02 0.000000e+00
 0.000000e+00 5.950978e-03 0.000000e+00 9.622881e-01 3.176091e-02
 0.000000e+00 0.000000e+00 0.000000e+00 0.000000e+00 0.000000e+00
<ENDHMM>
