~o
<STREAMINFO> 1 39
<VECSIZE> 39<NULLD><MFCC_D_A_0><DIAGC>
~s "silst"
<MEAN> 39
 -1.663562e+01 1.912219e+00 -6.929287e-02 5.516742e+00 3.376528e+00 3.873869e+00 3.084679e+00 2.502599e+00 4.693676e-01 4.520367e-01 5.772970e-01 1.412930e+00 5.783714e+01 -5.593069e-02 -6.508216e-02 -9.801066e-03 4.305921e-03 2.748473e-02 7.204403e-02 6.370489e-02 1.019037e-01 6.388109e-02 1.496275e-01 9.932094e-02 7.190748e-02 -5.851842e-02 -4.052614e-03 1.036569e-02 -3.327024e-02 -3.268679e-02 -3.563711e-02 -4.841880e-02 -2.058584e-02 -4.477753e-02 -2.981523e-02 -4.435528e-02 -2.841268e-02 -3.179400e-02 2.377857e-02
<VARIANCE> 39
 2.084774e+00 3.606829e+00 4.748707e+00 5.807437e+00 8.869814e+00 1.199390e+01 1.513371e+01 1.612284e+01 1.896175e+01 1.507975e+01 1.574545e+01 1.188898e+01 8.606158e-01 1.660024e-01 3.108493e-01 4.687044e-01 5.906822e-01 8.089745e-01 1.012465e+00 1.196351e+00 1.368916e+00 1.502890e+00 1.363853e+00 1.296547e+00 1.080072e+00 5.387653e-02 3.219225e-02 6.153259e-02 9.288619e-02 1.163417e-01 1.682809e-01 2.148200e-01 2.493623e-01 2.791790e-01 3.021596e-01 2.733320e-01 2.561038e-01 2.211959e-01 9.877699e-03
<GCONST> 6.537349e+01
~h "b"
<BEGINHMM>
<NUMSTATES> 5
<STATE> 2
<MEAN> 39
 -4.978213e+00 7.089266e+00 -2.512509e-01 7.820600e-01 -4.092376e+00 -4.029061e+00 -8.903162e+00 -1.067917e+01 -7.114027e+00 -3.627384e+00 -4.610359e+00 -3.252628e+00 6.501147e+01 4.433939e-01 -4.642977e-01 -4.313768e-01 -4.062245e-01 -5.318385e-01 -1.331455e-01 -2.185125e-01 2.951965e-01 5.186574e-01 -7.122841e-02 -1.810922e-01 3.948111e-02 4.543060e-01 -1.150108e-01 -8.953382e-02 6.995968e-02 8.896356e-02 -1.984825e-02 -3.710418e-02 1.193086e-01 2.003020e-01 7.057508e-02 -1.006859e-01 -9.482220e-02 6.197109e-02 -3.225286e-02
<VARIANCE> 39
 8.839550e+00 9.577595e+00 2.372487e+01 2.399873e+01 3.162067e+01 1.710223e+01 1.347515e+01 1.775177e+01 1.624578e+01 1.610677e+01 2.077542e+01 8.410217e+00 6.582511e+00 2.548137e-01 5.725387e-01 1.381753e+00 1.196955e+00 1.062369e+00 1.460760e+00 1.418250e+00 1.668514e+00 1.684383e+00 1.574594e+00 1.638634e+00 8.601801e-01 1.132158e-01 4.167815e-02 9.711097e-02 2.711284e-01 1.813317e-01 3.159591e-01 2.814184e-01 3.529438e-01 3.137707e-01 3.849805e-01 3.174575e-01 3.230810e-01 1.865332e-01 1.979393e-02
<GCONST> 8.388850e+01
<STATE> 3
<MEAN> 39
 -4.579845e+00 2.653148e+00 3.412813e+00 2.708600e-01 -1.512327e+01 -1.004039e+01 -6.515159e+00 -3.185260e+00 -6.939767e+00 -6.351243e+00 -2.740831e+00 1.057086e-01 6.796019e+01 -1.396307e-01 -3.154510e-02 2.949779e-01 3.721323e-01 -1.883117e-01 -6.748381e-01 2.847170e-02 2.694125e-01 -2.365389e-01 -7.576047e-02 4.807763e-01 4.445806e-01 -9.629785e-02 -1.728689e-02 1.434411e-01 -1.848005e-01 3.951215e-02 4.017210e-01 1.184104e-01 -1.437263e-01 -2.334213e-01 7.326572e-02 1.176838e-01 -7.597100e-02 -1.108640e-01 -1.100820e-01
<VARIANCE> 39
 3.222486e+00 1.043575e+01 1.405815e+01 8.736217e+00 1.651809e+01 1.816443e+01 1.434748e+01 1.326030e+01 1.795645e+01 1.374483e+01 2.388128e+01 8.781127e+00 2.171556e+00 1.545638e-01 4.235386e-01 1.307696e+00 5.672052e-01 2.061266e+00 8.136871e-01 1.506713e+00 1.251327e+00 1.457657e+00 9.355230e-01 1.040146e+00 6.301688e-01 1.205995e-01 2.327960e-02 8.672162e-02 8.769093e-02 9.897585e-02 2.658058e-01 1.931358e-01 2.063792e-01 2.157105e-01 2.804418e-01 1.950432e-01 2.556804e-01 1.298181e-01 2.409400e-02
<GCONST> 7.141364e+01
<STATE> 4
<MEAN> 39
 -6.947144e+00 5.659883e+00 3.401202e+00 4.340129e+00 -9.022115e+00 -1.134021e+01 -8.503679e+00 -5.370853e+00 -6.422542e+00 -4.725200e+00 -1.304414e+00 3.130378e-01 6.442646e+01 -4.437488e-01 4.175396e-01 -2.774983e-01 2.007189e-01 1.266913e+00 7.973615e-01 1.327991e-02 -3.238674e-01 2.177561e-01 3.371618e-01 -2.488361e-01 -3.020741e-01 -5.659432e-01 -3.136854e-02 -1.188296e-01 7.692937e-02 -9.911737e-02 -1.907880e-01 1.364332e-01 2.134922e-01 8.968597e-02 -4.416751e-02 4.229681e-02 9.666523e-02 1.641446e-02 5.809649e-02
<VARIANCE> 39
 8.078230e+00 1.140040e+01 1.214324e+01 8.126923e+00 3.585105e+01 2.436969e+01 1.564253e+01 1.562980e+01 1.408675e+01 1.346003e+01 1.709590e+01 1.134963e+01 6.945450e+00 6.077536e-01 1.196639e+00 1.153987e+00 8.231932e-01 4.560810e+00 2.889887e+00 1.827673e+00 2.046790e+00 1.532664e+00 1.173831e+00 1.249284e+00 1.126749e+00 6.726196e-01 1.210215e-01 2.435971e-01 1.487902e-01 1.428585e-01 6.691251e-01 7.069076e-01 3.014326e-01 4.224455e-01 2.956237e-01 2.585934e-01 2.193731e-01 2.460501e-01 1.368178e-01
<GCONST> 9.191160e+01
<TRANSP> 5
 0.000000e+00 1.000000e+00 0.000000e+00 0.000000e+00 0.000000e+00
 0.000000e+00 8.293251e-01 1.706749e-01 0.000000e+00 0.000000e+00
 0.000000e+00 0.000000e+00 8.752504e-01 1.247496e-01 0.000000e+00
 0.000000e+00 0.000000e+00 0.000000e+00 8.667969e-01 1.332031e-01
 0.000000e+00 0.000000e+00 0.000000e+00 0.000000e+00 0.000000e+00
<ENDHMM>
~h "f"
<BEGINHMM>
<NUMSTATES> 5
<STATE> 2
<MEAN> 39
 -7.693867e+00 7.665772e+00 7.076311e+00 1.520128e+00 -7.880462e+00 -8.395846e+00 -1.319698e+01 -9.018124e+00 -7.968451e+00 -5.381709e+00 -4.646459e+00 -3.134585e+00 6.404145e+01 3.292069e-01 -1.341093e+00 -3.945827e-02 -7.478189e-01 -1.842304e+00 -8.818414e-01 3.851722e-01 1.912015e+00 6.028521e-02 -4.064409e-01 1.291754e+00 1.020970e+00 9.558361e-01 1.860851e-01 -5.345515e-01 -3.723384e-02 -4.026279e-01 -9.368808e-01 -3.605839e-01 1.278248e-01 7.375032e-01 3.566082e-01 9.257584e-02 5.304372e-01 4.825623e-01 4.352332e-01
<VARIANCE> 39
 1.709577e+00 6.308860e+00 7.173122e+00 5.693377e+00 1.052151e+01 1.098536e+01 1.208467e+01 2.184115e+01 1.059894e+01 1.246380e+01 1.144730e+01 1.145080e+01 2.337006e+00 2.633276e-01 1.299996e+00 6.886376e-01 1.334973e+00 3.254529e+00 1.759251e+00 1.049666e+00 3.058638e+00 1.338634e+00 9.490406e-01 1.906273e+00 1.699898e+00 7.347695e-01 3.069492e-02 1.428655e-01 1.629887e-01 1.605716e-01 2.084210e-01 2.782530e-01 2.011949e-01 4.686318e-01 2.421503e-01 2.271203e-01 2.190397e-01 2.636929e-01 4.829049e-02
<GCONST> 7.849725e+01
<STATE> 3
<MEAN> 39
 -5.327895e+00 3.081109e-02 6.966660e+00 -2.347324e+00 -2.054216e+01 -1.283236e+01 -1.083028e+01 -2.631156e-01 -5.999706e+00 -4.894362e+00 2.538491e+00 1.795231e+00 6.982405e+01 2.446808e-01 -3.520519e-01 -3.707961e-01 5.554529e-01 -2.577533e-01 -2.754225e-01 5.747910e-01 4.501742e-01 2.142920e-01 3.237321e-01 1.985495e-01 2.905883e-01 2.125341e-01 -1.632773e-01 4.149567e-01 -1.713735e-01 4.327197e-01 9.587685e-01 3.105155e-01 1.071749e-01 -3.342511e-01 1.098205e-01 1.315801e-01 -3.735143e-01 -1.881561e-01 -3.465126e-01
<VARIANCE> 39
 2.325142e+00 9.145245e+00 1.021324e+01 1.138227e+01 1.191529e+01 9.384133e+00 1.325915e+01 9.530622e+00 9.105055e+00 1.031559e+01 7.341818e+00 7.184748e+00 2.754431e+00 2.133471e-01 1.827875e+00 1.244471e+00 2.668172e+00 6.782122e+00 1.247801e+00 1.364832e+00 1.697139e+00 1.533556e+00 9.264742e-01 2.126881e+00 1.134672e+00 8.891605e-01 7.404341e-02 1.470019e-01 1.888307e-01 2.196580e-01 2.537158e-01 3.177131e-01 2.262080e-01 3.298248e-01 4.484521e-01 1.706003e-01 2.355014e-01 2.373164e-01 3.881952e-02
<GCONST> 8.139580e+01
<STATE> 4
<MEAN> 39
 -1.382584e+01 1.547126e+00 -1.583975e+00 4.881396e+00 -2.322806e+00 -2.148232e+00 -4.186584e+00 -1.725376e+00 -6.286968e-01 1.762109e-02 2.502665e-01 2.170546e+00 6.438538e+01 -5.366776e-01 2.289522e-01 -6.015423e-01 -2.613223e-01 1.129882e+00 1.222697e+00 5.897704e-01 -8.480837e-02 1.495194e-01 6.946970e-02 -1.699935e-01 -6.233163e-02 -5.607830e-01 3.066395e-01 7.831047e-02 6.031216e-02 -4.417072e-01 -5.445973e-01 -1.492229e-01 -6.689315e-02 -8.904036e-03 -2.409528e-01 -2.251735e-01 -3.778282e-02 -5.777748e-02 1.312318e-01
<VARIANCE> 39
 2.708961e+01 7.837544e+00 1.414442e+01 1.003963e+01 2.985332e+01 4.145467e+01 1.871963e+01 1.649423e+01 1.790137e+01 1.503089e+01 1.226588e+01 1.082816e+01 7.275016e+00 4.215897e+00 1.704819e+00 1.139371e+00 2.066080e+00 5.297244e+00 2.402486e+00 1.351192e+00 1.746302e+00 3.002955e+00 2.203424e+00 1.746359e+00 1.223935e+00 5.245888e-01 5.089052e-01 3.231949e-01 2.208628e-01 3.700497e-01 6.127241e-01 4.179674e-01 3.116971e-01 3.613264e-01 4.281145e-01 3.626990e-01 3.601486e-01 2.420790e-01 1.409961e-01
<GCONST> 1.014312e+02
<TRANSP> 5
 0.000000e+00 1.000000e+00 0.000000e+00 0.000000e+00 0.000000e+00
 0.000000e+00 6.567586e-01 3.432414e-01 0.000000e+00 0.000000e+00
 0.000000e+00 0.000000e+00 8.621585e-01 1.378414e-01 0.000000e+00
 0.000000e+00 0.000000e+00 0.000000e+00 9.135892e-01 8.641078e-02
 0.000000e+00 0.000000e+00 0.000000e+00 0.000000e+00 0.000000e+00
<ENDHMM>
~h "g"
<BEGINHMM>
<NUMSTATES> 5
<STATE> 2
<MEAN> 39
 -1.401381e+01 5.619644e+00 2.557723e+00 7.067995e+00 2.270389e+00 1.408062e+00 -1.784807e+00 -2.114902e+00 -6.255967e+00 -5.145520e+00 -4.347819e+00 -2.108003e+00 5.926497e+01 1.250665e+00 1.224840e+00 1.289323e+00 5.459188e-01 -7.296972e-01 -1.513805e+00 -2.062509e+00 -2.137648e+00 -1.809362e+00 -1.268770e+00 -1.190250e+00 -1.139720e+00 6.072536e-01 1.068735e-01 -4.229982e-02 -5.162279e-02 -2.113294e-01 -4.346464e-01 -4.600829e-01 -2.450792e-01 -3.607594e-01 -4.530441e-02 4.464959e-01 3.677388e-01 3.802527e-01 1.581013e-01
<VARIANCE> 39
 1.161478e+01 1.581645e+01 8.439897e+00 6.758513e+00 1.643382e+01 2.844316e+01 2.867317e+01 4.327138e+01 1.945110e+01 1.648502e+01 1.664756e+01 1.444769e+01 3.765536e+00 1.601645e+00 2.352688e+00 5.819744e-01 7.520302e-01 1.993377e+00 2.943621e+00 3.812341e+00 3.642971e+00 2.452180e+00 1.916548e+00 1.456758e+00 1.551041e+00 4.471589e-01 1.582513e-01 2.593948e-01 1.854076e-01 1.298607e-01 2.676634e-01 2.997873e-01 5.970428e-01 6.527967e-01 3.565570e-01 3.509242e-01 3.081974e-01 3.895106e-01 5.229274e-02
<GCONST> 9.570901e+01
<STATE> 3
<MEAN> 39
 -9.757771e+00 9.679408e+00 5.101537e+00 6.909517e+00 -1.995801e+00 -5.811148e+00 -8.715768e+00 -9.751558e+00 -1.102803e+01 -5.432154e+00 -3.931751e+00 -1.354034e+00 6.129847e+01 3.057529e-02 -3.623766e-01 1.176575e-01 -1.889951e-01 -4.238321e-01 -2.306450e-01 -4.146146e-02 -4.246620e-01 -4.290347e-01 1.639220e-01 3.810619e-02 2.154184e-01 1.985309e-01 -3.576124e-01 -6.360157e-01 -3.159086e-01 -2.785520e-01 -1.043689e-01 4.867241e-01 8.919114e-01 6.424410e-01 5.053995e-01 4.276852e-01 1.680946e-01 -2.866885e-02 7.741894e-02
<VARIANCE> 39
 8.036142e+00 5.958588e+00 3.831512e+00 6.443691e+00 1.554276e+01 1.463812e+01 1.327802e+01 8.785043e+00 9.138839e+00 1.532501e+01 1.345383e+01 1.032857e+01 2.510388e+00 1.377486e+00 1.874064e+00 5.545831e-01 6.689876e-01 1.929414e+00 3.232781e+00 2.846884e+00 2.857934e+00 1.487524e+00 2.521093e+00 1.903179e+00 1.367824e+00 5.830961e-01 2.253984e-01 2.511346e-01 1.086578e-01 2.398645e-01 6.832566e-01 5.419833e-01 4.257010e-01 3.423877e-01 2.802990e-01 5.632789e-01 4.384497e-01 2.813972e-01 1.431132e-01
<GCONST> 9.003764e+01
<STATE> 4
<MEAN> 39
 -1.247377e+01 4.245881e+00 3.484949e+00 5.791134e+00 -2.754184e+00 -2.271923e+00 -2.812725e+00 -7.438569e+00 -9.182223e+00 -3.921778e+00 -4.531569e+00 -2.085253e+00 6.210311e+01 3.295111e-02 -1.601769e+00 -9.038763e-02 -1.435319e+00 -2.506335e+00 -4.951836e-01 1.905486e+00 1.510537e-01 9.169427e-01 2.249156e+00 9.095616e-01 -1.948134e-01 1.404472e+00 5.377008e-01 3.816106e-01 3.384739e-01 -2.920139e-01 -8.759888e-01 -7.189178e-01 -3.793981e-01 2.294873e-02 -2.656967e-02 1.133418e-01 5.913324e-01 7.815883e-02 2.598809e-01
<VARIANCE> 39
 5.914280e+00 1.530978e+01 6.568244e+00 1.130071e+01 3.899836e+01 1.166075e+01 2.227207e+01 1.251605e+01 1.817743e+01 3.065616e+01 1.001371e+01 7.560975e+00 1.038397e+01 7.438840e-01 1.135415e+00 9.292116e-01 1.124781e+00 2.265272e+00 2.370453e+00 1.404942e+00 1.915047e+00 1.299501e+00 1.385533e+00 1.152928e+00 8.901391e-01 6.313917e-01 1.492329e-01 3.341068e-01 2.102017e-01 3.053319e-01 5.728783e-01 3.588472e-01 5.307558e-01 3.514971e-01 4.413819e-01 6.828983e-01 2.427935e-01 2.850958e-01 1.705800e-01
<GCONST> 9.328669e+01
<TRANSP> 5
 0.000000e+00 1.000000e+00 0.000000e+00 0.000000e+00 0.000000e+00
 0.000000e+00 4.887588e-01 5.112412e-01 0.000000e+00 0.000000e+00
 0.000000e+00 0.000000e+00 6.042953e-01 3.957048e-01 0.000000e+00
 0.000000e+00 0.000000e+00 0.000000e+00 5.173867e-01 4.826133e-01
 0.000000e+00 0.000000e+00 0.000000e+00 0.000000e+00 0.000000e+00
<ENDHMM>
~h "j"
<BEGINHMM>
<NUMSTATES> 5
<STATE> 2
<MEAN> 39
 -1.071007e+01 1.834612e+00 -7.877313e+00 -9.576264e+00 -2.902807e+00 7.831190e+00 3.492334e+00 -3.469586e+00 -1.255316e+00 -1.876511e+00 3.187746e+00 1.655319e+00 6.568828e+01 1.167823e+00 5.644724e-01 1.089423e-01 -5.683618e-01 -1.295437e+00 -5.982453e-01 -7.350235e-01 -6.781074e-01 -5.259212e-01 7.805640e-02 1.041088e-01 -1.332128e-01 4.502929e-01 7.239016e-02 -5.628919e-02 -4.515483e-02 7.667793e-02 5.641759e-03 -1.163963e-01 -2.077430e-01 -6.472282e-02 2.775818e-02 1.278074e-01 2.626243e-02 -7.765997e-03 -1.421421e-02
<VARIANCE> 39
 6.355276e+01 2.129040e+01 2.491130e+01 4.380299e+01 6.354946e+01 3.586423e+01 3.995108e+01 2.866425e+01 3.599044e+01 2.155439e+01 2.215514e+01 1.342813e+01 1.057308e+01 3.087967e+00 1.664264e+00 1.176422e+00 3.205599e+00 2.792567e+00 2.610790e+00 2.898848e+00 1.869494e+00 3.177158e+00 2.568967e+00 3.109458e+00 1.295989e+00 1.008956e+00 4.927706e-01 3.448670e-01 2.439894e-01 7.075206e-01 5.801261e-01 4.852600e-01 4.581300e-01 3.567393e-01 6.231340e-01 4.580679e-01 6.875849e-01 2.661102e-01 1.952383e-01
<GCONST> 1.143143e+02
<STATE> 3
<MEAN> 39
 -2.427864e+00 3.897867e+00 -8.161017e+00 -7.813478e+00 -9.465529e+00 -1.655145e+00 -8.505043e+00 -9.092058e+00 -2.720248e+00 4.685242e+00 4.609672e+00 3.190191e-01 6.840364e+01 -1.017320e+00 -6.765842e-01 5.277564e-01 2.726439e+00 1.917349e+00 -1.064685e+00 -9.551494e-01 8.118901e-01 9.996392e-01 1.234487e-01 -6.068074e-01 -5.158635e-01 -6.423187e-01 -1.517248e-01 1.998932e-02 2.642685e-01 3.857733e-01 2.620355e-01 -4.917170e-02 1.391631e-01 4.799797e-01 1.919555e-02 -5.269646e-01 -4.569325e-01 -6.593823e-02 -1.096870e-01
<VARIANCE> 39
 4.691253e+01 1.056059e+01 3.003755e+01 6.555000e+01 4.014248e+01 1.736885e+01 3.347289e+01 3.461665e+01 1.910380e+01 2.037699e+01 1.740522e+01 1.191949e+01 1.009420e+01 1.538213e+00 1.242284e+00 1.239154e+00 4.018119e+00 3.483746e+00 1.666430e+00 1.636051e+00 5.495968e+00 2.329938e+00 4.208093e+00 2.922698e+00 1.248563e+00 5.428575e-01 3.069442e-01 2.119951e-01 1.922502e-01 6.780371e-01 7.441171e-01 3.350011e-01 3.362649e-01 7.230278e-01 4.478140e-01 5.491754e-01 4.016770e-01 2.256553e-01 1.385198e-01
<GCONST> 1.085022e+02
<STATE> 4
<MEAN> 39
 -1.161280e+01 1.711890e-01 -1.208866e+00 5.838437e+00 -1.316842e-01 -4.409635e+00 -6.533026e+00 1.946694e+00 8.808343e-01 1.148772e+00 -2.918384e-01 -1.917094e+00 6.569994e+01 -7.332948e-01 7.685751e-02 9.506191e-01 2.042679e-01 -2.664016e-01 2.843813e-01 9.617729e-01 6.420833e-01 -2.293068e-01 -1.399025e-01 -2.149868e-01 3.679919e-02 -1.401298e-01 2.177542e-01 1.739881e-01 -1.423791e-01 -5.494549e-01 -4.231209e-01 1.439299e-01 1.498186e-01 -3.241413e-01 -3.225229e-01 2.050251e-01 2.685212e-01 1.391847e-01 5.409371e-02
<VARIANCE> 39
 2.571400e+01 1.587360e+01 1.940852e+01 2.417418e+01 2.390546e+01 2.392205e+01 4.929180e+01 3.784608e+01 2.408179e+01 2.113302e+01 2.266802e+01 1.822090e+01 6.830525e+00 1.734827e+00 1.761716e+00 1.468998e+00 4.061983e+00 3.003481e+00 2.113856e+00 2.683119e+00 4.578557e+00 2.998753e+00 2.620499e+00 2.982552e+00 2.352345e+00 4.525673e-01 2.615013e-01 3.734646e-01 2.490019e-01 8.111453e-01 6.394553e-01 4.692171e-01 4.383747e-01 9.842649e-01 5.869986e-01 5.194429e-01 6.075131e-01 5.017474e-01 1.008811e-01
<GCONST> 1.117346e+02
<TRANSP> 5
 0.000000e+00 1.000000e+00 0.000000e+00 0.000000e+00 0.000000e+00
 0.000000e+00 7.647528e-01 2.352471e-01 0.000000e+00 0.000000e+00
 0.000000e+00 0.000000e+00 7.246085e-01 2.753915e-01 0.000000e+00
 0.000000e+00 0.000000e+00 0.000000e+00 6.726679e-01 3.273321e-01
 0.000000e+00 0.000000e+00 0.000000e+00 0.000000e+00 0.000000e+00
<ENDHMM>
~h "k"
<BEGINHMM>
<NUMSTATES> 5
<STATE> 2
<MEAN> 39
 -1.495708e+01 2.098222e+00 -3.854336e-01 4.104135e+00 -6.601347e-02 4.130932e-01 -1.108793e-01 -5.423050e-01 -2.531372e+00 -1.356134e+00 -1.980565e+00 6.617329e-01 5.926598e+01 -1.469849e-01 -2.616485e-01 -5.268890e-01 -6.342629e-01 -1.604437e-01 1.985648e-01 3.319543e-01 4.160477e-01 2.997699e-01 3.545685e-01 5.493641e-01 4.758019e-01 4.021011e-02 6.516204e-01 1.703389e-01 -4.007501e-01 -6.599184e-01 -3.343524e-01 -2.314021e-01 -4.433996e-01 -3.245978e-01 -2.776704e-01 -1.051398e-02 4.913926e-02 -1.734457e-01 4.480700e-01
<VARIANCE> 39
 1.115426e+01 7.454594e+00 8.869433e+00 1.136015e+01 2.063627e+01 1.681200e+01 2.255251e+01 2.122768e+01 2.442542e+01 1.984769e+01 1.737030e+01 1.357449e+01 5.877094e+00 1.703589e+00 1.092684e+00 2.425181e+00 3.516128e+00 2.111954e+00 2.008772e+00 1.783172e+00 1.802862e+00 1.744590e+00 1.859822e+00 1.930837e+00 1.531109e+00 8.106423e-01 1.787633e-01 1.773694e-01 2.414764e-01 3.589090e-01 3.914696e-01 4.016231e-01 4.049136e-01 4.801789e-01 5.275835e-01 3.956752e-01 3.651434e-01 2.395427e-01 8.571988e-02
<GCONST> 9.773274e+01
<STATE> 3
<MEAN> 39
 -1.380148e+01 1.695580e+00 -1.904136e+00 1.835203e+00 -1.803314e+00 -3.173062e-01 -5.440867e-01 -4.252164e-01 -1.546304e+00 -4.389822e-01 -1.051182e+00 7.788119e-01 6.070352e+01 1.502514e+00 2.060191e-01 -1.668918e+00 -2.482368e+00 -8.264539e-01 -6.967711e-02 -6.990014e-01 -2.895084e-01 -4.118758e-01 3.712624e-01 7.958701e-01 -3.425185e-02 1.155759e+00 3.823683e-01 2.974516e-01 4.527273e-02 -1.456772e-01 -1.661666e-01 -1.616056e-01 -2.687174e-01 -3.977870e-01 -4.288997e-01 -2.524054e-01 -1.357325e-01 -1.384820e-01 1.316039e-01
<VARIANCE> 39
 1.795007e+01 1.074079e+01 1.635788e+01 2.661172e+01 2.395650e+01 1.794407e+01 2.396979e+01 2.666387e+01 2.861094e+01 1.566627e+01 1.855922e+01 1.298727e+01 1.007624e+01 2.563477e+00 1.542526e+00 4.988000e+00 6.702246e+00 4.010667e+00 3.926470e+00 2.957395e+00 2.582351e+00 2.947634e+00 2.628449e+00 3.541687e+00 1.456608e+00 1.402494e+00 2.850406e-01 2.124753e-01 3.849302e-01 7.081453e-01 4.778054e-01 3.811183e-01 3.667520e-01 4.547029e-01 4.183117e-01 3.461278e-01 3.875529e-01 2.514723e-01 1.239100e-01
<GCONST> 1.091920e+02
<STATE> 4
<MEAN> 39
 -8.769493e+00 2.965399e+00 -5.271347e+00 -3.668969e+00 -4.552433e+00 -1.637105e+00 -3.720565e+00 -2.109037e+00 -3.555553e+00 -2.576932e-01 -4.958523e-01 -7.717414e-01 6.379786e+01 7.390792e-01 7.700686e-01 1.452792e-01 -3.886178e-01 -6.088885e-01 -3.240560e-01 -3.334337e-01 -8.919147e-01 -9.131662e-01 -5.428150e-01 -8.848827e-02 1.708504e-02 1.954215e-01 -1.261347e-01 1.039815e-01 3.141076e-01 2.189641e-01 -1.163481e-01 -1.783406e-02 1.783315e-01 -5.268611e-03 1.585068e-02 -2.059713e-01 -2.209115e-01 7.561281e-02 -1.537020e-01
<VARIANCE> 39
 2.144969e+01 2.064037e+01 4.494080e+01 5.520165e+01 3.941867e+01 4.527256e+01 3.179498e+01 3.430763e+01 3.535428e+01 2.017920e+01 3.215598e+01 2.507824e+01 1.212979e+01 2.925129e+00 2.307719e+00 3.356192e+00 5.533579e+00 4.542321e+00 4.139286e+00 2.992007e+00 2.867373e+00 2.419689e+00 2.515390e+00 3.211368e+00 1.939959e+00 1.432562e+00 3.869957e-01 4.801014e-01 1.003933e+00 1.469189e+00 9.933193e-01 9.611575e-01 5.825843e-01 5.844182e-01 5.083476e-01 5.589160e-01 7.121150e-01 4.244541e-01 2.229867e-01
<GCONST> 1.233623e+02
<TRANSP> 5
 0.000000e+00 1.000000e+00 0.000000e+00 0.000000e+00 0.000000e+00
 0.000000e+00 4.497049e-01 5.502951e-01 0.000000e+00 0.000000e+00
 0.000000e+00 0.000000e+00 2.843632e-01 7.156368e-01 0.000000e+00
 0.000000e+00 0.000000e+00 0.000000e+00 6.803539e-01 3.196461e-01
 0.000000e+00 0.000000e+00 0.000000e+00 0.000000e+00 0.000000e+00
<ENDHMM>
~h "l"
<BEGINHMM>
<NUMSTATES> 5
<STATE> 2
<MEAN> 39
 -1.662509e+01 8.395656e-01 -1.235333e+00 4.287838e+00 9.867163e-01 2.219423e+00 1.264955e+00 1.653652e+00 4.837947e-02 4.611537e-01 -7.558993e-02 1.774953e+00 5.820535e+01 -1.952649e-01 -9.130587e-02 -6.229079e-02 3.799699e-02 1.883531e-01 1.452029e-01 1.480528e-01 7.067778e-02 5.338079e-02 9.031625e-02 1.421020e-01 1.346157e-01 -1.259929e-01 5.271200e-02 2.502169e-02 2.988330e-02 -1.347422e-02 -7.047140e-02 -5.214921e-02 -4.835561e-02 -5.907471e-02 -5.443142e-02 -3.398341e-02 -3.352022e-02 -6.066331e-02 4.492657e-02
<VARIANCE> 39
 9.214234e+00 5.578259e+00 6.474286e+00 7.596622e+00 1.478211e+01 1.923962e+01 2.250161e+01 1.831984e+01 1.689582e+01 1.578571e+01 1.524162e+01 1.419680e+01 4.444948e+00 3.062423e-01 4.257023e-01 5.660232e-01 7.487047e-01 1.232974e+00 1.213024e+00 1.261779e+00 1.647725e+00 1.579158e+00 1.382435e+00 1.452679e+00 1.425375e+00 1.640344e-01 4.398587e-02 7.845467e-02 1.088017e-01 1.490263e-01 2.187503e-01 2.463463e-01 2.515387e-01 3.261830e-01 3.119313e-01 2.715075e-01 2.933252e-01 2.694812e-01 2.358739e-02
<GCONST> 7.761297e+01
<STATE> 3
<MEAN> 39
 -1.381066e+01 2.477440e+00 6.346619e-01 3.423725e+00 -2.289108e+00 -1.723552e+00 -2.633673e+00 -1.692304e+00 -2.617999e+00 -8.137875e-01 -9.068370e-01 6.999322e-01 6.035728e+01 2.909927e-01 7.168730e-01 7.130280e-01 6.429724e-01 4.406040e-01 -7.289619e-03 -4.149100e-01 -9.532779e-01 -1.084912e+00 -9.425085e-01 -9.550719e-01 -1.072630e+00 3.187027e-02 3.929867e-01 3.521887e-01 2.088241e-01 -5.734770e-02 -2.174196e-01 -3.103955e-01 -5.283135e-01 -3.480145e-01 -2.228038e-01 -2.309339e-01 -2.076981e-01 -1.188660e-01 2.109057e-01
<VARIANCE> 39
 2.141581e+01 1.641921e+01 1.273119e+01 1.329020e+01 3.251209e+01 4.212787e+01 4.621323e+01 3.236062e+01 2.303992e+01 1.531452e+01 1.522479e+01 1.417739e+01 1.117152e+01 9.567461e-01 1.055084e+00 7.103567e-01 1.129388e+00 2.727592e+00 1.787928e+00 2.073403e+00 1.781335e+00 1.927470e+00 1.780656e+00 1.978743e+00 1.754488e+00 5.686043e-01 1.313728e-01 2.345096e-01 1.732188e-01 3.037619e-01 6.607333e-01 4.606872e-01 5.703669e-01 5.039808e-01 4.255837e-01 3.200532e-01 3.086551e-01 3.440314e-01 1.001944e-01
<GCONST> 1.000532e+02
<STATE> 4
<MEAN> 39
 -9.442100e+00 7.283402e+00 4.573409e+00 4.150371e+00 -2.993485e+00 -4.652804e+00 -9.165298e+00 -7.474938e+00 -6.759264e+00 -5.075437e+00 -4.663901e+00 -1.854285e+00 6.222386e+01 9.018224e-01 4.843020e-01 4.696602e-01 -1.996516e-01 -7.082321e-01 -8.410342e-01 -1.168115e+00 -7.903515e-01 -4.972585e-01 -2.801355e-01 -3.041615e-02 -1.062816e-01 6.147280e-01 4.372332e-02 -2.408016e-01 -2.046422e-01 -2.222287e-01 -3.447931e-01 -7.761905e-02 1.531562e-01 2.859030e-01 2.166290e-01 2.489893e-01 3.305764e-01 2.527159e-01 1.248320e-01
<VARIANCE> 39
 1.172655e+01 7.954073e+00 1.780250e+01 1.650323e+01 2.011579e+01 2.656137e+01 3.963659e+01 2.231140e+01 1.667670e+01 1.529284e+01 1.443651e+01 1.234174e+01 5.178017e+00 1.428572e+00 1.710138e+00 1.455572e+00 1.233439e+00 2.004819e+00 3.358995e+00 4.736923e+00 3.721819e+00 2.049046e+00 1.637914e+00 1.977412e+00 1.686105e+00 6.037432e-01 1.830254e-01 1.959482e-01 1.953810e-01 2.188995e-01 4.299865e-01 5.866264e-01 6.362044e-01 4.604771e-01 3.735162e-01 2.855419e-01 2.678824e-01 2.853743e-01 9.409305e-02
<GCONST> 9.923781e+01
<TRANSP> 5
 0.000000e+00 1.000000e+00 0.000000e+00 0.000000e+00 0.000000e+00
 0.000000e+00 9.045588e-01 9.544121e-02 0.000000e+00 0.000000e+00
 0.000000e+00 0.000000e+00 3.929472e-01 6.070528e-01 0.000000e+00
 0.000000e+00 0.000000e+00 0.000000e+00 7.190330e-01 2.809670e-01
 0.000000e+00 0.000000e+00 0.000000e+00 0.000000e+00 0.000000e+00
<ENDHMM>
~h "m"
<BEGINHMM>
<NUMSTATES> 5
<STATE> 2
<MEAN> 39
 -1.769144e+01 5.979337e-03 -1.966575e+00 4.137823e+00 1.715010e+00 3.320523e+00 2.186072e+00 2.691531e+00 3.192595e-01 1.244079e+00 3.658496e-01 2.070671e+00 5.738089e+01 -7.952428e-02 -1.335874e-02 -3.551066e-02 -1.052129e-03 1.064250e-01 1.023915e-01 6.920021e-02 5.826335e-02 1.525721e-03 -5.841461e-03 9.106596e-02 8.304435e-02 -5.609575e-02 2.649318e-02 1.138196e-02 9.676978e-03 -8.105968e-03 -2.063290e-02 -1.093644e-02 -1.405184e-02 -2.413597e-02 -1.332934e-02 -8.984631e-03 -1.123182e-02 -2.677159e-02 2.337033e-02
<VARIANCE> 39
 1.937142e+00 2.453064e+00 3.898860e+00 5.133698e+00 8.323966e+00 1.018462e+01 1.194090e+01 1.362548e+01 1.300668e+01 1.200228e+01 1.244888e+01 9.958187e+00 1.052154e+00 1.340527e-01 2.382603e-01 4.146958e-01 5.317509e-01 8.082076e-01 9.376698e-01 1.085726e+00 1.270911e+00 1.262988e+00 1.162335e+00 1.173712e+00 1.079006e+00 5.808471e-02 2.551017e-02 4.913019e-02 8.595298e-02 1.089602e-01 1.619828e-01 1.893131e-01 2.288830e-01 2.572363e-01 2.673040e-01 2.314125e-01 2.368144e-01 2.176924e-01 1.039294e-02
<GCONST> 6.056458e+01
<STATE> 3
<MEAN> 39
 -1.788210e+01 -2.434086e-02 -2.288099e+00 3.423709e+00 2.266196e+00 4.287185e+00 2.385996e+00 2.566139e+00 7.386853e-01 1.971645e+00 1.131315e+00 2.436650e+00 5.742263e+01 2.208202e-01 1.664715e-01 6.332555e-02 -6.907288e-03 -1.264974e-01 -1.593823e-01 -2.186847e-01 -6.005749e-01 -4.456038e-01 -4.691279e-01 -3.360795e-01 -2.707873e-01 1.698249e-01 2.220079e-01 2.272035e-01 2.096987e-01 1.179475e-01 4.823847e-03 -1.594417e-01 -2.445501e-01 -3.468916e-01 -3.669443e-01 -4.024397e-01 -3.184490e-01 -2.782623e-01 1.317807e-01
<VARIANCE> 39
 1.479322e+00 3.125034e+00 7.267106e+00 6.768673e+00 8.113339e+00 1.226270e+01 1.419195e+01 1.131426e+01 1.395665e+01 1.470805e+01 1.207367e+01 1.277678e+01 1.007898e+00 1.258658e-01 2.837833e-01 4.866608e-01 1.044616e+00 8.303727e-01 1.213135e+00 1.012569e+00 1.396606e+00 1.400636e+00 1.504105e+00 1.373241e+00 1.498216e+00 7.358745e-02 4.422598e-02 8.910869e-02 1.274178e-01 1.633179e-01 1.858425e-01 2.250301e-01 2.778586e-01 2.694117e-01 3.013115e-01 2.912333e-01 2.394991e-01 2.992878e-01 1.488553e-02
<GCONST> 6.790472e+01
<STATE> 4
<MEAN> 39
 -1.725833e+01 -3.696063e-01 -4.197410e+00 5.096147e-01 2.344463e+00 5.690176e+00 3.262345e+00 3.053934e-01 -4.159119e-01 -3.534924e-01 1.143752e+00 2.605453e+00 5.889182e+01 4.304278e-01 4.468359e-01 3.072503e-01 -1.842095e-02 5.375847e-02 7.362167e-02 -8.075765e-02 -4.917490e-01 -4.930106e-01 -9.121798e-01 -6.212506e-01 -7.836320e-01 3.157581e-01 3.376640e-01 2.944635e-01 2.473264e-01 1.537330e-01 -3.185233e-02 -2.296567e-01 -4.110138e-01 -2.902097e-01 -3.678272e-01 -2.055749e-01 -1.681200e-01 -1.960813e-01 1.658423e-01
<VARIANCE> 39
 1.977811e+00 4.942357e+00 2.125608e+01 3.467216e+01 1.189851e+01 2.497576e+01 1.982552e+01 1.701372e+01 1.333381e+01 1.961792e+01 1.656179e+01 1.535375e+01 4.323091e+00 2.538133e-01 3.699885e-01 7.975194e-01 1.588837e+00 1.340957e+00 1.343783e+00 1.428845e+00 1.640716e+00 1.955355e+00 1.620895e+00 1.449892e+00 1.594183e+00 1.045889e-01 1.261291e-01 1.724745e-01 1.606665e-01 2.131117e-01 2.481784e-01 3.331569e-01 3.970440e-01 4.532562e-01 4.251328e-01 3.601837e-01 2.752649e-01 3.248819e-01 6.515217e-02
<GCONST> 8.525804e+01
<TRANSP> 5
 0.000000e+00 1.000000e+00 0.000000e+00 0.000000e+00 0.000000e+00
 0.000000e+00 9.396841e-01 6.031591e-02 0.000000e+00 0.000000e+00
 0.000000e+00 0.000000e+00 4.246212e-01 5.753788e-01 0.000000e+00
 0.000000e+00 0.000000e+00 0.000000e+00 3.426789e-01 6.573211e-01
 0.000000e+00 0.000000e+00 0.000000e+00 0.000000e+00 0.000000e+00
<ENDHMM>
~h "n"
<BEGINHMM>
<NUMSTATES> 5
<STATE> 2
<MEAN> 39
 -5.593896e+00 7.675135e+00 -4.389627e-01 -4.008009e-01 -3.249148e+00 -1.613114e+00 -9.722544e+00 -1.064952e+01 -7.173813e+00 -3.270613e+00 -2.674217e+00 -1.796896e+00 6.445083e+01 5.241784e-01 -3.116702e-01 -1.019260e+00 -1.339015e+00 -2.591375e-01 9.181670e-01 2.561577e-01 1.485678e-01 5.670865e-02 -6.523912e-01 -2.204909e-01 -1.142569e-03 4.679452e-01 1.036352e-01 4.289955e-04 -3.150530e-01 -3.609957e-01 -7.618315e-02 1.911288e-01 3.083614e-01 2.213423e-01 -7.427659e-02 -1.343823e-01 2.415420e-02 3.607187e-02 3.576303e-02
<VARIANCE> 39
 8.417899e+00 1.013274e+01 2.631496e+01 4.176581e+01 1.219869e+01 2.631212e+01 1.831895e+01 1.835219e+01 1.329997e+01 1.425831e+01 1.092365e+01 9.335485e+00 6.100128e+00 9.917340e-01 1.115183e+00 4.097902e+00 5.585433e+00 7.898180e-01 3.486897e+00 2.077625e+00 1.949212e+00 1.589229e+00 1.465243e+00 1.023169e+00 1.143870e+00 6.666510e-01 1.357767e-01 2.189147e-01 5.493641e-01 8.026526e-01 1.482322e-01 5.805389e-01 2.411142e-01 2.256519e-01 3.306018e-01 2.547632e-01 1.890429e-01 2.393233e-01 1.363491e-01
<GCONST> 9.537175e+01
<STATE> 3
<MEAN> 39
 -3.177802e+00 7.547268e+00 -7.066813e+00 -8.961270e+00 -5.830607e+00 3.548636e+00 -1.498445e+00 -5.111890e+00 -9.487743e+00 -9.801424e+00 -5.818381e+00 -1.718515e+00 6.556900e+01 -5.500802e-01 2.620835e-01 5.676451e-01 7.703713e-01 1.800655e-01 -2.626704e-01 8.794915e-01 6.355926e-01 -3.674337e-01 -5.502048e-01 -7.996541e-01 -3.618009e-01 -5.121341e-01 -2.354923e-01 -5.559324e-02 3.434354e-01 4.720501e-01 1.765509e-01 -1.829889e-01 -2.244399e-01 -1.102393e-01 1.401302e-01 2.384501e-01 3.583157e-02 -6.460907e-02 -1.204610e-01
<VARIANCE> 39
 4.829263e+00 4.524789e+00 1.220259e+01 1.798040e+01 1.228285e+01 1.659729e+01 1.752180e+01 1.732024e+01 1.283056e+01 1.429875e+01 1.673378e+01 1.296963e+01 2.826554e+00 4.049945e-01 2.377391e-01 1.130744e+00 1.804242e+00 8.990917e-01 1.043812e+00 1.533358e+00 1.258153e+00 1.279187e+00 1.158358e+00 1.107683e+00 1.387797e+00 1.500534e-01 3.229539e-02 5.906508e-02 1.400284e-01 1.688617e-01 1.213464e-01 1.767757e-01 1.813258e-01 2.245452e-01 2.456311e-01 2.200245e-01 2.390209e-01 2.575613e-01 1.992704e-02
<GCONST> 7.403790e+01
<STATE> 4
<MEAN> 39
 -9.917147e+00 7.796680e+00 1.663883e+00 3.155611e+00 -8.590195e-01 -2.946228e-01 -2.542702e+00 -5.269528e+00 -9.171211e+00 -8.541124e+00 -7.734403e+00 -3.879449e+00 6.099666e+01 -8.227079e-01 -4.462110e-01 3.345123e-01 8.490674e-01 6.076144e-01 2.770901e-02 -1.049336e-01 7.100550e-02 3.929076e-01 5.636635e-01 3.947217e-01 2.412285e-01 -4.441462e-01 3.281645e-02 -1.122310e-01 -2.293141e-01 -2.495969e-01 -9.439962e-02 7.360324e-02 1.969280e-02 4.165771e-02 1.080332e-01 1.388969e-01 2.374727e-01 2.073350e-01 4.615259e-02
<VARIANCE> 39
 9.584641e+00 6.633584e+00 1.079771e+01 1.807419e+01 1.458655e+01 1.922665e+01 2.536096e+01 2.321315e+01 1.417969e+01 1.435423e+01 1.402906e+01 1.038356e+01 3.015704e+00 4.177807e-01 3.843471e-01 9.244316e-01 1.381123e+00 1.021026e+00 1.295166e+00 1.341087e+00 1.420922e+00 1.429423e+00 1.371844e+00 1.316432e+00 1.272446e+00 1.407928e-01 3.258312e-02 5.687106e-02 1.159115e-01 1.777997e-01 1.728261e-01 2.303406e-01 2.477222e-01 2.611016e-01 2.658535e-01 2.776770e-01 2.964360e-01 2.761676e-01 1.105938e-02
<GCONST> 7.733891e+01
<TRANSP> 5
 0.000000e+00 1.000000e+00 0.000000e+00 0.000000e+00 0.000000e+00
 0.000000e+00 7.891203e-01 2.108797e-01 0.000000e+00 0.000000e+00
 0.000000e+00 0.000000e+00 8.254793e-01 1.745207e-01 0.000000e+00
 0.000000e+00 0.000000e+00 0.000000e+00 8.212004e-01 1.787996e-01
 0.000000e+00 0.000000e+00 0.000000e+00 0.000000e+00 0.000000e+00
<ENDHMM>
~h "r"
<BEGINHMM>
<NUMSTATES> 5
<STATE> 2
<MEAN> 39
 -1.182174e+01 2.514036e+00 -1.678604e+00 6.574739e-01 -4.174279e+00 -4.092733e+00 -2.334693e+00 -3.670778e-01 -2.162594e+00 -9.815732e-01 -6.444943e-01 8.177315e-01 6.270409e+01 1.379126e+00 2.574566e-01 -1.442578e-01 -7.214894e-01 -1.307967e+00 -1.191638e+00 -8.129133e-01 -2.760822e-01 -1.382003e-01 -4.314276e-01 -3.982028e-01 -4.549399e-01 1.044981e+00 2.295224e-01 -6.207268e-03 -1.644756e-02 8.080844e-04 -8.671144e-02 3.044335e-02 -1.693899e-01 -4.012110e-02 5.483885e-02 3.179568e-02 -4.525707e-02 -1.359191e-01 2.288255e-02
<VARIANCE> 39
 2.343311e+01 2.436403e+01 1.894350e+01 2.916295e+01 3.273962e+01 3.897047e+01 3.397086e+01 3.313247e+01 2.517102e+01 1.964800e+01 1.954706e+01 1.757246e+01 1.598390e+01 2.931026e+00 2.758241e+00 2.621013e+00 3.728181e+00 4.498028e+00 5.819139e+00 4.152224e+00 3.204322e+00 2.853213e+00 2.129799e+00 2.215153e+00 2.044922e+00 1.666804e+00 4.454833e-01 4.412160e-01 3.930653e-01 7.116666e-01 8.196663e-01 8.572904e-01 6.223361e-01 4.984660e-01 4.878341e-01 4.504140e-01 4.385101e-01 3.715467e-01 3.331757e-01
<GCONST> 1.185261e+02
<STATE> 3
<MEAN> 39
 -3.899758e+00 2.547889e+00 -4.755027e+00 -4.114027e+00 -9.152213e+00 -5.790982e+00 -6.029410e+00 -2.392329e+00 -3.213193e+00 -2.313816e+00 -9.497483e-01 -1.379526e+00 6.743394e+01 8.229117e-01 -8.273432e-01 -1.080946e+00 -4.793894e-01 2.033908e-01 4.365865e-01 -3.303343e-01 7.291014e-02 6.541147e-01 3.300751e-01 -3.453490e-01 -9.052303e-01 6.144312e-01 -4.276478e-01 -1.177386e-01 3.183995e-02 2.203791e-01 4.872839e-01 3.333972e-01 2.572251e-01 6.227438e-02 2.452030e-02 1.262431e-01 -5.699496e-02 -5.697174e-02 -2.135898e-01
<VARIANCE> 39
 2.847464e+01 2.929333e+01 4.258789e+01 5.626391e+01 4.141610e+01 7.217027e+01 3.516859e+01 4.075141e+01 2.537269e+01 1.959904e+01 1.912601e+01 2.266814e+01 1.316839e+01 1.680468e+00 2.109977e+00 2.895780e+00 2.955295e+00 2.825520e+00 2.897028e+00 2.637426e+00 3.323031e+00 2.656343e+00 1.938216e+00 2.786305e+00 2.534395e+00 8.401524e-01 3.975141e-01 4.496940e-01 5.187033e-01 6.183643e-01 7.116771e-01 1.033646e+00 8.141614e-01 5.491145e-01 4.430090e-01 3.529236e-01 5.440238e-01 4.512659e-01 1.578974e-01
<GCONST> 1.183426e+02
<STATE> 4
<MEAN> 39
 -4.145721e+00 -1.186734e+00 -8.117435e+00 -3.193478e+00 -6.219804e+00 -4.811658e+00 -5.020121e+00 1.074074e+00 1.161159e+00 -5.731003e-01 -6.424187e+00 -7.009014e+00 6.812888e+01 -5.573233e-01 2.029570e-01 4.538896e-01 4.088160e-01 2.488009e-01 2.708381e-01 2.406758e-01 -1.071631e-01 1.805766e-03 6.812793e-02 -1.072952e-01 1.380101e-01 -4.288540e-01 -9.135609e-02 9.063027e-02 1.195095e-01 3.455592e-02 1.054449e-02 3.106852e-02 3.203310e-02 -5.472003e-02 -1.141123e-01 -1.980201e-02 1.504464e-01 1.439477e-01 -8.136034e-02
<VARIANCE> 39
 2.812612e+01 2.124804e+01 3.450557e+01 2.201224e+01 1.746805e+01 2.360553e+01 2.076434e+01 2.504620e+01 1.831770e+01 2.279311e+01 2.582150e+01 2.504072e+01 1.853766e+01 1.358841e+00 1.497474e+00 1.667934e+00 1.342181e+00 1.483264e+00 1.931193e+00 1.827432e+00 1.887514e+00 1.567510e+00 1.829335e+00 1.921694e+00 1.687606e+00 9.740071e-01 2.172702e-01 3.263284e-01 2.499922e-01 2.517114e-01 2.611681e-01 3.159894e-01 3.412459e-01 3.539613e-01 3.401804e-01 3.268749e-01 3.291991e-01 2.867092e-01 1.573207e-01
<GCONST> 1.019881e+02
<TRANSP> 5
 0.000000e+00 1.000000e+00 0.000000e+00 0.000000e+00 0.000000e+00
 0.000000e+00 6.221918e-01 3.778082e-01 0.000000e+00 0.000000e+00
 0.000000e+00 0.000000e+00 4.981585e-01 5.018415e-01 0.000000e+00
 0.000000e+00 0.000000e+00 0.000000e+00 8.453032e-01 1.546968e-01
 0.000000e+00 0.000000e+00 0.000000e+00 0.000000e+00 0.000000e+00
<ENDHMM>
~h "s"
<BEGINHMM>
<NUMSTATES> 5
<STATE> 2
<MEAN> 39
 -1.752565e+01 5.442591e+00 7.374046e-01 5.392350e+00 5.930499e-01 -9.607086e-01 -8.756568e-01 -4.505837e+00 -1.671236e+00 -4.394115e+00 -2.087487e+00 -1.410777e-01 6.163730e+01 -2.423945e+00 -3.716672e-01 -1.272467e+00 -5.229809e-03 6.814221e-01 7.651072e-01 1.158620e+00 7.631924e-01 1.735446e+00 4.867018e-01 9.698205e-01 7.597998e-01 1.397220e-01 2.003303e-01 7.615823e-02 -1.616854e-01 -3.640783e-01 -4.491167e-01 -1.315688e-01 -1.843847e-01 4.272711e-02 -1.873271e-01 1.634649e-01 1.605141e-01 1.511000e-01 9.340379e-02
<VARIANCE> 39
 1.831717e+01 7.550246e+00 1.172266e+01 1.264728e+01 1.492209e+01 2.934233e+01 3.529934e+01 2.478071e+01 2.741535e+01 1.786018e+01 1.758192e+01 1.524405e+01 4.563674e+00 1.565577e+00 8.199264e-01 1.413373e+00 1.228135e+00 2.235274e+00 1.964945e+00 2.708245e+00 2.172029e+00 2.312135e+00 1.776477e+00 1.728187e+00 1.563133e+00 3.011003e-01 2.600226e-01 1.174671e-01 1.968714e-01 2.457594e-01 2.861250e-01 3.135416e-01 4.712707e-01 3.478954e-01 4.337135e-01 2.960022e-01 3.202038e-01 3.248795e-01 4.177099e-02
<GCONST> 9.479560e+01
<STATE> 3
<MEAN> 39
 -2.434975e+01 5.791464e+00 -4.230246e+00 3.649415e+00 2.734191e-01 9.124120e-01 1.034191e+00 -1.630352e+00 2.849885e+00 -2.372915e+00 1.537702e+00 2.134909e+00 6.270005e+01 -3.114166e-01 -9.601057e-02 -3.413104e-01 -1.915616e-02 4.803432e-02 2.773020e-01 3.829696e-01 4.776572e-01 3.711392e-01 3.120226e-01 3.066994e-01 1.423397e-01 -1.073799e-01 2.998312e-01 -3.811759e-02 1.961752e-01 7.236119e-02 3.040614e-02 -3.664416e-02 -3.135810e-02 -6.850185e-02 -1.580925e-01 -3.839285e-02 -1.190629e-01 -9.522612e-02 -7.688007e-02
<VARIANCE> 39
 7.210159e+00 7.236307e+00 1.327798e+01 1.386006e+01 1.474295e+01 2.907588e+01 4.024388e+01 2.390522e+01 1.830330e+01 1.600796e+01 1.496825e+01 1.232906e+01 3.590683e+00 5.819167e-01 3.795705e-01 7.257829e-01 7.217610e-01 9.454442e-01 1.229297e+00 1.425754e+00 1.561642e+00 1.523823e+00 1.391243e+00 1.440159e+00 1.154090e+00 1.572508e-01 9.380554e-02 6.982741e-02 1.241197e-01 1.432009e-01 1.877096e-01 2.481348e-01 3.277936e-01 3.222634e-01 3.471214e-01 2.890588e-01 2.949900e-01 2.385287e-01 1.828303e-02
<GCONST> 8.082897e+01
<STATE> 4
<MEAN> 39
 -2.040925e+01 2.249558e+00 -3.167253e+00 4.452935e+00 2.080945e+00 2.482963e+00 3.428919e+00 1.581041e+00 2.009259e+00 2.625730e-01 1.522070e+00 2.455488e+00 5.910233e+01 6.605725e-02 -8.221317e-02 3.696508e-02 1.284142e-02 1.708688e-02 -3.275118e-02 7.735262e-02 6.032911e-03 -2.798017e-02 2.769989e-02 -3.304089e-02 -2.796335e-02 -5.366498e-02 3.779490e-02 1.391581e-02 3.316813e-02 -9.199859e-03 -1.909175e-02 -2.210274e-02 -4.840790e-02 -3.938872e-02 -4.175131e-02 -3.508378e-02 -4.152450e-02 -2.391044e-02 1.128941e-02
<VARIANCE> 39
 1.143450e+01 1.033422e+01 8.817639e+00 7.522167e+00 1.057517e+01 1.585051e+01 1.690184e+01 1.528238e+01 1.620193e+01 1.351482e+01 1.176676e+01 1.052874e+01 4.851841e+00 3.817477e-01 4.553644e-01 5.265607e-01 6.101725e-01 8.818071e-01 1.096576e+00 1.291994e+00 1.366477e+00 1.364436e+00 1.297698e+00 1.150102e+00 1.045557e+00 1.442063e-01 5.859927e-02 7.433138e-02 9.601802e-02 1.216405e-01 1.768270e-01 2.182363e-01 2.698946e-01 2.799740e-01 2.839929e-01 2.638383e-01 2.366342e-01 2.149939e-01 1.676423e-02
<GCONST> 7.419461e+01
<TRANSP> 5
 0.000000e+00 1.000000e+00 0.000000e+00 0.000000e+00 0.000000e+00
 0.000000e+00 6.033309e-01 3.966691e-01 0.000000e+00 0.000000e+00
 0.000000e+00 0.000000e+00 8.294545e-01 1.705456e-01 0.000000e+00
 0.000000e+00 0.000000e+00 0.000000e+00 9.429877e-01 5.701230e-02
 0.000000e+00 0.000000e+00 0.000000e+00 0.000000e+00 0.000000e+00
<ENDHMM>
~h "t"
<BEGINHMM>
<NUMSTATES> 5
<STATE> 2
<MEAN> 39
 -1.583335e+01 2.375543e+00 1.231110e-01 4.521924e+00 8.319503e-01 8.010267e-01 -1.658421e-01 -1.270168e+00 -3.691537e+00 -1.861526e+00 -2.334010e+00 7.346772e-01 5.842326e+01 -6.163325e-01 -6.962719e-01 -5.495343e-01 -1.047635e-01 4.314282e-01 5.485780e-01 6.579394e-01 8.139560e-01 8.086627e-01 7.035061e-01 7.033723e-01 6.197242e-01 -3.316483e-01 1.458759e-01 8.719559e-02 2.640499e-02 -1.015294e-01 -1.749346e-01 -1.115422e-01 -2.954467e-02 -2.120497e-02 1.904116e-02 3.527020e-02 2.507299e-02 -3.886468e-02 1.161093e-01
<VARIANCE> 39
 3.392341e+00 5.144614e+00 7.798307e+00 7.392213e+00 9.647748e+00 1.243145e+01 1.575546e+01 1.787564e+01 1.989976e+01 1.570025e+01 1.721538e+01 1.659719e+01 1.267150e+00 2.683602e-01 3.769699e-01 5.488370e-01 6.322309e-01 8.900436e-01 1.065692e+00 1.282028e+00 1.409737e+00 1.214924e+00 1.318944e+00 1.347203e+00 1.308221e+00 7.933120e-02 5.428876e-02 7.560970e-02 1.009655e-01 1.537669e-01 2.230136e-01 2.343583e-01 2.816931e-01 2.978910e-01 2.660283e-01 3.001468e-01 2.928904e-01 2.638294e-01 2.165356e-02
<GCONST> 7.233746e+01
<STATE> 3
<MEAN> 39
 -1.782089e+01 1.842414e-01 -1.805280e+00 4.068038e+00 2.059463e+00 3.003696e+00 2.858648e+00 2.636953e+00 3.862000e-01 1.305987e+00 8.373659e-01 2.678488e+00 5.750291e+01 -4.952134e-02 -4.081867e-02 -2.623877e-02 7.815876e-03 5.276417e-02 6.981904e-02 7.964109e-02 8.604233e-02 1.015331e-01 8.756181e-02 4.780199e-02 1.702577e-02 -2.301112e-02 2.297045e-02 2.394203e-02 7.822686e-03 -8.960118e-03 -2.963398e-02 -3.978741e-02 -3.506047e-02 -4.382519e-02 -4.214047e-02 -5.959620e-02 -3.237559e-02 -2.438641e-02 3.160341e-02
<VARIANCE> 39
 1.311896e+00 2.147318e+00 3.929017e+00 5.432676e+00 7.357433e+00 9.743103e+00 1.053088e+01 1.156439e+01 1.165399e+01 1.118562e+01 1.078415e+01 9.373173e+00 7.963571e-01 1.058601e-01 2.045498e-01 3.505183e-01 5.561664e-01 6.571801e-01 8.892545e-01 1.031266e+00 1.128657e+00 1.096310e+00 1.122683e+00 1.053498e+00 9.512342e-01 4.090419e-02 2.476933e-02 4.557638e-02 7.527860e-02 1.197812e-01 1.453717e-01 1.901913e-01 2.163194e-01 2.469119e-01 2.289364e-01 2.385039e-01 2.261964e-01 1.997687e-01 1.447700e-02
<GCONST> 5.701415e+01
<STATE> 4
<MEAN> 39
 -1.875533e+01 -2.622169e-01 -1.831371e+00 3.290364e+00 1.991857e+00 2.093005e+00 3.494818e+00 2.179397e+00 1.602447e+00 1.341376e+00 1.278097e+00 2.460164e+00 5.707762e+01 9.714516e-02 1.508407e-02 -1.181183e-01 -2.220488e-01 -2.235463e-01 -2.107634e-01 -6.640927e-02 -7.557008e-02 -2.533851e-02 -1.278223e-01 -9.271313e-03 1.341927e-02 2.009479e-01 1.870740e-01 1.010824e-01 -8.758403e-03 -1.520507e-01 -2.522107e-01 -2.483093e-01 -1.206132e-01 -1.042703e-01 -5.634357e-02 -1.270913e-01 -3.604855e-02 -3.644760e-02 2.081919e-01
<VARIANCE> 39
 3.232207e+00 3.580493e+00 4.937643e+00 7.495796e+00 8.831342e+00 1.118749e+01 1.116238e+01 1.272329e+01 1.250279e+01 1.167581e+01 1.158003e+01 1.114742e+01 3.017848e+00 2.606680e-01 3.391097e-01 5.298105e-01 9.694017e-01 1.210476e+00 1.228244e+00 1.237940e+00 1.277835e+00 1.336851e+00 1.244912e+00 1.221965e+00 1.131260e+00 2.838083e-01 9.165306e-02 9.034507e-02 1.310503e-01 2.363736e-01 2.920757e-01 2.975266e-01 2.733994e-01 3.005914e-01 2.778278e-01 2.708800e-01 2.471382e-01 2.516336e-01 8.700300e-02
<GCONST> 7.455495e+01
<TRANSP> 5
 0.000000e+00 1.000000e+00 0.000000e+00 0.000000e+00 0.000000e+00
 0.000000e+00 7.227569e-01 2.772431e-01 0.000000e+00 0.000000e+00
 0.000000e+00 0.000000e+00 9.035933e-01 9.640666e-02 0.000000e+00
 0.000000e+00 0.000000e+00 0.000000e+00 7.434687e-01 2.565313e-01
 0.000000e+00 0.000000e+00 0.000000e+00 0.000000e+00 0.000000e+00
<ENDHMM>
~h "w"
<BEGINHMM>
<NUMSTATES> 5
<STATE> 2
<MEAN> 39
 -4.867761e+00 8.385029e+00 -2.809322e+00 -6.399639e+00 -1.046893e+01 -4.579684e+00 -3.341978e+00 -4.993658e+00 -5.483244e+00 -3.923254e+00 -3.314318e+00 -5.013534e-01 6.458219e+01 8.653011e-01 -1.815885e-01 -1.259699e+00 -1.831263e+00 -6.172642e-01 8.685709e-01 4.110121e-01 -2.972907e-01 -1.115750e-01 2.234893e-01 7.653035e-01 8.920832e-01 5.829802e-01 -3.757913e-01 -4.634621e-01 -1.421963e-01 3.522206e-01 6.367118e-01 5.288540e-01 2.619656e-01 2.536808e-01 1.701821e-01 1.109105e-01 1.021403e-01 -2.746174e-02 -1.308857e-01
<VARIANCE> 39
 2.300514e+01 1.287681e+01 2.229154e+01 5.361908e+01 4.970342e+01 2.038022e+01 1.870619e+01 3.364580e+01 1.545485e+01 2.076145e+01 1.870798e+01 1.270354e+01 7.327553e+00 1.554106e+00 1.359032e+00 1.519792e+00 3.874588e+00 3.233456e+00 2.359695e+00 1.653170e+00 2.087822e+00 1.862051e+00 2.174370e+00 2.803634e+00 1.732518e+00 6.540234e-01 1.469896e-01 2.400662e-01 3.305692e-01 5.313925e-01 5.964813e-01 5.121731e-01 3.491133e-01 5.160953e-01 3.372625e-01 5.267094e-01 5.088453e-01 3.254733e-01 5.058300e-02
<GCONST> 1.049059e+02
<STATE> 3
<MEAN> 39
 -3.228701e+00 5.335313e+00 -7.903244e+00 -1.043791e+01 -8.162764e+00 1.797539e+00 -1.930791e+00 -6.680841e+00 -6.413062e+00 -2.583263e+00 -1.986939e-01 6.850551e-01 6.634405e+01 -2.378317e-01 -1.093760e+00 -6.121140e-01 4.284830e-01 1.379616e+00 1.139437e+00 3.167165e-03 -8.634441e-02 3.020240e-01 5.821056e-01 -9.551917e-03 -1.100469e+00 1.441853e-01 -2.403703e-01 -3.070279e-02 4.441904e-01 6.197864e-01 1.408323e-01 -4.555317e-01 -1.858905e-01 3.240793e-01 3.012150e-01 -5.373005e-02 -5.074077e-01 -5.323516e-01 -1.187714e-01
<VARIANCE> 39
 2.839640e+01 1.036651e+01 2.972895e+01 6.075696e+01 3.084690e+01 2.304589e+01 2.089049e+01 2.174481e+01 1.465455e+01 2.131385e+01 2.071791e+01 1.913789e+01 1.252280e+01 4.252137e-01 1.265120e+00 1.244450e+00 1.566225e+00 2.023052e+00 2.896165e+00 2.395257e+00 2.877929e+00 1.886833e+00 3.063078e+00 2.882312e+00 3.266211e+00 4.352697e-01 5.133226e-02 1.220730e-01 1.257259e-01 2.453317e-01 3.786208e-01 4.315223e-01 3.295827e-01 3.961132e-01 2.860120e-01 4.206272e-01 4.520413e-01 4.923542e-01 2.295502e-02
<GCONST> 9.891776e+01
<STATE> 4
<MEAN> 39
 -5.377548e+00 2.670083e+00 -6.422909e+00 -5.267187e+00 -3.427550e+00 4.613306e-01 -3.586352e+00 -3.738895e+00 -2.738190e+00 -1.058838e+00 -5.488877e+00 -6.298798e+00 6.587805e+01 -8.501280e-01 -2.385619e-01 7.388167e-01 1.370902e+00 6.131083e-01 -6.328867e-01 6.072936e-02 1.066142e+00 9.388512e-01 1.460842e-01 -7.072299e-01 -3.901953e-01 -5.003843e-01 -7.927710e-02 1.060997e-01 1.157842e-01 -2.341637e-02 -1.799571e-01 -6.478306e-02 9.660870e-02 3.866893e-02 -9.679452e-02 -5.083167e-02 2.316219e-01 4.388681e-01 -8.315864e-02
<VARIANCE> 39
 2.632356e+01 1.909198e+01 3.278967e+01 3.774400e+01 1.454647e+01 2.559926e+01 2.675530e+01 2.081639e+01 2.521111e+01 3.083121e+01 2.442749e+01 2.467670e+01 1.860049e+01 6.183016e-01 9.551166e-01 8.428791e-01 1.058205e+00 1.554069e+00 2.538055e+00 2.101016e+00 1.277802e+00 1.460619e+00 1.508775e+00 3.242881e+00 2.707032e+00 5.711339e-01 6.247249e-02 1.774192e-01 1.531207e-01 1.676660e-01 2.276020e-01 4.445577e-01 3.508341e-01 3.218342e-01 2.807425e-01 3.872465e-01 4.896615e-01 3.979279e-01 4.411742e-02
<GCONST> 9.774995e+01
<TRANSP> 5
 0.000000e+00 1.000000e+00 0.000000e+00 0.000000e+00 0.000000e+00
 0.000000e+00 4.712521e-01 5.287479e-01 0.000000e+00 0.000000e+00
 0.000000e+00 0.000000e+00 5.665078e-01 4.334922e-01 0.000000e+00
 0.000000e+00 0.000000e+00 0.000000e+00 6.322973e-01 3.677027e-01
 0.000000e+00 0.000000e+00 0.000000e+00 0.000000e+00 0.000000e+00
<ENDHMM>
~h "y"
<BEGINHMM>
<NUMSTATES> 5
<STATE> 2
<MEAN> 39
 -1.320375e+01 5.363331e+00 4.756824e+00 3.775517e+00 -5.353586e+00 -3.200086e+00 -3.307490e+00 -7.144877e+00 -4.502913e+00 -3.453237e+00 -1.912373e+00 -4.763774e-01 6.301761e+01 1.744362e+00 8.160576e-01 2.223390e+00 -3.480055e-01 -1.309468e+00 -4.468183e-01 -2.505075e+00 -1.380539e+00 -1.921271e+00 -1.129373e+00 -6.362535e-01 -4.224639e-01 1.556138e-01 -1.168581e-01 1.318668e-01 -7.039712e-02 -1.941253e-01 -1.765675e-01 -1.822829e-02 -1.506308e-01 3.826562e-02 4.108650e-02 9.822883e-03 2.493164e-01 1.223362e-01 1.360323e-01
<VARIANCE> 39
 5.146709e+01 1.502638e+01 3.162096e+01 1.382504e+01 6.245006e+01 2.975471e+01 8.362698e+01 2.700275e+01 4.562383e+01 2.447493e+01 1.904298e+01 1.270930e+01 1.010418e+01 3.157789e+00 1.654857e+00 1.628842e+00 1.204394e+00 3.073822e+00 2.273073e+00 6.880363e+00 2.744742e+00 3.247746e+00 2.122200e+00 2.672735e+00 1.290618e+00 6.546279e-01 4.809246e-01 4.483742e-01 3.827128e-01 1.885585e-01 4.532403e-01 4.672680e-01 1.585011e+00 6.191694e-01 9.059626e-01 5.977554e-01 4.824979e-01 2.394696e-01 8.670793e-02
<GCONST> 1.134822e+02
<STATE> 3
<MEAN> 39
 -7.978450e+00 6.996092e+00 1.022769e+01 7.032955e-02 -1.358547e+01 -6.723019e+00 -1.093203e+01 -9.500280e+00 -9.507189e+00 -5.145206e+00 -6.217095e-01 -5.480419e-01 6.539763e+01 -2.188947e-01 9.216180e-02 -1.831646e-01 2.482937e-01 6.196055e-01 7.063737e-02 1.678041e-02 5.754583e-02 -5.064850e-02 -1.475650e-01 -1.788387e-01 3.376951e-02 -2.654299e-01 -8.884989e-02 -3.868335e-02 -2.122584e-01 1.461914e-01 3.022432e-01 5.075780e-02 1.679108e-01 7.914916e-02 8.305828e-02 3.929854e-02 -6.652045e-02 7.436574e-03 -9.085228e-02
<VARIANCE> 39
 3.989055e+00 8.580905e+00 1.344821e+01 1.086707e+01 2.936808e+01 1.785816e+01 1.293741e+01 1.227564e+01 1.120405e+01 1.673674e+01 1.083139e+01 9.985741e+00 4.010030e+00 3.543540e-01 5.752074e-01 1.005688e+00 1.181655e+00 3.440014e+00 1.432568e+00 1.124969e+00 1.038623e+00 9.051258e-01 1.180171e+00 1.040447e+00 7.161021e-01 4.703492e-01 5.657957e-02 9.168541e-02 1.493673e-01 1.352862e-01 2.708609e-01 2.579917e-01 2.765370e-01 1.945520e-01 1.945447e-01 2.001035e-01 1.633918e-01 1.345812e-01 3.542693e-02
<GCONST> 7.703123e+01
<STATE> 4
<MEAN> 39
 -1.228710e+01 7.360977e+00 5.381611e+00 5.741999e+00 -1.499241e+00 -3.650586e+00 -7.225145e+00 -8.783813e+00 -9.195509e+00 -6.844236e+00 -4.199474e+00 -5.906782e-01 6.081310e+01 -9.914124e-01 -2.981533e-01 -9.534059e-01 4.557432e-01 1.151063e+00 6.457281e-01 1.396375e+00 3.234363e-01 8.900272e-01 1.779918e-01 -9.513762e-02 4.817833e-02 -3.260234e-01 -1.550168e-01 -1.131217e-01 -1.144402e-01 -2.051294e-01 -3.249185e-01 -2.042778e-02 2.200682e-01 1.437668e-01 3.056703e-01 1.735063e-01 2.561478e-01 4.880374e-02 1.752651e-01
<VARIANCE> 39
 5.281933e+00 6.043905e+00 1.106868e+01 8.014382e+00 1.577967e+01 1.296663e+01 1.789691e+01 1.503116e+01 1.595095e+01 1.572753e+01 1.227661e+01 1.248664e+01 3.013893e+00 9.214869e-01 3.550970e-01 7.484818e-01 7.659014e-01 1.943287e+00 1.763908e+00 1.854881e+00 1.372114e+00 1.904759e+00 1.260966e+00 1.287252e+00 1.036623e+00 3.951169e-01 1.556800e-01 7.218504e-02 1.255193e-01 1.423884e-01 2.649415e-01 2.635497e-01 2.492872e-01 2.800502e-01 2.916649e-01 2.403916e-01 2.357036e-01 2.280424e-01 3.261420e-02
<GCONST> 8.009026e+01
<TRANSP> 5
 0.000000e+00 1.000000e+00 0.000000e+00 0.000000e+00 0.000000e+00
 0.000000e+00 6.710386e-01 3.289614e-01 0.000000e+00 0.000000e+00
 0.000000e+00 0.000000e+00 8.951111e-01 1.048889e-01 0.000000e+00
 0.000000e+00 0.000000e+00 0.000000e+00 8.045263e-01 1.954737e-01
 0.000000e+00 0.000000e+00 0.000000e+00 0.000000e+00 0.000000e+00
<ENDHMM>
~h "ah"
<BEGINHMM>
<NUMSTATES> 5
<STATE> 2
<MEAN> 39
 -1.529108e+01 1.197415e+00 -1.408702e+00 3.447350e+00 4.035433e-01 1.804441e+00 9.090735e-01 1.177899e+00 -2.517079e-01 2.028974e-01 -8.807105e-01 7.519394e-01 5.934274e+01 -6.842193e-02 7.704006e-02 1.519564e-01 1.813153e-01 3.218580e-01 1.104678e-01 -1.715150e-02 -5.815103e-02 -2.273410e-01 -1.598231e-01 -8.268005e-02 -5.830759e-02 -2.320283e-02 2.131911e-01 6.130761e-02 1.683653e-02 -7.855566e-02 -1.776526e-01 -2.263789e-01 -2.272694e-01 -9.642658e-02 -9.071081e-02 -4.756428e-02 -2.864819e-02 -2.740852e-02 1.602730e-01
<VARIANCE> 39
 1.543369e+01 7.484309e+00 1.250943e+01 1.392152e+01 2.246751e+01 2.396815e+01 2.445294e+01 2.103970e+01 1.898288e+01 1.700223e+01 2.085401e+01 1.822163e+01 8.288548e+00 7.859985e-01 9.207031e-01 1.077080e+00 1.131099e+00 1.494899e+00 1.892229e+00 1.859292e+00 2.323464e+00 1.948686e+00 1.818966e+00 2.005666e+00 1.724284e+00 3.770395e-01 1.158794e-01 1.627240e-01 1.503310e-01 1.891541e-01 3.140468e-01 3.800057e-01 3.826405e-01 4.111706e-01 3.296456e-01 2.819687e-01 3.381820e-01 2.690647e-01 7.597418e-02
<GCONST> 9.300204e+01
<STATE> 3
<MEAN> 39
 -1.265734e+01 4.046010e+00 1.276418e+00 3.991814e+00 2.102313e-02 -2.123956e-01 -2.435404e+00 -2.496848e+00 -4.857907e+00 -3.457092e+00 -3.409553e+00 -2.108371e+00 6.088924e+01 1.459324e+00 9.855337e-01 6.140363e-01 -1.345013e-01 -8.634294e-01 -1.551438e+00 -1.829885e+00 -1.406622e+00 -1.238207e+00 -6.618051e-01 -3.778521e-01 -3.069035e-01 9.628097e-01 2.097305e-01 -1.033806e-01 -2.350464e-01 -3.188498e-01 -3.862815e-01 -2.526997e-01 -1.090525e-01 2.864590e-02 2.429878e-01 3.260990e-01 3.489604e-01 3.126443e-01 1.817783e-01
<VARIANCE> 39
 1.883243e+01 1.638256e+01 2.497960e+01 2.279335e+01 3.252215e+01 3.162241e+01 3.332151e+01 3.324929e+01 2.870086e+01 2.291669e+01 2.457677e+01 1.881481e+01 1.129062e+01 2.203753e+00 2.687558e+00 2.316073e+00 1.656847e+00 2.485626e+00 2.790457e+00 3.318532e+00 4.830056e+00 3.671413e+00 2.535570e+00 2.812347e+00 2.281367e+00 1.012445e+00 2.200281e-01 2.816303e-01 2.548758e-01 3.001903e-01 4.368455e-01 5.178878e-01 5.210335e-01 5.724279e-01 4.765643e-01 4.470388e-01 4.833113e-01 4.200308e-01 1.370137e-01
<GCONST> 1.115097e+02
<STATE> 4
<MEAN> 39
 -5.389628e+00 2.946319e+00 -3.025629e+00 -5.090253e-01 -4.893342e+00 -4.444285e+00 -6.756560e+00 -3.494052e+00 -3.683037e+00 -3.406361e+00 -4.918973e+00 -3.885750e+00 6.640729e+01 -8.368120e-02 -8.069234e-02 -1.799833e-01 4.630556e-04 7.156963e-02 7.169864e-02 1.430262e-01 1.171308e-01 1.707274e-01 1.471021e-01 3.303057e-02 3.521044e-02 -7.149240e-02 -8.842796e-02 -5.170373e-02 -3.136280e-02 5.718210e-03 5.255543e-02 9.076356e-02 1.031618e-01 7.652386e-02 4.838451e-02 6.308284e-03 2.773964e-02 9.064714e-03 -4.363136e-02
<VARIANCE> 39
 2.251839e+01 3.197836e+01 5.478296e+01 2.328281e+01 3.202277e+01 2.306144e+01 2.087361e+01 4.879780e+01 3.542141e+01 2.375185e+01 3.845264e+01 3.132077e+01 1.551592e+01 1.585328e+00 2.024112e+00 3.337338e+00 2.181509e+00 2.811150e+00 1.832535e+00 1.855561e+00 3.488266e+00 2.643506e+00 1.814889e+00 2.945286e+00 2.507400e+00 1.109045e+00 2.029389e-01 3.526284e-01 5.506670e-01 3.597593e-01 4.496871e-01 3.317124e-01 3.639415e-01 5.955333e-01 4.902360e-01 3.430547e-01 5.174310e-01 4.574366e-01 1.285776e-01
<GCONST> 1.128753e+02
<TRANSP> 5
 0.000000e+00 1.000000e+00 0.000000e+00 0.000000e+00 0.000000e+00
 0.000000e+00 6.411016e-01 3.588984e-01 0.000000e+00 0.000000e+00
 0.000000e+00 0.000000e+00 4.069144e-01 5.930856e-01 0.000000e+00
 0.000000e+00 0.000000e+00 0.000000e+00 9.042005e-01 9.579953e-02
 0.000000e+00 0.000000e+00 0.000000e+00 0.000000e+00 0.000000e+00
<ENDHMM>
~h "ch"
<BEGINHMM>
<NUMSTATES> 5
<STATE> 2
<MEAN> 39
 -1.974805e+01 -3.098249e+00 -9.327713e-03 2.487113e+00 -2.991930e+00 -1.977984e+00 5.199731e+00 -4.864188e+00 1.169879e+00 4.766567e-01 1.982561e+00 1.264545e+00 6.344992e+01 -1.401045e+00 -9.869167e-01 7.655002e-01 8.705430e-02 -5.346030e-02 -9.688511e-01 1.444507e+00 -4.512809e-01 1.788345e+00 8.055475e-02 2.247295e-01 -2.815774e-01 1.411169e+00 1.085489e-01 3.047685e-01 1.270023e-01 2.187074e-01 3.757085e-01 -2.088590e-01 -4.351162e-01 1.339372e-01 9.593707e-02 -1.087814e-01 -2.717756e-01 2.918223e-03 -1.490826e-01
<VARIANCE> 39
 2.608461e+01 1.614332e+01 1.934547e+01 1.577631e+01 2.024347e+01 2.398773e+01 3.507060e+01 2.587791e+01 3.207195e+01 1.962344e+01 1.496447e+01 1.348613e+01 1.780443e+01 2.285366e+00 1.797471e+00 2.323298e+00 2.251273e+00 3.389589e+00 2.106708e+00 3.239289e+00 3.331824e+00 2.413445e+00 2.304979e+00 1.993036e+00 1.692954e+00 1.058340e+00 8.971455e-01 3.312448e-01 5.295130e-01 4.504386e-01 5.896668e-01 4.521730e-01 9.149872e-01 6.698508e-01 5.857628e-01 4.535051e-01 4.058307e-01 3.213705e-01 4.209712e-01
<GCONST> 1.127838e+02
<STATE> 3
<MEAN> 39
 -1.595280e+01 4.102398e-01 4.425974e-01 2.007613e+00 -4.806536e-01 -4.449798e+00 1.177777e+00 -5.714368e+00 2.871049e+00 -2.708171e-01 -1.094648e+00 6.097956e-01 6.462042e+01 1.396350e+00 8.460063e-01 -4.352988e-01 1.472017e-01 4.180549e-01 3.263500e-01 -1.300485e+00 2.329232e-01 -5.234170e-01 6.303655e-02 -6.767650e-01 -2.397658e-01 -7.180495e-01 3.670982e-01 1.625297e-01 -1.890129e-01 -2.490754e-01 -3.032824e-01 3.274817e-01 -1.560951e-01 -1.550363e-01 -5.271539e-01 5.822197e-02 1.201600e-01 -1.256142e-02 -1.067044e-01
<VARIANCE> 39
 7.083342e+01 2.787608e+01 1.906103e+01 4.332742e+01 3.589369e+01 3.010963e+01 4.341682e+01 2.548573e+01 7.839986e+01 2.292325e+01 2.196381e+01 1.847544e+01 8.319714e+00 5.259754e+00 1.837291e+00 1.592842e+00 4.345430e+00 4.314839e+00 2.984766e+00 5.282860e+00 3.542565e+00 5.697977e+00 2.239659e+00 3.189507e+00 2.254083e+00 8.413622e-01 1.057958e+00 3.514103e-01 3.583681e-01 9.205047e-01 9.022910e-01 5.099071e-01 9.008425e-01 7.989870e-01 1.205581e+00 4.416157e-01 6.124831e-01 5.041531e-01 2.217575e-01
<GCONST> 1.231135e+02
<STATE> 4
<MEAN> 39
 -1.757874e+01 9.126352e-02 -1.653991e+00 3.999573e+00 2.415169e+00 2.081223e+00 3.128409e+00 1.500628e+00 1.449563e+00 1.050605e+00 4.581869e-01 2.015233e+00 5.791585e+01 2.071038e-01 1.201376e-01 -5.443591e-02 -8.521627e-02 -9.501924e-02 1.024837e-01 -1.388112e-01 -7.228044e-03 -1.843794e-01 4.305936e-02 -1.566827e-02 -4.424216e-02 -4.457382e-02 9.150350e-02 5.682863e-02 -1.102983e-02 -1.455980e-01 -1.573392e-01 -4.732980e-02 -2.449870e-02 -9.848402e-02 -7.792081e-02 -6.148569e-02 -3.204491e-03 -3.205422e-03 8.521113e-02
<VARIANCE> 39
 2.745088e+00 3.339318e+00 5.163166e+00 5.874313e+00 8.207429e+00 1.334633e+01 1.539685e+01 1.603915e+01 1.661426e+01 1.306900e+01 1.388170e+01 1.168905e+01 2.261334e+00 1.454699e+00 7.581776e-01 5.632414e-01 8.978186e-01 1.208814e+00 1.322234e+00 1.816463e+00 1.535720e+00 2.237354e+00 1.452049e+00 1.383304e+00 1.180131e+00 1.317737e-01 8.140381e-02 6.561793e-02 1.200576e-01 2.313370e-01 2.842529e-01 2.590969e-01 2.495980e-01 3.218430e-01 3.343782e-01 2.838035e-01 3.047569e-01 2.357364e-01 4.241842e-02
<GCONST> 7.725443e+01
<TRANSP> 5
 0.000000e+00 1.000000e+00 0.000000e+00 0.000000e+00 0.000000e+00
 0.000000e+00 8.017068e-01 1.982932e-01 0.000000e+00 0.000000e+00
 0.000000e+00 0.000000e+00 8.017554e-01 1.982445e-01 0.000000e+00
 0.000000e+00 0.000000e+00 0.000000e+00 9.170965e-01 8.290350e-02
 0.000000e+00 0.000000e+00 0.000000e+00 0.000000e+00 0.000000e+00
<ENDHMM>
~h "dh"
<BEGINHMM>
<NUMSTATES> 5
<STATE> 2
<MEAN> 39
 -1.013361e+01 5.439461e+00 2.479626e+00 1.767004e+00 -2.014219e+00 -7.214482e-01 -8.369936e+00 -7.350574e+00 -5.272317e+00 -3.594387e+00 -2.598576e+00 -1.323283e+00 6.255225e+01 1.259221e+00 2.314727e-01 -3.407369e-01 -1.635296e+00 -1.219176e+00 1.764298e-02 -1.218587e+00 -1.252649e+00 5.343404e-02 3.310963e-01 5.994385e-01 4.673417e-01 9.462048e-01 1.553557e-03 1.631928e-02 -1.930254e-01 -1.919896e-01 -9.777337e-02 1.051040e-01 2.826166e-01 5.484109e-02 -1.914594e-02 1.859934e-02 1.037683e-01 2.602430e-01 -5.042521e-02
<VARIANCE> 39
 2.341379e+01 1.887600e+01 1.574407e+01 6.326017e+01 3.108375e+01 2.032453e+01 4.816510e+01 4.091378e+01 4.099779e+01 2.951494e+01 2.593463e+01 1.414560e+01 2.036607e+01 2.120932e+00 2.525900e+00 2.125919e+00 4.734211e+00 2.412273e+00 2.647435e+00 5.624687e+00 5.001697e+00 4.856710e+00 3.400694e+00 2.830548e+00 2.366221e+00 1.363543e+00 4.627235e-01 3.934991e-01 1.979442e-01 5.826399e-01 4.446740e-01 4.132669e-01 1.391561e+00 1.090218e+00 8.476132e-01 6.829917e-01 5.109471e-01 3.552818e-01 3.267907e-01
<GCONST> 1.204069e+02
<STATE> 3
<MEAN> 39
 -2.042079e+00 6.276173e+00 -4.769925e+00 -1.478785e+01 -1.263135e+01 3.095709e+00 -8.312076e+00 -1.134495e+01 -4.468517e+00 -2.283496e+00 2.483713e+00 7.114002e+00 6.790947e+01 -2.469844e-02 4.503498e-01 -2.989828e-01 -7.320110e-01 -5.938525e-01 1.286006e-01 1.713991e+00 1.277781e+00 -5.700155e-01 -1.560037e+00 -9.304755e-01 7.450971e-01 -2.924246e-01 -2.679999e-01 -1.249080e-01 3.105247e-01 4.427541e-01 2.706925e-01 -2.141849e-01 -1.588427e-01 3.911215e-01 2.315548e-01 -6.014429e-02 -2.544211e-01 -4.708948e-01 -7.378088e-02
<VARIANCE> 39
 1.192212e+01 5.947870e+00 1.647252e+01 5.264720e+01 2.276556e+01 1.806160e+01 2.060791e+01 1.847631e+01 1.206868e+01 1.890492e+01 1.855197e+01 1.308062e+01 7.175282e+00 1.470334e-01 3.209102e-01 5.443012e-01 8.116032e-01 7.062027e-01 9.700227e-01 1.113220e+00 9.639843e-01 1.034833e+00 1.086878e+00 1.101982e+00 1.260347e+00 9.254483e-02 7.518679e-02 6.953679e-02 1.330609e-01 1.682276e-01 1.379552e-01 1.703005e-01 3.023551e-01 5.777292e-01 1.780432e-01 3.932921e-01 3.343855e-01 1.616910e-01 3.352382e-02
<GCONST> 7.792426e+01
<STATE> 4
<MEAN> 39
 -3.214655e+00 7.766066e+00 -4.242351e+00 -1.443307e+01 -1.280490e+01 1.545966e+00 -4.527771e+00 -7.141722e+00 -5.503804e+00 -5.658706e+00 -3.883295e-01 7.223391e+00 6.630444e+01 -3.360649e-01 -3.325436e-02 1.511737e-01 6.633518e-01 5.171843e-01 -1.459140e-01 -4.544231e-02 -1.221564e-01 -1.594046e-01 1.693964e-01 1.403087e-01 -1.053669e-01 -2.584642e-01 -4.810056e-02 -3.755397e-02 3.667797e-02 2.158380e-01 1.456730e-01 -2.069608e-02 -1.171282e-01 -1.752268e-01 -2.535377e-02 1.543501e-01 1.036344e-01 -8.633281e-02 -1.446588e-02
<VARIANCE> 39
 7.035885e+00 3.880705e+00 9.806077e+00 3.912909e+01 1.903646e+01 1.855059e+01 1.806465e+01 1.303973e+01 1.310886e+01 1.179352e+01 1.598678e+01 1.047138e+01 4.157314e+00 8.212318e-02 2.286133e-01 3.003507e-01 8.428813e-01 6.154601e-01 6.763562e-01 9.821844e-01 1.161521e+00 7.514881e-01 8.837405e-01 8.509517e-01 6.151320e-01 7.570180e-02 1.889181e-02 3.670164e-02 7.141810e-02 1.169260e-01 1.036565e-01 1.199786e-01 1.691813e-01 1.656522e-01 1.472289e-01 1.572311e-01 1.730429e-01 1.472273e-01 1.674231e-02
<GCONST> 6.257107e+01
<TRANSP> 5
 0.000000e+00 1.000000e+00 0.000000e+00 0.000000e+00 0.000000e+00
 0.000000e+00 8.731487e-01 1.268513e-01 0.000000e+00 0.000000e+00
 0.000000e+00 0.000000e+00 7.037259e-01 2.962741e-01 0.000000e+00
 0.000000e+00 0.000000e+00 0.000000e+00 8.512433e-01 1.487568e-01
 0.000000e+00 0.000000e+00 0.000000e+00 0.000000e+00 0.000000e+00
<ENDHMM>
~h "eh"
<BEGINHMM>
<NUMSTATES> 5
<STATE> 2
<MEAN> 39
 -1.683476e+01 2.090806e+00 -9.519939e-01 3.646599e+00 8.680815e-02 -1.832969e-01 1.018719e+00 4.879547e-01 -2.902427e-01 -3.313382e-01 -1.045970e-02 2.030986e+00 5.985532e+01 6.988312e-01 -5.914579e-02 2.497648e-01 -1.517212e-01 -6.767073e-01 -5.368054e-01 -1.266054e-01 5.939851e-02 -2.192832e-01 -2.772341e-01 -2.511350e-03 -9.427106e-02 3.931992e-01 3.600105e-01 1.790551e-01 1.986642e-01 -8.445024e-02 -4.408845e-01 -3.791662e-01 -3.535178e-01 -2.213190e-01 -2.775810e-01 -1.322308e-01 -4.128299e-02 -6.719592e-02 1.991796e-01
<VARIANCE> 39
 2.180513e+01 8.524864e+00 1.524526e+01 1.007796e+01 2.331276e+01 2.448825e+01 2.867214e+01 2.189755e+01 2.303416e+01 1.687455e+01 1.493477e+01 1.273573e+01 1.036566e+01 2.243850e+00 1.053756e+00 1.377367e+00 1.306033e+00 3.041812e+00 2.593124e+00 2.591088e+00 2.391487e+00 2.487725e+00 1.891393e+00 1.781642e+00 1.418471e+00 1.004255e+00 2.033096e-01 1.662648e-01 2.310144e-01 2.552726e-01 4.901414e-01 4.229267e-01 4.325819e-01 4.122722e-01 4.013427e-01 3.303175e-01 3.316092e-01 2.628558e-01 1.312608e-01
<GCONST> 1.000862e+02
<STATE> 3
<MEAN> 39
 -8.877318e+00 4.665032e+00 2.860097e+00 1.844938e+00 -8.904273e+00 -8.710320e+00 -5.411364e+00 -2.604774e+00 -4.637206e+00 -3.664364e+00 -8.607052e-01 7.226933e-01 6.495802e+01 2.126673e+00 3.374038e-01 1.258384e+00 -9.227280e-01 -3.260019e+00 -2.286985e+00 -1.998162e+00 -7.603132e-01 -1.287011e+00 -1.423798e-01 3.137304e-01 -1.860610e-01 1.285724e+00 -3.981335e-01 -2.172226e-01 -1.469393e-01 -8.099088e-02 1.060845e-01 3.370696e-01 2.097584e-01 9.030091e-02 2.332753e-01 3.064566e-01 2.150249e-01 1.385550e-01 -1.225620e-01
<VARIANCE> 39
 2.092103e+01 1.495781e+01 2.098677e+01 1.865371e+01 5.135909e+01 3.912223e+01 3.718596e+01 2.276149e+01 2.317943e+01 1.355217e+01 1.945478e+01 1.425409e+01 1.265970e+01 2.506220e+00 2.312475e+00 2.168417e+00 1.979254e+00 3.586975e+00 2.719309e+00 3.437231e+00 2.786826e+00 2.310562e+00 2.057423e+00 2.479613e+00 1.631388e+00 8.635984e-01 4.684910e-01 2.890082e-01 4.187585e-01 3.772598e-01 8.541494e-01 6.287244e-01 7.483201e-01 4.739306e-01 4.736511e-01 3.333147e-01 3.846625e-01 2.813478e-01 2.294287e-01
<GCONST> 1.111691e+02
<STATE> 4
<MEAN> 39
 -6.863147e+00 3.832309e+00 6.113512e+00 1.461465e-01 -1.559382e+01 -1.117520e+01 -7.780522e+00 -4.547354e+00 -7.719251e+00 -2.115924e+00 1.150563e+00 7.928150e-01 6.653324e+01 -2.758394e-01 1.536977e-01 -6.237550e-02 1.921953e-01 5.452120e-01 4.400516e-01 1.174378e-01 -2.424212e-01 4.496422e-03 -3.777568e-02 -2.653222e-01 -1.130741e-01 -3.083002e-01 -1.880256e-01 2.749754e-02 -1.418885e-01 1.321784e-01 4.360216e-01 2.553911e-01 1.450295e-01 2.351396e-02 1.306017e-01 -4.089705e-02 -1.179812e-01 -3.309151e-02 -1.449564e-01
<VARIANCE> 39
 8.509365e+00 1.293232e+01 1.466833e+01 1.279288e+01 4.014704e+01 2.022401e+01 1.520105e+01 1.669328e+01 1.484276e+01 1.109397e+01 1.844020e+01 1.188304e+01 9.336357e+00 5.204081e-01 7.066348e-01 9.572853e-01 9.647199e-01 2.941005e+00 1.288130e+00 1.136024e+00 1.139779e+00 1.148455e+00 1.027890e+00 1.271523e+00 8.391132e-01 4.614652e-01 1.075595e-01 1.491843e-01 1.480901e-01 1.768167e-01 3.979491e-01 2.686508e-01 2.584133e-01 2.353849e-01 2.115071e-01 2.011847e-01 2.272751e-01 1.713869e-01 7.356132e-02
<GCONST> 8.472124e+01
<TRANSP> 5
 0.000000e+00 1.000000e+00 0.000000e+00 0.000000e+00 0.000000e+00
 0.000000e+00 6.748103e-01 3.251897e-01 0.000000e+00 0.000000e+00
 0.000000e+00 0.000000e+00 5.592372e-01 4.407627e-01 0.000000e+00
 0.000000e+00 0.000000e+00 0.000000e+00 8.477684e-01 1.522316e-01
 0.000000e+00 0.000000e+00 0.000000e+00 0.000000e+00 0.000000e+00
<ENDHMM>
~h "ih"
<BEGINHMM>
<NUMSTATES> 5
<STATE> 2
<MEAN> 39
 -1.607878e+01 4.811049e+00 3.193298e+00 5.169097e+00 -7.287670e-01 5.946765e-01 9.230993e-02 -6.272164e+00 -3.357127e+00 -4.403100e+00 -2.938093e+00 -1.570843e+00 6.153538e+01 2.803175e+00 1.227220e+00 1.890635e+00 -4.441492e-01 -1.626340e+00 -8.749257e-01 -2.884264e+00 -1.659168e+00 -2.216787e+00 -1.313370e+00 -6.034276e-01 -9.617837e-01 4.348411e-01 1.477242e-01 3.932134e-01 7.010390e-02 -3.369420e-01 -4.808059e-01 -3.589419e-01 -5.553173e-01 -1.300885e-01 -1.975737e-01 1.574702e-01 3.945971e-01 1.462808e-01 2.908891e-01
<VARIANCE> 39
 2.258559e+01 1.147912e+01 1.246932e+01 8.547404e+00 1.769797e+01 1.622742e+01 3.738601e+01 2.268378e+01 3.689975e+01 2.001288e+01 2.167009e+01 1.516568e+01 7.791002e+00 4.212689e+00 2.201946e+00 2.225316e+00 1.086584e+00 3.275229e+00 2.309158e+00 8.637681e+00 3.076306e+00 5.701016e+00 2.207818e+00 2.700485e+00 1.305784e+00 1.027481e+00 3.396441e-01 2.589523e-01 4.397353e-01 2.063280e-01 3.657998e-01 3.400763e-01 7.817567e-01 4.598418e-01 6.977549e-01 4.724893e-01 5.613014e-01 3.466613e-01 1.469893e-01
<GCONST> 1.083910e+02
<STATE> 3
<MEAN> 39
 -8.180787e+00 9.723127e+00 8.798562e+00 9.292715e-01 -8.280552e+00 -3.907682e+00 -1.047952e+01 -1.065061e+01 -9.655644e+00 -5.264660e+00 -1.478452e+00 -2.177637e+00 6.408551e+01 1.389639e+00 6.427135e-01 9.852962e-01 -1.140481e+00 -1.575349e+00 -4.676602e-01 -2.345009e+00 -8.646932e-01 -9.576718e-01 4.469060e-01 9.404136e-01 1.234319e-01 5.350897e-01 -9.128929e-01 -5.477994e-01 -6.777208e-01 1.921359e-01 7.366706e-01 4.730234e-01 9.906037e-01 5.559224e-01 7.882907e-01 4.553432e-01 1.786799e-01 2.269674e-01 -1.949910e-01
<VARIANCE> 39
 3.182007e+00 3.993489e+00 8.400879e+00 1.303171e+01 1.696891e+01 7.783127e+00 1.395831e+01 1.047489e+01 9.552396e+00 1.185797e+01 1.126028e+01 9.763443e+00 2.327775e+00 1.863126e+00 1.144345e+00 1.608047e+00 1.020554e+00 2.269617e+00 1.849986e+00 3.251162e+00 2.286290e+00 2.337397e+00 1.711621e+00 1.744753e+00 1.107048e+00 3.367208e-01 1.888763e-01 1.135972e-01 1.494756e-01 2.492804e-01 3.249871e-01 2.240884e-01 5.709459e-01 2.540868e-01 3.929632e-01 3.455111e-01 4.380566e-01 2.255722e-01 5.969843e-02
<GCONST> 8.589609e+01
<STATE> 4
<MEAN> 39
 -8.748643e+00 8.498322e+00 8.764398e+00 7.727184e-01 -8.353664e+00 -3.031315e+00 -1.150453e+01 -1.056210e+01 -9.274998e+00 -4.019105e+00 -1.124937e+00 -2.326799e+00 6.393471e+01 9.474554e-03 -2.377149e-01 -4.722819e-01 2.507218e-01 1.803626e-01 -2.286523e-01 2.864448e-01 7.505797e-02 6.484937e-02 2.686220e-01 -1.769866e-01 5.392859e-02 -5.395057e-02 -4.988305e-02 -6.338391e-02 -1.485041e-01 1.404262e-01 1.034071e-01 -1.027312e-01 2.264442e-01 1.263683e-01 6.472036e-02 -6.531793e-02 -9.032037e-02 2.786758e-02 -3.618489e-02
<VARIANCE> 39
 4.161497e+00 5.405180e+00 1.671185e+01 1.313862e+01 2.720360e+01 1.353341e+01 1.344618e+01 1.291143e+01 1.073903e+01 2.112737e+01 1.493178e+01 1.051832e+01 4.284726e+00 1.757669e-01 4.144024e-01 7.074638e-01 8.796432e-01 1.549984e+00 1.309161e+00 1.211487e+00 1.254257e+00 1.005658e+00 1.021752e+00 1.108248e+00 8.140846e-01 1.735711e-01 4.369859e-02 7.970902e-02 1.289530e-01 1.665263e-01 2.914897e-01 2.083278e-01 2.201180e-01 2.235075e-01 1.991838e-01 2.305270e-01 2.810585e-01 1.706572e-01 2.798702e-02
<GCONST> 7.438062e+01
<TRANSP> 5
 0.000000e+00 1.000000e+00 0.000000e+00 0.000000e+00 0.000000e+00
 0.000000e+00 5.923213e-01 4.076787e-01 0.000000e+00 0.000000e+00
 0.000000e+00 0.000000e+00 6.215717e-01 3.784283e-01 0.000000e+00
 0.000000e+00 0.000000e+00 0.000000e+00 8.439134e-01 1.560866e-01
 0.000000e+00 0.000000e+00 0.000000e+00 0.000000e+00 0.000000e+00
<ENDHMM>
~h "ll"
<BEGINHMM>
<NUMSTATES> 5
<STATE> 2
<MEAN> 39
 -1.779614e+01 -5.351470e-02 -2.043079e+00 4.343187e+00 2.211282e+00 3.759476e+00 3.017389e+00 3.256504e+00 7.830715e-01 1.502216e+00 1.423984e+00 2.842414e+00 5.742881e+01 -7.811919e-03 -6.788352e-03 -7.418588e-03 -4.942514e-03 -1.317985e-02 -1.616499e-02 -1.908327e-02 -2.013111e-02 -9.307902e-03 -9.604013e-03 -1.937201e-02 -2.426910e-02 -4.863836e-03 -1.724774e-03 1.172125e-04 1.474072e-03 7.295916e-05 1.736291e-03 1.893413e-03 -3.829545e-04 -3.470858e-03 -1.110947e-03 1.289539e-04 -2.183804e-03 -3.630217e-03 -2.632791e-04
<VARIANCE> 39
 9.550958e-01 1.747350e+00 3.467525e+00 4.462921e+00 6.917169e+00 8.264248e+00 9.395928e+00 1.035843e+01 1.165668e+01 1.104778e+01 1.007489e+01 9.097644e+00 4.487401e-01 8.389454e-02 1.721832e-01 2.908781e-01 4.573932e-01 6.910940e-01 7.958426e-01 9.350566e-01 1.033803e+00 1.151329e+00 1.107824e+00 9.756580e-01 8.703714e-01 3.226044e-02 1.524965e-02 3.486469e-02 5.802212e-02 9.305401e-02 1.416533e-01 1.631109e-01 1.968606e-01 2.097720e-01 2.379167e-01 2.286559e-01 1.996221e-01 1.808376e-01 5.204633e-03
<GCONST> 5.068050e+01
<STATE> 3
<MEAN> 39
 -1.898370e+01 2.759417e-01 -1.078151e+00 3.895461e+00 3.220030e+00 3.558219e+00 4.017081e+00 3.103025e+00 2.564115e+00 1.944151e+00 2.045097e+00 2.098722e+00 5.634411e+01 -3.935020e-03 -8.254119e-03 -7.118020e-03 -1.167500e-02 -1.265933e-03 4.495330e-03 4.363338e-03 -1.530506e-02 -1.064044e-02 -3.364240e-02 -2.882782e-02 -8.056772e-03 -5.945838e-04 9.465323e-03 3.225585e-03 6.757075e-03 7.562290e-04 -1.273037e-02 -1.107421e-02 -9.440286e-03 -1.286742e-03 -1.740329e-02 -1.139622e-02 -1.246653e-02 1.628735e-03 6.241128e-03
<VARIANCE> 39
 1.246559e+00 2.654519e+00 3.983186e+00 6.242538e+00 8.940079e+00 1.002792e+01 1.239456e+01 1.185079e+01 1.490486e+01 1.223379e+01 1.268697e+01 1.019910e+01 7.084903e-01 9.856441e-02 2.407500e-01 3.878600e-01 5.901471e-01 9.161416e-01 1.013121e+00 1.162023e+00 1.283709e+00 1.257792e+00 1.172187e+00 1.233811e+00 9.969398e-01 3.555484e-02 1.988281e-02 5.064052e-02 8.237205e-02 1.247011e-01 1.995957e-01 2.177751e-01 2.455452e-01 2.678622e-01 2.625251e-01 2.450335e-01 2.637173e-01 2.094963e-01 6.281462e-03
<GCONST> 5.961907e+01
<STATE> 4
<MEAN> 39
 -1.816606e+01 -2.568574e-01 -1.709891e+00 4.116218e+00 1.963044e+00 3.315830e+00 2.503921e+00 3.014117e+00 9.685888e-01 1.077131e+00 1.323454e+00 2.336103e+00 5.756554e+01 8.738973e-02 1.159153e-01 1.363956e-01 1.819619e-02 -1.377276e-01 -1.953034e-01 -1.375459e-01 -2.255787e-01 -2.501646e-01 -1.367687e-01 -2.290976e-01 -1.464566e-01 9.458304e-02 8.623760e-02 1.338621e-01 1.104651e-01 3.573050e-02 -9.838946e-03 -9.345258e-02 -1.034549e-01 -1.859731e-01 -1.516494e-01 -8.677412e-02 -1.184682e-01 -1.119388e-01 5.762450e-02
<VARIANCE> 39
 1.906104e+00 2.941989e+00 5.112394e+00 6.521885e+00 9.554699e+00 1.027265e+01 1.311989e+01 1.297214e+01 1.161800e+01 1.009003e+01 1.138778e+01 8.918989e+00 1.111499e+00 2.160174e-01 3.051636e-01 5.776064e-01 7.981382e-01 1.057207e+00 1.398459e+00 1.418651e+00 1.569261e+00 1.258355e+00 1.095737e+00 1.387177e+00 1.036622e+00 1.322955e-01 5.645181e-02 8.875678e-02 1.390626e-01 1.709861e-01 2.192402e-01 3.139279e-01 3.244967e-01 3.637721e-01 3.231440e-01 2.525038e-01 2.920820e-01 2.364932e-01 3.040118e-02
<GCONST> 6.996168e+01
<TRANSP> 5
 0.000000e+00 1.000000e+00 0.000000e+00 0.000000e+00 0.000000e+00
 0.000000e+00 9.767879e-01 2.321215e-02 0.000000e+00 0.000000e+00
 0.000000e+00 0.000000e+00 9.335867e-01 6.641334e-02 0.000000e+00
 0.000000e+00 0.000000e+00 0.000000e+00 8.082202e-01 1.917798e-01
 0.000000e+00 0.000000e+00 0.000000e+00 0.000000e+00 0.000000e+00
<ENDHMM>
~h "ng"
<BEGINHMM>
<NUMSTATES> 5
<STATE> 2
<MEAN> 39
 -7.773253e+00 9.325379e+00 4.242534e+00 4.519501e+00 -3.208961e+00 -5.628446e+00 -1.001825e+01 -1.242666e+01 -1.088760e+01 -3.173441e+00 -2.576744e+00 -1.008953e+00 6.261739e+01 -2.128349e-01 -3.230124e-03 1.047759e-02 5.459375e-01 3.762008e-01 -2.456354e-01 -1.247948e-03 1.105771e-01 -2.212436e-01 -6.127306e-01 -3.472253e-01 1.056800e-01 -2.259303e-01 -8.574840e-02 -7.939741e-02 7.683387e-02 -1.297753e-03 -9.321028e-04 9.217327e-02 2.779093e-02 8.413220e-02 3.036962e-02 -6.703113e-02 -6.507393e-02 -6.940833e-02 -6.541323e-03
<VARIANCE> 39
 2.352171e+00 4.453185e+00 3.218651e+00 6.638518e+00 8.421744e+00 7.380425e+00 7.990283e+00 1.055538e+01 9.653810e+00 1.241524e+01 1.155752e+01 8.589870e+00 1.235581e+00 8.766700e-02 4.160596e-01 4.024474e-01 7.395775e-01 5.527935e-01 7.948810e-01 6.667193e-01 7.659145e-01 6.838395e-01 9.259046e-01 9.551675e-01 7.868301e-01 6.443492e-02 1.735967e-02 9.016500e-02 7.356654e-02 1.395177e-01 1.170788e-01 1.499624e-01 1.673669e-01 1.616623e-01 1.424108e-01 1.896187e-01 1.876222e-01 1.681911e-01 1.230183e-02
<GCONST> 5.558941e+01
<STATE> 3
<MEAN> 39
 -1.009562e+01 7.846809e+00 5.469420e+00 8.623410e+00 -1.077817e+00 -6.653862e+00 -9.937782e+00 -1.080219e+01 -1.220283e+01 -7.704735e+00 -6.131496e+00 -1.715622e+00 6.140955e+01 -1.090040e+00 -7.948000e-01 -3.131848e-01 2.391649e-01 1.052470e+00 1.244800e+00 1.285484e+00 1.060873e+00 4.192432e-01 -4.842477e-01 -6.967018e-01 -4.992858e-01 -5.926129e-01 -1.946012e-01 -1.933774e-01 -3.845049e-01 -4.446704e-01 5.639937e-02 4.905588e-01 5.331229e-01 4.087380e-01 4.973480e-01 4.976240e-01 4.316331e-01 2.231968e-01 -1.106108e-01
<VARIANCE> 39
 2.450222e+00 1.351241e+01 3.600894e+00 1.544794e+01 9.958011e+00 1.614531e+01 1.168329e+01 1.265701e+01 1.334208e+01 1.542506e+01 1.255032e+01 1.078202e+01 2.784855e+00 2.535856e-01 1.357323e+00 4.716883e-01 1.891064e+00 8.063558e-01 1.934477e+00 1.549489e+00 1.453643e+00 1.469721e+00 1.753309e+00 1.224643e+00 1.155758e+00 2.078935e-01 3.140192e-02 3.212933e-01 7.049698e-02 3.473282e-01 1.515379e-01 3.283634e-01 2.148282e-01 2.563685e-01 2.661838e-01 4.044892e-01 2.353372e-01 2.448446e-01 4.229367e-02
<GCONST> 7.787852e+01
<STATE> 4
<MEAN> 39
 -1.416504e+01 4.737093e+00 2.481441e+00 6.624532e+00 2.066174e+00 -6.688231e-01 -3.979549e+00 -6.087925e+00 -8.184877e+00 -6.032278e+00 -5.496314e+00 -1.167941e+00 5.903379e+01 -1.068585e+00 -1.214788e+00 -1.121745e+00 -6.954509e-01 2.695192e-01 1.149270e+00 1.683036e+00 1.763973e+00 1.665996e+00 1.323136e+00 1.033333e+00 7.934277e-01 -4.812686e-01 3.596208e-01 6.929776e-02 -2.488755e-01 -3.816604e-01 -3.425640e-01 -2.553767e-01 -2.941220e-01 -1.729195e-01 -5.411151e-02 2.494234e-01 4.055768e-01 2.255972e-01 2.526397e-01
<VARIANCE> 39
 2.482589e+00 3.837740e+00 5.030289e+00 5.277453e+00 7.683691e+00 1.200061e+01 1.803093e+01 1.754622e+01 1.702768e+01 1.484198e+01 1.201340e+01 1.235390e+01 9.381914e-01 3.122881e-01 5.253578e-01 3.949572e-01 6.835396e-01 8.546759e-01 1.606602e+00 1.515424e+00 1.369505e+00 1.434310e+00 1.444737e+00 1.081242e+00 1.097798e+00 1.442906e-01 1.238416e-01 9.356713e-02 1.845481e-01 2.771142e-01 1.601392e-01 3.305944e-01 2.999395e-01 2.843069e-01 3.088160e-01 3.714154e-01 2.791847e-01 2.758158e-01 5.975097e-02
<GCONST> 7.447580e+01
<TRANSP> 5
 0.000000e+00 1.000000e+00 0.000000e+00 0.000000e+00 0.000000e+00
 0.000000e+00 8.906744e-01 1.093256e-01 0.000000e+00 0.000000e+00
 0.000000e+00 0.000000e+00 6.154982e-01 3.845018e-01 0.000000e+00
 0.000000e+00 0.000000e+00 0.000000e+00 6.546122e-01 3.453878e-01
 0.000000e+00 0.000000e+00 0.000000e+00 0.000000e+00 0.000000e+00
<ENDHMM>
~h "oh"
<BEGINHMM>
<NUMSTATES> 5
<STATE> 2
<MEAN> 39
 -6.726009e+00 5.192356e+00 -3.345542e+00 -4.131270e+00 -6.492679e+00 -1.661611e+00 -4.839200e+00 -5.919947e+00 -4.345932e+00 -1.591279e+00 -1.682310e+00 -6.587067e-02 6.431680e+01 1.473435e+00 8.360219e-01 -7.669628e-01 -2.157830e+00 -1.297296e+00 3.262148e-01 -3.127147e-01 -1.040191e+00 -7.006693e-01 -7.296799e-02 4.922047e-01 4.062591e-01 6.309024e-01 -2.968315e-01 -1.756536e-01 -2.680702e-02 5.036861e-02 1.805620e-01 2.240998e-01 2.906433e-01 2.517220e-01 9.919057e-02 -4.594060e-02 1.585568e-01 2.668570e-01 -6.250769e-02
<VARIANCE> 39
 2.900010e+01 1.468082e+01 1.517897e+01 5.635977e+01 3.633391e+01 2.561854e+01 4.403223e+01 4.046122e+01 2.846632e+01 3.809283e+01 2.663338e+01 1.723554e+01 1.235614e+01 2.998718e+00 1.723347e+00 2.039078e+00 5.931551e+00 4.660943e+00 3.286491e+00 2.792410e+00 2.977882e+00 2.856556e+00 3.527235e+00 3.287082e+00 2.359423e+00 1.115026e+00 4.448774e-01 3.359757e-01 3.390285e-01 1.109322e+00 7.897343e-01 4.244554e-01 6.644939e-01 6.878364e-01 5.811138e-01 7.946001e-01 5.894092e-01 3.951005e-01 1.930136e-01
<GCONST> 1.192564e+02
<STATE> 3
<MEAN> 39
 -3.814524e+00 6.924447e+00 -5.587438e+00 -9.596620e+00 -9.156636e+00 2.220321e-01 -4.165828e+00 -7.903104e+00 -6.995180e+00 -3.008192e+00 1.923348e-01 3.169130e+00 6.558534e+01 -6.974475e-01 1.637536e-02 4.485019e-01 1.056869e+00 7.945583e-01 -1.068348e-01 2.276758e-01 5.467039e-01 5.845780e-02 -2.803521e-01 -4.066839e-01 -3.863522e-01 -4.843909e-01 -3.807402e-01 -1.096117e-01 2.948365e-01 5.788540e-01 3.095686e-01 -9.797014e-02 6.845382e-03 2.766788e-01 2.146415e-01 3.488819e-03 -2.268728e-01 -2.572232e-01 -1.793596e-01
<VARIANCE> 39
 1.417060e+01 5.865662e+00 1.049751e+01 3.637920e+01 2.348870e+01 1.707478e+01 2.606437e+01 2.871732e+01 1.524901e+01 2.514993e+01 2.459062e+01 1.697640e+01 6.640564e+00 8.121293e-01 5.742896e-01 1.106771e+00 3.336878e+00 1.692675e+00 1.811104e+00 2.771780e+00 3.178275e+00 1.924706e+00 3.055106e+00 2.853316e+00 2.461680e+00 3.441103e-01 1.113311e-01 1.216039e-01 1.960346e-01 4.309983e-01 3.126543e-01 4.294719e-01 3.749587e-01 4.711114e-01 3.493447e-01 4.578256e-01 4.866428e-01 3.985467e-01 5.406736e-02
<GCONST> 9.812006e+01
<STATE> 4
<MEAN> 39
 -1.503918e+01 2.546985e+00 -1.385454e+00 2.703120e+00 3.929248e-01 1.422967e+00 5.334069e-01 2.912202e-01 -1.998901e+00 -1.113563e+00 -1.210404e+00 1.131261e+00 5.890931e+01 -6.333381e-01 -3.000701e-01 2.019439e-01 5.214309e-01 4.916538e-01 2.421835e-01 2.222277e-01 3.796040e-01 3.136232e-01 2.160936e-01 1.244609e-01 6.143612e-02 -2.764709e-01 9.138304e-02 -2.129197e-03 -7.885756e-02 -1.701094e-01 -1.263431e-01 -3.807958e-03 -4.040546e-02 -1.077929e-01 -2.066335e-02 3.288417e-02 6.654142e-02 7.191983e-02 9.631026e-02
<VARIANCE> 39
 1.593441e+01 1.003944e+01 6.946503e+00 1.544189e+01 1.656421e+01 1.733751e+01 2.274364e+01 2.438316e+01 2.310713e+01 2.289940e+01 2.101583e+01 1.703823e+01 5.128644e+00 9.795361e-01 5.254099e-01 8.113991e-01 1.689891e+00 1.388091e+00 1.340524e+00 1.566839e+00 1.808172e+00 1.634993e+00 1.738050e+00 1.691460e+00 1.575484e+00 2.642757e-01 8.270171e-02 9.032083e-02 1.357243e-01 2.504570e-01 2.262223e-01 2.609678e-01 2.983001e-01 3.278185e-01 3.024047e-01 3.269020e-01 3.561569e-01 3.593520e-01 3.218839e-02
<GCONST> 8.796109e+01
<TRANSP> 5
 0.000000e+00 1.000000e+00 0.000000e+00 0.000000e+00 0.000000e+00
 0.000000e+00 5.898499e-01 4.101501e-01 0.000000e+00 0.000000e+00
 0.000000e+00 0.000000e+00 7.374521e-01 2.625479e-01 0.000000e+00
 0.000000e+00 0.000000e+00 0.000000e+00 8.455064e-01 1.544936e-01
 0.000000e+00 0.000000e+00 0.000000e+00 0.000000e+00 0.000000e+00
<ENDHMM>
~h "sp"
<BEGINHMM>
<NUMSTATES> 3
<STATE> 2
~s "silst"
<TRANSP> 3
 0.000000e+00 7.000000e-01 3.000000e-01
 0.000000e+00 9.000000e-01 9.999999e-02
 0.000000e+00 0.000000e+00 0.000000e+00
<ENDHMM>
~h "th"
<BEGINHMM>
<NUMSTATES> 5
<STATE> 2
<MEAN> 39
 -2.064438e+01 2.522829e+00 -3.216998e+00 3.580641e+00 2.997872e+00 1.597198e+00 3.391619e+00 2.327722e+00 9.892284e-01 8.920333e-01 1.120693e+00 2.608693e+00 5.924466e+01 -3.968504e-01 1.877252e-01 -2.265847e-01 -8.584468e-03 7.448381e-02 -1.162689e-01 1.881478e-01 9.763340e-03 2.391983e-01 6.158540e-02 9.712078e-02 7.699347e-02 1.905064e-01 2.300340e-02 3.289703e-03 1.961041e-02 -4.717742e-03 -2.685240e-02 -1.585373e-02 1.383903e-03 -2.323133e-02 -1.494017e-02 -3.566332e-02 -2.318462e-02 -2.357356e-02 2.005186e-02
<VARIANCE> 39
 1.498557e+01 1.107584e+01 8.785195e+00 9.486045e+00 1.135643e+01 1.374316e+01 1.469372e+01 1.604223e+01 1.800085e+01 1.357129e+01 1.329165e+01 1.029236e+01 5.311893e+00 3.622952e-01 4.439819e-01 5.073041e-01 6.794755e-01 8.561907e-01 1.105274e+00 1.196640e+00 1.363436e+00 1.459393e+00 1.284950e+00 1.252559e+00 1.093964e+00 1.352649e-01 5.201795e-02 6.938713e-02 9.184836e-02 1.370084e-01 1.710288e-01 2.155112e-01 2.310740e-01 2.675485e-01 2.787894e-01 2.484106e-01 2.558288e-01 2.231407e-01 1.268141e-02
<GCONST> 7.431253e+01
<STATE> 3
<MEAN> 39
 -2.650339e+01 5.817992e+00 -6.223212e+00 3.167120e+00 2.608041e+00 -1.250792e+00 6.386189e+00 6.821488e-01 4.412510e+00 -2.251246e-01 1.900154e+00 2.780754e+00 6.351003e+01 3.569779e-01 -5.640252e-01 5.991805e-01 -1.851851e-02 -3.541609e-01 -2.125272e-01 1.446301e-01 -1.707677e-01 1.077467e-01 -5.228568e-02 -1.170160e-01 -4.920191e-02 1.885499e-02 5.669053e-01 -5.707855e-02 4.206106e-01 7.931783e-02 -8.960575e-02 -4.176588e-02 -3.780286e-01 -1.626384e-01 -3.474643e-01 -9.625847e-02 -2.138146e-01 -1.010864e-01 -1.692054e-01
<VARIANCE> 39
 4.277201e+00 3.846300e+00 8.059096e+00 9.170279e+00 1.472684e+01 1.429418e+01 1.240923e+01 1.756969e+01 1.430835e+01 1.372630e+01 1.276789e+01 1.100517e+01 2.976563e+00 7.909244e-01 5.703624e-01 1.010940e+00 8.057619e-01 9.453802e-01 1.598447e+00 1.415726e+00 1.666727e+00 1.334232e+00 1.439690e+00 1.329445e+00 1.283890e+00 2.697200e-01 1.995431e-01 1.170675e-01 1.421833e-01 1.511206e-01 2.153405e-01 2.994981e-01 4.362020e-01 3.406973e-01 3.641994e-01 3.402293e-01 2.812165e-01 2.679131e-01 2.876445e-02
<GCONST> 8.051089e+01
<STATE> 4
<MEAN> 39
 -2.261777e+01 2.297456e+00 -2.111351e+00 3.907248e+00 1.693097e+00 -1.496975e+00 5.995160e+00 6.360510e-01 3.944839e+00 2.114813e-01 1.103069e+00 3.444984e+00 6.198473e+01 3.338541e+00 5.129008e-02 2.263571e+00 4.658711e-01 -8.574167e-01 -5.200342e-01 -2.340229e+00 -1.178333e+00 -2.195720e+00 -1.056529e+00 -1.351012e+00 -8.683626e-01 -5.828720e-01 9.809307e-01 6.915728e-01 2.091646e-01 -3.071981e-01 -8.983667e-01 -5.989152e-01 -1.210954e+00 -5.387489e-01 -9.408411e-01 -3.533412e-01 -7.612570e-02 -3.495751e-01 3.655171e-01
<VARIANCE> 39
 1.209246e+01 6.561116e+00 9.604628e+00 1.042271e+01 1.558916e+01 2.568311e+01 1.594724e+01 2.021292e+01 2.087700e+01 1.681527e+01 1.243582e+01 1.079952e+01 6.325745e+00 1.761406e+00 1.061087e+00 1.031624e+00 9.197217e-01 2.048174e+00 3.031628e+00 2.539116e+00 2.288931e+00 2.096584e+00 1.769906e+00 1.403350e+00 1.402490e+00 3.402988e-01 2.217851e-01 1.807765e-01 1.993998e-01 2.408831e-01 4.380903e-01 4.018872e-01 3.927086e-01 3.330895e-01 3.793760e-01 4.083729e-01 3.232245e-01 2.198411e-01 1.042476e-01
<GCONST> 9.330664e+01
<TRANSP> 5
 0.000000e+00 1.000000e+00 0.000000e+00 0.000000e+00 0.000000e+00
 0.000000e+00 9.506111e-01 4.938892e-02 0.000000e+00 0.000000e+00
 0.000000e+00 0.000000e+00 7.650780e-01 2.349220e-01 0.000000e+00
 0.000000e+00 0.000000e+00 0.000000e+00 4.053310e-01 5.946689e-01
 0.000000e+00 0.000000e+00 0.000000e+00 0.000000e+00 0.000000e+00
<ENDHMM>
~h "uh"
<BEGINHMM>
<NUMSTATES> 5
<STATE> 2
<MEAN> 39
 -7.695786e+00 7.643656e+00 -3.854997e-01 -8.299099e-01 -6.140221e+00 -4.534389e+00 -4.191826e+00 -1.888983e+00 -2.612107e+00 -3.532609e+00 -5.778018e+00 -3.731300e+00 6.265548e+01 2.344445e+00 1.574203e+00 -1.397820e-01 -1.816223e+00 -2.341529e+00 -1.548652e+00 -1.196505e+00 -5.595990e-01 -9.871446e-02 -1.819036e-01 -4.911332e-01 -1.051502e+00 1.229210e+00 -2.468404e-01 -1.705817e-01 -7.340153e-02 5.675304e-02 2.060957e-01 2.751642e-01 2.298864e-01 1.661012e-01 2.096483e-01 3.769785e-01 3.874314e-01 2.149746e-01 -1.216677e-01
<VARIANCE> 39
 3.611538e+01 2.160838e+01 7.558296e+00 4.302825e+01 5.278530e+01 3.513925e+01 3.987691e+01 3.591238e+01 1.820431e+01 2.153283e+01 2.358437e+01 2.581868e+01 1.158224e+01 1.843344e+00 1.772962e+00 9.274384e-01 2.274409e+00 3.664572e+00 2.993177e+00 2.147111e+00 2.054533e+00 2.338547e+00 3.311980e+00 3.149032e+00 2.733411e+00 5.144916e-01 6.688007e-01 4.457765e-01 1.798867e-01 6.852956e-01 1.078790e+00 7.677044e-01 5.500063e-01 4.127622e-01 4.012625e-01 5.640885e-01 5.797286e-01 5.648220e-01 1.948546e-01
<GCONST> 1.138789e+02
<STATE> 3
<MEAN> 39
 -2.883862e+00 1.070198e+01 -1.587929e+00 -3.962491e+00 -8.323688e+00 -5.148811e+00 -6.125440e+00 -5.358743e+00 -5.481087e+00 -3.634423e+00 -4.611879e+00 -3.801592e+00 6.515938e+01 -1.495536e-01 -1.620588e-01 1.865597e-01 4.847287e-01 5.732789e-01 3.877652e-01 -2.189689e-01 -7.749514e-01 -7.388465e-01 -1.368505e-01 3.010398e-01 3.427649e-01 -3.594732e-02 -1.794660e-01 -6.900647e-02 2.180854e-01 2.726882e-01 8.800734e-02 -7.675195e-02 -4.997703e-02 -1.658373e-02 -1.393458e-02 -5.507291e-02 -5.920700e-02 -2.785683e-02 -8.802254e-02
<VARIANCE> 39
 3.241892e+00 6.699345e+00 7.260470e+00 2.369757e+01 2.655724e+01 1.893180e+01 2.108526e+01 3.728014e+01 3.062357e+01 2.613241e+01 1.879245e+01 1.686588e+01 1.804785e+00 2.467466e-01 3.748247e-01 1.010716e+00 1.534558e+00 1.691017e+00 1.853228e+00 1.641925e+00 1.897074e+00 1.964034e+00 2.758861e+00 1.702236e+00 1.315251e+00 1.034828e-01 4.742807e-02 8.162434e-02 1.720955e-01 2.002705e-01 2.646862e-01 3.996517e-01 3.311907e-01 3.719592e-01 4.422287e-01 5.647579e-01 3.357479e-01 2.637047e-01 2.192085e-02
<GCONST> 8.549432e+01
<STATE> 4
<MEAN> 39
 -7.066381e+00 9.381840e+00 3.909601e+00 5.050735e+00 -1.959504e+00 -4.994296e+00 -1.003458e+01 -1.145759e+01 -8.768794e+00 -2.361890e+00 -3.136439e+00 -1.767846e+00 6.291687e+01 -3.220071e-01 -6.319894e-02 6.608750e-01 6.559688e-01 -4.238923e-02 -4.477658e-01 -2.790601e-01 -5.457310e-02 1.454024e-01 1.482299e-01 -5.196273e-02 -8.807788e-02 -1.450345e-01 1.504268e-01 -8.251476e-02 -2.909824e-01 -4.113870e-01 -1.622680e-01 2.597641e-01 2.211558e-01 1.113794e-01 -5.527173e-02 -2.548229e-01 -7.494940e-02 4.404529e-02 1.357236e-01
<VARIANCE> 39
 3.171536e+00 3.999978e+00 5.447017e+00 7.911053e+00 1.353421e+01 8.758695e+00 1.067638e+01 1.138297e+01 1.051799e+01 1.275578e+01 1.047256e+01 8.807569e+00 2.297471e+00 2.469153e-01 2.354555e-01 1.181222e+00 1.245985e+00 7.761272e-01 1.226653e+00 1.244283e+00 8.985279e-01 1.129202e+00 1.593292e+00 8.269369e-01 7.119743e-01 1.308242e-01 3.515094e-02 6.005262e-02 1.740846e-01 1.803064e-01 1.412455e-01 2.174638e-01 2.378136e-01 2.096911e-01 2.138530e-01 2.120078e-01 1.861085e-01 1.521103e-01 1.892659e-02
<GCONST> 6.671066e+01
<TRANSP> 5
 0.000000e+00 1.000000e+00 0.000000e+00 0.000000e+00 0.000000e+00
 0.000000e+00 7.163065e-01 2.836935e-01 0.000000e+00 0.000000e+00
 0.000000e+00 0.000000e+00 8.770182e-01 1.229819e-01 0.000000e+00
 0.000000e+00 0.000000e+00 0.000000e+00 7.790359e-01 2.209641e-01
 0.000000e+00 0.000000e+00 0.000000e+00 0.000000e+00 0.000000e+00
<ENDHMM>
~h "sil"
<BEGINHMM>
<NUMSTATES> 5
<STATE> 2
<MEAN> 39
 -1.364552e+01 3.202020e+00 -1.339757e+00 1.029294e+00 -1.415212e+00 -1.396897e-01 -4.514858e-01 -1.857182e+00 -2.021394e+00 -1.176738e+00 -1.805366e+00 7.650611e-01 6.137086e+01 7.274400e-02 -1.397436e-01 5.102544e-02 1.615107e-02 5.851068e-02 1.036409e-01 -5.328535e-02 1.005032e-01 -2.758713e-03 1.241217e-01 5.337022e-02 1.355077e-01 -1.237866e-01 -1.046326e-02 1.579860e-02 -3.503483e-03 1.667278e-02 6.340715e-03 4.317326e-02 5.167327e-02 7.239698e-02 3.692769e-02 4.692356e-02 3.465395e-02 3.389211e-02 8.349812e-03
<VARIANCE> 39
 4.701184e+01 1.677030e+01 2.244536e+01 4.531238e+01 4.652739e+01 3.263791e+01 3.874389e+01 4.213478e+01 3.809681e+01 2.295949e+01 2.780797e+01 2.219066e+01 1.625633e+01 1.591346e+00 1.012804e+00 1.420629e+00 2.464859e+00 2.351744e+00 2.084800e+00 2.333265e+00 2.476624e+00 2.123974e+00 2.018955e+00 1.939285e+00 1.818082e+00 6.450095e-01 1.916990e-01 1.612401e-01 2.262798e-01 4.241802e-01 3.956721e-01 3.658072e-01 4.081500e-01 4.358841e-01 3.657413e-01 3.405381e-01 3.149409e-01 3.208885e-01 8.824898e-02
<GCONST> 1.070523e+02
<STATE> 3
~s "silst"
<STATE> 4
<MEAN> 39
 -1.792374e+01 6.428869e-02 -1.896345e+00 4.106203e+00 2.321638e+00 3.468906e+00 3.082142e+00 3.029727e+00 8.331988e-01 1.518723e+00 1.202947e+00 2.884787e+00 5.729370e+01 -8.390554e-03 -7.644708e-03 -1.280270e-02 -1.364526e-02 -1.624301e-02 -2.795072e-02 -1.710758e-02 -1.313801e-02 -1.901906e-02 -2.036608e-02 -1.867817e-02 -1.406596e-02 -2.172551e-03 -1.799483e-03 4.866067e-03 2.373764e-03 2.204939e-03 1.976750e-04 -2.455289e-03 -1.913679e-04 -2.111610e-03 1.109275e-03 -4.535536e-03 -4.635837e-03 -4.873487e-03 5.238685e-03
<VARIANCE> 39
 1.309403e+00 2.051512e+00 3.481267e+00 5.038808e+00 7.275793e+00 9.075113e+00 1.037426e+01 1.111635e+01 1.190275e+01 1.083225e+01 1.122109e+01 9.616719e+00 6.763410e-01 9.519077e-02 1.966579e-01 3.337853e-01 5.120575e-01 7.086901e-01 8.789900e-01 1.019105e+00 1.144762e+00 1.139249e+00 1.114683e+00 1.065442e+00 9.365354e-01 3.432639e-02 1.774742e-02 4.006999e-02 6.761575e-02 1.047543e-01 1.434990e-01 1.788187e-01 2.070496e-01 2.307559e-01 2.295876e-01 2.289916e-01 2.163850e-01 1.879909e-01 5.805727e-03
<GCONST> 5.421906e+01
<TRANSP> 5
 0.000000e+00 1.000000e+00 0.000000e+00 0.000000e+00 0.000000e+00
 0.000000e+00 6.815565e-01 1.933098e-01 1.251336e-01 0.000000e+00
 0.000000e+00 0.000000e+00 8.982661e-01 1.017339e-01 0.000000e+00
 0.000000e+00 1.081435e-02 0.000000e+00 9.581103e-01 3.107539e-02
 0.000000e+00 0.000000e+00 0.000000e+00 0.000000e+00 0.000000e+00
<ENDHMM>
