~o
<STREAMINFO> 1 39
<VECSIZE> 39<NULLD><MFCC_D_A_0><DIAGC>
~h "b"
<BEGINHMM>
<NUMSTATES> 5
<STATE> 2
<MEAN> 39
 -6.429891e+00 5.917926e+00 2.370926e+00 2.185975e+00 -6.931226e+00 -6.384974e+00 -7.303793e+00 -7.605085e+00 -7.329743e+00 -4.460402e+00 -3.624072e+00 -1.850520e+00 6.484660e+01 5.140533e-01 1.115728e-01 -6.145226e-02 -1.979855e-01 -4.343826e-01 -4.746106e-01 -5.267611e-01 -3.367681e-01 -1.352163e-01 -7.259778e-02 6.444515e-02 2.654207e-02 3.202280e-01 -8.149018e-02 -9.261464e-02 -9.357712e-02 -7.577568e-03 8.425784e-02 7.280220e-02 7.870468e-02 1.430256e-01 1.283317e-01 5.393746e-02 3.549719e-02 6.427895e-02 -4.085736e-02
<VARIANCE> 39
 1.346496e+01 1.414893e+01 1.888091e+01 1.864700e+01 5.893803e+01 2.882951e+01 2.069812e+01 2.945822e+01 1.680753e+01 1.579196e+01 2.143478e+01 1.213271e+01 1.026389e+01 9.581031e-01 1.053671e+00 1.423125e+00 1.142687e+00 2.397207e+00 1.874288e+00 2.396475e+00 2.939346e+00 2.038629e+00 1.534106e+00 1.597509e+00 1.087023e+00 4.296328e-01 9.752806e-02 1.495657e-01 2.019804e-01 1.784800e-01 3.768307e-01 3.230434e-01 4.003180e-01 4.039040e-01 3.679944e-01 3.426571e-01 3.230945e-01 2.161759e-01 4.830861e-02
<GCONST> 9.566943e+01
<STATE> 3
<MEAN> 39
 -5.411538e+00 4.731934e+00 2.303392e+00 1.643891e+00 -1.008022e+01 -8.895873e+00 -7.923750e+00 -6.115129e+00 -6.791201e+00 -4.651503e+00 -2.437072e+00 -6.130196e-01 6.610052e+01 5.781084e-02 -9.318375e-02 -6.915629e-02 2.466830e-02 -7.621665e-02 -2.377288e-01 -1.380747e-01 1.488372e-01 1.005983e-01 5.072318e-03 7.586964e-02 1.048157e-01 4.018833e-02 -6.261991e-02 -1.598319e-02 -1.470251e-02 1.740675e-02 8.072279e-02 7.960328e-02 5.958975e-02 2.185030e-02 3.430289e-02 2.997933e-02 -2.286427e-02 -1.855880e-02 -3.880607e-02
<VARIANCE> 39
 8.624049e+00 1.379523e+01 2.215220e+01 1.520212e+01 4.682555e+01 3.175260e+01 1.683689e+01 2.380824e+01 1.733389e+01 1.619297e+01 2.212474e+01 1.218172e+01 7.208505e+00 5.938112e-01 9.491643e-01 1.371559e+00 9.795460e-01 3.591779e+00 2.141658e+00 1.763692e+00 1.846961e+00 1.683567e+00 1.319136e+00 1.457640e+00 1.018480e+00 5.435530e-01 8.286417e-02 1.720017e-01 1.878606e-01 1.505237e-01 5.609553e-01 4.321942e-01 3.192807e-01 3.551919e-01 3.188921e-01 2.726514e-01 2.751977e-01 2.009497e-01 7.597606e-02
<GCONST> 9.298402e+01
<STATE> 4
<MEAN> 39
 -6.310057e+00 4.394198e+00 2.943571e+00 2.600872e+00 -1.034477e+01 -9.817308e+00 -7.660125e+00 -4.996378e+00 -6.514623e+00 -4.012398e+00 -1.559558e+00 -2.296350e-01 6.550798e+01 -1.935245e-01 -4.424563e-02 -1.558375e-01 1.598279e-02 3.251390e-01 2.764117e-01 2.031987e-01 1.099320e-01 1.412834e-01 1.387272e-01 -3.691023e-02 -1.361804e-01 -1.600777e-01 -4.168998e-02 -3.029783e-02 -2.581134e-02 1.565280e-03 5.174337e-02 7.314694e-02 7.699503e-02 4.570557e-02 2.672329e-02 4.657111e-03 -2.003905e-02 -1.933624e-02 -1.798290e-02
<VARIANCE> 39
 1.289411e+01 1.344885e+01 2.857288e+01 1.667276e+01 4.239694e+01 2.914397e+01 1.929486e+01 1.652154e+01 1.902340e+01 2.027700e+01 2.093404e+01 1.348445e+01 1.009013e+01 6.511996e-01 1.342684e+00 1.370192e+00 9.909198e-01 4.417954e+00 2.952351e+00 1.643883e+00 1.949910e+00 1.679146e+00 1.304309e+00 1.490974e+00 1.350494e+00 7.495084e-01 9.943090e-02 2.447722e-01 1.734595e-01 1.548178e-01 6.411426e-01 5.450352e-01 2.994208e-01 3.785264e-01 3.009664e-01 2.593273e-01 2.669328e-01 2.349794e-01 1.148742e-01
<GCONST> 9.684760e+01
<TRANSP> 5
 0.000000e+00 1.000000e+00 0.000000e+00 0.000000e+00 0.000000e+00
 0.000000e+00 8.280947e-01 1.719054e-01 0.000000e+00 0.000000e+00
 0.000000e+00 0.000000e+00 8.139377e-01 1.860623e-01 0.000000e+00
 0.000000e+00 0.000000e+00 0.000000e+00 9.313970e-01 6.860296e-02
 0.000000e+00 0.000000e+00 0.000000e+00 0.000000e+00 0.000000e+00
<ENDHMM>
~h "f"
<BEGINHMM>
<NUMSTATES> 5
<STATE> 2
<MEAN> 39
 -8.331551e+00 5.445651e+00 4.453440e+00 5.839190e-01 -9.173937e+00 -7.970700e+00 -9.225305e+00 -4.336611e+00 -5.045806e+00 -3.905304e+00 -1.650718e+00 -7.279164e-02 6.476323e+01 5.419244e-01 -5.888315e-01 6.582399e-02 -4.934337e-01 -1.397691e+00 -6.449330e-01 -6.807584e-02 6.229445e-01 -2.722548e-01 -1.495040e-01 5.732328e-01 3.445073e-01 6.551971e-01 1.590314e-01 -1.249211e-01 3.385185e-02 -2.234627e-01 -4.582981e-01 -1.899265e-01 -9.941778e-02 8.609392e-02 6.089957e-02 1.278903e-02 7.784536e-02 6.476727e-02 2.156175e-01
<VARIANCE> 39
 2.417815e+01 1.643573e+01 1.877895e+01 2.106287e+01 6.317049e+01 4.489991e+01 5.446311e+01 3.336086e+01 2.058551e+01 1.492214e+01 1.952065e+01 1.480449e+01 1.224037e+01 1.123194e+00 1.725464e+00 1.094462e+00 1.877928e+00 4.808482e+00 2.125634e+00 2.336610e+00 4.304087e+00 2.228260e+00 1.270985e+00 2.268829e+00 2.194743e+00 1.152696e+00 1.803642e-01 3.525101e-01 1.768360e-01 3.817853e-01 8.450490e-01 6.060922e-01 4.075852e-01 7.620618e-01 3.796079e-01 2.935695e-01 3.106548e-01 3.662211e-01 1.957435e-01
<GCONST> 1.085114e+02
<STATE> 3
<MEAN> 39
 -7.498297e+00 3.401026e+00 4.641133e+00 -2.097977e-02 -1.292791e+01 -9.473417e+00 -9.121838e+00 -2.530110e+00 -4.941830e+00 -3.577298e+00 -1.184999e-01 9.124328e-01 6.656542e+01 3.867885e-01 -5.319117e-01 5.394832e-03 -3.262622e-01 -1.058680e+00 -3.321579e-01 -2.184115e-02 3.801270e-01 -6.260508e-02 -2.668903e-02 3.472505e-01 2.042860e-01 5.454729e-01 4.480922e-04 3.059557e-02 -1.728686e-02 2.649471e-02 9.830086e-02 5.156896e-02 -2.430838e-02 -6.561103e-02 6.578214e-02 2.720278e-02 -6.103475e-02 -2.390697e-02 -1.642707e-02
<VARIANCE> 39
 2.004571e+01 1.642751e+01 1.816208e+01 2.156106e+01 7.712440e+01 3.756092e+01 3.307828e+01 2.390183e+01 1.709987e+01 1.435869e+01 1.899394e+01 1.275604e+01 1.237805e+01 1.811309e+00 1.927863e+00 1.253739e+00 2.494783e+00 6.750184e+00 2.869877e+00 2.607743e+00 3.515005e+00 2.152311e+00 1.407126e+00 2.016176e+00 1.790999e+00 1.195063e+00 1.871966e-01 3.237158e-01 1.701605e-01 4.456369e-01 1.036144e+00 4.504141e-01 3.132826e-01 5.581764e-01 3.918189e-01 2.304136e-01 3.386707e-01 3.275976e-01 1.994943e-01
<GCONST> 1.076345e+02
<STATE> 4
<MEAN> 39
 -8.481759e+00 3.339362e+00 -1.304358e-01 -4.754422e-01 -8.113174e+00 -4.073044e+00 -6.873947e+00 -3.279099e+00 -3.995157e+00 -2.530160e+00 -2.634520e-01 1.031701e+00 6.608410e+01 1.910448e-01 1.225077e-01 -4.636241e-01 -3.768407e-01 2.070819e-01 4.329324e-01 1.501247e-01 -1.228565e-01 -1.454204e-02 -2.273288e-02 -5.077972e-02 -3.547308e-02 4.442859e-03 -5.259059e-03 2.407214e-02 -4.832725e-02 -1.650185e-02 6.824793e-02 5.756820e-02 8.346916e-03 -3.900179e-02 -1.078916e-02 3.581017e-03 -5.364870e-03 -9.644804e-03 -1.654615e-02
<VARIANCE> 39
 3.584226e+01 1.960968e+01 3.886227e+01 4.999383e+01 7.242758e+01 5.087666e+01 2.952162e+01 2.580512e+01 2.015845e+01 1.801613e+01 1.495974e+01 1.292914e+01 1.091602e+01 3.570217e+00 2.027926e+00 2.390806e+00 5.691515e+00 6.579362e+00 3.296781e+00 2.044414e+00 2.114163e+00 2.197743e+00 1.929955e+00 1.838110e+00 1.416729e+00 1.155220e+00 4.614283e-01 3.764559e-01 4.305671e-01 9.125594e-01 1.057052e+00 5.622406e-01 3.328784e-01 3.843544e-01 4.337127e-01 3.422459e-01 3.693035e-01 3.002212e-01 2.025879e-01
<GCONST> 1.149145e+02
<TRANSP> 5
 0.000000e+00 1.000000e+00 0.000000e+00 0.000000e+00 0.000000e+00
 0.000000e+00 3.365401e-01 6.634598e-01 0.000000e+00 0.000000e+00
 0.000000e+00 0.000000e+00 5.857834e-01 4.142166e-01 0.000000e+00
 0.000000e+00 0.000000e+00 0.000000e+00 9.495452e-01 5.045482e-02
 0.000000e+00 0.000000e+00 0.000000e+00 0.000000e+00 0.000000e+00
<ENDHMM>
~h "g"
<BEGINHMM>
<NUMSTATES> 5
<STATE> 2
<MEAN> 39
 -1.084303e+01 5.901038e+00 1.101364e+00 4.705348e+00 -2.644679e+00 -4.459855e+00 -5.460373e+00 -4.719581e+00 -6.501540e+00 -3.578895e+00 -2.727319e+00 -2.330867e+00 6.215524e+01 6.072907e-01 4.432454e-01 5.273222e-01 2.942261e-02 -5.559416e-01 -8.760579e-01 -9.904464e-01 -7.451543e-01 -8.727435e-01 -5.059317e-01 -2.547065e-01 -2.657591e-01 3.047316e-01 -1.389699e-01 -2.199625e-01 -5.090822e-02 -4.523375e-02 2.096969e-02 8.976600e-02 1.497535e-01 1.325955e-01 1.348486e-01 1.509083e-01 6.709470e-02 1.844738e-01 4.986243e-03
<VARIANCE> 39
 3.405387e+01 2.934496e+01 4.604002e+01 1.936674e+01 4.500444e+01 4.280918e+01 3.968906e+01 4.553262e+01 3.176797e+01 2.804011e+01 2.668713e+01 1.424507e+01 1.435946e+01 2.781765e+00 2.516788e+00 2.281520e+00 9.087445e-01 2.768892e+00 3.373953e+00 4.783025e+00 4.973450e+00 2.786976e+00 2.071389e+00 2.383487e+00 2.166056e+00 7.129560e-01 4.011124e-01 4.120742e-01 3.478196e-01 1.547512e-01 5.342995e-01 7.096936e-01 8.662264e-01 7.280114e-01 4.833864e-01 4.297813e-01 4.259590e-01 3.881361e-01 1.019282e-01
<GCONST> 1.151652e+02
<STATE> 3
<MEAN> 39
 -1.045494e+01 6.413049e+00 2.706574e+00 4.916230e+00 -3.656780e+00 -5.772299e+00 -6.706979e+00 -6.079665e+00 -8.005975e+00 -4.539627e+00 -2.876349e+00 -2.077633e+00 6.266792e+01 1.948444e-01 -2.954842e-01 1.887962e-01 -1.063113e-01 -4.320932e-01 -3.910922e-01 -1.976008e-01 -1.857188e-01 -3.090647e-01 -3.116776e-02 -5.494819e-02 1.290857e-01 3.282867e-01 -1.499507e-01 -3.155260e-01 -1.856446e-01 -1.187259e-01 -1.438149e-02 2.547810e-01 4.187361e-01 2.474488e-01 3.123477e-01 3.485880e-01 1.499181e-01 8.865156e-02 1.641610e-02
<VARIANCE> 39
 2.447103e+01 3.182066e+01 3.155489e+01 1.914663e+01 5.050657e+01 3.299215e+01 3.082612e+01 3.346824e+01 3.190252e+01 2.774210e+01 2.784730e+01 1.468872e+01 1.306447e+01 2.373759e+00 2.984310e+00 2.172844e+00 1.173369e+00 2.999490e+00 3.429776e+00 4.800365e+00 4.209254e+00 2.588681e+00 2.283048e+00 2.217798e+00 1.456626e+00 8.793009e-01 3.615960e-01 4.841530e-01 3.279863e-01 2.186911e-01 7.076989e-01 6.879233e-01 7.928429e-01 5.609818e-01 4.219810e-01 4.372586e-01 4.066053e-01 2.991067e-01 1.300703e-01
<GCONST> 1.137726e+02
<STATE> 4
<MEAN> 39
 -1.071535e+01 4.295679e+00 2.019093e+00 4.501494e+00 -3.974150e+00 -5.245633e+00 -5.041996e+00 -4.947171e+00 -6.763711e+00 -3.520117e+00 -3.515306e+00 -2.095235e+00 6.330000e+01 1.750020e-02 -7.907662e-01 -7.282526e-02 -3.033515e-01 -6.148309e-01 1.094715e-01 6.396708e-01 2.019105e-01 2.899802e-01 7.121571e-01 2.739782e-01 2.079455e-01 3.380854e-01 5.770595e-02 -9.232032e-03 -4.000159e-02 -1.686377e-01 -2.438020e-01 -3.895815e-02 1.438008e-01 6.007643e-02 1.633499e-01 2.087906e-01 2.281078e-01 1.749582e-02 3.685685e-02
<VARIANCE> 39
 2.585591e+01 3.597460e+01 2.904538e+01 1.816948e+01 5.231780e+01 3.089522e+01 3.149346e+01 4.074774e+01 4.136195e+01 2.219875e+01 2.575958e+01 1.730221e+01 1.801797e+01 1.185659e+00 2.140353e+00 1.589164e+00 1.200259e+00 4.030181e+00 2.772727e+00 3.141139e+00 2.590094e+00 1.942715e+00 2.345633e+00 1.835247e+00 9.828932e-01 9.965972e-01 3.075119e-01 4.593259e-01 2.693940e-01 2.493713e-01 7.254446e-01 6.517711e-01 7.339288e-01 5.689560e-01 4.528196e-01 4.421947e-01 3.367213e-01 2.251694e-01 1.562985e-01
<GCONST> 1.110062e+02
<TRANSP> 5
 0.000000e+00 1.000000e+00 0.000000e+00 0.000000e+00 0.000000e+00
 0.000000e+00 5.844365e-01 4.155635e-01 0.000000e+00 0.000000e+00
 0.000000e+00 0.000000e+00 5.053484e-01 4.946516e-01 0.000000e+00
 0.000000e+00 0.000000e+00 0.000000e+00 4.754458e-01 5.245542e-01
 0.000000e+00 0.000000e+00 0.000000e+00 0.000000e+00 0.000000e+00
<ENDHMM>
~h "j"
<BEGINHMM>
<NUMSTATES> 5
<STATE> 2
<MEAN> 39
 -6.664556e+00 1.551179e+00 -7.504148e+00 -6.778278e+00 -5.419169e+00 2.018734e+00 -1.542895e+00 -2.424712e+00 -1.722676e+00 -1.569355e+00 4.026281e-01 -8.608158e-01 6.701834e+01 7.138193e-01 2.883365e-01 3.085315e-02 -6.524987e-02 -6.089713e-01 -5.963128e-01 -6.976272e-01 -2.770132e-01 -1.623645e-01 7.366039e-02 -1.409005e-01 -2.335382e-01 2.990950e-01 -4.339533e-02 -8.584321e-03 2.090154e-02 3.692889e-02 -6.965192e-03 -4.021434e-02 -3.543358e-02 -3.855799e-02 3.486270e-02 2.663700e-02 1.692966e-02 2.453375e-02 -1.162970e-02
<VARIANCE> 39
 6.161623e+01 2.906565e+01 3.498706e+01 6.043335e+01 5.886909e+01 6.708002e+01 5.659166e+01 4.789125e+01 3.143672e+01 2.772276e+01 3.756690e+01 3.264641e+01 1.766268e+01 3.516248e+00 2.336090e+00 2.079759e+00 4.824189e+00 5.046065e+00 3.046257e+00 2.870803e+00 3.948568e+00 3.402838e+00 2.950546e+00 2.868655e+00 1.845365e+00 1.271326e+00 4.228337e-01 3.911477e-01 3.490070e-01 7.645600e-01 7.559303e-01 5.180295e-01 4.229977e-01 6.938803e-01 5.908367e-01 5.712646e-01 5.604490e-01 3.759488e-01 2.022754e-01
<GCONST> 1.240237e+02
<STATE> 3
<MEAN> 39
 -5.819878e+00 2.896881e+00 -5.088799e+00 -3.081531e+00 -6.477375e+00 -1.786454e+00 -5.874180e+00 -3.850848e+00 -2.062091e+00 1.047546e+00 1.039835e+00 -1.020330e+00 6.697817e+01 -2.145299e-01 -6.345604e-02 5.006580e-01 8.067880e-01 4.397390e-02 -5.978351e-01 -4.392202e-01 2.035891e-01 9.534551e-02 1.267731e-01 -1.233109e-01 -1.492167e-01 -8.328090e-03 -1.200548e-01 -3.848530e-02 3.404044e-02 -3.777072e-02 1.248371e-02 7.213684e-02 1.391892e-01 8.611926e-02 4.415843e-02 -7.960266e-03 4.597566e-03 3.578526e-02 -1.868737e-02
<VARIANCE> 39
 4.674037e+01 2.061971e+01 3.704354e+01 9.681987e+01 5.867392e+01 3.645206e+01 4.409885e+01 5.457777e+01 3.137818e+01 2.841217e+01 3.038111e+01 2.324096e+01 1.176343e+01 3.741249e+00 2.178592e+00 1.622333e+00 6.458618e+00 7.031971e+00 3.319692e+00 3.038635e+00 5.163815e+00 3.276016e+00 3.468169e+00 3.217988e+00 1.991668e+00 1.234768e+00 4.050627e-01 4.117151e-01 2.799046e-01 9.555793e-01 9.025900e-01 4.941486e-01 3.760816e-01 8.951906e-01 6.108291e-01 6.801803e-01 6.385050e-01 3.908001e-01 2.145342e-01
<GCONST> 1.240426e+02
<STATE> 4
<MEAN> 39
 -1.002536e+01 2.504868e+00 -7.921294e-03 1.526336e+00 -6.289469e+00 -3.508551e+00 -4.785774e+00 -1.027534e+00 -2.147121e+00 1.517597e+00 5.633637e-01 -1.653373e+00 6.581398e+01 -2.983000e-01 8.442130e-02 4.992981e-01 6.914322e-02 -3.561670e-01 -2.669058e-01 1.682907e-01 2.025116e-01 -9.117220e-02 -1.124985e-01 -5.568068e-02 3.487371e-02 -1.373087e-01 -2.715500e-02 2.887024e-03 -2.939557e-02 -8.408912e-02 1.260346e-02 5.289258e-02 8.734206e-02 -4.618970e-02 8.353820e-03 -4.073176e-03 2.459649e-02 7.162721e-02 -2.421968e-02
<VARIANCE> 39
 4.055548e+01 1.575808e+01 3.688918e+01 4.314733e+01 6.685585e+01 3.380974e+01 4.190615e+01 4.920126e+01 2.691426e+01 2.550442e+01 2.935905e+01 1.643322e+01 9.230659e+00 3.027887e+00 1.350233e+00 1.203537e+00 4.148873e+00 6.696023e+00 3.616289e+00 3.411700e+00 4.122674e+00 2.644642e+00 2.981154e+00 3.223495e+00 1.966708e+00 1.068217e+00 3.535207e-01 2.702386e-01 2.145082e-01 5.875872e-01 1.052613e+00 5.895014e-01 4.741433e-01 7.142411e-01 5.314429e-01 5.601744e-01 6.041918e-01 3.756423e-01 1.768393e-01
<GCONST> 1.182154e+02
<TRANSP> 5
 0.000000e+00 1.000000e+00 0.000000e+00 0.000000e+00 0.000000e+00
 0.000000e+00 8.747531e-01 1.252470e-01 0.000000e+00 0.000000e+00
 0.000000e+00 0.000000e+00 7.775972e-01 2.224027e-01 0.000000e+00
 0.000000e+00 0.000000e+00 0.000000e+00 7.929425e-01 2.070575e-01
 0.000000e+00 0.000000e+00 0.000000e+00 0.000000e+00 0.000000e+00
<ENDHMM>
~h "k"
<BEGINHMM>
<NUMSTATES> 5
<STATE> 2
<MEAN> 39
 -1.295469e+01 2.878121e+00 -1.378355e+00 2.340911e+00 -8.218393e-01 -2.468822e-01 -1.778564e+00 -2.105282e+00 -3.545134e+00 -1.381106e+00 -1.747493e+00 -2.502057e-03 6.062346e+01 4.402792e-02 -1.700829e-01 -4.889892e-01 -5.726241e-01 -9.643754e-02 2.087591e-01 2.571133e-01 3.433131e-01 1.947534e-01 2.557230e-01 3.076410e-01 8.335896e-02 9.586356e-02 2.351852e-01 5.527988e-02 -1.336558e-01 -2.290405e-01 -9.684218e-02 -6.336095e-02 -1.552556e-01 -8.754578e-02 -8.913286e-02 -3.790365e-02 2.672593e-02 -4.217556e-02 1.661318e-01
<VARIANCE> 39
 2.942822e+01 1.268998e+01 2.101630e+01 3.132756e+01 2.485254e+01 2.446636e+01 3.428207e+01 3.564257e+01 3.018872e+01 2.079926e+01 2.078490e+01 1.790559e+01 1.282472e+01 1.937864e+00 1.242397e+00 2.581234e+00 3.612696e+00 2.262772e+00 2.291544e+00 2.578354e+00 2.458683e+00 2.146901e+00 2.117409e+00 2.290296e+00 1.804981e+00 9.128480e-01 2.861330e-01 2.101370e-01 3.549494e-01 5.385569e-01 3.766675e-01 4.356703e-01 4.692224e-01 4.880932e-01 4.321941e-01 3.971438e-01 4.182296e-01 3.180339e-01 1.321567e-01
<GCONST> 1.084169e+02
<STATE> 3
<MEAN> 39
 -1.181803e+01 2.864172e+00 -2.790046e+00 3.712051e-01 -1.710666e+00 -3.199907e-01 -1.873556e+00 -1.923043e+00 -3.489362e+00 -1.128311e+00 -1.238665e+00 -8.417279e-02 6.156409e+01 5.552724e-01 -8.331327e-03 -7.376581e-01 -9.978336e-01 -2.283228e-01 1.263623e-01 -1.204913e-01 1.654242e-02 -1.082461e-01 1.062789e-01 3.265393e-01 -2.065129e-02 4.406982e-01 1.577018e-01 1.046693e-01 5.153510e-02 -5.200602e-02 -9.193773e-02 -8.714744e-02 -1.584678e-01 -1.857019e-01 -1.430902e-01 -1.016348e-01 -6.067357e-02 -1.723531e-02 8.253188e-02
<VARIANCE> 39
 3.109882e+01 1.431527e+01 3.078136e+01 4.391770e+01 2.803190e+01 2.809601e+01 3.332395e+01 3.464278e+01 3.017593e+01 1.972645e+01 2.289653e+01 1.920693e+01 1.399084e+01 2.561753e+00 1.434750e+00 4.140256e+00 5.498800e+00 2.946564e+00 2.926682e+00 2.956146e+00 2.769015e+00 2.560015e+00 2.393776e+00 2.949897e+00 1.831058e+00 1.280698e+00 3.683019e-01 2.746317e-01 6.177425e-01 8.387332e-01 5.164222e-01 5.445523e-01 5.266174e-01 5.493521e-01 5.132466e-01 4.442392e-01 4.880140e-01 3.204976e-01 1.847780e-01
<GCONST> 1.157698e+02
<STATE> 4
<MEAN> 39
 -9.199469e+00 2.484895e+00 -4.771238e+00 -2.653102e+00 -3.365079e+00 -9.633374e-01 -3.201548e+00 -2.201125e+00 -2.741028e+00 -2.533786e-01 -1.373073e+00 -1.310437e+00 6.361779e+01 3.187594e-01 1.892046e-01 -1.061070e-02 -2.549925e-01 -2.751413e-01 -1.116467e-01 -1.980608e-01 -3.245993e-01 -2.652685e-01 -9.184680e-02 6.457687e-02 8.447387e-02 1.673726e-01 -1.758112e-02 7.388559e-02 1.377355e-01 5.880851e-02 -1.067895e-01 -4.840233e-02 3.558582e-02 -2.729993e-02 -1.137821e-02 -7.403995e-02 -6.977068e-02 3.719577e-02 -4.622167e-02
<VARIANCE> 39
 3.816515e+01 1.994450e+01 3.567410e+01 5.448061e+01 3.252749e+01 3.406431e+01 3.026589e+01 3.246869e+01 3.022869e+01 2.042352e+01 2.849148e+01 2.881167e+01 1.854450e+01 2.881070e+00 2.337461e+00 3.342310e+00 5.069006e+00 3.485810e+00 3.883895e+00 2.989719e+00 3.229568e+00 2.699459e+00 2.202718e+00 2.902093e+00 2.316840e+00 1.535897e+00 3.625735e-01 4.244789e-01 6.344655e-01 9.494117e-01 6.078928e-01 7.326620e-01 5.555297e-01 6.143581e-01 4.912836e-01 4.430995e-01 5.537803e-01 4.097922e-01 2.178160e-01
<GCONST> 1.207746e+02
<TRANSP> 5
 0.000000e+00 1.000000e+00 0.000000e+00 0.000000e+00 0.000000e+00
 0.000000e+00 4.327310e-01 5.672690e-01 0.000000e+00 0.000000e+00
 0.000000e+00 0.000000e+00 4.451430e-01 5.548570e-01 0.000000e+00
 0.000000e+00 0.000000e+00 0.000000e+00 8.025839e-01 1.974161e-01
 0.000000e+00 0.000000e+00 0.000000e+00 0.000000e+00 0.000000e+00
<ENDHMM>
~h "l"
<BEGINHMM>
<NUMSTATES> 5
<STATE> 2
<MEAN> 39
 -1.561120e+01 1.467036e+00 -8.361322e-01 3.506756e+00 -2.404573e-01 9.359899e-01 -1.111396e-01 1.063802e+00 -5.984933e-01 1.787265e-01 -2.512558e-01 1.627397e+00 5.904062e+01 -1.577620e-01 -1.058594e-01 -3.626134e-02 4.813962e-03 1.085406e-01 1.504701e-01 8.947848e-02 6.242574e-02 8.052635e-02 1.696658e-01 1.888426e-01 1.210118e-01 -1.068604e-01 1.435969e-02 2.411974e-02 2.047576e-02 1.697997e-02 -1.126044e-02 -1.305935e-02 4.816178e-04 -5.836990e-02 -5.917541e-02 -4.415708e-02 -4.592500e-02 -5.276007e-02 1.351935e-02
<VARIANCE> 39
 2.134643e+01 9.815051e+00 1.110566e+01 1.153541e+01 2.996207e+01 3.016435e+01 3.740574e+01 2.533430e+01 1.854975e+01 1.775629e+01 1.740484e+01 1.640823e+01 1.042966e+01 4.247043e-01 5.184059e-01 6.694359e-01 8.207407e-01 1.342974e+00 1.271890e+00 1.447847e+00 1.669204e+00 1.603369e+00 1.450228e+00 1.567830e+00 1.499709e+00 2.054794e-01 9.285670e-02 1.054929e-01 1.318968e-01 1.663188e-01 2.769628e-01 2.694629e-01 3.252214e-01 3.355775e-01 3.084969e-01 2.899168e-01 3.218617e-01 2.907372e-01 4.120110e-02
<GCONST> 8.752560e+01
<STATE> 3
<MEAN> 39
 -1.345987e+01 2.813545e+00 4.461385e-01 2.661576e+00 -2.615941e+00 -1.400323e+00 -2.773616e+00 -1.136760e+00 -1.819920e+00 -4.965620e-01 -4.574796e-01 1.048033e+00 6.060779e+01 1.458569e-01 1.819716e-01 2.794312e-01 8.725572e-02 -6.785776e-02 -6.948789e-02 -2.182574e-01 -4.218549e-01 -4.137979e-01 -2.279413e-01 -2.007977e-01 -3.160517e-01 7.278182e-02 6.479172e-02 7.450653e-02 5.631927e-02 4.650375e-02 -1.470704e-02 -5.135494e-02 -7.509672e-02 -1.079606e-01 -1.128452e-01 -1.259085e-01 -9.769461e-02 -5.475007e-02 3.918853e-02
<VARIANCE> 39
 3.608035e+01 1.570779e+01 1.848823e+01 1.605346e+01 4.934054e+01 4.425121e+01 5.648750e+01 3.568882e+01 2.302616e+01 1.937343e+01 1.782569e+01 1.766953e+01 1.711347e+01 6.070870e-01 7.103893e-01 7.323292e-01 9.793456e-01 2.116663e+00 1.562987e+00 1.724356e+00 1.934000e+00 1.691289e+00 1.625203e+00 1.631219e+00 1.719226e+00 4.012352e-01 1.405903e-01 1.595621e-01 1.785250e-01 2.036734e-01 4.436385e-01 3.379865e-01 4.558253e-01 3.863848e-01 3.441000e-01 3.209181e-01 3.095022e-01 3.335494e-01 7.278962e-02
<GCONST> 9.821725e+01
<STATE> 4
<MEAN> 39
 -1.064410e+01 5.034665e+00 2.596864e+00 2.695209e+00 -4.254427e+00 -3.928327e+00 -6.747881e+00 -4.555163e+00 -4.438867e+00 -2.714930e+00 -2.442790e+00 -9.025414e-01 6.225917e+01 6.571451e-01 5.134622e-01 5.161152e-01 9.644549e-02 -3.365202e-01 -5.219855e-01 -9.036754e-01 -8.942401e-01 -7.339628e-01 -4.475552e-01 -3.260479e-01 -3.116160e-01 3.787204e-01 9.180479e-02 -4.729346e-03 -3.903731e-02 -4.008302e-02 -1.108803e-01 -9.219460e-02 -7.473627e-02 8.779359e-03 4.384600e-02 3.154309e-02 8.204223e-02 1.112728e-01 6.753530e-02
<VARIANCE> 39
 3.090403e+01 1.679930e+01 2.207439e+01 1.969394e+01 4.489453e+01 3.891186e+01 6.020193e+01 3.730201e+01 2.300086e+01 1.714485e+01 2.182302e+01 1.830050e+01 1.357459e+01 1.346997e+00 1.442382e+00 1.116488e+00 1.128603e+00 2.921206e+00 2.787037e+00 3.780664e+00 3.006647e+00 1.878847e+00 1.785547e+00 2.025525e+00 1.918104e+00 7.010322e-01 1.806331e-01 2.473842e-01 2.136827e-01 2.324885e-01 5.530674e-01 5.127348e-01 6.442795e-01 5.357174e-01 3.925422e-01 3.333962e-01 3.440600e-01 3.580772e-01 1.008518e-01
<GCONST> 1.065413e+02
<TRANSP> 5
 0.000000e+00 1.000000e+00 0.000000e+00 0.000000e+00 0.000000e+00
 0.000000e+00 7.871946e-01 2.128054e-01 0.000000e+00 0.000000e+00
 0.000000e+00 0.000000e+00 5.012296e-01 4.987704e-01 0.000000e+00
 0.000000e+00 0.000000e+00 0.000000e+00 4.984247e-01 5.015753e-01
 0.000000e+00 0.000000e+00 0.000000e+00 0.000000e+00 0.000000e+00
<ENDHMM>
~h "m"
<BEGINHMM>
<NUMSTATES> 5
<STATE> 2
<MEAN> 39
 -1.755118e+01 1.555128e-01 -1.994850e+00 4.222704e+00 1.565479e+00 3.250974e+00 1.938314e+00 2.451963e+00 3.630494e-01 1.131835e+00 1.099450e-01 2.029332e+00 5.755780e+01 -8.801240e-02 -2.233139e-02 -4.601926e-02 2.934903e-04 1.238314e-01 9.755131e-02 8.366276e-02 7.640105e-02 -1.223157e-02 -2.345889e-02 9.335186e-02 9.821925e-02 -7.464652e-02 3.653425e-02 1.470754e-02 1.369392e-02 -7.581398e-03 -2.338269e-02 -2.239759e-02 -2.620271e-02 -2.948713e-02 -2.538353e-02 -2.061649e-02 -1.906754e-02 -4.073182e-02 3.025494e-02
<VARIANCE> 39
 2.659233e+00 3.231184e+00 4.750640e+00 5.730653e+00 8.444505e+00 1.067093e+01 1.349759e+01 1.480112e+01 1.421384e+01 1.331796e+01 1.302475e+01 1.050219e+01 1.459394e+00 1.482743e-01 2.591336e-01 4.800373e-01 5.634763e-01 8.129088e-01 9.409412e-01 1.118282e+00 1.340514e+00 1.338183e+00 1.247286e+00 1.206510e+00 1.112467e+00 7.233868e-02 2.895869e-02 5.505175e-02 1.012606e-01 1.155824e-01 1.622177e-01 1.957801e-01 2.389810e-01 2.697821e-01 2.908065e-01 2.513084e-01 2.434737e-01 2.257463e-01 1.242500e-02
<GCONST> 6.423505e+01
<STATE> 3
<MEAN> 39
 -1.741963e+01 3.641828e-01 -1.952060e+00 3.744607e+00 1.974644e+00 3.652316e+00 2.100545e+00 1.621927e+00 -3.103590e-01 7.739164e-01 6.176193e-01 2.229343e+00 5.774920e+01 2.096968e-01 1.867023e-01 1.167474e-01 -2.702680e-02 3.957672e-02 -3.446172e-02 -2.134268e-01 -3.313121e-01 -4.277681e-01 -4.829533e-01 -3.255621e-01 -3.894722e-01 1.873737e-01 1.771036e-01 1.573420e-01 1.401872e-01 3.756669e-02 -2.976869e-02 -7.514147e-02 -2.064809e-01 -2.344058e-01 -2.040340e-01 -1.672480e-01 -1.281593e-01 -1.692732e-01 1.061862e-01
<VARIANCE> 39
 2.904198e+00 5.727045e+00 8.695353e+00 7.849103e+00 1.000891e+01 1.444453e+01 1.582979e+01 1.564502e+01 1.485178e+01 1.374989e+01 1.309370e+01 1.190275e+01 1.722691e+00 2.406030e-01 4.152140e-01 6.461768e-01 9.426159e-01 1.066226e+00 1.256683e+00 1.368129e+00 1.793706e+00 1.755512e+00 1.648465e+00 1.273732e+00 1.567829e+00 1.109687e-01 7.926781e-02 1.090552e-01 1.288612e-01 1.656039e-01 2.236297e-01 2.548192e-01 3.560855e-01 3.698184e-01 3.439174e-01 3.128207e-01 2.553092e-01 2.717855e-01 2.703854e-02
<GCONST> 7.605797e+01
<STATE> 4
<MEAN> 39
 -1.112368e+01 6.006438e-01 -3.319499e+00 2.234759e+00 -1.501882e+00 -6.498660e-01 -1.352388e+00 6.362367e-01 -5.155593e-01 -2.453950e-01 -2.140286e+00 -1.434325e+00 6.229852e+01 2.037239e-02 1.361592e-02 2.646470e-03 -1.500267e-02 -1.648480e-02 3.330015e-03 -1.723819e-02 -1.844281e-02 -1.753935e-02 -2.144268e-02 -2.787428e-02 -4.075873e-02 2.187078e-02 1.512711e-02 9.426191e-03 6.384788e-03 -5.528633e-03 -7.617854e-03 -8.340520e-03 -9.128638e-03 -1.510457e-02 -7.546861e-03 -4.027627e-04 -7.230038e-04 -5.182747e-04 1.090328e-02
<VARIANCE> 39
 5.010970e+01 1.603186e+01 2.797183e+01 2.383793e+01 3.144735e+01 3.838578e+01 2.973885e+01 3.793133e+01 2.709109e+01 1.784627e+01 2.518778e+01 3.225295e+01 2.968312e+01 1.571004e+00 1.107315e+00 1.661596e+00 1.372818e+00 1.687756e+00 2.102012e+00 1.918809e+00 2.256850e+00 1.905302e+00 1.576748e+00 1.735419e+00 1.657209e+00 8.399969e-01 2.165412e-01 2.021024e-01 2.457495e-01 2.171474e-01 3.130095e-01 3.971653e-01 3.602976e-01 4.238889e-01 3.656065e-01 3.123467e-01 3.100719e-01 2.731953e-01 1.033466e-01
<GCONST> 1.044249e+02
<TRANSP> 5
 0.000000e+00 1.000000e+00 0.000000e+00 0.000000e+00 0.000000e+00
 0.000000e+00 9.326186e-01 6.738136e-02 0.000000e+00 0.000000e+00
 0.000000e+00 0.000000e+00 3.161951e-01 6.838048e-01 0.000000e+00
 0.000000e+00 0.000000e+00 0.000000e+00 9.141517e-01 8.584829e-02
 0.000000e+00 0.000000e+00 0.000000e+00 0.000000e+00 0.000000e+00
<ENDHMM>
~h "n"
<BEGINHMM>
<NUMSTATES> 5
<STATE> 2
<MEAN> 39
 -4.850680e+00 8.618938e+00 -2.330531e+00 -4.018889e+00 -5.852780e+00 -1.669412e+00 -5.502612e+00 -6.267712e+00 -6.947150e+00 -5.103961e+00 -4.211653e+00 -2.259037e+00 6.446841e+01 1.734567e-01 1.676344e-01 1.332431e-02 -6.594659e-02 -3.496486e-02 -7.591050e-03 -2.849198e-02 -8.275707e-02 -2.260054e-01 -3.837175e-01 -3.397790e-01 -2.038109e-01 7.434071e-02 -5.540256e-02 -5.482493e-02 -2.115844e-02 2.341598e-02 4.482434e-02 4.250256e-02 3.866973e-02 2.400710e-02 3.459017e-02 5.568792e-02 5.624340e-02 3.776540e-02 -2.437690e-02
<VARIANCE> 39
 1.850076e+01 1.105348e+01 2.780238e+01 5.292039e+01 3.056200e+01 3.189364e+01 2.943058e+01 3.479190e+01 2.161938e+01 2.578738e+01 1.693747e+01 1.638636e+01 7.203273e+00 1.587026e+00 1.058245e+00 2.452868e+00 4.172776e+00 2.206192e+00 2.766605e+00 2.151641e+00 2.136149e+00 1.717467e+00 2.109394e+00 1.669163e+00 1.655762e+00 6.451698e-01 1.758464e-01 1.510864e-01 3.536932e-01 5.512882e-01 3.116310e-01 4.307213e-01 3.080153e-01 3.100063e-01 3.323450e-01 4.051020e-01 2.999401e-01 2.939359e-01 7.909188e-02
<GCONST> 1.034825e+02
<STATE> 3
<MEAN> 39
 -5.345787e+00 8.171363e+00 -2.613549e+00 -3.443826e+00 -4.358818e+00 -3.804846e-02 -4.423266e+00 -6.853639e+00 -8.675391e+00 -7.131367e+00 -5.433235e+00 -2.258614e+00 6.417603e+01 -3.181812e-01 -6.409515e-02 1.480795e-01 3.451970e-01 2.949298e-01 1.239979e-01 2.691292e-01 1.506900e-01 -1.289525e-01 -2.212011e-01 -2.172750e-01 -5.082852e-02 -2.243777e-01 -7.627630e-02 -4.598872e-02 4.683013e-02 8.111514e-02 2.580555e-02 -2.662879e-02 -1.374679e-02 1.540411e-02 6.065479e-02 9.109417e-02 7.008480e-02 3.697681e-02 -3.729935e-02
<VARIANCE> 39
 1.357679e+01 7.475399e+00 2.689883e+01 4.592564e+01 1.824650e+01 2.772988e+01 2.986198e+01 2.610276e+01 1.696551e+01 2.545144e+01 1.806989e+01 1.359630e+01 6.176167e+00 7.876011e-01 4.932176e-01 2.104450e+00 3.370462e+00 1.159822e+00 1.794879e+00 1.803144e+00 1.704269e+00 1.532967e+00 1.709741e+00 1.423171e+00 1.259661e+00 3.985671e-01 8.115162e-02 9.249014e-02 2.918613e-01 4.112951e-01 1.760882e-01 3.006509e-01 2.714186e-01 2.597138e-01 2.970585e-01 3.074664e-01 2.757975e-01 2.569354e-01 4.727216e-02
<GCONST> 9.249600e+01
<STATE> 4
<MEAN> 39
 -9.371904e+00 6.898147e+00 -2.714409e-01 1.110963e+00 -1.523450e+00 -2.394413e-02 -2.913291e+00 -5.286227e+00 -8.164084e+00 -6.865483e+00 -5.832282e+00 -2.224653e+00 6.163936e+01 -4.847523e-01 -2.767806e-01 1.449200e-01 4.224547e-01 2.992255e-01 6.004933e-02 1.436140e-01 2.443044e-01 2.752682e-01 2.738810e-01 1.615489e-01 1.026523e-01 -2.608159e-01 -7.439414e-03 -5.375909e-02 -5.244480e-02 -5.281771e-02 -2.134656e-02 8.043298e-03 -9.127102e-03 2.913992e-02 7.841832e-02 8.619480e-02 7.844797e-02 4.811979e-02 1.471120e-02
<VARIANCE> 39
 2.358012e+01 1.076374e+01 2.010201e+01 3.629302e+01 1.888580e+01 2.120442e+01 2.722323e+01 2.838642e+01 2.083373e+01 2.329108e+01 1.923483e+01 1.377643e+01 8.473027e+00 6.249950e-01 5.052587e-01 1.195168e+00 1.807472e+00 1.016998e+00 1.351936e+00 1.440684e+00 1.415014e+00 1.499409e+00 1.685411e+00 1.510930e+00 1.211647e+00 2.431804e-01 5.463580e-02 7.547522e-02 1.784722e-01 2.522741e-01 1.768977e-01 2.482230e-01 2.442526e-01 2.434328e-01 2.705714e-01 2.850156e-01 2.714855e-01 2.341144e-01 2.319873e-02
<GCONST> 8.749451e+01
<TRANSP> 5
 0.000000e+00 1.000000e+00 0.000000e+00 0.000000e+00 0.000000e+00
 0.000000e+00 8.301005e-01 1.698994e-01 0.000000e+00 0.000000e+00
 0.000000e+00 0.000000e+00 7.700583e-01 2.299418e-01 0.000000e+00
 0.000000e+00 0.000000e+00 0.000000e+00 8.921400e-01 1.078599e-01
 0.000000e+00 0.000000e+00 0.000000e+00 0.000000e+00 0.000000e+00
<ENDHMM>
~h "r"
<BEGINHMM>
<NUMSTATES> 5
<STATE> 2
<MEAN> 39
 -8.883883e+00 2.533604e+00 -3.093552e+00 -1.084052e+00 -5.325513e+00 -3.892622e+00 -3.210842e+00 -6.300948e-01 -1.892484e+00 -1.436924e+00 -2.013670e+00 -1.024867e+00 6.434966e+01 8.591460e-01 1.765560e-01 -1.697715e-01 -4.851263e-01 -6.572841e-01 -5.166051e-01 -5.282137e-01 -2.888593e-01 -9.501468e-02 -2.636804e-01 -2.874659e-01 -2.840895e-01 6.032047e-01 1.452229e-02 -3.006548e-02 2.244133e-02 5.262536e-02 2.339201e-02 5.640243e-02 -2.660427e-02 -1.536155e-02 3.538207e-03 2.989516e-02 -6.590884e-04 -2.978415e-02 -2.465637e-02
<VARIANCE> 39
 4.576896e+01 2.494421e+01 3.573885e+01 4.331700e+01 4.939384e+01 4.632228e+01 3.695979e+01 3.763550e+01 2.919740e+01 1.850110e+01 2.565467e+01 2.606133e+01 2.331776e+01 2.755770e+00 2.254048e+00 2.760217e+00 3.173543e+00 4.313718e+00 4.586928e+00 3.177380e+00 2.648700e+00 2.442776e+00 1.978137e+00 2.465526e+00 2.100950e+00 1.653618e+00 3.902416e-01 3.836512e-01 4.431912e-01 5.743929e-01 7.364669e-01 7.156268e-01 5.669854e-01 4.741789e-01 4.378940e-01 3.792402e-01 4.562750e-01 3.912319e-01 2.280996e-01
<GCONST> 1.195988e+02
<STATE> 3
<MEAN> 39
 -6.919644e+00 1.858242e+00 -4.027724e+00 -2.048606e+00 -6.224315e+00 -4.343695e+00 -4.453986e+00 -1.068554e+00 -1.663414e+00 -1.570439e+00 -2.844961e+00 -2.218924e+00 6.583854e+01 4.362845e-01 -5.973654e-02 -3.394415e-02 -7.495902e-02 -1.855307e-01 -1.543207e-01 -3.988627e-01 -2.333104e-01 -3.286193e-02 -3.937856e-02 -2.689138e-01 -3.258776e-01 2.851556e-01 -5.879604e-02 -1.959276e-02 3.488939e-02 3.119347e-02 2.669652e-02 4.720071e-02 2.719864e-02 1.043158e-02 -2.108913e-02 6.147946e-02 5.203698e-02 5.427492e-03 -5.288376e-02
<VARIANCE> 39
 4.191946e+01 2.733706e+01 4.343941e+01 4.565053e+01 4.060021e+01 4.691547e+01 3.431794e+01 3.435182e+01 2.781967e+01 1.891272e+01 2.847271e+01 3.112697e+01 2.181013e+01 2.640666e+00 2.415276e+00 2.641400e+00 2.408779e+00 3.826334e+00 4.423255e+00 3.280501e+00 2.601456e+00 2.433430e+00 1.946082e+00 2.693911e+00 2.330779e+00 1.548018e+00 4.182906e-01 4.218020e-01 3.840345e-01 4.338143e-01 6.851795e-01 7.643601e-01 5.861890e-01 4.628782e-01 4.292133e-01 3.591929e-01 4.986299e-01 4.130662e-01 2.532679e-01
<GCONST> 1.192772e+02
<STATE> 4
<MEAN> 39
 -7.266067e+00 3.886832e-01 -5.020220e+00 -1.345519e+00 -5.203368e+00 -4.187547e+00 -4.411880e+00 -9.041327e-04 -3.337542e-01 -6.323362e-01 -4.265610e+00 -3.975637e+00 6.569834e+01 -1.556453e-01 1.382434e-01 3.163157e-01 2.162427e-01 1.434072e-02 -2.062735e-03 -5.523336e-02 -1.652971e-01 -1.279976e-01 4.084975e-02 6.672005e-02 5.940170e-02 -1.535861e-01 -1.325671e-02 4.563616e-02 2.904753e-02 -3.134931e-02 -2.669898e-02 2.534015e-02 1.819977e-02 -3.478334e-02 -6.188924e-02 1.031579e-03 8.877286e-02 6.481645e-02 -2.134976e-02
<VARIANCE> 39
 3.956781e+01 2.312388e+01 4.108276e+01 2.887510e+01 3.052589e+01 3.391908e+01 3.051937e+01 3.210904e+01 2.510599e+01 2.305519e+01 3.312789e+01 3.418758e+01 2.439251e+01 2.253836e+00 1.962271e+00 2.032288e+00 1.859673e+00 2.641296e+00 2.894886e+00 2.751752e+00 2.530677e+00 2.208764e+00 2.014786e+00 2.472003e+00 2.147314e+00 1.404685e+00 3.300516e-01 3.765410e-01 3.029175e-01 3.273072e-01 4.632902e-01 5.369009e-01 5.261557e-01 4.729149e-01 4.292928e-01 3.877477e-01 4.532826e-01 3.668549e-01 2.013691e-01
<GCONST> 1.139171e+02
<TRANSP> 5
 0.000000e+00 1.000000e+00 0.000000e+00 0.000000e+00 0.000000e+00
 0.000000e+00 6.558664e-01 3.441336e-01 0.000000e+00 0.000000e+00
 0.000000e+00 0.000000e+00 6.489330e-01 3.510670e-01 0.000000e+00
 0.000000e+00 0.000000e+00 0.000000e+00 8.076581e-01 1.923419e-01
 0.000000e+00 0.000000e+00 0.000000e+00 0.000000e+00 0.000000e+00
<ENDHMM>
~h "s"
<BEGINHMM>
<NUMSTATES> 5
<STATE> 2
<MEAN> 39
 -1.833333e+01 5.199200e+00 -6.479646e-01 3.829322e+00 -1.615291e+00 -1.451051e+00 -9.952541e-01 -2.993537e+00 -1.262927e+00 -2.803105e+00 -1.740137e-01 1.185698e+00 6.209948e+01 -1.163064e+00 -7.013058e-02 -6.324232e-01 1.560508e-01 5.184305e-01 4.173720e-01 6.331321e-01 3.812867e-01 7.761519e-01 1.685274e-01 4.334266e-01 3.554232e-01 -7.928064e-02 1.374958e-01 6.929046e-03 -1.983764e-02 -6.907039e-02 -6.169847e-02 -1.610163e-02 -4.219103e-03 9.201303e-04 -7.125951e-02 3.338933e-03 -2.013065e-02 -3.909107e-02 1.395239e-02
<VARIANCE> 39
 4.047085e+01 8.599749e+00 2.371474e+01 1.483023e+01 3.519326e+01 3.992861e+01 3.917857e+01 2.566730e+01 3.674786e+01 1.721133e+01 1.730097e+01 1.371150e+01 6.594425e+00 1.724257e+00 5.998383e-01 1.137741e+00 1.028529e+00 1.931482e+00 1.483066e+00 2.001357e+00 1.679343e+00 2.027754e+00 1.551530e+00 1.756210e+00 1.330715e+00 2.611351e-01 2.450990e-01 9.457289e-02 1.834095e-01 2.074949e-01 2.745508e-01 2.692714e-01 3.831859e-01 3.159337e-01 3.790829e-01 2.728409e-01 3.055910e-01 2.590372e-01 3.798943e-02
<GCONST> 9.464140e+01
<STATE> 3
<MEAN> 39
 -2.125435e+01 4.860979e+00 -2.692595e+00 4.055176e+00 1.201123e-01 2.323581e-01 8.983598e-01 -1.534985e+00 9.895952e-01 -2.193002e+00 7.531883e-01 1.849889e+00 6.168645e+01 -6.063054e-01 -1.034278e-01 -4.363301e-01 3.740092e-02 2.750722e-01 3.254418e-01 4.600402e-01 3.696512e-01 4.997688e-01 2.327468e-01 2.950262e-01 1.721552e-01 -9.102752e-02 2.108184e-01 -5.437904e-03 9.207756e-02 -1.464185e-02 -4.431600e-02 -3.592072e-02 -6.527504e-02 -3.396126e-02 -1.135723e-01 -6.745327e-03 -7.484823e-02 -6.577559e-02 -1.837583e-02
<VARIANCE> 39
 2.589882e+01 9.595581e+00 1.765055e+01 1.244401e+01 2.079162e+01 3.061458e+01 3.487033e+01 2.355067e+01 2.714541e+01 1.682001e+01 1.551417e+01 1.257203e+01 6.613748e+00 1.306544e+00 4.822556e-01 9.659740e-01 7.948210e-01 1.288677e+00 1.390364e+00 1.701177e+00 1.560171e+00 1.854537e+00 1.400512e+00 1.481552e+00 1.203934e+00 1.920387e-01 1.455141e-01 8.259951e-02 1.426389e-01 1.608147e-01 2.298036e-01 2.515948e-01 3.373395e-01 3.103341e-01 3.443980e-01 2.714585e-01 2.877355e-01 2.398557e-01 2.952415e-02
<GCONST> 8.788466e+01
<STATE> 4
<MEAN> 39
 -2.128418e+01 3.007075e+00 -3.596533e+00 4.197236e+00 1.920298e+00 1.788559e+00 3.195359e+00 1.126532e+00 2.127904e+00 -1.054611e-01 1.446061e+00 2.367916e+00 5.986174e+01 1.617156e-02 -5.825628e-02 -1.041401e-02 2.740984e-02 1.634456e-02 -1.180492e-02 1.214750e-01 4.384327e-02 4.921724e-02 5.005018e-02 3.375676e-03 -7.717100e-03 -3.344383e-02 8.086043e-02 3.683532e-04 5.843344e-02 -2.527473e-03 -2.626110e-02 -2.660085e-02 -5.319074e-02 -3.460687e-02 -5.325482e-02 -2.621903e-02 -4.204436e-02 -2.024730e-02 3.075468e-05
<VARIANCE> 39
 1.497593e+01 1.169100e+01 1.046171e+01 8.578731e+00 1.273503e+01 1.810719e+01 2.014508e+01 1.798621e+01 1.761915e+01 1.486179e+01 1.262845e+01 1.075763e+01 6.801159e+00 6.580412e-01 5.074016e-01 6.671191e-01 6.541434e-01 9.531180e-01 1.212704e+00 1.408717e+00 1.496725e+00 1.523213e+00 1.318909e+00 1.243707e+00 1.043696e+00 1.874675e-01 9.407607e-02 8.203655e-02 1.090828e-01 1.327647e-01 1.888489e-01 2.324836e-01 2.947970e-01 2.976414e-01 3.141542e-01 2.652311e-01 2.498510e-01 2.115274e-01 2.241871e-02
<GCONST> 7.943680e+01
<TRANSP> 5
 0.000000e+00 1.000000e+00 0.000000e+00 0.000000e+00 0.000000e+00
 0.000000e+00 5.836605e-01 4.163395e-01 0.000000e+00 0.000000e+00
 0.000000e+00 0.000000e+00 6.184003e-01 3.815997e-01 0.000000e+00
 0.000000e+00 0.000000e+00 0.000000e+00 9.379115e-01 6.208850e-02
 0.000000e+00 0.000000e+00 0.000000e+00 0.000000e+00 0.000000e+00
<ENDHMM>
~h "t"
<BEGINHMM>
<NUMSTATES> 5
<STATE> 2
<MEAN> 39
 -1.735254e+01 1.296337e+00 -1.272785e+00 4.077038e+00 1.404942e+00 1.877130e+00 1.441579e+00 1.016597e+00 -7.546286e-01 1.538354e-01 -6.443513e-02 2.206909e+00 5.819212e+01 -2.615730e-01 -3.025622e-01 -2.247843e-01 -3.680843e-02 1.879960e-01 1.956609e-01 3.089316e-01 3.756002e-01 3.113069e-01 3.049371e-01 3.065761e-01 2.434481e-01 -1.628776e-01 9.605151e-02 6.916182e-02 3.109087e-02 -4.764758e-02 -1.165699e-01 -9.838990e-02 -3.673130e-02 -8.068269e-02 -4.929335e-02 -8.147703e-02 -4.442515e-02 -4.506455e-02 1.036074e-01
<VARIANCE> 39
 6.237433e+00 5.640497e+00 6.750331e+00 7.456707e+00 1.010422e+01 1.458314e+01 1.783635e+01 1.772369e+01 1.954395e+01 1.369170e+01 1.413110e+01 1.210187e+01 2.231915e+00 3.980770e-01 4.374598e-01 5.864686e-01 7.041938e-01 9.382194e-01 1.176641e+00 1.463374e+00 1.534499e+00 1.420193e+00 1.304569e+00 1.332046e+00 1.184928e+00 1.691690e-01 5.582514e-02 7.486054e-02 1.022383e-01 1.550933e-01 2.167023e-01 2.351772e-01 2.868267e-01 2.996182e-01 2.557272e-01 2.525792e-01 2.690301e-01 2.330647e-01 4.189522e-02
<GCONST> 7.527705e+01
<STATE> 3
<MEAN> 39
 -1.786502e+01 7.163768e-01 -1.702736e+00 3.989141e+00 1.762572e+00 2.192498e+00 2.248720e+00 1.786037e+00 -4.178466e-02 7.856746e-01 5.431337e-01 2.642336e+00 5.792884e+01 -8.239698e-02 -9.099317e-02 -1.311045e-01 -6.637536e-02 -3.557424e-03 2.359251e-03 2.003565e-01 1.410001e-01 2.049559e-01 7.835528e-02 1.599365e-01 9.966715e-02 6.196586e-02 8.218678e-02 7.710387e-02 4.187201e-02 -1.526852e-02 -8.806818e-02 -8.530686e-02 -5.221297e-02 -6.022071e-02 -3.479313e-02 -7.476860e-02 -4.494040e-02 -3.967114e-02 8.758143e-02
<VARIANCE> 39
 4.644412e+00 4.714391e+00 5.639420e+00 7.087884e+00 9.660832e+00 1.334153e+01 1.524058e+01 1.489037e+01 1.621168e+01 1.267344e+01 1.214838e+01 1.059203e+01 2.140235e+00 3.095092e-01 3.822140e-01 4.859927e-01 7.357261e-01 1.000215e+00 1.233327e+00 1.263348e+00 1.395552e+00 1.316879e+00 1.303705e+00 1.228101e+00 1.073069e+00 3.075031e-01 6.583886e-02 7.723200e-02 1.018125e-01 1.512118e-01 2.191853e-01 2.473756e-01 2.656917e-01 2.779427e-01 2.525778e-01 2.543187e-01 2.390274e-01 2.181880e-01 5.369231e-02
<GCONST> 7.333103e+01
<STATE> 4
<MEAN> 39
 -1.833833e+01 5.058277e-01 -2.018890e+00 4.052474e+00 1.874892e+00 2.231442e+00 3.136742e+00 2.339793e+00 8.188493e-01 1.052071e+00 1.042981e+00 2.727022e+00 5.811543e+01 2.956256e-02 8.154101e-02 -7.374798e-02 -8.292392e-02 -1.428946e-01 -1.262109e-01 3.080329e-02 4.508983e-03 9.884653e-02 -5.479519e-02 1.424001e-02 -2.209011e-02 1.526311e-01 8.239333e-02 5.147814e-02 2.234389e-02 -4.634492e-02 -9.732320e-02 -8.666827e-02 -7.130016e-02 -3.717889e-02 -3.490906e-02 -4.338050e-02 -3.953999e-02 -2.980949e-02 6.208036e-02
<VARIANCE> 39
 6.444781e+00 5.955331e+00 6.934925e+00 7.375605e+00 1.135870e+01 1.398281e+01 1.349102e+01 1.284170e+01 1.448114e+01 1.223603e+01 1.191209e+01 1.012749e+01 3.760059e+00 4.227712e-01 4.101421e-01 5.241153e-01 8.675508e-01 1.215459e+00 1.309780e+00 1.252150e+00 1.263609e+00 1.246641e+00 1.221940e+00 1.206416e+00 1.078111e+00 3.471140e-01 7.478591e-02 7.748993e-02 1.131786e-01 1.737619e-01 2.285925e-01 2.527736e-01 2.681071e-01 2.598458e-01 2.497231e-01 2.365686e-01 2.439650e-01 2.138721e-01 4.276241e-02
<GCONST> 7.525687e+01
<TRANSP> 5
 0.000000e+00 1.000000e+00 0.000000e+00 0.000000e+00 0.000000e+00
 0.000000e+00 7.125251e-01 2.874750e-01 0.000000e+00 0.000000e+00
 0.000000e+00 0.000000e+00 7.137240e-01 2.862760e-01 0.000000e+00
 0.000000e+00 0.000000e+00 0.000000e+00 8.913984e-01 1.086016e-01
 0.000000e+00 0.000000e+00 0.000000e+00 0.000000e+00 0.000000e+00
<ENDHMM>
~h "w"
<BEGINHMM>
<NUMSTATES> 5
<STATE> 2
<MEAN> 39
 -8.207658e+00 5.212354e+00 -1.500754e+00 -1.347927e+00 -5.673115e+00 -2.053447e+00 -3.532936e+00 -5.680782e+00 -5.502833e+00 -2.696006e+00 -2.247254e+00 -8.251416e-01 6.343967e+01 -3.052152e-04 -8.475895e-02 -7.924001e-02 -1.853245e-01 -1.712984e-01 1.369050e-01 1.117533e-01 -3.391484e-02 1.844298e-02 -1.686390e-02 -1.055959e-02 1.207272e-01 -2.858504e-02 -1.472087e-01 -1.147674e-01 -4.515307e-03 8.382917e-02 1.207291e-01 7.531525e-02 1.690617e-01 2.768295e-01 1.430653e-01 -2.756769e-02 -3.339541e-02 5.692949e-02 -5.511080e-02
<VARIANCE> 39
 3.110790e+01 1.238220e+01 2.699941e+01 4.551721e+01 4.383696e+01 2.576936e+01 3.132738e+01 3.695827e+01 2.026390e+01 2.389532e+01 2.449242e+01 1.951182e+01 1.249311e+01 1.644421e+00 1.675714e+00 1.493780e+00 4.073020e+00 3.176864e+00 2.476296e+00 2.379869e+00 3.733270e+00 2.718140e+00 2.558141e+00 2.515407e+00 2.274619e+00 6.667314e-01 1.839822e-01 2.264324e-01 3.040646e-01 7.181949e-01 5.874034e-01 4.705570e-01 4.826870e-01 6.596724e-01 4.305600e-01 4.378035e-01 4.836755e-01 4.411447e-01 8.310588e-02
<GCONST> 1.112192e+02
<STATE> 3
<MEAN> 39
 -8.195845e+00 5.097294e+00 -2.086187e+00 -2.086086e+00 -5.709356e+00 -1.358856e+00 -2.737269e+00 -5.057408e+00 -5.254179e+00 -3.147329e+00 -2.638692e+00 -5.656875e-01 6.339505e+01 -3.352162e-01 -2.694758e-01 1.924389e-02 1.532318e-01 2.175689e-01 2.819564e-01 3.926040e-01 5.315493e-01 2.843220e-01 -6.123639e-02 -1.357654e-01 7.904430e-02 -1.656472e-01 -1.114660e-01 -7.292090e-02 6.175224e-02 1.374607e-01 8.433026e-02 1.000880e-02 8.475117e-02 1.737195e-01 6.138255e-02 3.982813e-02 4.278415e-02 1.565012e-02 -4.098595e-02
<VARIANCE> 39
 3.418559e+01 1.198934e+01 2.534874e+01 5.194792e+01 4.408609e+01 2.452022e+01 3.180587e+01 3.278685e+01 1.894532e+01 2.361607e+01 2.461164e+01 2.107168e+01 1.396000e+01 1.301919e+00 1.259555e+00 1.544132e+00 3.501417e+00 2.934370e+00 2.501189e+00 2.127991e+00 3.378141e+00 2.177132e+00 2.670072e+00 2.923908e+00 2.434931e+00 6.028214e-01 1.457943e-01 1.877946e-01 2.357010e-01 6.007749e-01 4.989502e-01 4.031286e-01 4.060691e-01 6.025727e-01 4.256843e-01 4.796385e-01 5.050849e-01 4.947195e-01 6.010899e-02
<GCONST> 1.088156e+02
<STATE> 4
<MEAN> 39
 -8.933168e+00 4.632693e+00 -2.172189e+00 -1.784748e+00 -4.938693e+00 -5.857514e-01 -1.747349e+00 -3.588115e+00 -4.844823e+00 -3.185441e+00 -2.993546e+00 -6.226420e-01 6.297374e+01 -6.776239e-01 -4.549839e-01 2.192359e-01 6.626371e-01 5.232191e-01 2.349290e-01 4.067667e-01 6.917987e-01 3.937427e-01 2.170106e-01 7.762165e-02 3.694381e-02 -3.249185e-01 -3.542928e-02 -3.988707e-02 9.426792e-03 2.318634e-02 -2.683076e-02 -4.261383e-02 -9.437865e-03 1.430779e-02 2.905373e-02 1.068627e-01 1.434470e-01 7.774610e-02 -6.098149e-03
<VARIANCE> 39
 3.439453e+01 1.146750e+01 2.482289e+01 5.339807e+01 3.990181e+01 2.552755e+01 2.963392e+01 2.820070e+01 1.992347e+01 2.329358e+01 2.500364e+01 2.316641e+01 1.615008e+01 1.083023e+00 9.709393e-01 1.445926e+00 2.711202e+00 2.733304e+00 2.047555e+00 1.896782e+00 2.828506e+00 1.859819e+00 2.639638e+00 2.901627e+00 2.807818e+00 4.823498e-01 1.198658e-01 1.454181e-01 2.232355e-01 4.966643e-01 3.640285e-01 3.366155e-01 3.390001e-01 5.151574e-01 3.972507e-01 4.598691e-01 5.547349e-01 5.556173e-01 4.847671e-02
<GCONST> 1.055636e+02
<TRANSP> 5
 0.000000e+00 1.000000e+00 0.000000e+00 0.000000e+00 0.000000e+00
 0.000000e+00 4.651482e-01 5.348517e-01 0.000000e+00 0.000000e+00
 0.000000e+00 0.000000e+00 4.966567e-01 5.033433e-01 0.000000e+00
 0.000000e+00 0.000000e+00 0.000000e+00 6.278860e-01 3.721140e-01
 0.000000e+00 0.000000e+00 0.000000e+00 0.000000e+00 0.000000e+00
<ENDHMM>
~h "y"
<BEGINHMM>
<NUMSTATES> 5
<STATE> 2
<MEAN> 39
 -1.075799e+01 5.927630e+00 8.007497e+00 1.541493e+00 -1.031214e+01 -5.031963e+00 -7.341218e+00 -8.112392e+00 -7.322353e+00 -4.635786e+00 -9.362258e-01 -4.554274e-01 6.448141e+01 4.952638e-01 3.744023e-01 8.584591e-01 -6.829592e-02 -2.002677e-01 -3.660274e-02 -9.382331e-01 -6.122806e-01 -7.184127e-01 -4.838848e-01 -3.171640e-01 -1.855715e-01 -5.306027e-02 -6.226648e-02 3.217619e-02 -1.682269e-01 -1.041915e-02 8.420417e-02 -1.034064e-02 1.742500e-02 6.757708e-02 8.119904e-02 4.810353e-02 6.315434e-02 3.999104e-02 1.726480e-02
<VARIANCE> 39
 3.394775e+01 1.330754e+01 3.488302e+01 1.653433e+01 7.017401e+01 2.468581e+01 5.946885e+01 2.249932e+01 3.334582e+01 2.018744e+01 1.706804e+01 1.149909e+01 9.789500e+00 2.582178e+00 1.173357e+00 2.629427e+00 1.118403e+00 3.671634e+00 1.804617e+00 5.250058e+00 2.218394e+00 2.961064e+00 1.826468e+00 1.710336e+00 9.951288e-01 5.526068e-01 2.275924e-01 2.342521e-01 2.634799e-01 1.756799e-01 4.034060e-01 2.996776e-01 8.141244e-01 3.763666e-01 4.745047e-01 3.456901e-01 3.152871e-01 1.880769e-01 6.798101e-02
<GCONST> 1.044150e+02
<STATE> 3
<MEAN> 39
 -9.974331e+00 7.000782e+00 8.666219e+00 1.666193e+00 -9.832835e+00 -5.539445e+00 -9.241916e+00 -9.076884e+00 -8.817105e+00 -5.513928e+00 -1.476435e+00 -4.996850e-01 6.416370e+01 -2.193905e-01 1.104837e-01 -2.735924e-01 1.886236e-01 5.103542e-01 8.157055e-02 1.073852e-01 -6.588663e-03 4.544517e-02 -5.672359e-02 -9.220566e-02 1.817510e-03 -1.649936e-01 -1.055768e-01 -7.158623e-02 -1.840109e-01 3.323619e-02 7.735015e-02 1.634433e-02 1.877168e-01 1.066303e-01 1.243319e-01 8.075555e-02 3.995293e-02 2.974255e-02 -6.536566e-03
<VARIANCE> 39
 1.624599e+01 9.934108e+00 2.376536e+01 1.592282e+01 5.441269e+01 1.868193e+01 2.986054e+01 1.613922e+01 1.971767e+01 1.690323e+01 1.450045e+01 1.070656e+01 7.523942e+00 1.378808e+00 7.440499e-01 1.760921e+00 1.234752e+00 3.727919e+00 1.596910e+00 3.124571e+00 1.459556e+00 1.913022e+00 1.401682e+00 1.322520e+00 8.638484e-01 5.522109e-01 1.367403e-01 1.223010e-01 1.975308e-01 1.700667e-01 3.533854e-01 2.579947e-01 4.378352e-01 2.560400e-01 3.025422e-01 2.405195e-01 2.377028e-01 1.662115e-01 5.511678e-02
<GCONST> 9.248270e+01
<STATE> 4
<MEAN> 39
 -1.341036e+01 6.922666e+00 4.729044e+00 4.043625e+00 -4.550224e+00 -4.035925e+00 -5.453178e+00 -8.111412e+00 -7.097193e+00 -5.523138e+00 -2.247870e+00 -4.401429e-01 6.249439e+01 -7.115164e-01 -1.685828e-01 -8.071977e-01 2.072705e-01 5.397847e-01 2.310930e-01 8.485048e-01 3.696450e-01 6.345912e-01 2.161623e-01 1.310284e-01 1.036939e-01 -1.118612e-01 -4.339607e-02 -4.112212e-02 -4.764686e-02 -3.109105e-02 -6.232394e-02 -4.901852e-03 4.641470e-02 7.373170e-02 7.066000e-02 5.716392e-02 6.792372e-02 3.336895e-02 2.475601e-02
<VARIANCE> 39
 3.226977e+01 7.781203e+00 3.194619e+01 1.515848e+01 5.157718e+01 1.846361e+01 4.044926e+01 1.789378e+01 3.146804e+01 1.762489e+01 1.690720e+01 1.151328e+01 7.542740e+00 1.197225e+00 5.104655e-01 1.262052e+00 9.350721e-01 2.478814e+00 1.521666e+00 2.206895e+00 1.407445e+00 2.145878e+00 1.434072e+00 1.512429e+00 1.005427e+00 4.076151e-01 1.436936e-01 8.777366e-02 1.845698e-01 1.611237e-01 3.087596e-01 2.576110e-01 3.743719e-01 2.640032e-01 3.503814e-01 2.608662e-01 2.538403e-01 1.936485e-01 4.668589e-02
<GCONST> 9.201533e+01
<TRANSP> 5
 0.000000e+00 1.000000e+00 0.000000e+00 0.000000e+00 0.000000e+00
 0.000000e+00 8.235845e-01 1.764155e-01 0.000000e+00 0.000000e+00
 0.000000e+00 0.000000e+00 7.869769e-01 2.130231e-01 0.000000e+00
 0.000000e+00 0.000000e+00 0.000000e+00 8.679128e-01 1.320872e-01
 0.000000e+00 0.000000e+00 0.000000e+00 0.000000e+00 0.000000e+00
<ENDHMM>
~h "ah"
<BEGINHMM>
<NUMSTATES> 5
<STATE> 2
<MEAN> 39
 -1.452530e+01 8.112082e-01 -1.981233e+00 3.014086e+00 -1.035900e-01 9.972361e-01 2.855296e-01 1.080504e+00 -6.304874e-01 -4.241335e-01 -1.475516e+00 6.736229e-02 6.008527e+01 5.691966e-02 8.795235e-02 4.904114e-02 1.038202e-01 2.442164e-01 -6.295689e-02 -7.344972e-02 -6.760500e-02 -7.900481e-02 -1.068413e-01 -2.125369e-01 -1.816414e-01 5.638723e-02 1.376481e-01 1.291106e-01 7.256622e-02 -4.998664e-02 -1.231059e-01 -1.305939e-01 -1.671691e-01 -1.646981e-01 -1.126438e-01 -4.593740e-02 -2.298502e-02 -4.748077e-03 8.485988e-02
<VARIANCE> 39
 2.829134e+01 9.470197e+00 1.727508e+01 1.705540e+01 2.825703e+01 3.211253e+01 2.680960e+01 2.041376e+01 1.978626e+01 1.825060e+01 2.419651e+01 2.146535e+01 1.667417e+01 8.166196e-01 1.030093e+00 1.424175e+00 9.824438e-01 1.598546e+00 1.728329e+00 1.885131e+00 2.639085e+00 2.389393e+00 1.822682e+00 2.139368e+00 1.808995e+00 3.550761e-01 1.138856e-01 1.434917e-01 1.689879e-01 1.774540e-01 2.954369e-01 3.475400e-01 3.544762e-01 4.047970e-01 3.438759e-01 2.993514e-01 3.507447e-01 2.975379e-01 6.040164e-02
<GCONST> 9.641878e+01
<STATE> 3
<MEAN> 39
 -1.251295e+01 1.999984e+00 -1.435772e+00 2.515658e+00 -7.804779e-01 -6.473493e-01 -1.142305e+00 -5.438020e-02 -1.929667e+00 -1.459340e+00 -2.683842e+00 -1.360586e+00 6.148777e+01 4.112310e-01 4.131517e-01 2.149396e-01 -4.688835e-03 -4.966979e-02 -4.132432e-01 -5.247222e-01 -4.464779e-01 -3.253146e-01 -2.487623e-01 -3.183446e-01 -2.105467e-01 2.780405e-01 1.025452e-01 6.552021e-02 5.219655e-02 -7.981687e-02 -1.870031e-01 -1.264194e-01 -1.411114e-01 -1.014077e-01 -4.039352e-02 3.194588e-02 1.156422e-01 1.259944e-01 7.939145e-02
<VARIANCE> 39
 3.603827e+01 1.813110e+01 3.101940e+01 2.344846e+01 3.037913e+01 4.166486e+01 3.229216e+01 3.223989e+01 2.852971e+01 2.107775e+01 2.601003e+01 2.536012e+01 2.152432e+01 1.438660e+00 1.571100e+00 1.794030e+00 1.037802e+00 2.227533e+00 2.289421e+00 2.819800e+00 3.453739e+00 2.917048e+00 2.178606e+00 2.551303e+00 2.016503e+00 6.610596e-01 1.614386e-01 1.884318e-01 2.256949e-01 2.059465e-01 3.441510e-01 4.184573e-01 4.220519e-01 4.609871e-01 4.011751e-01 3.669133e-01 4.046130e-01 3.534251e-01 8.568159e-02
<GCONST> 1.067617e+02
<STATE> 4
<MEAN> 39
 -5.840160e+00 2.291238e+00 -3.617034e+00 -7.220819e-01 -4.516936e+00 -3.703907e+00 -6.072175e+00 -2.630101e+00 -3.050071e+00 -3.500715e+00 -5.322699e+00 -4.319566e+00 6.629052e+01 -6.091925e-02 -1.594995e-02 -2.926273e-02 2.945200e-02 1.541628e-02 4.495772e-02 2.982134e-02 -2.553047e-03 8.494837e-02 8.988378e-02 3.925258e-02 3.860341e-02 -3.736738e-02 -4.376459e-02 -1.705284e-02 -9.487183e-03 9.009836e-03 5.824311e-03 2.331842e-02 3.465972e-02 2.013981e-02 1.986340e-02 1.721773e-02 5.170506e-02 4.042689e-02 -1.903392e-02
<VARIANCE> 39
 3.196415e+01 3.270905e+01 5.654856e+01 2.637909e+01 2.947992e+01 2.486147e+01 2.544595e+01 4.380518e+01 3.436106e+01 2.451489e+01 3.858374e+01 3.463473e+01 1.989129e+01 1.495510e+00 2.022380e+00 2.987816e+00 1.948843e+00 2.638009e+00 1.744366e+00 1.945446e+00 3.345232e+00 2.714443e+00 1.872044e+00 2.915179e+00 2.479256e+00 1.044634e+00 1.787358e-01 3.261546e-01 5.053459e-01 3.306934e-01 4.358089e-01 3.087288e-01 3.442529e-01 5.123227e-01 4.732701e-01 3.437859e-01 4.915607e-01 4.498549e-01 1.208275e-01
<GCONST> 1.125793e+02
<TRANSP> 5
 0.000000e+00 1.000000e+00 0.000000e+00 0.000000e+00 0.000000e+00
 0.000000e+00 5.562722e-01 4.437278e-01 0.000000e+00 0.000000e+00
 0.000000e+00 0.000000e+00 4.118645e-01 5.881354e-01 0.000000e+00
 0.000000e+00 0.000000e+00 0.000000e+00 8.942885e-01 1.057114e-01
 0.000000e+00 0.000000e+00 0.000000e+00 0.000000e+00 0.000000e+00
<ENDHMM>
~h "ch"
<BEGINHMM>
<NUMSTATES> 5
<STATE> 2
<MEAN> 39
 -1.211408e+01 2.460121e+00 -1.910006e+00 -1.285760e+00 -4.259484e+00 -1.368919e+00 -1.400932e+00 -5.338836e+00 -1.769268e+00 -4.931363e-01 -6.930414e-02 2.119885e+00 6.315459e+01 -2.956207e-02 -1.737192e-02 6.828437e-02 7.066020e-02 2.643878e-02 -1.027620e-01 1.611858e-02 -4.509921e-02 7.938987e-02 8.755094e-03 -3.935622e-02 -7.725426e-02 6.295783e-02 3.155721e-02 3.387412e-02 -1.597914e-02 -5.163743e-02 -3.426181e-02 1.800800e-02 6.784780e-03 1.122110e-02 -3.121294e-02 -4.103867e-02 -1.644871e-02 1.664025e-02 -2.951604e-03
<VARIANCE> 39
 6.752096e+01 2.328885e+01 1.503848e+01 6.751469e+01 4.702917e+01 2.657661e+01 4.878234e+01 4.391209e+01 3.935332e+01 2.277690e+01 2.236974e+01 1.672044e+01 1.982518e+01 4.865047e+00 1.846697e+00 1.514079e+00 5.705615e+00 4.134960e+00 2.628493e+00 4.556638e+00 3.871063e+00 3.835744e+00 2.795135e+00 2.964243e+00 2.206589e+00 1.731503e+00 6.476818e-01 2.722140e-01 2.738657e-01 8.544317e-01 6.861308e-01 5.080125e-01 7.956361e-01 7.500083e-01 6.607912e-01 5.704631e-01 6.333324e-01 4.589973e-01 2.558140e-01
<GCONST> 1.225450e+02
<STATE> 3
<MEAN> 39
 -1.283752e+01 2.452134e+00 -1.625647e+00 5.087107e-02 -2.736973e+00 -1.618268e+00 -8.095906e-01 -5.006761e+00 -1.783739e+00 -3.752656e-01 -1.939084e-01 1.297883e+00 6.269429e+01 7.333186e-02 9.992629e-02 -1.958438e-02 -2.898339e-04 3.125460e-02 1.583049e-01 2.658329e-02 1.275118e-01 -1.198993e-01 -6.820845e-02 -6.410084e-02 -2.687134e-02 -1.321719e-01 -1.154547e-02 -1.091149e-02 -2.931145e-03 -1.299381e-02 -8.142760e-03 1.505338e-02 9.752049e-03 4.783161e-03 -5.673997e-03 -1.601598e-03 5.179151e-03 1.676290e-02 1.439176e-03
<VARIANCE> 39
 5.557700e+01 2.191184e+01 1.430754e+01 4.303791e+01 3.561205e+01 2.399901e+01 4.510046e+01 3.850705e+01 4.416582e+01 2.420512e+01 2.339053e+01 1.795566e+01 1.562898e+01 4.990175e+00 1.832579e+00 1.640221e+00 4.341812e+00 3.698757e+00 2.345340e+00 4.688064e+00 3.746528e+00 4.182981e+00 2.555452e+00 2.940719e+00 2.232137e+00 1.290630e+00 6.539698e-01 2.678852e-01 3.000892e-01 7.267183e-01 6.727812e-01 4.267077e-01 7.892876e-01 6.875213e-01 6.855931e-01 4.926157e-01 6.168394e-01 4.665589e-01 2.133756e-01
<GCONST> 1.198880e+02
<STATE> 4
<MEAN> 39
 -1.532893e+01 1.577178e+00 -1.729438e+00 1.901097e+00 -6.910328e-02 8.707904e-01 1.495165e+00 -5.742683e-01 -6.539451e-01 1.592893e-01 -3.197923e-01 2.089563e+00 5.979633e+01 8.841930e-02 5.228388e-02 5.155402e-03 -9.589496e-02 -7.605390e-02 -4.688273e-03 -6.281677e-02 -2.425518e-02 1.418584e-02 -1.233451e-02 -4.521132e-02 -3.577030e-02 4.861965e-02 5.338908e-02 3.919764e-02 -1.088580e-02 -5.043347e-02 -4.353223e-02 -2.302876e-02 -2.572431e-02 -3.114506e-02 -3.478192e-02 -2.428702e-02 -1.791318e-02 -1.468812e-02 2.783735e-02
<VARIANCE> 39
 3.312508e+01 1.345545e+01 8.942215e+00 3.364031e+01 2.846833e+01 1.995598e+01 2.744293e+01 3.442966e+01 2.860310e+01 1.975808e+01 1.878315e+01 1.384963e+01 1.389661e+01 2.338619e+00 1.066021e+00 9.449316e-01 2.712643e+00 2.469093e+00 1.637607e+00 2.684122e+00 2.361310e+00 2.731311e+00 2.057770e+00 2.072612e+00 1.636541e+00 7.428929e-01 3.121644e-01 1.523548e-01 1.838989e-01 4.478956e-01 4.310945e-01 2.988636e-01 4.795696e-01 4.467736e-01 4.823481e-01 3.886817e-01 4.135073e-01 3.388748e-01 1.117577e-01
<GCONST> 1.039929e+02
<TRANSP> 5
 0.000000e+00 1.000000e+00 0.000000e+00 0.000000e+00 0.000000e+00
 0.000000e+00 9.337885e-01 6.621145e-02 0.000000e+00 0.000000e+00
 0.000000e+00 0.000000e+00 8.162397e-01 1.837604e-01 0.000000e+00
 0.000000e+00 0.000000e+00 0.000000e+00 9.403996e-01 5.960044e-02
 0.000000e+00 0.000000e+00 0.000000e+00 0.000000e+00 0.000000e+00
<ENDHMM>
~h "dh"
<BEGINHMM>
<NUMSTATES> 5
<STATE> 2
<MEAN> 39
 -7.999551e+00 5.237727e+00 -8.381180e-01 -3.798884e+00 -5.319386e+00 6.220685e-01 -7.107544e+00 -7.297020e+00 -4.208157e+00 -2.940959e+00 -1.155531e+00 1.328910e+00 6.404186e+01 6.791537e-01 2.912425e-01 -1.879562e-01 -9.723112e-01 -7.139893e-01 3.846911e-02 -2.319421e-01 -4.243715e-01 -1.796374e-01 -2.183026e-01 3.686460e-02 3.704185e-01 4.165223e-01 -7.188145e-02 4.320594e-03 5.549442e-03 5.803131e-02 4.261289e-02 -7.146188e-03 1.191842e-01 1.043289e-01 -1.277670e-04 -4.422295e-02 -3.563656e-02 5.320037e-03 -6.015827e-02
<VARIANCE> 39
 4.145428e+01 1.548024e+01 2.652372e+01 1.167538e+02 5.312925e+01 2.178347e+01 4.707202e+01 4.517818e+01 2.993098e+01 2.851815e+01 2.949664e+01 3.321408e+01 2.415249e+01 1.853434e+00 1.651539e+00 1.591355e+00 3.585328e+00 2.023734e+00 2.034701e+00 5.649770e+00 4.891890e+00 3.590010e+00 3.161184e+00 2.591081e+00 2.452920e+00 1.207233e+00 3.040684e-01 2.754107e-01 2.280928e-01 4.133279e-01 3.162478e-01 3.720192e-01 1.088724e+00 9.450805e-01 6.467947e-01 5.668425e-01 4.607553e-01 4.290453e-01 2.091167e-01
<GCONST> 1.186358e+02
<STATE> 3
<MEAN> 39
 -5.367653e+00 6.348811e+00 -3.031369e+00 -1.039974e+01 -9.725531e+00 1.854349e+00 -5.468639e+00 -7.220574e+00 -4.300311e+00 -4.104233e+00 -4.784140e-01 4.813072e+00 6.551202e+01 2.406295e-03 2.167032e-01 2.356858e-02 -1.873065e-01 -1.560091e-01 -4.448785e-03 3.792820e-01 1.942802e-01 -2.545925e-01 -4.171678e-01 -2.316063e-01 1.536288e-01 -8.502015e-02 -7.485349e-02 -4.110434e-02 5.980530e-02 1.775223e-01 1.046190e-01 -4.956236e-02 -6.647494e-02 -2.890101e-02 2.295306e-02 6.688332e-02 1.939983e-02 -9.844647e-02 -2.439252e-02
<VARIANCE> 39
 3.686182e+01 9.683959e+00 2.001899e+01 1.103486e+02 5.377934e+01 2.030431e+01 3.301478e+01 3.431036e+01 1.853621e+01 2.280575e+01 2.210919e+01 2.940147e+01 1.688151e+01 8.154218e-01 6.952033e-01 8.208383e-01 1.802967e+00 1.347249e+00 1.141206e+00 2.665363e+00 2.667648e+00 1.707257e+00 2.012352e+00 1.714105e+00 1.472186e+00 4.168067e-01 1.233158e-01 1.250267e-01 1.524287e-01 2.008016e-01 1.960650e-01 2.022787e-01 5.065486e-01 5.262837e-01 3.328633e-01 3.663161e-01 3.143229e-01 2.670488e-01 6.820720e-02
<GCONST> 9.865874e+01
<STATE> 4
<MEAN> 39
 -7.662428e+00 5.754508e+00 -2.703555e+00 -7.605551e+00 -7.713430e+00 1.908340e+00 -3.497966e+00 -5.279242e+00 -4.341646e+00 -3.945854e+00 -8.034317e-01 4.708019e+00 6.378861e+01 -1.110187e-01 8.072321e-02 1.612494e-01 3.933773e-01 2.303029e-01 -1.486132e-01 -1.183967e-01 -2.662695e-01 -2.447076e-01 -4.505911e-03 1.480782e-02 -8.255541e-02 -9.746610e-02 -4.160695e-02 -1.341431e-02 4.697970e-02 1.362619e-01 6.986596e-02 -3.396391e-02 -7.762775e-02 -4.733149e-02 1.721616e-02 5.819289e-02 1.385416e-02 -7.746897e-02 -7.527345e-03
<VARIANCE> 39
 4.420470e+01 1.262340e+01 1.521081e+01 1.112467e+02 6.082856e+01 1.815223e+01 3.015251e+01 4.048729e+01 2.169715e+01 2.251805e+01 1.853204e+01 2.694593e+01 1.759591e+01 5.894454e-01 4.870631e-01 6.055335e-01 1.534319e+00 1.198831e+00 9.868855e-01 1.926171e+00 2.056213e+00 1.516654e+00 1.452535e+00 1.352699e+00 1.201212e+00 2.912451e-01 8.744038e-02 8.115288e-02 1.211902e-01 1.800560e-01 1.592904e-01 1.829787e-01 3.689726e-01 4.022952e-01 3.121278e-01 2.432468e-01 2.570013e-01 2.412031e-01 3.651564e-02
<GCONST> 9.220173e+01
<TRANSP> 5
 0.000000e+00 1.000000e+00 0.000000e+00 0.000000e+00 0.000000e+00
 0.000000e+00 8.100374e-01 1.899626e-01 0.000000e+00 0.000000e+00
 0.000000e+00 0.000000e+00 6.933754e-01 3.066246e-01 0.000000e+00
 0.000000e+00 0.000000e+00 0.000000e+00 8.194855e-01 1.805145e-01
 0.000000e+00 0.000000e+00 0.000000e+00 0.000000e+00 0.000000e+00
<ENDHMM>
~h "eh"
<BEGINHMM>
<NUMSTATES> 5
<STATE> 2
<MEAN> 39
 -1.379341e+01 2.440327e+00 7.285594e-01 2.841935e+00 -4.254392e+00 -3.216031e+00 -1.560479e+00 -5.599803e-01 -2.288053e+00 -1.040345e+00 4.103789e-01 1.640457e+00 6.167968e+01 2.561751e-01 -3.906669e-02 1.857325e-01 -6.286565e-02 -4.178924e-01 -2.461758e-01 -1.111831e-01 -1.815635e-02 -1.218990e-01 4.725158e-02 1.191937e-01 5.769030e-02 1.580614e-01 9.255559e-03 4.746310e-02 1.388532e-02 -1.621323e-02 3.962677e-03 5.883104e-03 -4.542508e-02 -4.302263e-02 -2.686271e-02 -9.739810e-03 -3.800628e-02 -1.770512e-02 -1.694284e-02
<VARIANCE> 39
 3.879618e+01 1.180132e+01 2.233766e+01 1.336944e+01 7.865880e+01 5.431509e+01 4.152261e+01 2.458835e+01 2.851348e+01 1.638397e+01 1.729918e+01 1.215305e+01 2.084912e+01 1.687413e+00 8.581949e-01 1.176146e+00 9.750906e-01 3.265261e+00 2.499264e+00 2.223897e+00 1.755874e+00 1.768440e+00 1.476505e+00 1.476390e+00 1.113384e+00 6.794788e-01 1.887571e-01 1.276896e-01 1.611257e-01 1.891104e-01 4.868396e-01 3.942640e-01 3.712626e-01 3.172442e-01 3.110420e-01 2.859275e-01 2.820491e-01 2.166489e-01 9.706438e-02
<GCONST> 9.980957e+01
<STATE> 3
<MEAN> 39
 -1.159543e+01 3.247365e+00 2.325848e+00 2.059711e+00 -7.811771e+00 -5.938815e+00 -3.416359e+00 -1.902299e+00 -3.842424e+00 -1.539404e+00 5.245433e-01 1.532065e+00 6.341812e+01 3.339723e-01 8.034418e-02 2.481128e-01 -1.333356e-01 -4.891987e-01 -2.910367e-01 -2.756664e-01 -1.752404e-01 -2.539189e-01 -9.556016e-03 1.516377e-02 -2.256002e-02 1.628430e-01 -4.854438e-02 1.294803e-02 -5.078793e-02 -1.148951e-02 8.199158e-02 5.819682e-02 -4.479724e-03 -8.424884e-03 3.017433e-02 1.877906e-03 -2.947250e-02 -2.344468e-02 -3.676116e-02
<VARIANCE> 39
 4.407073e+01 1.242481e+01 2.529992e+01 1.522143e+01 9.494553e+01 5.835893e+01 4.447239e+01 2.320190e+01 2.990770e+01 1.452977e+01 1.775685e+01 1.173088e+01 2.214501e+01 1.895079e+00 9.020696e-01 1.307022e+00 1.146239e+00 3.935056e+00 2.575894e+00 2.386414e+00 1.612194e+00 1.697955e+00 1.321469e+00 1.480245e+00 1.069191e+00 7.686912e-01 2.063378e-01 1.622511e-01 1.871985e-01 2.033113e-01 5.431548e-01 4.196134e-01 3.812282e-01 3.187089e-01 3.023227e-01 2.755887e-01 2.874404e-01 2.102411e-01 1.203872e-01
<GCONST> 1.019538e+02
<STATE> 4
<MEAN> 39
 -9.296946e+00 3.952825e+00 4.067345e+00 1.211497e+00 -1.108728e+01 -7.998641e+00 -5.525996e+00 -3.784445e+00 -5.998328e+00 -2.058168e+00 3.296008e-01 9.516336e-01 6.470912e+01 -9.673831e-03 8.841120e-02 1.899163e-02 3.237934e-02 1.399851e-01 1.098790e-01 -9.046549e-02 -1.692495e-01 -7.147609e-02 -5.336643e-02 -1.520221e-01 -9.766531e-02 -9.363455e-02 -9.663022e-02 -7.902996e-03 -8.414956e-02 2.619736e-02 1.710491e-01 1.181080e-01 6.191434e-02 1.033923e-02 7.859105e-02 -8.915258e-04 -2.092692e-02 -6.591748e-03 -5.451050e-02
<VARIANCE> 39
 2.994456e+01 1.265189e+01 2.388528e+01 1.728506e+01 8.160674e+01 4.667333e+01 3.358628e+01 2.154466e+01 2.597927e+01 1.349382e+01 2.021771e+01 1.325877e+01 1.692397e+01 1.412351e+00 9.593503e-01 1.427582e+00 1.324160e+00 4.301576e+00 2.314444e+00 2.029778e+00 1.707097e+00 1.748456e+00 1.301114e+00 1.590743e+00 1.133178e+00 7.736275e-01 1.921298e-01 1.703396e-01 2.022367e-01 2.416240e-01 5.533779e-01 3.914930e-01 3.605171e-01 3.156224e-01 2.969999e-01 2.543254e-01 2.895600e-01 2.135228e-01 1.056171e-01
<GCONST> 1.006265e+02
<TRANSP> 5
 0.000000e+00 1.000000e+00 0.000000e+00 0.000000e+00 0.000000e+00
 0.000000e+00 6.605435e-01 3.394565e-01 0.000000e+00 0.000000e+00
 0.000000e+00 0.000000e+00 5.975481e-01 4.024519e-01 0.000000e+00
 0.000000e+00 0.000000e+00 0.000000e+00 8.103942e-01 1.896058e-01
 0.000000e+00 0.000000e+00 0.000000e+00 0.000000e+00 0.000000e+00
<ENDHMM>
~h "ih"
<BEGINHMM>
<NUMSTATES> 5
<STATE> 2
<MEAN> 39
 -1.428062e+01 6.562187e+00 3.912319e+00 3.077753e+00 -3.102230e+00 -1.529582e+00 -3.340609e+00 -7.211202e+00 -4.591660e+00 -3.406212e+00 -1.681086e+00 -8.991351e-01 6.254122e+01 1.876451e+00 7.224526e-01 1.246294e+00 -2.859070e-01 -9.409033e-01 -4.559575e-01 -2.064270e+00 -1.214179e+00 -1.457322e+00 -5.769922e-01 -2.644222e-01 -4.395277e-01 1.623252e-01 -1.048075e-01 4.115249e-02 -1.482493e-01 -6.722348e-02 -1.094243e-02 -5.122446e-02 -1.358395e-02 1.128061e-01 5.033230e-02 1.337658e-01 1.783840e-01 7.782880e-02 6.446908e-02
<VARIANCE> 39
 4.775874e+01 1.539952e+01 2.606431e+01 1.327432e+01 2.919050e+01 1.843762e+01 6.742298e+01 3.253662e+01 4.352653e+01 2.065853e+01 1.839112e+01 1.532256e+01 6.844945e+00 3.826493e+00 1.782501e+00 2.099914e+00 1.217983e+00 2.772398e+00 2.018941e+00 6.046350e+00 2.757990e+00 4.041097e+00 2.406360e+00 2.477618e+00 1.577355e+00 6.358450e-01 5.666222e-01 3.661184e-01 3.397230e-01 2.321465e-01 4.833250e-01 4.039536e-01 1.115269e+00 4.589440e-01 7.857157e-01 4.897698e-01 5.130495e-01 3.305249e-01 1.142707e-01
<GCONST> 1.117373e+02
<STATE> 3
<MEAN> 39
 -1.009750e+01 8.327312e+00 6.333511e+00 2.195728e+00 -5.325264e+00 -2.788624e+00 -8.309777e+00 -9.819738e+00 -7.997390e+00 -3.921239e+00 -1.550634e+00 -1.621140e+00 6.317149e+01 9.087054e-01 3.630804e-01 4.980055e-01 -1.701964e-01 -5.011799e-01 -3.053708e-01 -1.122067e+00 -5.887362e-01 -7.532890e-01 -5.322414e-02 5.664506e-02 -1.650610e-01 1.414329e-01 -2.996099e-01 -1.255805e-01 -2.199859e-01 6.564557e-02 1.656320e-01 5.600954e-02 3.174316e-01 1.870458e-01 2.256208e-01 1.227630e-01 4.657675e-02 7.484333e-02 -3.013784e-02
<VARIANCE> 39
 2.189277e+01 1.036432e+01 1.795798e+01 1.436940e+01 2.597784e+01 1.398192e+01 4.139022e+01 2.360924e+01 2.490776e+01 1.852932e+01 1.556970e+01 1.139436e+01 5.241047e+00 2.585020e+00 1.161529e+00 1.866973e+00 1.266731e+00 2.609872e+00 1.515969e+00 4.799141e+00 2.095805e+00 2.913055e+00 1.848854e+00 1.944070e+00 1.227426e+00 4.048560e-01 3.452556e-01 2.241174e-01 2.752044e-01 2.254094e-01 4.372424e-01 3.126586e-01 7.283778e-01 3.520696e-01 5.068529e-01 3.798693e-01 4.395055e-01 2.459741e-01 7.602718e-02
<GCONST> 1.005586e+02
<STATE> 4
<MEAN> 39
 -8.998681e+00 8.125069e+00 7.071784e+00 2.822219e+00 -6.335147e+00 -4.223163e+00 -9.706206e+00 -1.036495e+01 -9.460410e+00 -4.537830e+00 -2.024701e+00 -1.648773e+00 6.330840e+01 3.501382e-02 -2.108564e-01 -2.179915e-01 1.427463e-01 3.043895e-02 -2.690438e-01 8.741112e-02 2.775774e-01 4.968155e-02 -1.718638e-02 -5.390885e-02 1.058293e-01 -8.141614e-03 -7.471004e-02 -6.613871e-02 -1.049551e-01 2.849651e-02 9.781592e-02 2.078452e-02 1.201000e-01 1.307740e-01 9.932530e-02 3.769036e-03 -2.263969e-02 1.019490e-02 -2.319053e-02
<VARIANCE> 39
 7.592214e+00 1.063629e+01 1.955707e+01 1.454948e+01 4.141121e+01 1.652240e+01 2.047047e+01 2.241478e+01 1.462405e+01 1.787464e+01 1.626524e+01 1.092651e+01 7.186964e+00 5.535352e-01 8.206688e-01 1.417816e+00 9.274129e-01 1.911138e+00 1.469991e+00 1.986730e+00 1.936222e+00 1.478414e+00 1.325368e+00 1.435198e+00 1.033900e+00 2.983317e-01 9.140550e-02 1.273240e-01 2.062735e-01 1.595459e-01 3.353748e-01 2.444497e-01 3.429161e-01 2.727860e-01 2.531732e-01 2.410552e-01 2.978446e-01 2.206681e-01 4.077462e-02
<GCONST> 8.736124e+01
<TRANSP> 5
 0.000000e+00 1.000000e+00 0.000000e+00 0.000000e+00 0.000000e+00
 0.000000e+00 6.127401e-01 3.872599e-01 0.000000e+00 0.000000e+00
 0.000000e+00 0.000000e+00 7.016697e-01 2.983303e-01 0.000000e+00
 0.000000e+00 0.000000e+00 0.000000e+00 9.112819e-01 8.871806e-02
 0.000000e+00 0.000000e+00 0.000000e+00 0.000000e+00 0.000000e+00
<ENDHMM>
~h "ll"
<BEGINHMM>
<NUMSTATES> 5
<STATE> 2
<MEAN> 39
 -1.796374e+01 6.278563e-02 -1.914863e+00 4.364818e+00 2.415460e+00 3.752006e+00 3.321632e+00 3.234564e+00 1.126750e+00 1.526358e+00 1.607471e+00 2.781422e+00 5.727745e+01 -6.070400e-03 -8.319388e-03 -1.162970e-02 -9.758396e-03 -1.675353e-02 -2.293566e-02 -2.521673e-02 -2.485370e-02 -1.719467e-02 -1.932618e-02 -2.226460e-02 -1.949981e-02 -5.952304e-03 8.039449e-04 6.622770e-04 2.658139e-03 5.305927e-04 -7.757092e-04 -8.679702e-04 -4.416423e-03 -5.550925e-03 -2.684428e-03 -1.607492e-03 -3.578748e-03 -2.977164e-03 2.471607e-04
<VARIANCE> 39
 1.089555e+00 1.923236e+00 3.656336e+00 4.744042e+00 7.525141e+00 8.671660e+00 1.031091e+01 1.073691e+01 1.234760e+01 1.141404e+01 1.067665e+01 9.519551e+00 5.816081e-01 8.868387e-02 1.841363e-01 3.077948e-01 4.766232e-01 7.235413e-01 8.449073e-01 9.669650e-01 1.073993e+00 1.161773e+00 1.133488e+00 1.021093e+00 8.760294e-01 3.367431e-02 1.656155e-02 3.780666e-02 6.287396e-02 9.783810e-02 1.510802e-01 1.763640e-01 2.050002e-01 2.178788e-01 2.401624e-01 2.337492e-01 2.124026e-01 1.806519e-01 5.550297e-03
<GCONST> 5.293256e+01
<STATE> 3
<MEAN> 39
 -1.862661e+01 2.917717e-03 -1.681854e+00 3.796914e+00 2.400479e+00 3.236231e+00 2.961195e+00 2.596074e+00 1.550205e+00 1.204164e+00 1.632316e+00 1.963397e+00 5.675222e+01 4.544347e-03 -1.108744e-03 9.349977e-03 -7.479541e-03 -2.938522e-03 1.106238e-02 -1.118459e-02 -4.235075e-02 -3.391033e-02 -2.996841e-02 -5.229981e-02 -2.005804e-02 7.670531e-03 8.464620e-03 8.373013e-03 1.470297e-02 5.026445e-03 -2.978154e-04 -1.916345e-03 -3.165574e-03 -5.613170e-03 -1.542624e-02 -1.647469e-02 -1.750642e-02 -7.301176e-03 7.122208e-03
<VARIANCE> 39
 1.718641e+00 2.439200e+00 3.853619e+00 6.212408e+00 8.721387e+00 1.019431e+01 1.137550e+01 1.160742e+01 1.506179e+01 1.100814e+01 1.180695e+01 8.971461e+00 9.970508e-01 1.231560e-01 2.410150e-01 3.828740e-01 6.316070e-01 9.264389e-01 1.078300e+00 1.182724e+00 1.212297e+00 1.291423e+00 1.103286e+00 1.221167e+00 9.212189e-01 4.080479e-02 2.544893e-02 5.002732e-02 8.048180e-02 1.364632e-01 2.003385e-01 2.282189e-01 2.430685e-01 2.562909e-01 2.763166e-01 2.325410e-01 2.573218e-01 1.935063e-01 7.820123e-03
<GCONST> 6.048810e+01
<STATE> 4
<MEAN> 39
 -1.832438e+01 -1.936021e-01 -1.444617e+00 3.957372e+00 2.151395e+00 2.958758e+00 2.765741e+00 2.847781e+00 1.196163e+00 1.197877e+00 1.336724e+00 2.077201e+00 5.738468e+01 7.167313e-02 7.404620e-02 1.026622e-01 3.901622e-02 -3.044295e-02 -6.218585e-02 -7.270341e-02 -1.271958e-01 -1.642622e-01 -9.694336e-02 -1.755417e-01 -1.000419e-01 5.498289e-02 6.720375e-02 8.958003e-02 6.784526e-02 2.987847e-02 -1.074137e-02 -7.570461e-02 -6.023955e-02 -1.170434e-01 -1.050321e-01 -6.221408e-02 -7.626340e-02 -7.368055e-02 4.101361e-02
<VARIANCE> 39
 2.347241e+00 3.381499e+00 5.537559e+00 6.652900e+00 1.030408e+01 1.114044e+01 1.245892e+01 1.368604e+01 1.341930e+01 1.071477e+01 1.175910e+01 1.015298e+01 1.481164e+00 2.152160e-01 3.302314e-01 6.363772e-01 7.684681e-01 1.119793e+00 1.260357e+00 1.287763e+00 1.557498e+00 1.361393e+00 1.202664e+00 1.349322e+00 1.245178e+00 1.143681e-01 5.240789e-02 8.888923e-02 1.475150e-01 1.671751e-01 2.369564e-01 2.872703e-01 2.978175e-01 3.602622e-01 3.111602e-01 2.682647e-01 2.961495e-01 2.946952e-01 2.706803e-02
<GCONST> 7.138322e+01
<TRANSP> 5
 0.000000e+00 1.000000e+00 0.000000e+00 0.000000e+00 0.000000e+00
 0.000000e+00 9.810672e-01 1.893275e-02 0.000000e+00 0.000000e+00
 0.000000e+00 0.000000e+00 9.027652e-01 9.723481e-02 0.000000e+00
 0.000000e+00 0.000000e+00 0.000000e+00 8.501436e-01 1.498564e-01
 0.000000e+00 0.000000e+00 0.000000e+00 0.000000e+00 0.000000e+00
<ENDHMM>
~h "ng"
<BEGINHMM>
<NUMSTATES> 5
<STATE> 2
<MEAN> 39
 -1.001980e+01 7.773796e+00 3.508982e+00 5.604910e+00 -1.659007e+00 -4.495622e+00 -7.812591e+00 -9.628181e+00 -9.759112e+00 -4.188250e+00 -3.061318e+00 -4.692069e-01 6.160738e+01 -4.368379e-01 -3.494480e-01 -1.751905e-01 3.157840e-01 4.789581e-01 2.126714e-01 3.436462e-01 4.448810e-01 5.765955e-02 -3.497656e-01 -2.132512e-01 8.561766e-02 -2.540714e-01 -6.264313e-02 -8.557739e-02 -4.438673e-02 -9.259132e-02 -1.104747e-02 1.252383e-01 9.058132e-02 9.863263e-02 9.747443e-02 7.916766e-02 2.384773e-02 -4.394105e-03 -1.658257e-02
<VARIANCE> 39
 1.492957e+01 1.265505e+01 9.997577e+00 1.432340e+01 1.590119e+01 1.837623e+01 2.827962e+01 2.842466e+01 2.573273e+01 2.103193e+01 1.863727e+01 1.010264e+01 3.985174e+00 4.742862e-01 9.496600e-01 7.136897e-01 1.486301e+00 8.524488e-01 1.526072e+00 1.385686e+00 1.370915e+00 1.340145e+00 1.797369e+00 1.504806e+00 9.790425e-01 1.935483e-01 6.225718e-02 1.773664e-01 1.356223e-01 2.623111e-01 1.535933e-01 2.581873e-01 2.549733e-01 2.582315e-01 2.464684e-01 3.605453e-01 2.935869e-01 2.063275e-01 3.192918e-02
<GCONST> 8.449563e+01
<STATE> 3
<MEAN> 39
 -1.090514e+01 7.077701e+00 3.217209e+00 6.044279e+00 -7.884197e-01 -3.945802e+00 -7.102952e+00 -8.713682e+00 -9.683644e+00 -5.132386e+00 -3.739613e+00 -4.279200e-01 6.108696e+01 -6.145124e-01 -5.267968e-01 -3.011129e-01 6.468520e-02 4.786479e-01 5.406291e-01 6.309503e-01 7.038713e-01 3.394482e-01 -1.425331e-01 -1.860868e-01 5.300030e-02 -3.311562e-01 -3.500886e-02 -9.504804e-02 -1.330125e-01 -1.750827e-01 -4.399769e-02 1.357066e-01 1.332358e-01 1.412896e-01 1.544899e-01 1.949825e-01 1.173264e-01 3.665306e-02 -6.159452e-03
<VARIANCE> 39
 1.511937e+01 1.326357e+01 1.213069e+01 2.026199e+01 1.580739e+01 2.080931e+01 3.090678e+01 2.770234e+01 2.774356e+01 2.171509e+01 2.005407e+01 1.071916e+01 4.370724e+00 6.610963e-01 1.166734e+00 8.128845e-01 1.750682e+00 9.566096e-01 1.765494e+00 1.662138e+00 1.687149e+00 1.655101e+00 2.301965e+00 1.784196e+00 1.153314e+00 2.445980e-01 9.751318e-02 2.112305e-01 1.524697e-01 3.275650e-01 1.771586e-01 3.204433e-01 3.054534e-01 2.980561e-01 3.130223e-01 4.368351e-01 3.352634e-01 2.344572e-01 4.530320e-02
<GCONST> 9.080496e+01
<STATE> 4
<MEAN> 39
 -1.243550e+01 5.699065e+00 2.093849e+00 5.461724e+00 1.462120e-01 -2.090901e+00 -4.970217e+00 -6.388801e+00 -8.426724e+00 -5.243109e+00 -4.048599e+00 -2.055943e-01 6.026779e+01 -7.150626e-01 -7.396535e-01 -6.302605e-01 -3.205128e-01 3.480062e-01 8.130465e-01 9.621393e-01 1.056833e+00 7.823522e-01 4.359609e-01 2.226791e-01 1.889053e-01 -3.557648e-01 1.375175e-01 -3.506202e-02 -2.171820e-01 -2.839251e-01 -1.230578e-01 4.578599e-02 5.383071e-03 2.894973e-02 7.016586e-02 2.204770e-01 2.332921e-01 7.267629e-02 1.026578e-01
<VARIANCE> 39
 1.521557e+01 1.191868e+01 1.323757e+01 2.512523e+01 1.554292e+01 2.063738e+01 3.203275e+01 2.917895e+01 2.728843e+01 2.020475e+01 1.881201e+01 1.199215e+01 4.543883e+00 8.298500e-01 1.018961e+00 1.036180e+00 1.929126e+00 1.062829e+00 1.792201e+00 1.904405e+00 1.878928e+00 1.827342e+00 2.364365e+00 1.926853e+00 1.302187e+00 3.013577e-01 1.702448e-01 1.863013e-01 1.995488e-01 3.652732e-01 1.900443e-01 3.438762e-01 3.728525e-01 3.604613e-01 3.629775e-01 4.284546e-01 3.438852e-01 2.732374e-01 7.693443e-02
<GCONST> 9.457310e+01
<TRANSP> 5
 0.000000e+00 1.000000e+00 0.000000e+00 0.000000e+00 0.000000e+00
 0.000000e+00 5.187083e-01 4.812917e-01 0.000000e+00 0.000000e+00
 0.000000e+00 0.000000e+00 5.357096e-01 4.642904e-01 0.000000e+00
 0.000000e+00 0.000000e+00 0.000000e+00 6.525868e-01 3.474132e-01
 0.000000e+00 0.000000e+00 0.000000e+00 0.000000e+00 0.000000e+00
<ENDHMM>
~h "oh"
<BEGINHMM>
<NUMSTATES> 5
<STATE> 2
<MEAN> 39
 -7.576091e+00 5.011734e+00 -3.028155e+00 -4.260890e+00 -6.160236e+00 -1.126666e+00 -4.561112e+00 -5.531199e+00 -4.448800e+00 -1.920465e+00 -9.422683e-01 1.068588e+00 6.401821e+01 4.159951e-01 2.989891e-01 -2.283421e-01 -6.445228e-01 -3.451054e-01 1.510389e-01 -5.597084e-02 -2.880813e-01 -1.758344e-01 -3.947413e-02 9.854182e-02 8.764191e-02 1.768321e-01 -1.507072e-01 -4.406083e-02 3.746449e-02 8.106398e-02 7.515810e-02 6.103664e-02 1.405270e-01 1.604759e-01 3.616453e-02 -3.906704e-02 -7.730016e-03 2.947650e-02 -6.116292e-02
<VARIANCE> 39
 3.655008e+01 1.499282e+01 1.993752e+01 6.126583e+01 4.251207e+01 2.956464e+01 4.209214e+01 4.148288e+01 3.026705e+01 3.053795e+01 2.570386e+01 2.062678e+01 1.431236e+01 2.648598e+00 1.519389e+00 2.016577e+00 5.864108e+00 4.029767e+00 3.081970e+00 3.305508e+00 3.462508e+00 2.720025e+00 3.153184e+00 2.859124e+00 2.323173e+00 1.038740e+00 3.383828e-01 2.525949e-01 3.204100e-01 9.061904e-01 5.988063e-01 5.205270e-01 6.165941e-01 5.841255e-01 5.204882e-01 5.942513e-01 5.547753e-01 4.564266e-01 1.566941e-01
<GCONST> 1.180726e+02
<STATE> 3
<MEAN> 39
 -7.331617e+00 5.735553e+00 -3.537299e+00 -5.292984e+00 -6.238588e+00 -1.703277e-01 -3.689077e+00 -5.413939e+00 -5.122875e+00 -2.691481e+00 -1.072880e+00 1.442705e+00 6.390134e+01 -3.663742e-01 4.088033e-02 8.053571e-02 1.648307e-01 2.591561e-01 2.343238e-01 3.021277e-01 3.509535e-01 6.760931e-02 -1.332661e-01 -9.322231e-02 -2.150868e-02 -1.793019e-01 -1.995337e-01 -8.409052e-02 8.048220e-02 1.994553e-01 1.273135e-01 1.141110e-02 4.567774e-02 1.339749e-01 9.000532e-02 5.335825e-03 -3.895675e-02 -1.833978e-02 -6.560166e-02
<VARIANCE> 39
 3.813650e+01 1.246218e+01 1.832750e+01 5.935642e+01 4.044429e+01 2.276164e+01 3.486102e+01 3.873364e+01 2.520672e+01 2.850189e+01 2.618834e+01 2.104634e+01 1.298244e+01 2.324889e+00 1.068053e+00 1.569144e+00 4.924672e+00 2.933953e+00 2.346247e+00 2.727578e+00 3.173368e+00 2.573434e+00 2.790055e+00 2.597154e+00 2.355595e+00 7.106741e-01 2.208926e-01 1.704670e-01 2.588789e-01 6.629038e-01 4.553065e-01 4.170965e-01 4.498092e-01 5.181460e-01 4.338121e-01 5.148270e-01 5.029501e-01 4.723105e-01 9.237459e-02
<GCONST> 1.113237e+02
<STATE> 4
<MEAN> 39
 -1.063984e+01 4.878813e+00 -2.514948e+00 -2.320209e+00 -3.517017e+00 8.118035e-01 -1.813545e+00 -2.907045e+00 -4.076142e+00 -2.819946e+00 -1.628761e+00 1.186422e+00 6.201857e+01 -7.494944e-01 -2.247773e-01 2.271545e-01 5.932654e-01 5.273407e-01 1.995164e-01 1.527540e-01 4.360788e-01 3.399760e-01 1.258750e-01 4.496400e-03 -4.416700e-02 -2.696759e-01 -2.339244e-02 -2.980244e-02 -7.907969e-03 -2.157196e-03 -1.489319e-02 -2.335071e-02 -3.160207e-02 -1.689096e-02 3.096687e-02 5.475826e-02 3.589080e-02 3.337659e-02 1.007029e-02
<VARIANCE> 39
 4.580750e+01 1.296944e+01 1.544097e+01 5.463596e+01 4.065205e+01 2.105897e+01 3.296032e+01 3.753745e+01 2.693437e+01 2.609417e+01 2.437087e+01 2.017609e+01 1.425455e+01 1.683187e+00 8.103508e-01 1.088827e+00 2.997614e+00 2.042076e+00 1.846682e+00 2.176304e+00 2.545915e+00 2.093101e+00 2.315000e+00 2.317791e+00 2.126260e+00 4.548145e-01 1.845480e-01 1.207256e-01 1.982413e-01 4.895484e-01 3.450620e-01 3.320065e-01 3.565718e-01 4.317150e-01 3.704938e-01 3.861237e-01 4.179021e-01 4.281528e-01 5.883351e-02
<GCONST> 1.043302e+02
<TRANSP> 5
 0.000000e+00 1.000000e+00 0.000000e+00 0.000000e+00 0.000000e+00
 0.000000e+00 6.473402e-01 3.526599e-01 0.000000e+00 0.000000e+00
 0.000000e+00 0.000000e+00 5.765821e-01 4.234179e-01 0.000000e+00
 0.000000e+00 0.000000e+00 0.000000e+00 6.902860e-01 3.097140e-01
 0.000000e+00 0.000000e+00 0.000000e+00 0.000000e+00 0.000000e+00
<ENDHMM>
~h "th"
<BEGINHMM>
<NUMSTATES> 5
<STATE> 2
<MEAN> 39
 -2.004823e+01 3.412212e+00 -2.970662e+00 3.051651e+00 1.532115e+00 5.460377e-01 2.144766e+00 1.358266e+00 4.828083e-01 -1.178105e-01 6.126214e-01 2.201323e+00 6.062508e+01 -2.666019e-01 -9.184924e-02 9.394345e-02 -2.872881e-02 1.434325e-01 -2.030103e-01 1.574822e-01 8.939011e-02 1.763344e-01 1.404223e-01 4.139913e-02 1.088560e-01 5.316829e-02 1.766046e-01 2.907030e-02 7.312236e-02 -3.315958e-02 -7.461341e-02 -3.667116e-02 -6.676787e-02 -6.762131e-02 -1.258058e-01 -5.772420e-02 -6.992356e-02 -4.130027e-02 -1.251432e-03
<VARIANCE> 39
 3.330140e+01 9.285267e+00 1.411188e+01 1.393946e+01 2.181685e+01 1.940608e+01 2.735080e+01 2.195780e+01 2.742830e+01 1.657413e+01 1.720656e+01 1.131554e+01 8.193768e+00 1.585746e+00 7.478962e-01 1.080538e+00 1.061458e+00 1.288604e+00 1.465672e+00 1.607653e+00 1.754010e+00 1.834486e+00 1.498705e+00 1.629326e+00 1.279629e+00 2.955173e-01 2.067051e-01 1.171865e-01 1.721915e-01 2.004315e-01 2.513992e-01 2.595260e-01 3.524674e-01 3.238308e-01 3.620889e-01 2.890430e-01 3.249166e-01 2.631381e-01 4.730802e-02
<GCONST> 9.138646e+01
<STATE> 3
<MEAN> 39
 -2.091032e+01 3.717124e+00 -2.960601e+00 2.832987e+00 1.851975e+00 -4.123831e-01 2.711457e+00 1.543777e+00 9.020656e-01 6.583034e-02 5.670620e-01 2.441351e+00 6.115866e+01 2.934121e-01 3.175540e-02 3.227314e-01 -7.636493e-02 -1.826884e-01 -3.850501e-01 -1.461047e-01 -1.260470e-01 -2.274719e-01 -4.140406e-02 -1.323683e-01 -2.197908e-02 1.084992e-01 2.086317e-01 5.178511e-02 8.105532e-02 -3.279985e-02 -1.537511e-01 -6.849433e-02 -1.682188e-01 -8.976056e-02 -1.578347e-01 -4.408856e-02 -2.430410e-02 -5.450160e-02 3.515259e-02
<VARIANCE> 39
 3.451202e+01 9.771950e+00 1.374253e+01 1.384277e+01 2.504068e+01 2.370558e+01 2.750513e+01 2.355917e+01 2.568478e+01 1.722443e+01 1.517701e+01 1.188933e+01 8.887358e+00 3.253263e+00 7.659937e-01 1.503051e+00 1.071079e+00 2.029855e+00 2.005989e+00 2.625500e+00 1.815695e+00 2.694766e+00 1.624107e+00 1.713065e+00 1.336476e+00 3.989403e-01 2.919505e-01 1.533708e-01 1.770376e-01 2.014287e-01 3.247963e-01 3.144009e-01 4.557231e-01 3.377924e-01 4.373803e-01 3.371696e-01 3.401936e-01 2.651858e-01 7.579955e-02
<GCONST> 9.732742e+01
<STATE> 4
<MEAN> 39
 -2.089555e+01 4.473864e+00 -2.652690e+00 2.298856e+00 1.675262e+00 -2.169259e+00 2.711377e+00 1.377143e+00 5.436524e-01 2.574489e-01 2.124805e-01 2.715277e+00 6.208362e+01 8.011740e-01 5.253974e-02 4.677559e-01 -1.315411e-01 -7.608719e-01 -5.306967e-01 -5.219514e-01 -3.922555e-01 -4.858315e-01 -1.413963e-01 -5.220262e-02 -1.454669e-01 2.611978e-01 1.207368e-01 1.855119e-02 7.066946e-02 -3.072101e-02 -1.349215e-01 -2.648007e-03 -1.356075e-01 -7.665048e-02 -8.717519e-02 -2.078655e-02 2.992513e-02 -2.805167e-02 3.255285e-02
<VARIANCE> 39
 5.183666e+01 9.435094e+00 1.566172e+01 1.184067e+01 4.319364e+01 3.540005e+01 3.275322e+01 2.301558e+01 2.661669e+01 1.742781e+01 1.358870e+01 1.247340e+01 1.009176e+01 4.212078e+00 9.196896e-01 1.613417e+00 1.232663e+00 3.410449e+00 2.380133e+00 3.403541e+00 1.860695e+00 3.004584e+00 1.780697e+00 1.686873e+00 1.425653e+00 5.485773e-01 5.019898e-01 1.875144e-01 2.032850e-01 2.237880e-01 4.307546e-01 3.974499e-01 5.708848e-01 3.240227e-01 5.210667e-01 3.619209e-01 3.300879e-01 2.827261e-01 9.000400e-02
<GCONST> 1.032165e+02
<TRANSP> 5
 0.000000e+00 1.000000e+00 0.000000e+00 0.000000e+00 0.000000e+00
 0.000000e+00 6.698535e-01 3.301465e-01 0.000000e+00 0.000000e+00
 0.000000e+00 0.000000e+00 6.770203e-01 3.229797e-01 0.000000e+00
 0.000000e+00 0.000000e+00 0.000000e+00 8.559027e-01 1.440973e-01
 0.000000e+00 0.000000e+00 0.000000e+00 0.000000e+00 0.000000e+00
<ENDHMM>
~h "uh"
<BEGINHMM>
<NUMSTATES> 5
<STATE> 2
<MEAN> 39
 -7.850062e+00 7.299801e+00 3.473012e-01 8.571929e-01 -4.590152e+00 -4.191577e+00 -5.504716e+00 -4.589968e+00 -4.412229e+00 -2.965167e+00 -4.736137e+00 -3.212665e+00 6.277570e+01 6.391568e-01 4.217091e-01 5.618286e-02 -1.610252e-01 -2.687089e-01 -2.964781e-01 -5.376732e-01 -4.148557e-01 -2.271486e-01 -7.685809e-02 -1.288035e-01 -1.694511e-01 3.163545e-01 -1.397227e-01 -1.286602e-01 -4.007909e-02 -5.595800e-03 6.214790e-02 1.725156e-01 1.623418e-01 1.001114e-01 4.001109e-02 8.311821e-02 1.723680e-01 1.632425e-01 -5.695899e-02
<VARIANCE> 39
 3.295144e+01 2.134973e+01 1.309818e+01 3.411715e+01 3.818831e+01 3.061494e+01 3.876709e+01 4.286564e+01 2.524630e+01 2.485722e+01 2.234102e+01 2.202813e+01 1.076270e+01 1.882922e+00 1.486884e+00 9.586003e-01 1.843910e+00 2.786142e+00 2.911584e+00 2.849371e+00 2.320310e+00 1.963403e+00 2.687220e+00 2.523809e+00 1.831570e+00 5.504891e-01 1.953277e-01 2.034396e-01 1.727131e-01 3.099470e-01 4.294906e-01 4.611281e-01 4.535668e-01 4.362706e-01 4.032229e-01 5.654599e-01 4.835667e-01 3.563914e-01 6.934030e-02
<GCONST> 1.067126e+02
<STATE> 3
<MEAN> 39
 -7.160484e+00 7.537542e+00 3.212307e-01 7.482510e-01 -4.458074e+00 -3.692907e+00 -5.996333e+00 -5.700742e+00 -5.295238e+00 -2.736536e+00 -3.882352e+00 -2.467430e+00 6.320560e+01 7.042348e-02 2.416285e-02 1.387867e-01 3.578656e-02 -1.543339e-02 1.198612e-01 -9.814159e-02 -2.621419e-01 -2.812542e-01 -1.059642e-01 1.313757e-01 1.473270e-01 6.620438e-02 -9.520261e-02 -5.133115e-02 7.096364e-02 5.291807e-02 -1.142461e-02 6.788977e-03 5.821922e-02 4.322776e-02 -3.347225e-02 -6.787501e-02 6.700473e-03 2.818301e-02 -3.624514e-02
<VARIANCE> 39
 3.280625e+01 2.023798e+01 1.374239e+01 2.712970e+01 3.290945e+01 2.566340e+01 3.927510e+01 4.677067e+01 2.898702e+01 2.494028e+01 2.018563e+01 2.128212e+01 1.083768e+01 6.788906e-01 6.885359e-01 1.058998e+00 1.482171e+00 1.943308e+00 1.957542e+00 1.658686e+00 1.883962e+00 1.942076e+00 2.503059e+00 1.752717e+00 1.325038e+00 2.320238e-01 1.088508e-01 1.411958e-01 1.807796e-01 2.534511e-01 3.121845e-01 3.940235e-01 3.658800e-01 3.799327e-01 3.728092e-01 4.902556e-01 3.570842e-01 2.659224e-01 3.881923e-02
<GCONST> 9.787931e+01
<STATE> 4
<MEAN> 39
 -1.010685e+01 6.322471e+00 1.576605e+00 2.848458e+00 -1.982063e+00 -2.174309e+00 -4.846120e+00 -5.849938e+00 -6.011901e+00 -3.126749e+00 -3.022980e+00 -8.179362e-01 6.162444e+01 -1.412340e-01 -5.864639e-02 2.156893e-01 1.739234e-01 -1.275090e-02 -3.470563e-03 -3.560570e-02 -6.264758e-02 -1.096129e-01 -1.241256e-01 1.960926e-02 5.917020e-02 -3.568292e-02 7.254550e-03 -5.002818e-03 -1.584831e-03 -3.526058e-02 -4.701998e-02 4.596096e-03 2.865564e-02 1.964248e-02 -2.860401e-03 -3.781063e-02 -1.467679e-02 -1.359488e-02 1.889160e-02
<VARIANCE> 39
 3.573347e+01 2.128938e+01 2.144823e+01 1.706218e+01 3.010867e+01 2.288959e+01 4.677281e+01 5.373262e+01 3.420410e+01 2.968447e+01 1.914466e+01 1.791216e+01 1.192971e+01 4.287223e-01 4.672828e-01 1.285799e+00 1.228667e+00 1.456863e+00 1.518552e+00 1.430264e+00 1.470587e+00 1.582659e+00 1.928804e+00 1.288192e+00 1.049293e+00 1.561587e-01 7.123630e-02 9.470125e-02 1.988124e-01 2.184144e-01 2.190462e-01 3.072099e-01 2.779064e-01 2.649059e-01 3.006500e-01 3.511850e-01 2.539412e-01 2.075474e-01 2.522959e-02
<GCONST> 9.145182e+01
<TRANSP> 5
 0.000000e+00 1.000000e+00 0.000000e+00 0.000000e+00 0.000000e+00
 0.000000e+00 6.724638e-01 3.275363e-01 0.000000e+00 0.000000e+00
 0.000000e+00 0.000000e+00 6.699754e-01 3.300245e-01 0.000000e+00
 0.000000e+00 0.000000e+00 0.000000e+00 8.943658e-01 1.056342e-01
 0.000000e+00 0.000000e+00 0.000000e+00 0.000000e+00 0.000000e+00
<ENDHMM>
~h "sil"
<BEGINHMM>
<NUMSTATES> 5
<STATE> 2
<MEAN> 39
 -1.479000e+01 2.720142e+00 -1.010226e+00 2.345727e+00 -1.178586e+00 7.112104e-01 2.251349e-02 -7.327164e-01 -9.915574e-01 -6.619012e-01 2.382404e-01 1.378860e+00 6.062286e+01 2.244502e-02 -4.186372e-02 1.009194e-02 -8.620504e-03 9.629628e-03 1.230147e-02 2.644441e-04 1.754400e-02 2.939259e-03 2.460596e-02 1.608311e-02 2.535572e-02 -3.363305e-02 2.514610e-03 1.840576e-03 -2.956412e-04 -1.955339e-03 -3.362380e-03 -2.846549e-03 -8.143968e-04 -2.710741e-03 -1.126320e-02 -2.952407e-03 -6.699658e-03 -6.557400e-03 3.551847e-03
<VARIANCE> 39
 4.322844e+01 1.380921e+01 2.100739e+01 3.086867e+01 4.717093e+01 3.683722e+01 4.327496e+01 3.497759e+01 3.351129e+01 2.192310e+01 1.991312e+01 1.685385e+01 1.513007e+01 1.078370e+00 6.925625e-01 1.036163e+00 1.655113e+00 1.969765e+00 1.597073e+00 1.917042e+00 1.799544e+00 1.796921e+00 1.662502e+00 1.550925e+00 1.366683e+00 4.182736e-01 1.300215e-01 1.187274e-01 1.651101e-01 2.621197e-01 3.155736e-01 2.847789e-01 3.367551e-01 3.313861e-01 3.247572e-01 3.118432e-01 2.890777e-01 2.679748e-01 5.742050e-02
<GCONST> 9.844562e+01
<STATE> 3
<MEAN> 39
 -1.729320e+01 1.225145e+00 -9.642699e-01 4.850293e+00 2.902944e+00 3.925206e+00 3.180387e+00 2.834791e+00 1.314878e+00 1.083246e+00 1.325135e+00 2.436354e+00 5.777383e+01 -2.271675e-02 -1.248731e-01 -1.191332e-02 -3.700884e-03 3.186152e-02 4.752959e-02 3.471486e-02 1.071312e-01 -4.931255e-02 1.492593e-01 6.698518e-02 7.793973e-02 -9.314477e-02 -1.540279e-02 4.705320e-02 -1.259660e-02 -4.027940e-03 -1.962266e-02 -4.743189e-02 -1.140773e-02 -5.190993e-02 -3.742503e-02 -6.312770e-02 -3.448228e-02 -5.593302e-02 4.348033e-02
<VARIANCE> 39
 3.114092e+00 4.335101e+00 5.847814e+00 6.176388e+00 9.033894e+00 1.182910e+01 1.382297e+01 1.597006e+01 1.698160e+01 1.535682e+01 1.605971e+01 1.258315e+01 1.168329e+00 2.099319e-01 3.233299e-01 4.681501e-01 5.976018e-01 8.337966e-01 1.045849e+00 1.249135e+00 1.371403e+00 1.356497e+00 1.302537e+00 1.300042e+00 1.088442e+00 6.280208e-02 3.975786e-02 6.723559e-02 9.581299e-02 1.186275e-01 1.669536e-01 2.177135e-01 2.518264e-01 2.806056e-01 2.766046e-01 2.682220e-01 2.580522e-01 2.257376e-01 1.193426e-02
<GCONST> 6.731083e+01
<STATE> 4
<MEAN> 39
 -1.781892e+01 3.208592e-01 -1.691767e+00 4.223700e+00 2.356678e+00 3.415746e+00 2.958396e+00 2.812526e+00 7.288225e-01 1.243367e+00 1.078649e+00 2.549544e+00 5.733369e+01 -1.048032e-02 -5.757404e-03 -8.190731e-03 -8.240346e-03 -9.506525e-03 -1.555198e-02 -5.597486e-03 -3.023567e-03 -5.315533e-03 -2.904519e-04 -7.865871e-03 -8.298608e-03 -2.818009e-03 -6.912976e-04 3.854570e-03 -1.779833e-03 -1.535001e-03 -2.568904e-03 -5.133848e-03 -2.242578e-03 -3.737441e-03 5.754431e-04 -6.061679e-03 -3.996334e-03 -2.576072e-03 5.566575e-03
<VARIANCE> 39
 1.821767e+00 2.817160e+00 4.140770e+00 5.673381e+00 7.784433e+00 9.682040e+00 1.117626e+01 1.213063e+01 1.297359e+01 1.142988e+01 1.167707e+01 1.035776e+01 8.849916e-01 1.034000e-01 2.156535e-01 3.574936e-01 5.308126e-01 7.191685e-01 9.075794e-01 1.056497e+00 1.183481e+00 1.183044e+00 1.134209e+00 1.075921e+00 9.570374e-01 3.785089e-02 1.952991e-02 4.351010e-02 7.273315e-02 1.089817e-01 1.474257e-01 1.868898e-01 2.154195e-01 2.409529e-01 2.412876e-01 2.331277e-01 2.176246e-01 1.931796e-01 6.573045e-03
<GCONST> 5.722450e+01
<TRANSP> 5
 0.000000e+00 1.000000e+00 0.000000e+00 0.000000e+00 0.000000e+00
 0.000000e+00 9.577533e-01 4.224667e-02 0.000000e+00 0.000000e+00
 0.000000e+00 0.000000e+00 6.203921e-01 3.796079e-01 0.000000e+00
 0.000000e+00 0.000000e+00 0.000000e+00 9.719215e-01 2.807852e-02
 0.000000e+00 0.000000e+00 0.000000e+00 0.000000e+00 0.000000e+00
<ENDHMM>
