~o
<STREAMINFO> 1 39
<VECSIZE> 39<NULLD><MFCC_D_A_0><DIAGC>
~h "b"
<BEGINHMM>
<NUMSTATES> 5
<STATE> 2
<MEAN> 39
 -6.016456e+00 7.409273e+00 1.804882e+00 2.018869e+00 -4.549057e+00 -4.862916e+00 -8.739646e+00 -1.067825e+01 -7.708112e+00 -3.872691e+00 -3.834509e+00 -2.751826e+00 6.448898e+01 6.849231e-01 -1.476356e-01 -3.222646e-01 -5.145592e-01 -6.459284e-01 -3.085786e-01 -5.164421e-01 -1.696116e-01 1.228500e-01 3.329858e-02 8.648580e-02 5.535802e-02 5.090496e-01 -1.540391e-01 -1.883000e-01 -9.932249e-02 2.861001e-02 5.753681e-02 5.367839e-02 1.846404e-01 2.832119e-01 2.177190e-01 2.770431e-02 -2.256039e-02 9.200052e-02 -4.441489e-02
<VARIANCE> 39
 1.010028e+01 1.044876e+01 2.670556e+01 2.400151e+01 4.391699e+01 1.892915e+01 1.646258e+01 2.348559e+01 1.594733e+01 1.504244e+01 2.093652e+01 9.222900e+00 7.644707e+00 6.932626e-01 9.181923e-01 1.576222e+00 1.252694e+00 1.361173e+00 2.072458e+00 2.451264e+00 2.856083e+00 1.950980e+00 1.618803e+00 1.676430e+00 9.838523e-01 2.342855e-01 8.954138e-02 1.088124e-01 2.887890e-01 2.118120e-01 3.574251e-01 3.444160e-01 4.197472e-01 3.502401e-01 4.172940e-01 3.630944e-01 3.667419e-01 2.210144e-01 3.132149e-02
<GCONST> 9.236765e+01
<STATE> 3
<MEAN> 39
 -4.643588e+00 3.345023e+00 3.022206e+00 7.076021e-01 -1.412991e+01 -1.014604e+01 -7.358242e+00 -4.483847e+00 -6.706139e+00 -5.674228e+00 -1.981657e+00 5.186162e-02 6.753693e+01 -8.110184e-02 -1.422626e-01 1.778050e-01 3.232972e-01 -1.889159e-01 -6.251752e-01 -8.374305e-02 2.805684e-01 -5.994253e-02 -9.803323e-02 2.829265e-01 3.753390e-01 -3.367953e-02 -4.723093e-02 9.869199e-02 -1.051609e-01 4.553138e-02 2.994245e-01 1.065160e-01 -5.412347e-02 -1.409793e-01 4.767884e-02 7.090942e-02 -7.024364e-02 -6.522071e-02 -9.260242e-02
<VARIANCE> 39
 4.113304e+00 1.083846e+01 1.944429e+01 1.064028e+01 2.485170e+01 2.218723e+01 1.455086e+01 1.668024e+01 1.587563e+01 1.340922e+01 2.224559e+01 9.597970e+00 3.094215e+00 2.009749e-01 5.312304e-01 1.260545e+00 6.176873e-01 2.380700e+00 1.080979e+00 1.413469e+00 1.297616e+00 1.411317e+00 9.020770e-01 1.197368e+00 6.999365e-01 2.048728e-01 3.531405e-02 1.030870e-01 1.347823e-01 1.078679e-01 3.876493e-01 2.586234e-01 2.233311e-01 2.764390e-01 2.675910e-01 1.954181e-01 2.465408e-01 1.494167e-01 3.710571e-02
<GCONST> 7.753129e+01
<STATE> 4
<MEAN> 39
 -7.021221e+00 4.812918e+00 3.962588e+00 3.968906e+00 -1.018986e+01 -1.146885e+01 -8.317538e+00 -5.223248e+00 -6.700700e+00 -4.531790e+00 -8.798116e-01 6.251124e-01 6.483651e+01 -3.485979e-01 2.944435e-01 -2.060580e-01 1.043121e-01 9.000303e-01 6.547456e-01 1.453685e-01 -2.333306e-01 1.191071e-01 2.533177e-01 -1.996607e-01 -2.427797e-01 -4.245722e-01 -4.762661e-02 -5.381518e-02 1.285374e-02 -6.334244e-02 -4.017961e-02 1.643225e-01 1.541965e-01 4.912201e-02 7.134699e-03 4.664836e-02 3.015495e-02 -2.378553e-02 4.684969e-03
<VARIANCE> 39
 7.614336e+00 1.309454e+01 1.486498e+01 1.004636e+01 3.894924e+01 2.505475e+01 1.652545e+01 1.503322e+01 1.444708e+01 1.524836e+01 1.550257e+01 1.127656e+01 7.261780e+00 5.511175e-01 1.386801e+00 1.233381e+00 9.681438e-01 5.197351e+00 3.052474e+00 1.658185e+00 1.830413e+00 1.585874e+00 1.263428e+00 1.364167e+00 1.158911e+00 7.936730e-01 1.032255e-01 2.892408e-01 1.582142e-01 1.532705e-01 7.448601e-01 6.500349e-01 2.940005e-01 3.785062e-01 2.967526e-01 2.454502e-01 2.371012e-01 2.365476e-01 1.441169e-01
<GCONST> 9.334112e+01
<TRANSP> 5
 0.000000e+00 1.000000e+00 0.000000e+00 0.000000e+00 0.000000e+00
 0.000000e+00 7.831703e-01 2.168296e-01 0.000000e+00 0.000000e+00
 0.000000e+00 0.000000e+00 8.607014e-01 1.392985e-01 0.000000e+00
 0.000000e+00 0.000000e+00 0.000000e+00 8.855165e-01 1.144834e-01
 0.000000e+00 0.000000e+00 0.000000e+00 0.000000e+00 0.000000e+00
<ENDHMM>
~h "f"
<BEGINHMM>
<NUMSTATES> 5
<STATE> 2
<MEAN> 39
 -8.128122e+00 7.305585e+00 6.387475e+00 1.564159e+00 -7.473740e+00 -7.531846e+00 -1.222191e+01 -8.192056e+00 -7.506124e+00 -5.183030e+00 -4.684636e+00 -3.027237e+00 6.384536e+01 5.174315e-01 -1.158348e+00 -8.128318e-02 -9.173855e-01 -2.000947e+00 -1.070727e+00 2.227268e-01 1.720137e+00 -2.885337e-02 -4.151123e-01 1.136214e+00 8.956764e-01 1.038312e+00 2.121679e-01 -5.116812e-01 -4.679799e-02 -4.248978e-01 -9.380524e-01 -3.862243e-01 8.218922e-02 7.061715e-01 3.567684e-01 1.062067e-01 5.472931e-01 4.886698e-01 4.361650e-01
<VARIANCE> 39
 5.569259e+00 8.523243e+00 1.063151e+01 8.957809e+00 1.608469e+01 1.867095e+01 2.435416e+01 2.809103e+01 1.395165e+01 1.559688e+01 1.243004e+01 1.253319e+01 4.348636e+00 8.455141e-01 1.903391e+00 7.714430e-01 1.679878e+00 2.989369e+00 1.965170e+00 1.553413e+00 3.685856e+00 1.699648e+00 1.219922e+00 2.239918e+00 2.218564e+00 7.929236e-01 7.353077e-02 1.981400e-01 1.887689e-01 2.338608e-01 2.961863e-01 3.711685e-01 2.359314e-01 5.932786e-01 2.915495e-01 2.622788e-01 2.361344e-01 2.781606e-01 7.283972e-02
<GCONST> 9.114223e+01
<STATE> 3
<MEAN> 39
 -5.511971e+00 3.974611e-01 6.626978e+00 -2.574527e+00 -2.000924e+01 -1.245908e+01 -1.087978e+01 -2.194363e-01 -5.685649e+00 -4.858539e+00 2.114536e+00 1.782266e+00 6.950822e+01 3.281475e-01 -5.020628e-01 -2.231050e-01 2.312975e-01 -7.604560e-01 -3.366167e-01 4.448785e-01 5.215978e-01 1.928622e-01 2.185653e-01 3.811335e-01 3.311763e-01 4.021363e-01 -1.293247e-01 3.878551e-01 -1.600408e-01 4.411303e-01 8.964332e-01 2.827579e-01 1.012220e-01 -3.397577e-01 5.714604e-02 1.343961e-01 -3.460544e-01 -1.892970e-01 -3.254020e-01
<VARIANCE> 39
 3.872810e+00 1.190149e+01 1.158418e+01 1.054720e+01 2.144693e+01 1.256996e+01 1.532056e+01 1.054614e+01 8.987997e+00 9.770004e+00 9.906406e+00 7.895882e+00 4.796629e+00 5.251763e-01 1.861601e+00 1.106258e+00 3.099193e+00 6.584694e+00 1.462770e+00 1.483287e+00 2.092727e+00 1.601337e+00 9.987531e-01 2.183757e+00 1.290730e+00 9.279724e-01 7.686301e-02 1.666879e-01 1.872939e-01 2.401721e-01 3.628273e-01 3.058118e-01 2.389258e-01 3.697214e-01 4.127564e-01 1.839549e-01 2.686933e-01 2.568844e-01 5.308979e-02
<GCONST> 8.716518e+01
<STATE> 4
<MEAN> 39
 -1.209469e+01 2.024227e+00 -1.292762e+00 3.588560e+00 -4.360487e+00 -2.954688e+00 -5.049373e+00 -1.758755e+00 -1.544819e+00 -8.561486e-01 -1.185675e-01 1.756593e+00 6.526970e+01 -2.882020e-01 3.547681e-01 -7.672985e-01 -3.408600e-01 1.010711e+00 1.052160e+00 5.267029e-01 -2.012832e-01 1.786006e-01 1.367374e-01 -2.229509e-01 -7.625090e-02 -4.144349e-01 1.716957e-01 2.080995e-02 8.225256e-04 -3.652505e-01 -3.381666e-01 -1.010954e-02 -4.531913e-02 -3.323127e-02 -1.361324e-01 -1.149225e-01 2.094066e-02 -1.559587e-02 7.958295e-02
<VARIANCE> 39
 3.738448e+01 1.278222e+01 2.155399e+01 2.720988e+01 5.030600e+01 4.461075e+01 2.011297e+01 1.647608e+01 1.992760e+01 1.552581e+01 1.141086e+01 1.156914e+01 8.113397e+00 4.881449e+00 1.860156e+00 1.572601e+00 4.282731e+00 6.865656e+00 2.923871e+00 1.600509e+00 1.747415e+00 2.823803e+00 2.046275e+00 1.491042e+00 1.199771e+00 8.093492e-01 5.897129e-01 3.661437e-01 3.211582e-01 5.742040e-01 9.071768e-01 5.447391e-01 3.250166e-01 3.461354e-01 4.584322e-01 3.442157e-01 3.154995e-01 2.468562e-01 1.639408e-01
<GCONST> 1.083962e+02
<TRANSP> 5
 0.000000e+00 1.000000e+00 0.000000e+00 0.000000e+00 0.000000e+00
 0.000000e+00 5.741928e-01 4.258072e-01 0.000000e+00 0.000000e+00
 0.000000e+00 0.000000e+00 8.167481e-01 1.832519e-01 0.000000e+00
 0.000000e+00 0.000000e+00 0.000000e+00 8.984550e-01 1.015450e-01
 0.000000e+00 0.000000e+00 0.000000e+00 0.000000e+00 0.000000e+00
<ENDHMM>
~h "g"
<BEGINHMM>
<NUMSTATES> 5
<STATE> 2
<MEAN> 39
 -1.322412e+01 6.332371e+00 2.919685e+00 6.636124e+00 3.767135e-01 -6.867945e-01 -3.005531e+00 -3.781258e+00 -7.609935e+00 -5.141460e+00 -3.715900e+00 -2.417701e+00 6.000783e+01 1.238781e+00 1.075235e+00 1.118318e+00 2.548851e-01 -9.802186e-01 -1.413123e+00 -1.948147e+00 -1.585932e+00 -1.698765e+00 -9.205011e-01 -4.879521e-01 -7.735069e-01 6.360345e-01 5.542629e-02 -1.768220e-01 -4.212155e-02 -1.691858e-01 -3.281252e-01 -3.612596e-01 -1.230190e-01 -1.400890e-01 6.143933e-02 3.092415e-01 3.411969e-01 3.752623e-01 1.491025e-01
<VARIANCE> 39
 1.676400e+01 1.499299e+01 1.003739e+01 8.700018e+00 2.917749e+01 3.510346e+01 3.616314e+01 4.058897e+01 1.948629e+01 1.709054e+01 2.074809e+01 1.373647e+01 4.917185e+00 2.223351e+00 2.412046e+00 1.120136e+00 7.526046e-01 2.385120e+00 3.131339e+00 4.674225e+00 5.536519e+00 2.437974e+00 2.209229e+00 2.740129e+00 2.074194e+00 4.715427e-01 3.083826e-01 2.895914e-01 2.739350e-01 1.454632e-01 4.410278e-01 4.638832e-01 8.650536e-01 7.326562e-01 4.494721e-01 4.393849e-01 3.440636e-01 4.240737e-01 8.929121e-02
<GCONST> 1.047490e+02
<STATE> 3
<MEAN> 39
 -9.333729e+00 9.297879e+00 5.466961e+00 6.540853e+00 -3.270353e+00 -6.359121e+00 -9.006023e+00 -9.328946e+00 -1.131408e+01 -5.840136e+00 -2.995682e+00 -1.271276e+00 6.190071e+01 1.493748e-01 -5.173388e-01 1.761300e-01 -2.786770e-01 -5.540068e-01 -4.860763e-01 -3.300498e-01 -2.017981e-01 -4.112773e-01 4.400696e-02 5.810056e-02 1.804353e-01 3.137688e-01 -3.622823e-01 -6.396464e-01 -3.776917e-01 -2.576360e-01 -4.795924e-02 4.574434e-01 8.425120e-01 5.784827e-01 5.582582e-01 5.080936e-01 1.207229e-01 -1.137675e-02 4.908487e-02
<VARIANCE> 39
 7.341825e+00 1.191999e+01 4.694094e+00 9.016553e+00 3.503537e+01 2.021514e+01 1.123318e+01 1.406069e+01 8.269718e+00 1.772675e+01 2.174127e+01 1.004594e+01 5.992771e+00 1.700790e+00 1.864745e+00 8.304984e-01 7.520653e-01 2.460576e+00 3.258351e+00 3.237253e+00 2.865049e+00 1.509988e+00 2.543356e+00 2.266807e+00 1.284276e+00 7.539843e-01 2.225165e-01 2.761513e-01 2.061470e-01 2.399466e-01 7.996882e-01 5.759577e-01 4.653583e-01 4.223327e-01 2.681570e-01 5.766350e-01 4.528672e-01 2.892919e-01 1.538792e-01
<GCONST> 9.683926e+01
<STATE> 4
<MEAN> 39
 -1.163023e+01 4.598910e+00 3.823748e+00 5.330389e+00 -3.551978e+00 -3.224232e+00 -4.112284e+00 -7.304255e+00 -9.613984e+00 -3.938242e+00 -4.079954e+00 -2.342434e+00 6.250804e+01 3.853090e-02 -1.643314e+00 -2.200611e-01 -1.342758e+00 -2.178179e+00 -3.063889e-01 1.798060e+00 3.498655e-01 9.918208e-01 1.995996e+00 7.782156e-01 -5.237932e-02 1.306053e+00 4.230415e-01 3.014552e-01 2.340597e-01 -2.253163e-01 -7.177200e-01 -5.855145e-01 -2.185480e-01 2.157222e-02 9.729461e-02 1.345114e-01 4.697808e-01 1.142533e-01 2.197578e-01
<VARIANCE> 39
 5.826890e+00 1.737260e+01 6.585160e+00 1.369966e+01 4.836854e+01 1.988895e+01 2.529147e+01 1.593136e+01 1.734021e+01 2.980998e+01 1.638102e+01 7.271790e+00 1.250062e+01 8.214549e-01 1.018663e+00 1.091197e+00 1.242712e+00 3.130309e+00 2.850489e+00 2.029040e+00 1.769393e+00 1.306288e+00 1.878520e+00 1.175701e+00 8.647808e-01 7.508361e-01 2.292645e-01 3.916491e-01 3.007793e-01 3.601400e-01 8.819973e-01 5.061052e-01 6.627825e-01 4.208424e-01 4.780205e-01 7.115780e-01 3.357813e-01 2.341680e-01 1.953250e-01
<GCONST> 9.946848e+01
<TRANSP> 5
 0.000000e+00 1.000000e+00 0.000000e+00 0.000000e+00 0.000000e+00
 0.000000e+00 5.313311e-01 4.686688e-01 0.000000e+00 0.000000e+00
 0.000000e+00 0.000000e+00 5.319249e-01 4.680751e-01 0.000000e+00
 0.000000e+00 0.000000e+00 0.000000e+00 5.502557e-01 4.497443e-01
 0.000000e+00 0.000000e+00 0.000000e+00 0.000000e+00 0.000000e+00
<ENDHMM>
~h "j"
<BEGINHMM>
<NUMSTATES> 5
<STATE> 2
<MEAN> 39
 -9.016361e+00 2.461420e+00 -7.570190e+00 -9.726604e+00 -4.176013e+00 7.189158e+00 2.230598e+00 -4.000592e+00 -2.047989e+00 -1.980356e+00 3.219715e+00 1.685815e+00 6.607430e+01 1.416868e+00 6.529352e-01 9.465572e-02 -5.209379e-01 -1.482671e+00 -8.399074e-01 -1.121208e+00 -7.409950e-01 -7.015672e-01 7.398498e-02 3.821328e-02 -1.707662e-01 5.125842e-01 6.397698e-02 -3.889040e-02 -4.677475e-02 9.534846e-03 -5.943449e-02 -1.525726e-01 -1.897362e-01 -1.159063e-01 5.587325e-02 1.709078e-01 4.900075e-02 -5.448633e-02 4.383391e-02
<VARIANCE> 39
 6.892471e+01 2.248297e+01 2.439432e+01 5.457161e+01 7.139144e+01 3.801345e+01 4.530234e+01 3.067537e+01 3.535453e+01 2.123694e+01 2.124454e+01 1.343288e+01 1.288289e+01 3.242013e+00 1.818721e+00 1.176031e+00 3.450095e+00 3.206999e+00 2.922825e+00 3.084560e+00 2.109253e+00 3.440963e+00 2.901818e+00 3.345188e+00 1.335571e+00 1.069754e+00 5.381274e-01 3.590153e-01 2.353247e-01 8.125569e-01 7.363387e-01 5.196384e-01 4.408387e-01 3.829580e-01 6.249830e-01 4.385364e-01 6.658609e-01 3.476575e-01 2.408826e-01
<GCONST> 1.171225e+02
<STATE> 3
<MEAN> 39
 -2.857602e+00 3.370296e+00 -7.575503e+00 -5.232594e+00 -8.019740e+00 -2.631612e+00 -9.227808e+00 -7.771287e+00 -2.247077e+00 3.577818e+00 3.545289e+00 -2.561424e-01 6.799932e+01 -7.555144e-01 -5.055066e-01 6.839204e-01 2.470289e+00 1.437159e+00 -1.136442e+00 -8.790756e-01 8.120275e-01 6.703910e-01 -7.296441e-02 -7.154020e-01 -6.290651e-01 -4.123108e-01 -1.463413e-01 4.487655e-02 2.066806e-01 1.078561e-01 8.746243e-02 5.523157e-02 2.546860e-01 3.312217e-01 -2.890388e-03 -3.452145e-01 -3.066613e-01 -2.719061e-03 -5.100118e-02
<VARIANCE> 39
 3.655639e+01 1.656164e+01 2.943789e+01 8.886291e+01 5.145586e+01 2.110969e+01 3.178210e+01 5.129677e+01 2.865932e+01 2.637968e+01 2.372277e+01 1.246957e+01 1.030705e+01 2.827800e+00 1.760768e+00 1.518499e+00 5.394430e+00 6.110579e+00 2.038515e+00 2.176857e+00 5.601965e+00 3.168485e+00 4.454177e+00 2.951924e+00 1.339509e+00 8.888885e-01 3.462222e-01 3.495237e-01 2.483311e-01 1.071327e+00 9.180991e-01 4.095339e-01 3.495851e-01 1.009642e+00 5.998262e-01 7.344239e-01 5.674670e-01 3.145189e-01 1.600603e-01
<GCONST> 1.177950e+02
<STATE> 4
<MEAN> 39
 -1.159086e+01 1.399962e+00 3.852201e-02 4.553325e+00 -1.976897e+00 -3.989133e+00 -5.557574e+00 1.873664e+00 -8.738080e-01 9.330602e-01 -2.437757e-02 -2.042023e+00 6.550684e+01 -5.978314e-01 2.302877e-01 7.622243e-01 -3.484099e-01 -7.273474e-01 1.246645e-01 9.424155e-01 4.599342e-01 -3.790174e-01 -1.684125e-02 1.928859e-01 2.235717e-01 -4.290357e-02 4.820694e-02 4.620588e-03 -1.254561e-01 -3.209041e-01 -2.540792e-01 1.042095e-01 8.922512e-02 -2.334018e-01 -3.965769e-02 1.636951e-01 2.075789e-01 1.276540e-01 4.557575e-02
<VARIANCE> 39
 2.974444e+01 1.459713e+01 1.863557e+01 2.976591e+01 3.896299e+01 2.664663e+01 4.055777e+01 4.025790e+01 2.212500e+01 2.279198e+01 2.691024e+01 1.618091e+01 6.283080e+00 3.014229e+00 1.551493e+00 1.209729e+00 3.055245e+00 4.450234e+00 3.206433e+00 2.911849e+00 5.610444e+00 2.370544e+00 3.092351e+00 3.740588e+00 1.956586e+00 7.764035e-01 3.591148e-01 3.014650e-01 2.281473e-01 6.207084e-01 7.658842e-01 5.763696e-01 4.287742e-01 9.569380e-01 5.500476e-01 5.953406e-01 7.497766e-01 4.126512e-01 1.100961e-01
<GCONST> 1.141982e+02
<TRANSP> 5
 0.000000e+00 1.000000e+00 0.000000e+00 0.000000e+00 0.000000e+00
 0.000000e+00 7.579865e-01 2.420134e-01 0.000000e+00 0.000000e+00
 0.000000e+00 0.000000e+00 7.331021e-01 2.668979e-01 0.000000e+00
 0.000000e+00 0.000000e+00 0.000000e+00 6.976631e-01 3.023369e-01
 0.000000e+00 0.000000e+00 0.000000e+00 0.000000e+00 0.000000e+00
<ENDHMM>
~h "k"
<BEGINHMM>
<NUMSTATES> 5
<STATE> 2
<MEAN> 39
 -1.483463e+01 2.145394e+00 -4.696838e-01 3.862774e+00 1.980061e-01 1.654091e-01 -6.943784e-02 -8.484923e-01 -2.465678e+00 -1.039775e+00 -1.814144e+00 7.849519e-01 5.941655e+01 -1.145454e-01 -2.304753e-01 -5.280132e-01 -6.466598e-01 -5.433659e-02 3.319096e-01 3.404201e-01 3.029280e-01 2.219199e-01 3.244395e-01 5.102256e-01 3.312216e-01 5.052673e-02 4.790415e-01 9.913857e-02 -2.926284e-01 -4.900163e-01 -2.607599e-01 -2.020312e-01 -3.461801e-01 -2.456227e-01 -2.124984e-01 -2.225116e-02 3.748184e-02 -1.195386e-01 3.551967e-01
<VARIANCE> 39
 1.567964e+01 8.040013e+00 1.129663e+01 1.326137e+01 2.055313e+01 1.703096e+01 2.621897e+01 2.362226e+01 2.369486e+01 1.913932e+01 1.678366e+01 1.524507e+01 7.208832e+00 1.739017e+00 1.135961e+00 2.232065e+00 3.180830e+00 2.348056e+00 2.128086e+00 1.852716e+00 1.891150e+00 1.805626e+00 1.916683e+00 2.047555e+00 1.581414e+00 9.243965e-01 2.266976e-01 1.763674e-01 2.615119e-01 3.684744e-01 3.479560e-01 3.833998e-01 4.442586e-01 4.862110e-01 4.838808e-01 3.762673e-01 3.640067e-01 2.447575e-01 1.141548e-01
<GCONST> 9.989098e+01
<STATE> 3
<MEAN> 39
 -1.318472e+01 2.030069e+00 -2.312755e+00 1.027271e+00 -1.660527e+00 -6.342084e-02 -4.317291e-01 -9.421871e-01 -2.232519e+00 -5.588313e-01 -1.061326e+00 6.858206e-01 6.092419e+01 1.199195e+00 9.665633e-02 -1.461402e+00 -2.118870e+00 -5.390567e-01 1.767150e-01 -5.080717e-01 -2.406404e-01 -3.850584e-01 3.843776e-01 7.669104e-01 -2.097353e-02 9.621895e-01 3.127058e-01 2.503984e-01 9.219447e-02 -8.225305e-02 -1.850398e-01 -2.116360e-01 -2.819945e-01 -3.425183e-01 -3.662803e-01 -2.347107e-01 -1.150715e-01 -9.311005e-02 1.196046e-01
<VARIANCE> 39
 2.166245e+01 1.150548e+01 2.119198e+01 3.388874e+01 2.386253e+01 1.861355e+01 2.735617e+01 2.852054e+01 2.885511e+01 1.563173e+01 1.824267e+01 1.326673e+01 1.040376e+01 2.865270e+00 1.508346e+00 5.077719e+00 6.920768e+00 3.707536e+00 3.513397e+00 3.419275e+00 2.624613e+00 3.044106e+00 2.559707e+00 3.487621e+00 1.599618e+00 1.742657e+00 3.423946e-01 2.544835e-01 4.741958e-01 8.041309e-01 5.128356e-01 4.093773e-01 4.579395e-01 5.066328e-01 4.866037e-01 3.916145e-01 3.764908e-01 2.547608e-01 1.569073e-01
<GCONST> 1.123022e+02
<STATE> 4
<MEAN> 39
 -8.487462e+00 2.598422e+00 -5.440544e+00 -3.938187e+00 -4.414329e+00 -1.298618e+00 -3.638488e+00 -2.246745e+00 -3.154937e+00 -1.227008e-01 -6.570834e-01 -1.219235e+00 6.425854e+01 6.391469e-01 5.266781e-01 7.394248e-02 -3.761997e-01 -5.482176e-01 -2.762438e-01 -3.348026e-01 -7.204852e-01 -6.709026e-01 -3.417837e-01 -3.161553e-02 1.979503e-02 2.161538e-01 -1.039843e-01 9.612028e-02 2.765294e-01 1.854731e-01 -1.255865e-01 -4.454549e-02 1.216026e-01 -9.027787e-03 1.617082e-02 -1.546779e-01 -1.631696e-01 6.732477e-02 -1.331670e-01
<VARIANCE> 39
 2.878897e+01 2.394061e+01 4.364008e+01 6.016270e+01 3.888288e+01 4.066758e+01 3.026417e+01 3.276930e+01 3.416557e+01 2.059437e+01 2.977324e+01 2.823214e+01 1.480314e+01 2.897134e+00 2.656312e+00 3.258033e+00 5.473053e+00 4.137063e+00 4.047651e+00 3.391225e+00 3.385124e+00 2.700118e+00 2.454822e+00 2.968779e+00 2.139001e+00 1.448552e+00 3.603965e-01 5.156308e-01 8.833494e-01 1.273688e+00 8.177838e-01 8.722542e-01 6.184822e-01 6.283831e-01 4.838535e-01 5.442542e-01 6.748499e-01 4.085420e-01 2.253346e-01
<GCONST> 1.236663e+02
<TRANSP> 5
 0.000000e+00 1.000000e+00 0.000000e+00 0.000000e+00 0.000000e+00
 0.000000e+00 4.770732e-01 5.229268e-01 0.000000e+00 0.000000e+00
 0.000000e+00 0.000000e+00 3.137009e-01 6.862991e-01 0.000000e+00
 0.000000e+00 0.000000e+00 0.000000e+00 7.030671e-01 2.969329e-01
 0.000000e+00 0.000000e+00 0.000000e+00 0.000000e+00 0.000000e+00
<ENDHMM>
~h "l"
<BEGINHMM>
<NUMSTATES> 5
<STATE> 2
<MEAN> 39
 -1.689264e+01 1.152427e+00 -1.210818e+00 4.371362e+00 1.091896e+00 2.445476e+00 1.520935e+00 1.717084e+00 2.588812e-01 4.751143e-01 5.932173e-02 1.916079e+00 5.838136e+01 -1.964883e-01 -1.136589e-01 -6.160073e-02 3.355946e-02 1.513678e-01 1.299614e-01 1.524435e-01 1.110698e-01 1.082477e-01 1.432393e-01 1.818077e-01 1.428047e-01 -1.076730e-01 5.371553e-02 3.048271e-02 2.978339e-02 -1.289913e-02 -5.801129e-02 -4.764736e-02 -3.738304e-02 -6.134618e-02 -6.371701e-02 -3.965672e-02 -4.197120e-02 -5.953401e-02 3.741717e-02
<VARIANCE> 39
 1.184043e+01 6.664274e+00 7.656196e+00 8.186319e+00 1.580518e+01 2.160328e+01 2.495916e+01 1.944608e+01 1.788680e+01 1.688568e+01 1.524825e+01 1.476819e+01 5.074849e+00 3.258774e-01 4.231875e-01 5.125605e-01 7.259179e-01 1.110724e+00 1.204064e+00 1.252315e+00 1.601294e+00 1.536451e+00 1.374264e+00 1.424824e+00 1.464869e+00 1.530684e-01 4.977963e-02 8.199869e-02 1.012718e-01 1.499873e-01 2.201745e-01 2.516944e-01 2.659172e-01 3.166910e-01 2.983165e-01 2.666430e-01 2.869748e-01 2.883990e-01 2.290002e-02
<GCONST> 7.872086e+01
<STATE> 3
<MEAN> 39
 -1.342740e+01 2.961649e+00 6.382684e-01 2.892917e+00 -2.819616e+00 -2.305521e+00 -3.287266e+00 -2.047318e+00 -2.109756e+00 -8.328968e-01 -5.604031e-01 1.022992e+00 6.110074e+01 1.594894e-01 4.293667e-01 5.487425e-01 4.574015e-01 3.241459e-01 8.343473e-02 -1.217164e-01 -6.709982e-01 -8.306215e-01 -6.536537e-01 -6.970635e-01 -8.848696e-01 2.236480e-03 3.004823e-01 2.751798e-01 1.983773e-01 2.138332e-02 -1.381057e-01 -2.068379e-01 -3.901956e-01 -2.685536e-01 -2.602207e-01 -2.245020e-01 -2.477398e-01 -1.672464e-01 1.253479e-01
<VARIANCE> 39
 3.355833e+01 1.678494e+01 1.754397e+01 1.378008e+01 3.503413e+01 4.113480e+01 5.861224e+01 3.543049e+01 2.575616e+01 1.682479e+01 1.618045e+01 1.409993e+01 1.318795e+01 6.870620e-01 8.397359e-01 6.720354e-01 1.212175e+00 2.798241e+00 1.632522e+00 1.647643e+00 1.706879e+00 1.858775e+00 1.683974e+00 1.732927e+00 1.675619e+00 5.460242e-01 1.507723e-01 2.172367e-01 1.972805e-01 2.939119e-01 6.395352e-01 4.018651e-01 5.685370e-01 4.947754e-01 4.390216e-01 3.237726e-01 2.996213e-01 3.276456e-01 1.014863e-01
<GCONST> 1.004383e+02
<STATE> 4
<MEAN> 39
 -1.037253e+01 6.469370e+00 4.323036e+00 3.816760e+00 -3.339539e+00 -4.139534e+00 -8.177133e+00 -6.275681e+00 -5.820034e+00 -4.166072e+00 -3.980505e+00 -1.628717e+00 6.203947e+01 1.043316e+00 6.061428e-01 6.485867e-01 -1.428710e-01 -8.053697e-01 -9.863058e-01 -1.342493e+00 -9.372767e-01 -8.143542e-01 -4.704197e-01 -2.821194e-01 -3.039655e-01 6.331382e-01 1.044313e-01 -1.843563e-01 -1.526198e-01 -1.942873e-01 -3.714783e-01 -1.698753e-01 1.433051e-02 2.025053e-01 1.761203e-01 2.053472e-01 2.941808e-01 2.494815e-01 1.497449e-01
<VARIANCE> 39
 1.740382e+01 1.174622e+01 1.959105e+01 1.330138e+01 2.689765e+01 3.005527e+01 5.107838e+01 2.933360e+01 1.990098e+01 1.538956e+01 1.595583e+01 1.319402e+01 7.612897e+00 1.693528e+00 1.880840e+00 1.431502e+00 1.131528e+00 2.705742e+00 3.352551e+00 5.080790e+00 3.946394e+00 2.333898e+00 1.849074e+00 2.220116e+00 1.856184e+00 7.505361e-01 2.298192e-01 2.323860e-01 2.215506e-01 1.983731e-01 4.563914e-01 5.798959e-01 7.795275e-01 5.400010e-01 3.995551e-01 3.007837e-01 2.930326e-01 2.783918e-01 9.997535e-02
<GCONST> 1.039301e+02
<TRANSP> 5
 0.000000e+00 1.000000e+00 0.000000e+00 0.000000e+00 0.000000e+00
 0.000000e+00 9.071065e-01 9.289347e-02 0.000000e+00 0.000000e+00
 0.000000e+00 0.000000e+00 2.967264e-01 7.032736e-01 0.000000e+00
 0.000000e+00 0.000000e+00 0.000000e+00 6.767323e-01 3.232677e-01
 0.000000e+00 0.000000e+00 0.000000e+00 0.000000e+00 0.000000e+00
<ENDHMM>
~h "m"
<BEGINHMM>
<NUMSTATES> 5
<STATE> 2
<MEAN> 39
 -1.764783e+01 4.307466e-02 -1.946214e+00 4.201075e+00 1.624071e+00 3.309712e+00 2.069766e+00 2.639521e+00 3.617267e-01 1.218561e+00 2.055797e-01 1.996520e+00 5.739763e+01 -9.154732e-02 -1.729807e-02 -4.293348e-02 -6.075560e-03 1.130138e-01 1.047004e-01 8.684316e-02 7.429331e-02 -2.962147e-03 -1.086727e-02 9.918322e-02 1.017289e-01 -6.750371e-02 3.228661e-02 1.260463e-02 1.062814e-02 -8.586067e-03 -2.277707e-02 -1.604465e-02 -1.881300e-02 -2.784543e-02 -1.408639e-02 -1.248518e-02 -1.149494e-02 -3.316228e-02 2.812669e-02
<VARIANCE> 39
 2.163055e+00 2.547205e+00 4.231649e+00 5.266830e+00 8.274584e+00 1.014694e+01 1.225369e+01 1.364395e+01 1.334731e+01 1.264342e+01 1.279055e+01 1.020819e+01 1.171815e+00 1.401279e-01 2.449141e-01 4.645258e-01 5.385524e-01 7.928820e-01 9.204972e-01 1.090891e+00 1.264920e+00 1.288363e+00 1.208848e+00 1.179131e+00 1.077566e+00 6.453558e-02 2.665173e-02 5.091920e-02 9.726162e-02 1.132661e-01 1.606507e-01 1.890511e-01 2.259233e-01 2.534781e-01 2.772135e-01 2.453218e-01 2.380082e-01 2.169293e-01 1.186090e-02
<GCONST> 6.183618e+01
<STATE> 3
<MEAN> 39
 -1.775387e+01 -6.728731e-02 -2.473226e+00 3.363480e+00 2.362572e+00 4.356802e+00 2.553282e+00 2.370117e+00 4.025541e-01 1.510597e+00 1.219659e+00 2.409654e+00 5.752681e+01 2.520935e-01 2.043178e-01 9.625151e-02 -5.613722e-02 -9.912384e-02 -1.430364e-01 -2.820640e-01 -6.667648e-01 -5.041546e-01 -6.705080e-01 -4.208645e-01 -4.100705e-01 2.131650e-01 2.182615e-01 2.213672e-01 2.050367e-01 9.088409e-02 -2.355541e-02 -1.255217e-01 -2.494195e-01 -3.212186e-01 -2.958084e-01 -3.028786e-01 -2.573058e-01 -2.215182e-01 1.392945e-01
<VARIANCE> 39
 1.470901e+00 3.293733e+00 8.059958e+00 8.117126e+00 8.134039e+00 1.338795e+01 1.403538e+01 1.123483e+01 1.455196e+01 1.415315e+01 1.167669e+01 1.262373e+01 1.238756e+00 1.587755e-01 3.278780e-01 5.685784e-01 1.087402e+00 1.013462e+00 1.204647e+00 1.142148e+00 1.250740e+00 1.619510e+00 1.488716e+00 1.215387e+00 1.510499e+00 8.145573e-02 5.798640e-02 1.002331e-01 1.354516e-01 1.603143e-01 2.044648e-01 2.200540e-01 3.007182e-01 2.975296e-01 3.348823e-01 3.452886e-01 2.364621e-01 3.164278e-01 1.986570e-02
<GCONST> 7.066042e+01
<STATE> 4
<MEAN> 39
 -1.714519e+01 5.611539e-02 -3.156778e+00 1.789144e+00 1.803370e+00 4.443804e+00 2.170063e+00 9.910761e-02 -8.403352e-01 -4.473867e-01 1.015682e-01 2.071300e+00 5.847071e+01 4.835421e-01 4.649180e-01 3.639250e-01 -7.028492e-03 1.338214e-02 7.562526e-02 -1.787621e-01 -6.561799e-01 -5.419267e-01 -8.144234e-01 -5.555960e-01 -6.733914e-01 4.021054e-01 3.576362e-01 2.789890e-01 2.266360e-01 1.283947e-01 -2.897681e-02 -2.404070e-01 -3.666302e-01 -2.816533e-01 -2.837124e-01 -1.099544e-01 -7.081031e-02 -1.504902e-01 2.088328e-01
<VARIANCE> 39
 2.977645e+00 5.412626e+00 1.910693e+01 2.690116e+01 1.528259e+01 2.031910e+01 1.701876e+01 1.691953e+01 1.582828e+01 1.633348e+01 1.712531e+01 1.718058e+01 3.645367e+00 3.797088e-01 5.682047e-01 9.487180e-01 1.637782e+00 1.477612e+00 1.181349e+00 1.596936e+00 1.677854e+00 1.946330e+00 1.665817e+00 1.591355e+00 1.954966e+00 1.602904e-01 1.685061e-01 2.145771e-01 1.820042e-01 2.193094e-01 3.507434e-01 4.256594e-01 5.008191e-01 5.240095e-01 4.945002e-01 3.399143e-01 3.021419e-01 3.312758e-01 7.872020e-02
<GCONST> 8.915613e+01
<TRANSP> 5
 0.000000e+00 1.000000e+00 0.000000e+00 0.000000e+00 0.000000e+00
 0.000000e+00 9.411196e-01 5.888043e-02 0.000000e+00 0.000000e+00
 0.000000e+00 0.000000e+00 4.321238e-01 5.678762e-01 0.000000e+00
 0.000000e+00 0.000000e+00 0.000000e+00 1.941293e-01 8.058707e-01
 0.000000e+00 0.000000e+00 0.000000e+00 0.000000e+00 0.000000e+00
<ENDHMM>
~h "n"
<BEGINHMM>
<NUMSTATES> 5
<STATE> 2
<MEAN> 39
 -5.000992e+00 8.065464e+00 -1.457516e+00 -2.333096e+00 -4.564714e+00 -1.588213e+00 -8.455355e+00 -8.836039e+00 -6.916737e+00 -3.550637e+00 -2.893874e+00 -2.049272e+00 6.467721e+01 3.874871e-01 -6.242491e-02 -4.790328e-01 -6.382970e-01 -1.254413e-01 3.943714e-01 -3.907561e-02 -8.887736e-02 -1.191432e-01 -4.992959e-01 -2.698420e-01 -1.398601e-01 2.952659e-01 1.879041e-02 -2.247988e-02 -1.854445e-01 -1.900666e-01 -4.732662e-02 1.233485e-01 2.330090e-01 1.486003e-01 -2.139064e-02 -5.744325e-02 4.516665e-02 8.466981e-02 -2.742787e-04
<VARIANCE> 39
 1.312521e+01 1.058726e+01 2.807421e+01 5.174073e+01 2.277835e+01 2.719819e+01 2.388136e+01 2.861780e+01 1.544446e+01 1.728954e+01 1.231228e+01 1.240147e+01 6.545020e+00 1.423162e+00 1.239594e+00 4.359278e+00 6.608455e+00 1.514208e+00 3.971195e+00 2.401933e+00 2.168698e+00 1.735947e+00 1.918701e+00 1.328688e+00 1.461811e+00 7.814260e-01 1.707031e-01 2.050965e-01 5.327633e-01 7.960915e-01 2.390553e-01 5.642128e-01 2.874249e-01 2.854829e-01 3.400074e-01 3.300435e-01 2.430120e-01 2.885481e-01 1.229027e-01
<GCONST> 1.026814e+02
<STATE> 3
<MEAN> 39
 -3.629026e+00 7.934642e+00 -5.593028e+00 -7.243962e+00 -5.612871e+00 1.884713e+00 -2.667202e+00 -5.928376e+00 -9.384163e+00 -8.808998e+00 -5.616601e+00 -1.993865e+00 6.524026e+01 -4.704845e-01 1.583945e-01 4.710675e-01 7.023070e-01 2.742950e-01 -1.661521e-01 5.863752e-01 3.538840e-01 -3.229287e-01 -4.002859e-01 -5.598445e-01 -2.310659e-01 -4.105559e-01 -1.732511e-01 -4.307681e-02 2.537099e-01 3.358408e-01 1.199425e-01 -1.310239e-01 -1.635459e-01 -7.139315e-02 1.197040e-01 1.725306e-01 3.401171e-02 -2.743533e-02 -8.667426e-02
<VARIANCE> 39
 6.905957e+00 5.527851e+00 2.212865e+01 3.186811e+01 1.418773e+01 2.389666e+01 2.205514e+01 2.170887e+01 1.318049e+01 1.927693e+01 1.684295e+01 1.433708e+01 3.468284e+00 4.730867e-01 2.944137e-01 1.491456e+00 2.289447e+00 9.667135e-01 1.256793e+00 1.802386e+00 1.668510e+00 1.285354e+00 1.384830e+00 1.281475e+00 1.290253e+00 2.183134e-01 4.713347e-02 6.767573e-02 1.992515e-01 2.475626e-01 1.408136e-01 2.137459e-01 2.268731e-01 2.422173e-01 2.469246e-01 2.627780e-01 2.467926e-01 2.448327e-01 2.657220e-02
<GCONST> 8.192246e+01
<STATE> 4
<MEAN> 39
 -1.027585e+01 7.316738e+00 1.321403e+00 3.168605e+00 -8.124037e-01 -4.343515e-01 -2.831974e+00 -5.501673e+00 -8.759275e+00 -7.974315e+00 -6.808947e+00 -3.182733e+00 6.090749e+01 -6.910513e-01 -4.082626e-01 2.151833e-01 6.489604e-01 4.769480e-01 4.883984e-02 -8.231225e-03 1.601728e-01 4.104665e-01 4.984694e-01 3.198897e-01 1.982643e-01 -3.626934e-01 2.620530e-02 -8.684801e-02 -1.584244e-01 -1.819782e-01 -7.917263e-02 4.961894e-02 8.594796e-03 3.474215e-02 1.032828e-01 1.187562e-01 1.556094e-01 1.273344e-01 3.984009e-02
<VARIANCE> 39
 1.360943e+01 9.022796e+00 1.288216e+01 1.968511e+01 1.491854e+01 1.821804e+01 2.507022e+01 2.458564e+01 1.614563e+01 1.722819e+01 1.641229e+01 1.265524e+01 4.465313e+00 4.605615e-01 3.994024e-01 9.094146e-01 1.352161e+00 9.955236e-01 1.242612e+00 1.371977e+00 1.295866e+00 1.389678e+00 1.368513e+00 1.336848e+00 1.224067e+00 1.606865e-01 3.502376e-02 6.370351e-02 1.317633e-01 1.801637e-01 1.673972e-01 2.248163e-01 2.573729e-01 2.421079e-01 2.544417e-01 2.630756e-01 2.778459e-01 2.447026e-01 1.261295e-02
<GCONST> 7.945496e+01
<TRANSP> 5
 0.000000e+00 1.000000e+00 0.000000e+00 0.000000e+00 0.000000e+00
 0.000000e+00 7.968314e-01 2.031686e-01 0.000000e+00 0.000000e+00
 0.000000e+00 0.000000e+00 8.354844e-01 1.645156e-01 0.000000e+00
 0.000000e+00 0.000000e+00 0.000000e+00 8.382200e-01 1.617800e-01
 0.000000e+00 0.000000e+00 0.000000e+00 0.000000e+00 0.000000e+00
<ENDHMM>
~h "r"
<BEGINHMM>
<NUMSTATES> 5
<STATE> 2
<MEAN> 39
 -1.105168e+01 2.917565e+00 -2.086466e+00 -2.680810e-01 -4.757396e+00 -4.026795e+00 -2.248602e+00 -2.345255e-01 -2.036661e+00 -1.357193e+00 -1.182723e+00 3.257548e-01 6.285165e+01 1.461721e+00 3.410052e-01 -1.825444e-01 -8.766462e-01 -1.310747e+00 -1.088933e+00 -8.290576e-01 -3.435563e-01 -2.240285e-01 -4.141602e-01 -3.308139e-01 -4.101304e-01 1.033567e+00 1.467397e-01 -5.725373e-02 -5.029496e-02 -9.556236e-03 -2.610526e-02 8.444511e-02 -8.937819e-02 -2.112295e-02 5.105163e-02 5.866979e-02 5.527771e-03 -7.840382e-02 1.250967e-02
<VARIANCE> 39
 3.000846e+01 2.475071e+01 2.118869e+01 3.890030e+01 4.138464e+01 4.413298e+01 3.546671e+01 3.241539e+01 2.483383e+01 1.981216e+01 2.110230e+01 1.914688e+01 1.744518e+01 3.026104e+00 2.548023e+00 2.612456e+00 4.241496e+00 4.888426e+00 5.630000e+00 3.649821e+00 2.952400e+00 2.817479e+00 2.138888e+00 2.306563e+00 2.198233e+00 1.678781e+00 4.986151e-01 4.245209e-01 4.307522e-01 8.385733e-01 9.834580e-01 9.148003e-01 6.124393e-01 4.858615e-01 5.059160e-01 4.374671e-01 4.372481e-01 4.074166e-01 3.059975e-01
<GCONST> 1.203898e+02
<STATE> 3
<MEAN> 39
 -4.716431e+00 2.674947e+00 -4.513149e+00 -4.447869e+00 -8.584682e+00 -4.938008e+00 -5.234842e+00 -2.389946e+00 -2.757457e+00 -2.107815e+00 -1.558978e+00 -1.040666e+00 6.685223e+01 6.234985e-01 -6.980743e-01 -6.556330e-01 -1.612831e-01 2.314390e-01 2.928504e-01 -3.872613e-01 -1.191596e-01 3.795790e-01 3.614872e-01 -2.411337e-01 -7.842732e-01 4.837078e-01 -3.108704e-01 -9.793579e-02 3.300413e-02 1.462232e-01 2.854993e-01 2.080487e-01 2.003105e-01 1.050763e-01 1.576410e-02 1.109212e-01 -1.003763e-02 -6.039186e-02 -1.510372e-01
<VARIANCE> 39
 3.230354e+01 2.954316e+01 4.281793e+01 7.026138e+01 3.900842e+01 6.780963e+01 3.584387e+01 3.976040e+01 2.441401e+01 1.859084e+01 2.174458e+01 2.614339e+01 1.586893e+01 1.971497e+00 2.217522e+00 2.380960e+00 2.363376e+00 3.395821e+00 3.999218e+00 3.035461e+00 2.846066e+00 2.523340e+00 1.885550e+00 2.605031e+00 2.492219e+00 8.851205e-01 4.784029e-01 4.310224e-01 3.673956e-01 5.584873e-01 7.987290e-01 1.102177e+00 7.865537e-01 5.290365e-01 4.256256e-01 3.477798e-01 5.521922e-01 4.504624e-01 2.124999e-01
<GCONST> 1.191737e+02
<STATE> 4
<MEAN> 39
 -4.897532e+00 -9.182858e-01 -7.357798e+00 -2.796126e+00 -6.114050e+00 -4.970126e+00 -4.705193e+00 1.064253e+00 1.045388e+00 -3.538460e-02 -5.827459e+00 -6.260444e+00 6.756184e+01 -4.717892e-01 2.247926e-01 4.549609e-01 3.909585e-01 2.066449e-01 2.016465e-01 1.521140e-01 -1.411244e-01 -7.655261e-02 3.998491e-03 -9.812576e-02 1.431667e-01 -3.774728e-01 -6.323653e-02 8.966141e-02 9.460919e-02 5.800732e-03 -1.187878e-02 3.261899e-02 2.689874e-02 -5.203110e-02 -1.086385e-01 -2.383335e-02 1.467250e-01 1.334743e-01 -6.442221e-02
<VARIANCE> 39
 3.121323e+01 2.281018e+01 3.745865e+01 2.463414e+01 1.972781e+01 2.434412e+01 2.270626e+01 2.814415e+01 2.000379e+01 2.099843e+01 2.555062e+01 2.806899e+01 2.052788e+01 1.665238e+00 1.625425e+00 1.687183e+00 1.581190e+00 1.815782e+00 2.216832e+00 2.132942e+00 2.092951e+00 1.705454e+00 1.893400e+00 1.981817e+00 1.818346e+00 1.137038e+00 2.720942e-01 3.570361e-01 2.518601e-01 2.796050e-01 3.443521e-01 4.009957e-01 4.282957e-01 4.117496e-01 3.675780e-01 3.572207e-01 3.609306e-01 3.199689e-01 1.810026e-01
<GCONST> 1.061946e+02
<TRANSP> 5
 0.000000e+00 1.000000e+00 0.000000e+00 0.000000e+00 0.000000e+00
 0.000000e+00 6.523626e-01 3.476374e-01 0.000000e+00 0.000000e+00
 0.000000e+00 0.000000e+00 4.995615e-01 5.004385e-01 0.000000e+00
 0.000000e+00 0.000000e+00 0.000000e+00 8.289977e-01 1.710023e-01
 0.000000e+00 0.000000e+00 0.000000e+00 0.000000e+00 0.000000e+00
<ENDHMM>
~h "s"
<BEGINHMM>
<NUMSTATES> 5
<STATE> 2
<MEAN> 39
 -1.782087e+01 5.294952e+00 4.428979e-01 4.659042e+00 -1.379877e-01 -1.174913e+00 -1.493787e+00 -4.189020e+00 -1.773837e+00 -4.045214e+00 -1.750139e+00 4.000998e-01 6.177390e+01 -1.991799e+00 -3.438588e-01 -1.088569e+00 -9.750155e-03 5.405193e-01 6.747775e-01 1.031117e+00 7.073088e-01 1.373494e+00 4.536730e-01 8.846616e-01 7.338185e-01 4.651920e-02 2.501841e-01 6.862175e-02 -1.092340e-01 -2.533018e-01 -3.197901e-01 -1.010741e-01 -1.137014e-01 4.569522e-02 -1.649961e-01 1.126029e-01 8.559506e-02 6.247035e-02 5.884813e-02
<VARIANCE> 39
 2.411653e+01 7.348147e+00 1.337397e+01 1.622032e+01 2.030070e+01 3.376334e+01 3.737267e+01 2.537947e+01 2.954657e+01 1.791121e+01 1.867057e+01 1.542505e+01 5.109156e+00 1.930533e+00 7.238387e-01 1.389884e+00 1.158419e+00 2.247151e+00 1.852153e+00 2.546873e+00 1.947602e+00 2.308408e+00 1.701270e+00 1.813482e+00 1.484793e+00 3.098808e-01 2.758892e-01 1.046406e-01 2.030985e-01 2.589710e-01 3.259113e-01 3.257163e-01 4.793076e-01 3.229397e-01 4.175808e-01 2.927031e-01 3.340529e-01 3.083164e-01 4.628490e-02
<GCONST> 9.616312e+01
<STATE> 3
<MEAN> 39
 -2.349396e+01 5.461670e+00 -3.450880e+00 3.550789e+00 1.029221e-01 9.594449e-01 2.224467e-01 -1.903904e+00 2.016436e+00 -2.642812e+00 1.041309e+00 1.960321e+00 6.248115e+01 -4.819815e-01 -1.142153e-01 -4.829174e-01 -4.604837e-02 1.249777e-01 3.625624e-01 4.507147e-01 6.095701e-01 5.010705e-01 4.267991e-01 4.276753e-01 2.131254e-01 -1.039727e-01 3.278222e-01 -4.354341e-03 1.976952e-01 5.731076e-02 1.032114e-02 -4.400288e-02 -5.161180e-02 -7.363828e-02 -1.779180e-01 -3.768790e-02 -1.309867e-01 -1.030274e-01 -6.335080e-02
<VARIANCE> 39
 1.208874e+01 8.500956e+00 1.382699e+01 1.424807e+01 1.472864e+01 3.015653e+01 3.867507e+01 2.484047e+01 2.131428e+01 1.624226e+01 1.581973e+01 1.278336e+01 4.834989e+00 6.986737e-01 4.310937e-01 7.855167e-01 7.629582e-01 9.706703e-01 1.304805e+00 1.514577e+00 1.523041e+00 1.647650e+00 1.430939e+00 1.509442e+00 1.211473e+00 1.649997e-01 1.034077e-01 7.770114e-02 1.352676e-01 1.481606e-01 2.018980e-01 2.554163e-01 3.561994e-01 3.210838e-01 3.632768e-01 2.950250e-01 3.045578e-01 2.414334e-01 2.236066e-02
<GCONST> 8.379777e+01
<STATE> 4
<MEAN> 39
 -2.085681e+01 2.657734e+00 -3.468193e+00 4.420813e+00 2.057253e+00 2.250816e+00 3.532320e+00 1.391017e+00 2.137307e+00 1.013974e-01 1.566789e+00 2.415545e+00 5.943816e+01 2.983205e-02 -6.213044e-02 1.035240e-02 1.815447e-02 1.237180e-02 -2.855302e-02 9.698208e-02 1.380925e-02 1.622542e-02 2.665535e-02 -1.066617e-02 -2.088605e-02 -3.580754e-02 5.772218e-02 5.413951e-03 4.868633e-02 -4.840448e-03 -2.333877e-02 -2.863574e-02 -5.374174e-02 -4.255791e-02 -5.113536e-02 -3.802257e-02 -4.728882e-02 -2.697057e-02 5.473246e-03
<VARIANCE> 39
 1.313754e+01 1.109317e+01 9.449691e+00 7.740263e+00 1.077036e+01 1.599460e+01 1.729523e+01 1.587928e+01 1.644958e+01 1.389471e+01 1.203007e+01 1.047429e+01 5.697016e+00 4.221294e-01 4.635320e-01 5.554870e-01 6.053632e-01 8.815210e-01 1.090362e+00 1.279684e+00 1.364370e+00 1.381246e+00 1.306131e+00 1.186965e+00 1.052110e+00 1.565752e-01 6.693773e-02 7.674089e-02 1.011633e-01 1.214217e-01 1.786536e-01 2.208666e-01 2.768124e-01 2.796696e-01 2.909211e-01 2.675874e-01 2.419260e-01 2.153530e-01 1.825419e-02
<GCONST> 7.550574e+01
<TRANSP> 5
 0.000000e+00 1.000000e+00 0.000000e+00 0.000000e+00 0.000000e+00
 0.000000e+00 5.949801e-01 4.050199e-01 0.000000e+00 0.000000e+00
 0.000000e+00 0.000000e+00 7.403116e-01 2.596885e-01 0.000000e+00
 0.000000e+00 0.000000e+00 0.000000e+00 9.511579e-01 4.884215e-02
 0.000000e+00 0.000000e+00 0.000000e+00 0.000000e+00 0.000000e+00
<ENDHMM>
~h "t"
<BEGINHMM>
<NUMSTATES> 5
<STATE> 2
<MEAN> 39
 -1.643666e+01 1.825709e+00 -4.888298e-01 4.241677e+00 1.145526e+00 1.326840e+00 4.029414e-01 -3.069966e-01 -2.583367e+00 -1.020105e+00 -1.248542e+00 1.422747e+00 5.815028e+01 -4.583139e-01 -5.444115e-01 -3.797541e-01 -5.858578e-02 3.235298e-01 4.348091e-01 5.320055e-01 6.714724e-01 6.858035e-01 6.251937e-01 5.707162e-01 4.673408e-01 -2.580561e-01 1.360969e-01 9.738664e-02 2.568295e-02 -7.220427e-02 -1.400597e-01 -1.177810e-01 -4.580916e-02 -5.687505e-02 -3.353282e-02 -3.730564e-02 -3.004648e-02 -6.325685e-02 1.136584e-01
<VARIANCE> 39
 3.293640e+00 4.164080e+00 6.121530e+00 6.607280e+00 9.629639e+00 1.273912e+01 1.668121e+01 1.771103e+01 1.839394e+01 1.573667e+01 1.556057e+01 1.362092e+01 1.154065e+00 2.984521e-01 3.886466e-01 5.563494e-01 6.394327e-01 8.070171e-01 1.050530e+00 1.358198e+00 1.514801e+00 1.348192e+00 1.408104e+00 1.417162e+00 1.278963e+00 8.099684e-02 4.995520e-02 6.460205e-02 1.005485e-01 1.458825e-01 1.977447e-01 2.211655e-01 2.793600e-01 3.138805e-01 2.743587e-01 3.095322e-01 2.927392e-01 2.413179e-01 2.406636e-02
<GCONST> 7.138739e+01
<STATE> 3
<MEAN> 39
 -1.777124e+01 1.625996e-01 -1.845608e+00 4.016905e+00 2.061330e+00 2.859212e+00 2.613209e+00 2.674140e+00 3.081066e-01 1.414749e+00 8.096063e-01 2.641367e+00 5.753476e+01 -5.105814e-02 -5.270402e-02 -3.833224e-02 -4.461966e-03 4.057438e-02 5.641424e-02 9.374414e-02 9.306739e-02 1.044341e-01 7.799113e-02 5.159032e-02 1.817146e-02 -1.034519e-02 3.745606e-02 3.150029e-02 1.138956e-02 -1.560719e-02 -4.500704e-02 -5.224128e-02 -2.635024e-02 -4.008635e-02 -3.373789e-02 -6.576673e-02 -2.663511e-02 -2.130016e-02 5.328615e-02
<VARIANCE> 39
 1.409853e+00 2.229769e+00 4.057317e+00 5.672426e+00 7.707187e+00 1.020529e+01 1.091814e+01 1.190696e+01 1.159344e+01 1.139803e+01 1.035570e+01 9.249013e+00 8.380824e-01 1.122597e-01 2.164131e-01 3.664997e-01 5.695633e-01 6.732001e-01 9.238339e-01 1.052428e+00 1.214254e+00 1.128999e+00 1.140210e+00 1.064774e+00 9.681839e-01 5.844963e-02 3.299481e-02 4.832504e-02 7.958330e-02 1.266993e-01 1.613953e-01 2.111996e-01 2.196476e-01 2.612364e-01 2.338877e-01 2.419260e-01 2.205222e-01 2.049335e-01 2.790370e-02
<GCONST> 5.956727e+01
<STATE> 4
<MEAN> 39
 -1.853432e+01 -1.689907e-02 -2.025800e+00 3.797770e+00 2.083598e+00 2.303205e+00 3.559728e+00 2.495671e+00 1.604363e+00 1.419597e+00 1.288122e+00 2.696056e+00 5.766386e+01 8.669316e-02 6.971919e-02 -7.504336e-02 -1.570919e-01 -2.045244e-01 -1.929794e-01 -5.926742e-02 -8.137641e-02 -4.352300e-03 -1.404533e-01 -4.552687e-02 -1.122933e-02 1.739496e-01 1.324244e-01 7.977498e-02 1.883971e-02 -9.176762e-02 -1.619645e-01 -1.563857e-01 -1.058328e-01 -7.924839e-02 -6.216521e-02 -8.445165e-02 -5.009972e-02 -3.261035e-02 1.129105e-01
<VARIANCE> 39
 4.186928e+00 5.510747e+00 5.552565e+00 6.900826e+00 9.273737e+00 1.165783e+01 1.185918e+01 1.179632e+01 1.251737e+01 1.153751e+01 1.183421e+01 1.069999e+01 3.073488e+00 2.693487e-01 3.375847e-01 5.023453e-01 8.684756e-01 1.116609e+00 1.185252e+00 1.185402e+00 1.227798e+00 1.246163e+00 1.164695e+00 1.208596e+00 1.103334e+00 2.975405e-01 8.338381e-02 8.298453e-02 1.148190e-01 1.932229e-01 2.544636e-01 2.696978e-01 2.647071e-01 2.718019e-01 2.652812e-01 2.392933e-01 2.482856e-01 2.298364e-01 5.994947e-02
<GCONST> 7.337168e+01
<TRANSP> 5
 0.000000e+00 1.000000e+00 0.000000e+00 0.000000e+00 0.000000e+00
 0.000000e+00 7.506917e-01 2.493084e-01 0.000000e+00 0.000000e+00
 0.000000e+00 0.000000e+00 8.713298e-01 1.286702e-01 0.000000e+00
 0.000000e+00 0.000000e+00 0.000000e+00 8.350821e-01 1.649179e-01
 0.000000e+00 0.000000e+00 0.000000e+00 0.000000e+00 0.000000e+00
<ENDHMM>
~h "w"
<BEGINHMM>
<NUMSTATES> 5
<STATE> 2
<MEAN> 39
 -6.331977e+00 6.676485e+00 -1.097081e+00 -2.915191e+00 -7.905423e+00 -3.659461e+00 -5.181657e+00 -6.749206e+00 -6.461577e+00 -2.420589e+00 -2.435809e+00 -1.000414e+00 6.418606e+01 2.953410e-01 -1.480187e-01 -4.940439e-01 -7.750909e-01 -2.318171e-01 4.640882e-01 3.811007e-02 -3.013359e-01 -1.812770e-02 -2.099990e-03 2.442190e-01 3.330043e-01 1.998857e-01 -2.648880e-01 -2.078474e-01 -2.158798e-02 2.634477e-01 3.451256e-01 2.018690e-01 2.735045e-01 3.764904e-01 1.853231e-01 -7.284956e-02 -7.198902e-02 -9.248215e-03 -1.132885e-01
<VARIANCE> 39
 2.244185e+01 1.439384e+01 3.134320e+01 4.592896e+01 4.323462e+01 2.538600e+01 2.451859e+01 3.544831e+01 1.993069e+01 2.336755e+01 1.891802e+01 1.548082e+01 8.351672e+00 1.202367e+00 1.761459e+00 1.613765e+00 3.968065e+00 2.670310e+00 2.658509e+00 2.278223e+00 2.694320e+00 2.437092e+00 2.180009e+00 2.296687e+00 1.816137e+00 6.192795e-01 1.597757e-01 2.824976e-01 3.374470e-01 5.746799e-01 6.150417e-01 5.590777e-01 4.505434e-01 5.915663e-01 3.619895e-01 4.472731e-01 4.512340e-01 3.167217e-01 7.668193e-02
<GCONST> 1.079796e+02
<STATE> 3
<MEAN> 39
 -5.327849e+00 5.613138e+00 -4.499290e+00 -6.233668e+00 -7.655432e+00 -7.701232e-01 -3.344966e+00 -6.557724e+00 -5.981359e+00 -3.320793e+00 -2.024973e+00 -4.306553e-02 6.503995e+01 -4.306531e-01 -6.236132e-01 -2.473928e-01 3.034119e-01 7.765746e-01 7.674501e-01 5.888623e-01 6.996467e-01 3.269153e-01 -1.766598e-01 -2.533527e-01 -2.941401e-01 -1.197234e-01 -2.410895e-01 -9.259273e-02 3.151121e-01 5.140696e-01 1.808075e-01 -1.530240e-01 4.778447e-02 2.764236e-01 9.553306e-02 4.790668e-03 -1.523854e-01 -2.577288e-01 -1.077822e-01
<VARIANCE> 39
 3.127631e+01 9.998751e+00 3.437725e+01 6.023037e+01 3.518081e+01 2.703146e+01 2.838286e+01 2.070892e+01 1.949236e+01 2.214294e+01 2.433927e+01 1.977542e+01 1.272440e+01 6.577525e-01 1.283220e+00 1.686965e+00 1.881539e+00 2.813416e+00 3.147047e+00 1.897363e+00 2.696749e+00 1.992033e+00 3.081184e+00 3.261443e+00 2.433820e+00 6.093318e-01 7.783698e-02 1.431095e-01 1.673741e-01 3.179764e-01 4.032816e-01 3.897750e-01 3.782964e-01 3.946081e-01 3.904068e-01 4.288540e-01 5.050916e-01 5.434677e-01 3.188491e-02
<GCONST> 1.035606e+02
<STATE> 4
<MEAN> 39
 -7.862351e+00 4.672872e+00 -3.329872e+00 -3.349424e+00 -4.652933e+00 4.340768e-01 -1.265560e+00 -3.616423e+00 -5.146268e+00 -4.045202e+00 -4.088189e+00 -2.522628e+00 6.360806e+01 -9.699244e-01 -5.925163e-01 5.137406e-01 1.272157e+00 7.843555e-01 -1.144195e-02 4.284318e-01 1.115929e+00 7.549669e-01 2.828598e-01 -2.282742e-01 -3.767745e-01 -4.690103e-01 -3.446012e-02 -1.144568e-02 5.910669e-02 1.805546e-02 -1.157937e-01 -1.319570e-01 -7.360319e-02 5.023575e-03 -3.589949e-04 1.376582e-01 2.040815e-01 2.394243e-01 -1.049558e-02
<VARIANCE> 39
 3.013529e+01 1.220899e+01 3.157777e+01 5.010513e+01 2.315046e+01 2.935932e+01 2.438818e+01 2.182552e+01 2.243766e+01 2.934104e+01 2.937790e+01 2.517359e+01 1.677120e+01 5.378579e-01 6.115037e-01 1.181923e+00 1.489664e+00 2.459877e+00 2.291813e+00 1.767695e+00 1.636886e+00 1.361910e+00 2.308211e+00 3.148114e+00 3.104855e+00 3.549293e-01 7.435231e-02 1.389291e-01 1.900881e-01 2.803317e-01 2.396051e-01 4.051264e-01 3.074131e-01 3.220903e-01 3.434772e-01 4.100004e-01 6.259140e-01 4.884539e-01 3.017663e-02
<GCONST> 9.950524e+01
<TRANSP> 5
 0.000000e+00 1.000000e+00 0.000000e+00 0.000000e+00 0.000000e+00
 0.000000e+00 5.513725e-01 4.486275e-01 0.000000e+00 0.000000e+00
 0.000000e+00 0.000000e+00 4.034519e-01 5.965481e-01 0.000000e+00
 0.000000e+00 0.000000e+00 0.000000e+00 5.825251e-01 4.174748e-01
 0.000000e+00 0.000000e+00 0.000000e+00 0.000000e+00 0.000000e+00
<ENDHMM>
~h "y"
<BEGINHMM>
<NUMSTATES> 5
<STATE> 2
<MEAN> 39
 -1.181845e+01 5.574583e+00 5.738974e+00 3.054806e+00 -6.840364e+00 -3.689964e+00 -4.500088e+00 -7.425308e+00 -5.553037e+00 -3.935751e+00 -2.036506e+00 -7.364238e-01 6.352687e+01 1.564026e+00 8.619261e-01 2.169403e+00 -3.548561e-01 -1.372580e+00 -4.379656e-01 -2.411815e+00 -1.322293e+00 -1.830778e+00 -1.118756e+00 -5.250009e-01 -4.198705e-01 2.066378e-01 -1.535333e-01 9.602129e-02 -1.476994e-01 -1.793165e-01 -8.994290e-02 1.035590e-02 -8.281586e-02 6.158755e-02 1.305834e-01 1.005617e-01 2.579300e-01 1.259218e-01 1.108868e-01
<VARIANCE> 39
 4.594215e+01 1.533574e+01 3.199970e+01 1.621517e+01 6.994224e+01 3.037533e+01 7.301806e+01 2.486227e+01 4.149052e+01 2.277424e+01 1.922818e+01 1.220090e+01 1.090036e+01 3.634266e+00 1.603589e+00 1.784385e+00 1.370002e+00 3.448054e+00 2.563295e+00 6.726685e+00 2.529289e+00 3.201323e+00 2.075078e+00 2.497759e+00 1.292358e+00 6.857455e-01 4.167293e-01 4.301902e-01 3.560292e-01 2.201226e-01 5.517263e-01 4.870447e-01 1.387142e+00 5.500504e-01 7.793660e-01 5.245430e-01 4.521978e-01 2.314449e-01 9.800665e-02
<GCONST> 1.133834e+02
<STATE> 3
<MEAN> 39
 -8.152550e+00 7.327212e+00 1.006483e+01 3.473936e-01 -1.262245e+01 -6.306393e+00 -1.106487e+01 -9.640670e+00 -9.555845e+00 -5.443199e+00 -9.919856e-01 -8.017932e-01 6.505672e+01 -2.283920e-01 8.637896e-02 -2.332360e-01 2.770599e-01 6.632618e-01 8.816074e-02 5.956474e-02 2.165261e-02 -3.446624e-02 -1.332827e-01 -1.880974e-01 3.109675e-02 -2.594101e-01 -8.822523e-02 -6.918535e-02 -2.138619e-01 1.313469e-01 2.376852e-01 2.332429e-02 2.102916e-01 1.064068e-01 9.744383e-02 5.404646e-02 -3.793161e-02 1.343415e-02 -5.931556e-02
<VARIANCE> 39
 4.078516e+00 8.257697e+00 1.516183e+01 1.201161e+01 3.278650e+01 1.641642e+01 1.388179e+01 1.223763e+01 1.114154e+01 1.666608e+01 1.162441e+01 9.793920e+00 4.227861e+00 3.917753e-01 5.685118e-01 9.950595e-01 1.232291e+00 3.382037e+00 1.376958e+00 1.296916e+00 1.031663e+00 9.914011e-01 1.241878e+00 1.096727e+00 7.282200e-01 4.624673e-01 6.254615e-02 9.266596e-02 1.489841e-01 1.471187e-01 2.685192e-01 2.377124e-01 2.887699e-01 1.948666e-01 2.087809e-01 2.066222e-01 1.748610e-01 1.400332e-01 3.493297e-02
<GCONST> 7.815894e+01
<STATE> 4
<MEAN> 39
 -1.218617e+01 7.496490e+00 4.870220e+00 5.456853e+00 -1.546390e+00 -3.207976e+00 -6.328820e+00 -8.737749e+00 -8.787554e+00 -7.001658e+00 -4.309971e+00 -8.819734e-01 6.127715e+01 -1.012561e+00 -3.353089e-01 -9.824308e-01 3.537794e-01 8.489962e-01 4.797517e-01 1.430270e+00 4.348670e-01 9.813818e-01 2.400661e-01 6.936546e-02 6.506022e-02 -1.741666e-01 -1.491972e-01 -7.874130e-02 -9.897251e-02 -1.708815e-01 -2.661237e-01 -2.630349e-02 1.255619e-01 1.360403e-01 2.457040e-01 1.611677e-01 2.354997e-01 6.281833e-02 1.318011e-01
<VARIANCE> 39
 1.138710e+01 6.076152e+00 1.459147e+01 1.445413e+01 2.140851e+01 1.412201e+01 2.174399e+01 1.524459e+01 1.809096e+01 1.615092e+01 1.369120e+01 1.209133e+01 4.540583e+00 1.170247e+00 3.642400e-01 1.011950e+00 9.016802e-01 1.661330e+00 1.606590e+00 1.933988e+00 1.395431e+00 2.179299e+00 1.300535e+00 1.316892e+00 1.093169e+00 3.242638e-01 1.457046e-01 6.706221e-02 1.432713e-01 1.700831e-01 2.485625e-01 2.581399e-01 2.858254e-01 2.832543e-01 3.167312e-01 2.488583e-01 2.413647e-01 2.252596e-01 3.600309e-02
<GCONST> 8.401082e+01
<TRANSP> 5
 0.000000e+00 1.000000e+00 0.000000e+00 0.000000e+00 0.000000e+00
 0.000000e+00 6.633898e-01 3.366102e-01 0.000000e+00 0.000000e+00
 0.000000e+00 0.000000e+00 8.883162e-01 1.116838e-01 0.000000e+00
 0.000000e+00 0.000000e+00 0.000000e+00 8.035353e-01 1.964647e-01
 0.000000e+00 0.000000e+00 0.000000e+00 0.000000e+00 0.000000e+00
<ENDHMM>
~h "ah"
<BEGINHMM>
<NUMSTATES> 5
<STATE> 2
<MEAN> 39
 -1.561063e+01 1.085590e+00 -1.565360e+00 3.257077e+00 7.395577e-01 1.861050e+00 1.184105e+00 1.472196e+00 -2.108238e-01 3.183290e-01 -8.477796e-01 9.290316e-01 5.939330e+01 -2.672388e-04 9.013347e-02 8.766779e-02 1.428947e-01 2.926119e-01 4.206126e-02 -3.087517e-02 -3.675631e-02 -1.502735e-01 -1.173174e-01 -1.128161e-01 -1.469967e-01 3.586828e-02 1.867320e-01 8.176111e-02 2.872766e-02 -5.534853e-02 -1.505677e-01 -1.897355e-01 -2.020001e-01 -1.204135e-01 -1.019166e-01 -5.868450e-02 -4.467035e-02 -3.517139e-02 1.207088e-01
<VARIANCE> 39
 1.823349e+01 7.200648e+00 1.268916e+01 1.603699e+01 2.536912e+01 2.704508e+01 2.360483e+01 1.991171e+01 1.838737e+01 1.833394e+01 2.231699e+01 1.784742e+01 8.945763e+00 7.507893e-01 9.226360e-01 1.204462e+00 1.134716e+00 1.532610e+00 1.712587e+00 1.840609e+00 2.486824e+00 2.062835e+00 1.852053e+00 1.915412e+00 1.695925e+00 3.342529e-01 1.065276e-01 1.454125e-01 1.451772e-01 1.946594e-01 3.033789e-01 3.874199e-01 3.745311e-01 4.012979e-01 3.126359e-01 2.979621e-01 3.402415e-01 2.866457e-01 6.074044e-02
<GCONST> 9.313466e+01
<STATE> 3
<MEAN> 39
 -1.295737e+01 3.339673e+00 5.326219e-01 3.705325e+00 3.087617e-02 7.573716e-02 -1.379478e+00 -1.537486e+00 -3.965479e+00 -2.812434e+00 -3.180189e+00 -1.866300e+00 6.084289e+01 1.231754e+00 8.930914e-01 5.153025e-01 -4.346321e-02 -5.414237e-01 -1.308908e+00 -1.588972e+00 -1.222627e+00 -1.049097e+00 -7.171311e-01 -5.487385e-01 -4.399226e-01 7.774613e-01 2.304264e-01 6.003125e-03 -1.232768e-01 -2.760261e-01 -3.644638e-01 -2.998664e-01 -2.423311e-01 -9.189820e-02 1.013055e-01 2.072145e-01 2.602659e-01 2.533194e-01 1.820316e-01
<VARIANCE> 39
 2.242286e+01 1.421900e+01 2.466983e+01 2.545582e+01 3.300698e+01 3.600064e+01 3.137084e+01 2.961093e+01 2.671075e+01 2.313009e+01 2.592472e+01 2.055465e+01 1.292202e+01 2.218520e+00 2.701641e+00 2.651109e+00 1.497227e+00 2.575459e+00 2.941902e+00 3.733069e+00 4.804610e+00 4.103445e+00 2.692260e+00 2.802038e+00 2.263517e+00 9.324490e-01 1.796288e-01 2.344258e-01 2.261398e-01 2.551488e-01 3.859801e-01 4.791434e-01 4.841773e-01 4.783376e-01 4.303347e-01 4.465630e-01 4.996313e-01 4.459851e-01 1.108491e-01
<GCONST> 1.108020e+02
<STATE> 4
<MEAN> 39
 -5.286973e+00 2.784006e+00 -3.478571e+00 -8.008893e-01 -4.688379e+00 -3.995026e+00 -6.607954e+00 -3.403669e+00 -3.557338e+00 -3.458979e+00 -5.198720e+00 -4.282084e+00 6.647681e+01 -6.375098e-02 -8.022720e-02 -1.312778e-01 -7.238444e-03 1.295763e-02 3.768836e-02 8.461286e-02 9.131435e-02 1.675168e-01 1.210691e-01 6.882672e-03 2.188828e-02 -4.282950e-02 -8.525146e-02 -4.181885e-02 -1.127382e-02 1.987176e-02 3.458722e-02 6.236168e-02 8.335159e-02 5.795577e-02 4.153770e-02 1.797096e-02 4.746924e-02 3.432710e-02 -4.301546e-02
<VARIANCE> 39
 2.399424e+01 3.209952e+01 5.481462e+01 2.632927e+01 2.943161e+01 2.325494e+01 2.127379e+01 4.666401e+01 3.552028e+01 2.420694e+01 3.778525e+01 3.186617e+01 1.629092e+01 1.574282e+00 2.003414e+00 3.233511e+00 2.221645e+00 2.688266e+00 1.857991e+00 1.911528e+00 3.365096e+00 2.596619e+00 1.812620e+00 2.970870e+00 2.493900e+00 1.098661e+00 1.925203e-01 3.395149e-01 5.406895e-01 3.635934e-01 4.293749e-01 3.187441e-01 3.474535e-01 5.559809e-01 4.801110e-01 3.492460e-01 5.022209e-01 4.459338e-01 1.269559e-01
<GCONST> 1.125711e+02
<TRANSP> 5
 0.000000e+00 1.000000e+00 0.000000e+00 0.000000e+00 0.000000e+00
 0.000000e+00 6.569027e-01 3.430973e-01 0.000000e+00 0.000000e+00
 0.000000e+00 0.000000e+00 3.138739e-01 6.861261e-01 0.000000e+00
 0.000000e+00 0.000000e+00 0.000000e+00 9.166544e-01 8.334560e-02
 0.000000e+00 0.000000e+00 0.000000e+00 0.000000e+00 0.000000e+00
<ENDHMM>
~h "ch"
<BEGINHMM>
<NUMSTATES> 5
<STATE> 2
<MEAN> 39
 -1.617046e+01 -1.020998e+00 -6.439251e-01 1.182214e+00 -3.322192e+00 -2.559874e+00 1.448570e+00 -5.698969e+00 4.777367e-01 5.153174e-01 1.341876e+00 1.445294e+00 6.401624e+01 -6.091280e-01 -5.180396e-01 2.979900e-01 1.288040e-01 2.341297e-02 -6.070335e-01 6.437066e-01 -1.864120e-01 9.293686e-01 9.767976e-02 -2.648596e-02 -2.129061e-01 6.729476e-01 6.638703e-02 2.028391e-01 4.916315e-02 4.598269e-02 1.209585e-01 -5.780310e-02 -1.574731e-01 5.233398e-02 -2.531471e-02 -9.531398e-02 -1.406831e-01 -3.910217e-03 -9.822004e-02
<VARIANCE> 39
 6.075529e+01 2.646387e+01 1.913299e+01 3.316994e+01 3.000070e+01 2.928793e+01 6.328606e+01 3.445884e+01 3.999585e+01 2.213955e+01 2.025098e+01 1.554534e+01 1.851632e+01 4.581517e+00 2.445441e+00 2.254448e+00 4.076376e+00 3.921361e+00 3.147386e+00 5.458192e+00 4.010555e+00 4.184141e+00 2.965457e+00 2.811629e+00 2.116372e+00 2.244217e+00 9.218656e-01 3.823913e-01 4.385114e-01 7.556606e-01 7.982048e-01 6.727259e-01 1.069853e+00 8.694711e-01 7.758589e-01 6.003845e-01 5.942662e-01 4.167575e-01 4.044478e-01
<GCONST> 1.248728e+02
<STATE> 3
<MEAN> 39
 -1.518791e+01 8.912333e-01 -2.436603e-01 1.352715e+00 -1.856022e+00 -3.670615e+00 1.260284e-01 -5.776884e+00 1.053687e+00 8.527959e-02 -2.310480e-01 5.368953e-01 6.390550e+01 5.692661e-01 4.598403e-01 -1.298521e-01 7.337915e-02 2.230285e-01 2.536637e-01 -4.275704e-01 2.704768e-01 -2.351075e-01 -4.548987e-02 -3.687084e-01 -1.615934e-01 -3.413187e-01 2.435766e-01 1.028729e-01 -1.157986e-01 -1.414858e-01 -1.326867e-01 2.110172e-01 -1.184287e-01 -9.451214e-02 -2.703609e-01 3.846283e-02 8.101821e-02 3.143671e-02 -4.319659e-02
<VARIANCE> 39
 6.531616e+01 2.710894e+01 1.949145e+01 3.578654e+01 3.458403e+01 2.559438e+01 5.187437e+01 2.535518e+01 6.529832e+01 2.366188e+01 2.414350e+01 1.846907e+01 1.046225e+01 6.285871e+00 2.328808e+00 2.093684e+00 3.537781e+00 3.696248e+00 3.019728e+00 5.776912e+00 3.299155e+00 5.578415e+00 2.186388e+00 3.149332e+00 2.016114e+00 1.276856e+00 8.729192e-01 3.378951e-01 3.857843e-01 7.232481e-01 7.816350e-01 4.824701e-01 8.571130e-01 7.047191e-01 1.022491e+00 4.558411e-01 6.189550e-01 4.163385e-01 2.284517e-01
<GCONST> 1.225296e+02
<STATE> 4
<MEAN> 39
 -1.738853e+01 5.080847e-01 -1.548278e+00 3.870277e+00 1.439761e+00 2.244040e+00 1.949863e+00 1.088761e+00 7.945548e-01 7.090776e-01 3.561514e-01 1.789707e+00 5.830550e+01 1.277617e-01 6.249655e-02 -2.715676e-02 -5.449833e-02 -6.607322e-02 7.836799e-02 -6.250770e-02 -3.525944e-02 -5.308080e-02 4.618433e-02 -3.842906e-02 -4.872249e-02 -1.448402e-02 1.309912e-01 7.747778e-02 -2.340546e-02 -1.570547e-01 -1.582911e-01 -7.947986e-02 -6.934331e-02 -1.013633e-01 -9.101650e-02 -6.404174e-02 -2.281207e-02 -2.011157e-02 8.711561e-02
<VARIANCE> 39
 7.819197e+00 5.125545e+00 6.028840e+00 8.720333e+00 1.051447e+01 1.569324e+01 1.633326e+01 2.093575e+01 2.054130e+01 1.565977e+01 1.487720e+01 1.291386e+01 4.400476e+00 1.666280e+00 8.633657e-01 6.852829e-01 1.324120e+00 1.566576e+00 1.437416e+00 2.043317e+00 1.887557e+00 2.528612e+00 1.789379e+00 1.516574e+00 1.287687e+00 2.411422e-01 1.247952e-01 9.103744e-02 1.340171e-01 2.781345e-01 3.088032e-01 2.732392e-01 3.143603e-01 3.711483e-01 3.881131e-01 3.556139e-01 3.204932e-01 2.640337e-01 5.338481e-02
<GCONST> 8.620084e+01
<TRANSP> 5
 0.000000e+00 1.000000e+00 0.000000e+00 0.000000e+00 0.000000e+00
 0.000000e+00 8.156462e-01 1.843539e-01 0.000000e+00 0.000000e+00
 0.000000e+00 0.000000e+00 8.046334e-01 1.953666e-01 0.000000e+00
 0.000000e+00 0.000000e+00 0.000000e+00 9.116785e-01 8.832151e-02
 0.000000e+00 0.000000e+00 0.000000e+00 0.000000e+00 0.000000e+00
<ENDHMM>
~h "dh"
<BEGINHMM>
<NUMSTATES> 5
<STATE> 2
<MEAN> 39
 -9.764626e+00 5.267542e+00 1.955824e+00 6.996222e-01 -2.551152e+00 -5.740999e-01 -8.270044e+00 -7.435574e+00 -4.680585e+00 -3.204013e+00 -2.114143e+00 -8.986307e-01 6.293816e+01 1.211826e+00 2.109464e-01 -4.084977e-01 -1.675483e+00 -1.225411e+00 6.943446e-02 -9.891765e-01 -1.125891e+00 -1.053977e-02 2.616259e-01 5.752105e-01 5.271183e-01 8.860265e-01 -1.818272e-02 2.982401e-02 -1.449376e-01 -1.144836e-01 -8.096380e-02 6.807674e-02 2.825075e-01 7.371242e-02 -5.271889e-02 -3.795962e-02 5.473461e-02 2.156502e-01 -6.628901e-02
<VARIANCE> 39
 2.701604e+01 1.871825e+01 1.846788e+01 7.476450e+01 3.397642e+01 2.018016e+01 5.001679e+01 4.470329e+01 4.007875e+01 3.109149e+01 2.733489e+01 1.719527e+01 2.168711e+01 2.160360e+00 2.451500e+00 1.999391e+00 4.581922e+00 2.315585e+00 2.630144e+00 6.192812e+00 4.841691e+00 4.783910e+00 3.476079e+00 2.670416e+00 2.410922e+00 1.440825e+00 4.766140e-01 3.922713e-01 2.166350e-01 6.240556e-01 4.374967e-01 4.274697e-01 1.397425e+00 1.142155e+00 8.349339e-01 7.157921e-01 5.233852e-01 3.910530e-01 3.294895e-01
<GCONST> 1.217633e+02
<STATE> 3
<MEAN> 39
 -2.475086e+00 6.483268e+00 -4.598449e+00 -1.461779e+01 -1.272858e+01 2.851827e+00 -7.249512e+00 -9.916997e+00 -4.375030e+00 -3.450094e+00 1.539870e+00 6.829764e+00 6.748402e+01 -7.459805e-02 3.873391e-01 -1.450099e-01 -4.809512e-01 -5.079516e-01 -6.747603e-03 1.416207e+00 1.206922e+00 -3.642420e-01 -1.350706e+00 -9.149843e-01 4.443322e-01 -2.744761e-01 -1.858319e-01 -1.104793e-01 2.524351e-01 3.755722e-01 2.348626e-01 -1.713500e-01 -2.315370e-01 1.737262e-01 2.055966e-01 9.905643e-02 -1.000856e-01 -3.864557e-01 -2.383195e-02
<VARIANCE> 39
 1.703671e+01 5.613441e+00 1.906573e+01 6.495195e+01 2.854619e+01 1.902047e+01 1.955270e+01 2.293145e+01 1.194310e+01 1.853897e+01 2.200395e+01 1.636027e+01 9.330939e+00 1.599120e-01 3.333380e-01 4.986031e-01 9.190496e-01 7.907134e-01 9.023953e-01 1.408780e+00 1.263834e+00 1.087897e+00 1.419102e+00 1.187066e+00 1.062478e+00 1.155612e-01 6.225633e-02 7.049174e-02 1.441257e-01 1.567904e-01 1.519510e-01 1.625741e-01 2.722801e-01 4.885994e-01 2.095015e-01 3.205669e-01 3.302211e-01 1.758526e-01 2.944840e-02
<GCONST> 8.030853e+01
<STATE> 4
<MEAN> 39
 -3.831721e+00 7.571828e+00 -3.938687e+00 -1.319307e+01 -1.198798e+01 1.437597e+00 -4.677065e+00 -7.332800e+00 -5.482545e+00 -5.525853e+00 -3.573205e-01 6.701589e+00 6.590384e+01 -3.293618e-01 -4.202020e-02 1.536996e-01 7.342549e-01 5.309185e-01 -1.854430e-01 -6.155488e-02 -1.888995e-01 -2.357649e-01 1.984375e-01 1.621178e-01 -1.103564e-01 -2.510503e-01 -6.041622e-02 -2.420349e-02 7.303376e-02 2.216889e-01 1.406561e-01 -2.375483e-02 -1.061328e-01 -1.253660e-01 -8.370435e-03 1.089513e-01 4.782442e-02 -1.198858e-01 -1.696320e-02
<VARIANCE> 39
 1.136769e+01 4.336729e+00 1.084254e+01 5.495229e+01 2.610449e+01 1.809156e+01 1.842863e+01 1.609167e+01 1.302315e+01 1.274543e+01 1.715096e+01 1.443344e+01 6.113538e+00 1.194613e-01 2.727336e-01 3.503703e-01 9.740292e-01 7.527419e-01 7.056444e-01 1.081316e+00 1.244732e+00 8.649126e-01 9.637523e-01 8.949578e-01 7.564352e-01 1.045272e-01 3.427004e-02 4.696625e-02 8.657247e-02 1.274944e-01 1.165901e-01 1.243361e-01 1.819975e-01 2.228540e-01 1.774353e-01 1.835001e-01 2.000213e-01 1.791697e-01 2.098300e-02
<GCONST> 6.958904e+01
<TRANSP> 5
 0.000000e+00 1.000000e+00 0.000000e+00 0.000000e+00 0.000000e+00
 0.000000e+00 8.565836e-01 1.434164e-01 0.000000e+00 0.000000e+00
 0.000000e+00 0.000000e+00 6.762211e-01 3.237789e-01 0.000000e+00
 0.000000e+00 0.000000e+00 0.000000e+00 8.477392e-01 1.522608e-01
 0.000000e+00 0.000000e+00 0.000000e+00 0.000000e+00 0.000000e+00
<ENDHMM>
~h "eh"
<BEGINHMM>
<NUMSTATES> 5
<STATE> 2
<MEAN> 39
 -1.599298e+01 2.146684e+00 -6.257317e-01 3.421615e+00 -1.394762e+00 -9.283904e-01 4.794270e-01 1.735858e-01 -6.978744e-01 -7.317762e-01 1.539941e-01 1.809196e+00 6.040636e+01 6.485043e-01 -4.583594e-02 2.806209e-01 -1.186356e-01 -7.346703e-01 -5.601574e-01 -1.528143e-01 3.453477e-02 -2.271836e-01 -1.569948e-01 1.101937e-01 -5.018817e-02 4.018362e-01 2.361678e-01 1.530789e-01 1.540398e-01 -5.426810e-02 -2.641903e-01 -2.255078e-01 -2.642840e-01 -1.969643e-01 -2.005010e-01 -6.419227e-02 -3.597011e-02 -5.354835e-02 1.159604e-01
<VARIANCE> 39
 2.804655e+01 9.316408e+00 1.748873e+01 1.053354e+01 3.721046e+01 3.464391e+01 3.346229e+01 2.186766e+01 2.566056e+01 1.710409e+01 1.552849e+01 1.225404e+01 1.448034e+01 2.100477e+00 9.656451e-01 1.374575e+00 1.284618e+00 3.748293e+00 2.874473e+00 2.502119e+00 2.169504e+00 2.216534e+00 1.784445e+00 1.731730e+00 1.277449e+00 1.058383e+00 2.675511e-01 1.638097e-01 2.259493e-01 2.309861e-01 4.723175e-01 4.387597e-01 4.720302e-01 4.074203e-01 4.200808e-01 3.458543e-01 3.265699e-01 2.548360e-01 1.147465e-01
<GCONST> 1.019089e+02
<STATE> 3
<MEAN> 39
 -9.725853e+00 3.990838e+00 2.232503e+00 2.033576e+00 -8.317767e+00 -7.733779e+00 -4.340907e+00 -1.784006e+00 -3.670963e+00 -2.878999e+00 -3.239805e-01 1.192217e+00 6.469431e+01 1.772636e+00 3.832661e-01 1.062578e+00 -6.505857e-01 -2.446395e+00 -1.766059e+00 -1.522331e+00 -6.170588e-01 -1.039194e+00 -1.336494e-01 1.850673e-01 -1.581168e-01 9.919676e-01 -2.285460e-01 -6.656151e-02 -4.227998e-02 -1.034928e-01 1.697991e-02 1.993421e-01 5.541374e-03 -2.715687e-02 8.333672e-02 1.665015e-01 8.635911e-02 4.854615e-02 -8.418946e-02
<VARIANCE> 39
 2.904767e+01 1.455725e+01 2.128490e+01 1.787909e+01 6.217625e+01 4.692707e+01 4.356273e+01 2.069975e+01 2.377178e+01 1.485426e+01 1.887621e+01 1.285233e+01 1.512755e+01 3.309940e+00 1.940225e+00 2.148212e+00 2.056463e+00 5.593309e+00 3.697473e+00 3.901811e+00 2.330470e+00 2.339682e+00 1.962162e+00 2.454443e+00 1.487082e+00 1.196538e+00 4.874942e-01 2.946385e-01 3.493904e-01 3.768431e-01 8.545464e-01 6.244681e-01 6.887663e-01 4.586605e-01 4.460370e-01 3.530869e-01 4.078625e-01 2.748986e-01 2.408111e-01
<GCONST> 1.128952e+02
<STATE> 4
<MEAN> 39
 -7.041743e+00 4.053635e+00 5.216713e+00 4.175588e-03 -1.435935e+01 -9.945739e+00 -7.555689e+00 -4.525921e+00 -7.296346e+00 -2.361753e+00 7.785218e-01 7.699383e-01 6.623025e+01 -2.001270e-01 1.183303e-01 -2.172584e-02 1.285091e-01 4.064258e-01 3.292684e-01 2.913909e-03 -2.415386e-01 -3.927677e-02 -4.968693e-02 -2.317640e-01 -1.060461e-01 -2.512528e-01 -1.795402e-01 -8.027656e-03 -1.399357e-01 9.302213e-02 3.506693e-01 2.274975e-01 1.463169e-01 3.210827e-02 1.307868e-01 -1.678136e-02 -7.532033e-02 -1.199380e-02 -1.197405e-01
<VARIANCE> 39
 1.203873e+01 1.334382e+01 2.141687e+01 1.840358e+01 5.294207e+01 3.336047e+01 1.884385e+01 1.789912e+01 1.639285e+01 1.262249e+01 1.967385e+01 1.253383e+01 1.086336e+01 8.975050e-01 8.518173e-01 1.277930e+00 1.426417e+00 3.631351e+00 1.729495e+00 1.598809e+00 1.422158e+00 1.406873e+00 1.164522e+00 1.420995e+00 9.837300e-01 6.061338e-01 1.585829e-01 1.656577e-01 1.820886e-01 2.449337e-01 4.822320e-01 3.252852e-01 3.011451e-01 2.657449e-01 2.423418e-01 2.291859e-01 2.583130e-01 1.912804e-01 9.188662e-02
<GCONST> 9.316227e+01
<TRANSP> 5
 0.000000e+00 1.000000e+00 0.000000e+00 0.000000e+00 0.000000e+00
 0.000000e+00 6.187609e-01 3.812391e-01 0.000000e+00 0.000000e+00
 0.000000e+00 0.000000e+00 4.102359e-01 5.897641e-01 0.000000e+00
 0.000000e+00 0.000000e+00 0.000000e+00 8.623747e-01 1.376253e-01
 0.000000e+00 0.000000e+00 0.000000e+00 0.000000e+00 0.000000e+00
<ENDHMM>
~h "ih"
<BEGINHMM>
<NUMSTATES> 5
<STATE> 2
<MEAN> 39
 -1.647016e+01 4.873552e+00 3.078249e+00 4.662528e+00 -1.293452e+00 2.656848e-01 2.799260e-01 -6.439229e+00 -3.046877e+00 -4.053682e+00 -2.604786e+00 -1.304943e+00 6.185809e+01 3.060630e+00 1.402792e+00 2.137630e+00 -3.868186e-01 -1.547033e+00 -8.417023e-01 -3.286621e+00 -1.994601e+00 -2.537668e+00 -1.453594e+00 -7.815503e-01 -9.690979e-01 3.479478e-01 1.159569e-01 3.388524e-01 -2.313588e-02 -3.093398e-01 -3.677912e-01 -3.190359e-01 -5.284749e-01 -2.534611e-02 -1.528600e-01 1.598364e-01 3.672398e-01 1.542493e-01 2.375486e-01
<VARIANCE> 39
 3.142899e+01 1.441728e+01 1.545953e+01 9.621519e+00 1.964973e+01 1.749741e+01 4.658022e+01 2.564158e+01 4.370657e+01 2.220208e+01 2.152106e+01 1.604384e+01 7.823311e+00 3.092882e+00 1.892704e+00 1.728156e+00 1.385273e+00 3.201032e+00 2.372841e+00 6.734987e+00 2.737205e+00 4.365335e+00 2.028206e+00 2.580143e+00 1.440550e+00 1.046210e+00 4.881142e-01 3.585980e-01 4.143035e-01 2.191805e-01 4.109541e-01 3.794090e-01 1.038594e+00 5.065206e-01 8.614028e-01 5.572465e-01 5.582831e-01 3.873792e-01 1.473131e-01
<GCONST> 1.107981e+02
<STATE> 3
<MEAN> 39
 -8.503232e+00 9.492106e+00 7.957483e+00 1.405270e+00 -7.215068e+00 -3.646146e+00 -9.974349e+00 -1.060110e+01 -9.509159e+00 -5.565028e+00 -1.702511e+00 -2.383265e+00 6.363363e+01 1.131458e+00 4.880993e-01 8.063575e-01 -9.718096e-01 -1.401715e+00 -4.395314e-01 -1.894192e+00 -7.132642e-01 -7.019562e-01 4.750207e-01 8.847232e-01 1.485353e-01 4.927769e-01 -7.925165e-01 -4.891397e-01 -5.550926e-01 2.187957e-01 6.318207e-01 3.920394e-01 8.751750e-01 5.215761e-01 6.859157e-01 4.006166e-01 1.433162e-01 1.920266e-01 -1.824922e-01
<VARIANCE> 39
 5.365252e+00 5.566117e+00 1.294697e+01 1.831914e+01 2.314197e+01 8.460022e+00 1.839468e+01 1.345707e+01 1.162800e+01 1.197233e+01 1.226353e+01 1.032708e+01 3.895886e+00 1.657572e+00 1.119114e+00 1.739207e+00 1.194312e+00 2.183095e+00 1.660375e+00 3.953023e+00 2.351247e+00 2.160027e+00 1.756087e+00 1.992777e+00 1.119544e+00 3.528161e-01 3.066304e-01 1.784976e-01 2.971415e-01 2.572191e-01 4.155441e-01 2.722133e-01 7.624454e-01 3.823645e-01 4.724141e-01 3.675968e-01 4.453777e-01 2.531644e-01 6.616891e-02
<GCONST> 9.289113e+01
<STATE> 4
<MEAN> 39
 -8.398140e+00 8.293839e+00 7.581123e+00 1.457914e+00 -7.660834e+00 -3.943790e+00 -1.062646e+01 -1.011526e+01 -9.554934e+00 -4.148953e+00 -1.827078e+00 -2.026738e+00 6.381565e+01 2.068665e-02 -2.235630e-01 -3.553471e-01 2.209471e-01 9.482528e-02 -2.876952e-01 1.810494e-01 1.711498e-01 9.702266e-02 1.493887e-01 -7.597142e-02 1.194491e-01 -2.383961e-02 -5.745977e-02 -5.553348e-02 -1.114600e-01 8.376148e-02 1.069598e-01 -4.218173e-02 1.516869e-01 1.247834e-01 7.312459e-02 -5.146738e-02 -6.268573e-02 1.192355e-02 -3.226092e-02
<VARIANCE> 39
 5.746229e+00 7.068751e+00 1.999707e+01 1.297461e+01 3.249924e+01 1.589460e+01 1.526306e+01 1.701897e+01 1.097269e+01 1.892208e+01 1.749548e+01 1.106118e+01 5.137352e+00 2.181561e-01 5.196262e-01 9.232273e-01 8.413848e-01 1.597309e+00 1.345846e+00 1.205905e+00 1.446312e+00 1.112720e+00 1.116345e+00 1.213796e+00 8.887256e-01 2.151583e-01 4.772936e-02 8.589303e-02 1.556358e-01 1.537556e-01 3.164442e-01 2.198823e-01 2.328156e-01 2.150922e-01 2.087871e-01 2.168745e-01 2.755072e-01 1.870348e-01 3.049667e-02
<GCONST> 7.819315e+01
<TRANSP> 5
 0.000000e+00 1.000000e+00 0.000000e+00 0.000000e+00 0.000000e+00
 0.000000e+00 6.385759e-01 3.614241e-01 0.000000e+00 0.000000e+00
 0.000000e+00 0.000000e+00 5.875158e-01 4.124842e-01 0.000000e+00
 0.000000e+00 0.000000e+00 0.000000e+00 8.969980e-01 1.030019e-01
 0.000000e+00 0.000000e+00 0.000000e+00 0.000000e+00 0.000000e+00
<ENDHMM>
~h "ll"
<BEGINHMM>
<NUMSTATES> 5
<STATE> 2
<MEAN> 39
 -1.784105e+01 -3.276997e-02 -2.023987e+00 4.343320e+00 2.271400e+00 3.752336e+00 3.161234e+00 3.247337e+00 8.866866e-01 1.504262e+00 1.500603e+00 2.765533e+00 5.738638e+01 -6.403959e-03 -8.515887e-03 -8.284400e-03 -3.692009e-03 -1.227780e-02 -1.776279e-02 -2.195447e-02 -2.006583e-02 -1.299503e-02 -1.198983e-02 -1.591475e-02 -2.112873e-02 -4.375472e-03 -8.425357e-04 -2.749764e-04 1.674214e-03 -4.660259e-04 7.414748e-05 7.352755e-04 -5.239645e-03 -7.631207e-03 -4.521266e-03 -3.241219e-03 -3.649802e-03 -4.093185e-03 4.865414e-05
<VARIANCE> 39
 9.328017e-01 1.707690e+00 3.442674e+00 4.466457e+00 6.997774e+00 8.235939e+00 9.652587e+00 1.044350e+01 1.183945e+01 1.127598e+01 1.019765e+01 9.172717e+00 4.489980e-01 8.306710e-02 1.731202e-01 2.957372e-01 4.582828e-01 6.997128e-01 7.974664e-01 9.471182e-01 1.039861e+00 1.151567e+00 1.126335e+00 9.935116e-01 8.738961e-01 3.230720e-02 1.508488e-02 3.518406e-02 5.939733e-02 9.371326e-02 1.452143e-01 1.641818e-01 2.006220e-01 2.108352e-01 2.389800e-01 2.323584e-01 2.037316e-01 1.808196e-01 5.222306e-03
<GCONST> 5.094350e+01
<STATE> 3
<MEAN> 39
 -1.885375e+01 2.101448e-01 -1.232080e+00 3.821260e+00 2.962074e+00 3.379863e+00 3.718275e+00 2.843778e+00 2.179383e+00 1.706989e+00 1.817341e+00 2.165050e+00 5.649377e+01 -1.849727e-04 -3.020905e-03 5.657350e-04 -6.844221e-03 -1.225803e-03 6.029324e-03 -1.022194e-02 -2.611108e-02 -6.809140e-03 -3.019314e-02 -3.452872e-02 -4.293842e-03 2.196213e-03 8.568066e-03 5.835765e-03 8.685690e-03 5.990728e-03 -4.736610e-03 -5.669443e-03 2.287286e-03 4.234450e-03 -1.294991e-02 -7.938254e-03 -1.007032e-02 5.116098e-04 5.234557e-03
<VARIANCE> 39
 1.468422e+00 2.605686e+00 4.017417e+00 6.219560e+00 9.249441e+00 1.026988e+01 1.232488e+01 1.180239e+01 1.524506e+01 1.207929e+01 1.257778e+01 9.888588e+00 8.531625e-01 1.129188e-01 2.397025e-01 3.796202e-01 6.188162e-01 9.356720e-01 1.070410e+00 1.161757e+00 1.246865e+00 1.299310e+00 1.097962e+00 1.204404e+00 9.748864e-01 3.760741e-02 2.332228e-02 4.966273e-02 7.969667e-02 1.311453e-01 2.044314e-01 2.277051e-01 2.452144e-01 2.605556e-01 2.744929e-01 2.291545e-01 2.537454e-01 2.029284e-01 6.765398e-03
<GCONST> 6.033273e+01
<STATE> 4
<MEAN> 39
 -1.814476e+01 -3.019686e-01 -1.537138e+00 4.110157e+00 2.180138e+00 3.202369e+00 2.795857e+00 3.110410e+00 1.146514e+00 1.136096e+00 1.414689e+00 2.187150e+00 5.754111e+01 9.174393e-02 1.194952e-01 1.296383e-01 2.315701e-02 -8.190183e-02 -1.162329e-01 -9.810861e-02 -2.000158e-01 -2.351927e-01 -1.328856e-01 -1.994796e-01 -1.261357e-01 8.284245e-02 8.752436e-02 1.217348e-01 1.032447e-01 3.457699e-02 -1.694955e-02 -1.008575e-01 -9.958394e-02 -1.625386e-01 -1.369115e-01 -8.442616e-02 -1.100956e-01 -9.705856e-02 5.764255e-02
<VARIANCE> 39
 2.080755e+00 3.169152e+00 5.341355e+00 6.528366e+00 9.816861e+00 1.074402e+01 1.283245e+01 1.331017e+01 1.273876e+01 1.055446e+01 1.167055e+01 9.762597e+00 1.191355e+00 2.326350e-01 3.222829e-01 5.892324e-01 8.245552e-01 1.077650e+00 1.342628e+00 1.340797e+00 1.591622e+00 1.364697e+00 1.226081e+00 1.426789e+00 1.217990e+00 1.278694e-01 5.923684e-02 9.496006e-02 1.409152e-01 1.717442e-01 2.203500e-01 2.981491e-01 3.122543e-01 3.658411e-01 3.211169e-01 2.685262e-01 3.128200e-01 2.864331e-01 3.057224e-02
<GCONST> 7.140669e+01
<TRANSP> 5
 0.000000e+00 1.000000e+00 0.000000e+00 0.000000e+00 0.000000e+00
 0.000000e+00 9.771515e-01 2.284851e-02 0.000000e+00 0.000000e+00
 0.000000e+00 0.000000e+00 9.377559e-01 6.224413e-02 0.000000e+00
 0.000000e+00 0.000000e+00 0.000000e+00 8.501492e-01 1.498509e-01
 0.000000e+00 0.000000e+00 0.000000e+00 0.000000e+00 0.000000e+00
<ENDHMM>
~h "ng"
<BEGINHMM>
<NUMSTATES> 5
<STATE> 2
<MEAN> 39
 -8.072989e+00 9.194185e+00 4.189654e+00 5.126944e+00 -2.657151e+00 -5.950763e+00 -9.772517e+00 -1.211262e+01 -1.094416e+01 -3.763610e+00 -3.119297e+00 -8.229674e-01 6.231633e+01 -3.060359e-01 -6.474134e-02 1.008861e-01 5.289449e-01 4.426184e-01 -9.743863e-02 1.013103e-02 2.055421e-01 -2.041429e-01 -6.832802e-01 -3.832823e-01 9.020479e-02 -2.363643e-01 -1.057787e-01 -1.117674e-01 2.246246e-02 -2.688719e-02 3.314760e-02 1.658412e-01 9.875520e-02 1.056352e-01 6.121094e-02 -2.867717e-02 -7.588940e-02 -9.091739e-02 -1.832444e-02
<VARIANCE> 39
 2.799889e+00 5.933950e+00 3.424035e+00 7.639695e+00 8.030416e+00 7.888619e+00 9.601818e+00 1.298629e+01 1.091744e+01 1.406721e+01 1.363923e+01 8.675714e+00 1.365262e+00 1.427992e-01 5.264910e-01 3.810232e-01 9.368314e-01 5.996642e-01 8.839976e-01 7.264876e-01 8.377810e-01 7.429582e-01 1.056285e+00 1.036782e+00 8.775043e-01 8.956860e-02 2.353251e-02 1.132742e-01 8.856985e-02 1.621635e-01 1.180669e-01 1.695256e-01 1.871683e-01 1.858103e-01 1.611513e-01 2.249817e-01 1.981832e-01 1.755374e-01 1.530254e-02
<GCONST> 6.105052e+01
<STATE> 3
<MEAN> 39
 -1.022300e+01 7.692253e+00 5.133074e+00 8.255816e+00 -1.154160e+00 -6.593842e+00 -9.579413e+00 -1.047200e+01 -1.171356e+01 -7.456450e+00 -5.729506e+00 -1.358388e+00 6.133475e+01 -1.068956e+00 -8.106017e-01 -3.476969e-01 2.215489e-01 1.038632e+00 1.209680e+00 1.223534e+00 1.036412e+00 3.855641e-01 -4.146606e-01 -6.575583e-01 -3.953224e-01 -5.755536e-01 -1.547446e-01 -1.930762e-01 -3.497251e-01 -4.281574e-01 2.614676e-02 4.696141e-01 4.705477e-01 3.601606e-01 4.725803e-01 4.904449e-01 3.966082e-01 1.878982e-01 -7.945003e-02
<VARIANCE> 39
 3.534913e+00 1.361104e+01 4.875853e+00 1.575920e+01 8.328971e+00 1.833717e+01 1.496533e+01 1.485467e+01 1.493307e+01 1.727210e+01 1.344020e+01 1.063457e+01 3.074174e+00 3.109913e-01 1.313289e+00 5.191013e-01 1.494626e+00 9.027030e-01 1.887819e+00 1.373496e+00 1.388661e+00 1.411457e+00 1.768245e+00 1.367440e+00 1.247896e+00 2.149580e-01 4.327270e-02 3.179334e-01 8.139323e-02 3.403286e-01 1.540935e-01 3.714286e-01 2.366537e-01 2.729765e-01 2.802397e-01 4.175721e-01 2.575475e-01 2.440159e-01 5.010842e-02
<GCONST> 8.052587e+01
<STATE> 4
<MEAN> 39
 -1.390479e+01 4.809930e+00 2.493732e+00 6.571397e+00 1.745053e+00 -1.151373e+00 -4.248712e+00 -6.072283e+00 -8.195561e+00 -5.916869e+00 -5.443349e+00 -8.370364e-01 5.922424e+01 -1.018851e+00 -1.123705e+00 -1.030734e+00 -6.536013e-01 3.991389e-01 1.257408e+00 1.617780e+00 1.660268e+00 1.558383e+00 1.164251e+00 8.474166e-01 5.832945e-01 -4.738185e-01 3.452680e-01 6.791096e-02 -2.669271e-01 -4.415078e-01 -3.259567e-01 -1.506553e-01 -2.283604e-01 -1.361420e-01 -1.347686e-02 2.934361e-01 4.311323e-01 1.980672e-01 2.434196e-01
<VARIANCE> 39
 3.952232e+00 5.403405e+00 6.159863e+00 7.532299e+00 8.661171e+00 1.330720e+01 2.014234e+01 1.844365e+01 1.885739e+01 1.538090e+01 1.301121e+01 1.374554e+01 1.573734e+00 4.454072e-01 6.245226e-01 4.475372e-01 8.259191e-01 1.080634e+00 1.784678e+00 1.658979e+00 1.508968e+00 1.369911e+00 1.372673e+00 1.294603e+00 1.141613e+00 2.030220e-01 1.273333e-01 1.192624e-01 1.735538e-01 2.838861e-01 1.987583e-01 3.718323e-01 3.248844e-01 3.266526e-01 3.425628e-01 3.732713e-01 3.242835e-01 2.946478e-01 6.602383e-02
<GCONST> 8.010925e+01
<TRANSP> 5
 0.000000e+00 1.000000e+00 0.000000e+00 0.000000e+00 0.000000e+00
 0.000000e+00 8.444560e-01 1.555441e-01 0.000000e+00 0.000000e+00
 0.000000e+00 0.000000e+00 4.771475e-01 5.228525e-01 0.000000e+00
 0.000000e+00 0.000000e+00 0.000000e+00 6.590006e-01 3.409994e-01
 0.000000e+00 0.000000e+00 0.000000e+00 0.000000e+00 0.000000e+00
<ENDHMM>
~h "oh"
<BEGINHMM>
<NUMSTATES> 5
<STATE> 2
<MEAN> 39
 -6.775927e+00 5.122150e+00 -3.375246e+00 -4.385649e+00 -6.675229e+00 -1.589092e+00 -5.156237e+00 -6.360970e+00 -4.371899e+00 -1.372478e+00 -1.176036e+00 3.013351e-01 6.443457e+01 1.201435e+00 7.251015e-01 -6.053363e-01 -1.756471e+00 -1.014290e+00 3.139813e-01 -2.044318e-01 -8.809013e-01 -6.057189e-01 -8.951945e-02 3.983166e-01 3.255247e-01 4.922235e-01 -2.827734e-01 -1.304016e-01 2.409013e-02 9.112096e-02 1.616371e-01 1.682910e-01 3.054061e-01 2.948120e-01 7.932898e-02 -9.440277e-02 5.996215e-02 1.964061e-01 -8.853865e-02
<VARIANCE> 39
 3.255558e+01 1.470810e+01 1.764264e+01 5.796145e+01 3.745185e+01 2.742625e+01 4.300077e+01 4.143763e+01 3.089687e+01 3.589564e+01 2.779132e+01 1.866950e+01 1.280356e+01 2.987466e+00 1.675317e+00 2.241657e+00 6.209994e+00 4.630458e+00 3.335019e+00 3.180107e+00 3.214460e+00 2.895282e+00 3.570147e+00 3.240711e+00 2.468862e+00 1.169706e+00 4.342721e-01 3.129269e-01 3.635772e-01 1.080269e+00 7.661394e-01 4.619772e-01 6.557615e-01 6.673616e-01 6.244952e-01 7.803327e-01 6.467897e-01 4.337591e-01 1.910673e-01
<GCONST> 1.204483e+02
<STATE> 3
<MEAN> 39
 -4.032606e+00 6.851768e+00 -5.263897e+00 -9.138590e+00 -9.099253e+00 7.334195e-03 -4.436408e+00 -7.987090e+00 -6.818860e+00 -2.680442e+00 2.969132e-01 3.093688e+00 6.556438e+01 -6.763671e-01 8.552345e-03 3.521979e-01 8.449600e-01 6.803749e-01 2.607596e-02 3.826796e-01 6.375373e-01 8.164286e-02 -3.695272e-01 -3.870982e-01 -2.118017e-01 -4.478558e-01 -3.669359e-01 -1.436176e-01 2.259844e-01 5.131330e-01 3.120585e-01 -5.274109e-02 1.096702e-02 2.988199e-01 2.194220e-01 -1.060682e-02 -2.134559e-01 -2.516441e-01 -1.562095e-01
<VARIANCE> 39
 1.767931e+01 6.832896e+00 1.349966e+01 4.437146e+01 2.713697e+01 1.883625e+01 2.670012e+01 2.848235e+01 1.700408e+01 2.493023e+01 2.478361e+01 1.815297e+01 7.641909e+00 1.108938e+00 6.323264e-01 1.135437e+00 3.528483e+00 1.987584e+00 1.826225e+00 2.759988e+00 3.173150e+00 2.115864e+00 3.112360e+00 2.906185e+00 2.415809e+00 4.324159e-01 1.269425e-01 1.206190e-01 2.120605e-01 5.002891e-01 3.325323e-01 4.369382e-01 3.892613e-01 4.555090e-01 3.790924e-01 4.571834e-01 5.002835e-01 4.335810e-01 6.157662e-02
<GCONST> 1.012670e+02
<STATE> 4
<MEAN> 39
 -1.324539e+01 3.864523e+00 -1.594070e+00 9.294795e-01 -1.271271e+00 7.219098e-01 -2.245878e-01 -1.114600e+00 -3.362206e+00 -2.601432e+00 -2.032046e+00 7.391583e-01 6.000884e+01 -8.362660e-01 -3.670139e-01 2.896903e-01 7.497690e-01 6.810322e-01 2.882481e-01 2.144174e-01 5.171967e-01 4.108320e-01 1.753396e-01 2.060888e-02 -1.013556e-01 -3.567242e-01 6.607723e-02 -2.848008e-02 -7.687855e-02 -1.504379e-01 -1.100643e-01 1.258491e-03 -7.046995e-02 -1.184433e-01 2.289155e-03 9.683137e-02 1.197719e-01 1.021534e-01 8.536994e-02
<VARIANCE> 39
 2.771357e+01 1.173275e+01 1.009744e+01 3.034998e+01 2.549787e+01 1.747599e+01 2.486760e+01 2.655041e+01 2.499730e+01 2.462114e+01 2.383864e+01 1.932842e+01 9.100202e+00 1.269713e+00 5.735102e-01 8.342661e-01 1.968791e+00 1.548030e+00 1.386811e+00 1.735955e+00 2.054257e+00 1.819606e+00 1.856842e+00 2.001875e+00 1.902718e+00 2.942063e-01 1.066576e-01 9.710143e-02 1.644319e-01 3.395461e-01 2.608517e-01 2.590736e-01 3.028736e-01 3.397823e-01 3.155091e-01 3.404128e-01 3.865134e-01 4.067358e-01 4.151678e-02
<GCONST> 9.440117e+01
<TRANSP> 5
 0.000000e+00 1.000000e+00 0.000000e+00 0.000000e+00 0.000000e+00
 0.000000e+00 6.085368e-01 3.914631e-01 0.000000e+00 0.000000e+00
 0.000000e+00 0.000000e+00 6.593888e-01 3.406112e-01 0.000000e+00
 0.000000e+00 0.000000e+00 0.000000e+00 7.668693e-01 2.331307e-01
 0.000000e+00 0.000000e+00 0.000000e+00 0.000000e+00 0.000000e+00
<ENDHMM>
~h "th"
<BEGINHMM>
<NUMSTATES> 5
<STATE> 2
<MEAN> 39
 -2.074533e+01 2.685641e+00 -3.242332e+00 3.425102e+00 2.856389e+00 1.388498e+00 3.154623e+00 2.204935e+00 9.221848e-01 6.933784e-01 9.458739e-01 2.519595e+00 5.957300e+01 -3.859107e-01 7.188271e-02 -1.720507e-01 -3.947166e-02 8.527075e-02 -9.369335e-02 1.959220e-01 7.730938e-02 2.538919e-01 1.233916e-01 1.141887e-01 1.248647e-01 1.482139e-01 6.586137e-02 7.074094e-03 4.235742e-02 -9.020904e-03 -3.532470e-02 -2.411565e-02 -1.346289e-02 -3.789442e-02 -4.062492e-02 -4.172739e-02 -4.490951e-02 -3.277634e-02 1.364046e-02
<VARIANCE> 39
 1.795793e+01 1.085227e+01 9.340626e+00 9.977846e+00 1.202380e+01 1.468150e+01 1.652042e+01 1.689563e+01 1.923902e+01 1.392856e+01 1.375249e+01 1.078572e+01 6.326847e+00 3.954753e-01 4.819450e-01 5.304348e-01 7.269996e-01 8.886981e-01 1.146850e+00 1.189401e+00 1.439809e+00 1.478164e+00 1.333404e+00 1.291761e+00 1.184874e+00 1.458255e-01 6.225184e-02 7.163598e-02 1.023634e-01 1.485256e-01 1.761262e-01 2.256099e-01 2.332121e-01 2.832280e-01 2.872140e-01 2.536198e-01 2.519383e-01 2.372353e-01 1.701817e-02
<GCONST> 7.679799e+01
<STATE> 3
<MEAN> 39
 -2.530566e+01 5.019454e+00 -5.267384e+00 2.974952e+00 2.797115e+00 -1.030320e+00 5.705379e+00 1.215074e+00 3.465000e+00 -1.978531e-02 1.294463e+00 2.835902e+00 6.296614e+01 5.353898e-01 -5.331812e-01 7.022371e-01 3.381860e-02 -3.185357e-01 -2.621635e-01 3.598087e-02 -1.770250e-01 -2.151177e-03 -1.006340e-01 -2.489250e-01 -8.112737e-02 -4.749842e-02 6.046755e-01 5.777333e-02 4.040738e-01 6.588131e-02 -2.031872e-01 -1.444441e-01 -4.719764e-01 -2.698909e-01 -4.249165e-01 -1.447995e-01 -1.998939e-01 -1.551173e-01 -1.018058e-01
<VARIANCE> 39
 1.452847e+01 6.613022e+00 9.241223e+00 9.711617e+00 1.428744e+01 1.559519e+01 1.515685e+01 2.100807e+01 1.664754e+01 1.433982e+01 1.299308e+01 1.095550e+01 5.300597e+00 1.094815e+00 6.962812e-01 1.095312e+00 8.850127e-01 9.990229e-01 1.831680e+00 1.684543e+00 1.737401e+00 1.643485e+00 1.691914e+00 1.439932e+00 1.357206e+00 3.473651e-01 2.230020e-01 1.701919e-01 1.531855e-01 1.722228e-01 2.585515e-01 3.602876e-01 4.506239e-01 3.908878e-01 3.907787e-01 3.655442e-01 2.771030e-01 2.584480e-01 5.839324e-02
<GCONST> 8.758197e+01
<STATE> 4
<MEAN> 39
 -2.203353e+01 3.429748e+00 -2.525791e+00 3.852831e+00 1.433099e+00 -3.109849e+00 4.550258e+00 8.714923e-01 3.101646e+00 -8.019505e-01 3.305657e-01 3.105884e+00 6.259620e+01 3.065509e+00 -6.250524e-02 1.837846e+00 8.023499e-02 -1.473744e+00 -1.084005e+00 -1.837545e+00 -9.604550e-01 -1.771446e+00 -6.693224e-01 -7.497652e-01 -6.716902e-01 -8.845545e-02 7.592694e-01 3.494835e-01 1.808847e-01 -2.630084e-01 -7.421624e-01 -3.400985e-01 -8.095359e-01 -3.521992e-01 -6.572649e-01 -1.676592e-01 1.616522e-02 -2.293905e-01 2.712843e-01
<VARIANCE> 39
 3.135849e+01 9.571089e+00 1.389904e+01 1.217200e+01 1.807966e+01 2.736605e+01 2.581634e+01 1.968269e+01 2.537041e+01 2.048445e+01 1.513066e+01 1.282281e+01 7.055339e+00 4.144198e+00 1.217895e+00 1.397856e+00 1.447467e+00 3.819301e+00 3.831954e+00 3.653874e+00 2.097263e+00 3.502510e+00 1.933388e+00 1.515902e+00 1.622318e+00 7.806060e-01 5.143108e-01 2.549708e-01 3.181552e-01 3.161379e-01 5.861488e-01 5.075995e-01 6.094840e-01 3.817160e-01 5.528253e-01 5.408505e-01 4.061365e-01 2.965117e-01 1.877875e-01
<GCONST> 1.060353e+02
<TRANSP> 5
 0.000000e+00 1.000000e+00 0.000000e+00 0.000000e+00 0.000000e+00
 0.000000e+00 9.413872e-01 5.861282e-02 0.000000e+00 0.000000e+00
 0.000000e+00 0.000000e+00 5.002435e-01 4.997565e-01 0.000000e+00
 0.000000e+00 0.000000e+00 0.000000e+00 5.632644e-01 4.367356e-01
 0.000000e+00 0.000000e+00 0.000000e+00 0.000000e+00 0.000000e+00
<ENDHMM>
~h "uh"
<BEGINHMM>
<NUMSTATES> 5
<STATE> 2
<MEAN> 39
 -7.411247e+00 7.845673e+00 1.500580e-01 2.747576e-01 -5.754300e+00 -4.988787e+00 -5.353816e+00 -3.352990e+00 -3.313622e+00 -3.629449e+00 -5.739332e+00 -4.141126e+00 6.286368e+01 1.852285e+00 1.217023e+00 -9.377785e-02 -1.166963e+00 -1.635426e+00 -1.227121e+00 -1.092370e+00 -6.349581e-01 -3.390874e-02 1.994634e-02 -2.684700e-01 -7.337257e-01 9.653612e-01 -2.663162e-01 -2.079812e-01 -8.219960e-02 2.230678e-02 1.914781e-01 3.051768e-01 2.697791e-01 1.882722e-01 1.567730e-01 3.054542e-01 3.822805e-01 2.653577e-01 -1.220116e-01
<VARIANCE> 39
 3.086396e+01 1.886583e+01 1.114152e+01 4.330758e+01 4.585729e+01 3.044794e+01 4.100177e+01 4.072849e+01 2.111504e+01 2.312477e+01 2.313047e+01 2.257326e+01 1.018961e+01 2.128260e+00 1.919907e+00 1.042530e+00 2.382442e+00 3.917752e+00 3.314688e+00 2.613950e+00 2.236594e+00 2.165091e+00 3.153612e+00 3.023894e+00 2.549755e+00 6.063591e-01 4.867563e-01 3.518551e-01 1.888415e-01 5.138301e-01 8.079441e-01 6.626166e-01 5.423167e-01 4.302565e-01 4.179810e-01 5.729488e-01 5.129305e-01 4.682333e-01 1.480309e-01
<GCONST> 1.128224e+02
<STATE> 3
<MEAN> 39
 -3.632849e+00 1.005588e+01 -9.771575e-01 -2.206528e+00 -7.081335e+00 -5.099899e+00 -6.682728e+00 -6.196496e+00 -5.556616e+00 -3.327691e+00 -4.430222e+00 -3.480469e+00 6.489799e+01 -5.763678e-02 -1.257198e-01 1.097450e-01 2.532174e-01 3.543667e-01 3.399590e-01 -1.144128e-01 -6.080681e-01 -6.848500e-01 -2.167630e-01 2.442529e-01 3.208328e-01 1.273366e-02 -1.416263e-01 -6.051697e-02 1.804953e-01 1.956821e-01 3.248887e-02 -6.460291e-02 -3.431236e-02 6.353561e-03 -4.404278e-02 -9.747914e-02 -5.783072e-02 -1.961284e-02 -6.292749e-02
<VARIANCE> 39
 7.622859e+00 9.415852e+00 9.148723e+00 2.969621e+01 2.961646e+01 1.852843e+01 2.414313e+01 3.688024e+01 2.973208e+01 2.415472e+01 1.726141e+01 1.674047e+01 3.244015e+00 3.250863e-01 4.468457e-01 9.954680e-01 1.604033e+00 1.926282e+00 1.735361e+00 1.607980e+00 1.973673e+00 2.049031e+00 2.581949e+00 1.707165e+00 1.387913e+00 1.355375e-01 5.493043e-02 9.386717e-02 1.875179e-01 2.327966e-01 2.841478e-01 3.599129e-01 3.413612e-01 3.844196e-01 4.409148e-01 5.537182e-01 3.453496e-01 2.732835e-01 2.499832e-02
<GCONST> 8.933559e+01
<STATE> 4
<MEAN> 39
 -1.012726e+01 6.112259e+00 1.541223e+00 4.092674e+00 -9.871795e-01 -2.261699e+00 -5.784887e+00 -6.645027e+00 -5.826666e+00 -1.772330e+00 -2.195591e+00 -5.428597e-01 6.163311e+01 -2.114142e-01 -7.755936e-02 4.247451e-01 3.843145e-01 -6.799027e-02 -2.312501e-01 -1.341556e-01 2.494270e-04 3.347479e-02 6.526512e-02 1.709259e-02 -4.445339e-03 -7.558925e-02 8.569438e-02 -3.040266e-02 -1.258602e-01 -2.206433e-01 -1.256172e-01 1.058769e-01 1.171279e-01 7.814845e-02 -2.022832e-02 -1.471123e-01 -4.639921e-02 -2.253079e-03 7.682331e-02
<VARIANCE> 39
 2.786959e+01 2.408753e+01 1.478662e+01 1.231079e+01 1.846983e+01 2.252342e+01 4.419212e+01 5.503329e+01 2.996761e+01 1.726525e+01 1.434118e+01 1.365306e+01 8.577738e+00 2.332409e-01 2.572503e-01 1.025927e+00 1.107924e+00 9.053376e-01 1.169598e+00 1.256512e+00 1.144027e+00 1.169890e+00 1.509494e+00 9.885761e-01 8.589724e-01 1.072002e-01 4.468585e-02 6.736771e-02 1.910803e-01 2.041748e-01 1.629516e-01 2.517767e-01 2.457764e-01 2.200837e-01 2.403201e-01 2.346632e-01 1.992722e-01 1.953727e-01 1.941723e-02
<GCONST> 8.157679e+01
<TRANSP> 5
 0.000000e+00 1.000000e+00 0.000000e+00 0.000000e+00 0.000000e+00
 0.000000e+00 6.803653e-01 3.196347e-01 0.000000e+00 0.000000e+00
 0.000000e+00 0.000000e+00 8.385901e-01 1.614099e-01 0.000000e+00
 0.000000e+00 0.000000e+00 0.000000e+00 8.232591e-01 1.767409e-01
 0.000000e+00 0.000000e+00 0.000000e+00 0.000000e+00 0.000000e+00
<ENDHMM>
~h "sil"
<BEGINHMM>
<NUMSTATES> 5
<STATE> 2
<MEAN> 39
 -1.423612e+01 2.665786e+00 -8.846844e-01 1.896296e+00 -9.698491e-01 -2.623844e-01 1.031021e-01 -1.057252e+00 -1.587746e+00 -5.507420e-01 -7.102939e-01 1.525166e+00 6.082557e+01 1.469557e-02 -5.743751e-02 1.039033e-02 1.026329e-03 1.918351e-02 3.965865e-02 -7.103266e-03 4.968612e-02 2.016757e-02 5.066821e-02 2.409445e-02 4.836932e-02 -4.954032e-02 -3.680982e-03 2.526647e-03 -6.684273e-03 -3.600496e-03 -8.148760e-03 3.568572e-03 1.031862e-02 1.565733e-02 9.606427e-04 6.333907e-03 1.972964e-03 6.306323e-03 6.381079e-03
<VARIANCE> 39
 4.197233e+01 1.411034e+01 2.158712e+01 3.032608e+01 4.725502e+01 3.895123e+01 3.895411e+01 3.751867e+01 3.523341e+01 2.164050e+01 2.282118e+01 1.797227e+01 1.655342e+01 1.279529e+00 8.029394e-01 1.173501e+00 1.748006e+00 2.131066e+00 1.816258e+00 1.954698e+00 1.949913e+00 1.934034e+00 1.699077e+00 1.660687e+00 1.394031e+00 5.203534e-01 1.585356e-01 1.351577e-01 1.846615e-01 2.939923e-01 3.533514e-01 3.243108e-01 3.449730e-01 3.571724e-01 3.429153e-01 3.073102e-01 2.978832e-01 2.575698e-01 7.459676e-02
<GCONST> 1.011927e+02
<STATE> 3
<MEAN> 39
 -1.671694e+01 1.776490e+00 -2.744346e-01 5.279616e+00 3.165868e+00 3.821204e+00 3.134035e+00 2.672815e+00 9.274662e-01 7.027672e-01 9.830068e-01 1.644678e+00 5.783640e+01 -4.595174e-02 -9.512191e-02 -8.163176e-03 -1.137178e-02 1.214640e-02 6.290652e-02 4.372550e-02 9.694666e-02 9.780079e-03 1.331693e-01 8.730380e-02 8.315039e-02 -7.460961e-02 -7.319989e-03 3.050680e-02 -2.347575e-02 -1.940629e-02 -2.693289e-02 -4.660545e-02 -1.389570e-02 -5.030198e-02 -3.631419e-02 -5.936601e-02 -3.410730e-02 -4.842250e-02 3.517953e-02
<VARIANCE> 39
 2.670161e+00 4.390643e+00 5.319839e+00 6.156097e+00 9.183046e+00 1.253957e+01 1.517591e+01 1.660557e+01 1.920906e+01 1.546815e+01 1.585816e+01 1.259428e+01 1.033960e+00 1.890024e-01 3.204372e-01 4.721584e-01 6.045328e-01 8.188853e-01 1.044128e+00 1.234432e+00 1.406121e+00 1.474373e+00 1.364736e+00 1.326693e+00 1.109539e+00 6.079972e-02 3.712936e-02 6.446615e-02 9.414361e-02 1.200484e-01 1.652298e-01 2.129403e-01 2.507335e-01 2.788512e-01 2.948234e-01 2.668042e-01 2.588585e-01 2.241554e-01 1.138080e-02
<GCONST> 6.715987e+01
<STATE> 4
<MEAN> 39
 -1.787277e+01 1.697763e-01 -1.841076e+00 4.170994e+00 2.326093e+00 3.501057e+00 2.978810e+00 2.920381e+00 6.899804e-01 1.366764e+00 1.109375e+00 2.730392e+00 5.731496e+01 -9.350827e-03 -4.553988e-03 -1.023925e-02 -9.121768e-03 -1.141641e-02 -2.093053e-02 -1.162130e-02 -9.913499e-03 -9.965606e-03 -6.668612e-03 -1.253158e-02 -1.348054e-02 -8.462869e-04 -1.274807e-03 3.404491e-03 3.972663e-04 1.122111e-03 -5.934279e-05 -1.219856e-03 3.925244e-04 -1.445214e-03 3.842734e-03 -1.539350e-03 -2.051734e-03 -1.724638e-03 3.512944e-03
<VARIANCE> 39
 1.477004e+00 2.326708e+00 3.763455e+00 5.376834e+00 7.476777e+00 9.161525e+00 1.063740e+01 1.160753e+01 1.229454e+01 1.101853e+01 1.138344e+01 9.896694e+00 7.511229e-01 9.617174e-02 2.008272e-01 3.392420e-01 5.212069e-01 7.077283e-01 8.888480e-01 1.032932e+00 1.164312e+00 1.149192e+00 1.125460e+00 1.069593e+00 9.392080e-01 3.512005e-02 1.790961e-02 4.069970e-02 6.898297e-02 1.069767e-01 1.450347e-01 1.836597e-01 2.113474e-01 2.372271e-01 2.328861e-01 2.316192e-01 2.175002e-01 1.897650e-01 5.821852e-03
<GCONST> 5.525816e+01
<TRANSP> 5
 0.000000e+00 1.000000e+00 0.000000e+00 0.000000e+00 0.000000e+00
 0.000000e+00 9.127679e-01 8.723210e-02 0.000000e+00 0.000000e+00
 0.000000e+00 0.000000e+00 8.442594e-01 1.557406e-01 0.000000e+00
 0.000000e+00 0.000000e+00 0.000000e+00 9.697389e-01 3.026108e-02
 0.000000e+00 0.000000e+00 0.000000e+00 0.000000e+00 0.000000e+00
<ENDHMM>
