~o
<STREAMINFO> 1 39
<VECSIZE> 39<NULLD><MFCC_D_A_0><DIAGC>
~h "proto"
<BEGINHMM>
<NUMSTATES> 5
<STATE> 2
<MEAN> 39
 -1.359490e+01 2.970981e+00 -1.029695e+00 1.841132e+00 -2.131083e+00 -4.969317e-01 -1.202852e+00 -1.319812e+00 -2.028185e+00 -1.232505e+00 -6.091049e-01 8.188030e-01 6.132489e+01 -1.142997e-04 1.272972e-03 -1.030251e-03 -8.176368e-04 -1.395792e-03 -4.069228e-03 -3.123478e-03 -3.908737e-03 -2.685255e-03 -3.732729e-03 -4.140574e-03 -3.217608e-03 3.379679e-05 -6.169964e-04 1.609571e-04 -2.969155e-04 -4.392201e-05 -2.135993e-04 -1.301122e-04 1.839834e-04 3.532060e-04 -1.980231e-04 1.199708e-04 -6.155766e-05 -4.614243e-05 5.619141e-04
<VARIANCE> 39
 4.940723e+01 1.735306e+01 2.712559e+01 3.135760e+01 4.990599e+01 3.736686e+01 4.310727e+01 3.844485e+01 3.355219e+01 2.292098e+01 2.270819e+01 1.991082e+01 1.911336e+01 1.333397e+00 8.762903e-01 1.279896e+00 1.691279e+00 2.178453e+00 1.812713e+00 2.071805e+00 1.989034e+00 1.909377e+00 1.653477e+00 1.696030e+00 1.406920e+00 5.209150e-01 1.618476e-01 1.485900e-01 1.973946e-01 2.763848e-01 3.442368e-01 3.238072e-01 3.640067e-01 3.558857e-01 3.461077e-01 3.147196e-01 3.206984e-01 2.714148e-01 7.193607e-02
<GCONST> 1.027506e+02
<STATE> 3
<MEAN> 39
 -1.359490e+01 2.970981e+00 -1.029695e+00 1.841132e+00 -2.131083e+00 -4.969317e-01 -1.202852e+00 -1.319812e+00 -2.028185e+00 -1.232505e+00 -6.091049e-01 8.188030e-01 6.132489e+01 -1.142997e-04 1.272972e-03 -1.030251e-03 -8.176368e-04 -1.395792e-03 -4.069228e-03 -3.123478e-03 -3.908737e-03 -2.685255e-03 -3.732729e-03 -4.140574e-03 -3.217608e-03 3.379679e-05 -6.169964e-04 1.609571e-04 -2.969155e-04 -4.392201e-05 -2.135993e-04 -1.301122e-04 1.839834e-04 3.532060e-04 -1.980231e-04 1.199708e-04 -6.155766e-05 -4.614243e-05 5.619141e-04
<VARIANCE> 39
 4.940723e+01 1.735306e+01 2.712559e+01 3.135760e+01 4.990599e+01 3.736686e+01 4.310727e+01 3.844485e+01 3.355219e+01 2.292098e+01 2.270819e+01 1.991082e+01 1.911336e+01 1.333397e+00 8.762903e-01 1.279896e+00 1.691279e+00 2.178453e+00 1.812713e+00 2.071805e+00 1.989034e+00 1.909377e+00 1.653477e+00 1.696030e+00 1.406920e+00 5.209150e-01 1.618476e-01 1.485900e-01 1.973946e-01 2.763848e-01 3.442368e-01 3.238072e-01 3.640067e-01 3.558857e-01 3.461077e-01 3.147196e-01 3.206984e-01 2.714148e-01 7.193607e-02
<GCONST> 1.027506e+02
<STATE> 4
<MEAN> 39
 -1.359490e+01 2.970981e+00 -1.029695e+00 1.841132e+00 -2.131083e+00 -4.969317e-01 -1.202852e+00 -1.319812e+00 -2.028185e+00 -1.232505e+00 -6.091049e-01 8.188030e-01 6.132489e+01 -1.142997e-04 1.272972e-03 -1.030251e-03 -8.176368e-04 -1.395792e-03 -4.069228e-03 -3.123478e-03 -3.908737e-03 -2.685255e-03 -3.732729e-03 -4.140574e-03 -3.217608e-03 3.379679e-05 -6.169964e-04 1.609571e-04 -2.969155e-04 -4.392201e-05 -2.135993e-04 -1.301122e-04 1.839834e-04 3.532060e-04 -1.980231e-04 1.199708e-04 -6.155766e-05 -4.614243e-05 5.619141e-04
<VARIANCE> 39
 4.940723e+01 1.735306e+01 2.712559e+01 3.135760e+01 4.990599e+01 3.736686e+01 4.310727e+01 3.844485e+01 3.355219e+01 2.292098e+01 2.270819e+01 1.991082e+01 1.911336e+01 1.333397e+00 8.762903e-01 1.279896e+00 1.691279e+00 2.178453e+00 1.812713e+00 2.071805e+00 1.989034e+00 1.909377e+00 1.653477e+00 1.696030e+00 1.406920e+00 5.209150e-01 1.618476e-01 1.485900e-01 1.973946e-01 2.763848e-01 3.442368e-01 3.238072e-01 3.640067e-01 3.558857e-01 3.461077e-01 3.147196e-01 3.206984e-01 2.714148e-01 7.193607e-02
<GCONST> 1.027506e+02
<TRANSP> 5
 0.000000e+00 1.000000e+00 0.000000e+00 0.000000e+00 0.000000e+00
 0.000000e+00 6.000000e-01 4.000000e-01 0.000000e+00 0.000000e+00
 0.000000e+00 0.000000e+00 6.000000e-01 4.000000e-01 0.000000e+00
 0.000000e+00 0.000000e+00 0.000000e+00 7.000000e-01 3.000000e-01
 0.000000e+00 0.000000e+00 0.000000e+00 0.000000e+00 0.000000e+00
<ENDHMM>
