~o
<STREAMINFO> 1 39
<VECSIZE> 39<NULLD><MFCC_D_A_0><DIAGC>
~h "b"
<BEGINHMM>
<NUMSTATES> 5
<STATE> 2
<MEAN> 39
 -1.137012e+01 3.461278e+00 -3.116237e-01 2.395100e+00 -4.011120e+00 -2.957815e+00 -2.895626e+00 -2.683564e+00 -3.282077e+00 -2.275284e+00 -1.565946e+00 -2.587557e-01 6.257172e+01 3.615759e-02 -1.415214e-02 -1.305255e-02 -1.415225e-02 -3.180544e-02 -3.571839e-02 -1.041769e-02 1.471604e-02 1.100285e-02 1.363315e-02 1.138925e-04 -1.367734e-02 2.532002e-02 3.154511e-04 -4.896263e-04 -1.467693e-03 -1.106899e-03 5.731621e-04 9.175097e-04 3.741219e-04 3.867207e-04 9.536522e-04 3.236175e-04 -8.840304e-04 -6.766368e-04 3.033308e-04
<VARIANCE> 39
 5.114516e+01 1.863461e+01 2.927687e+01 2.487940e+01 5.444623e+01 4.666911e+01 4.243853e+01 3.753830e+01 3.386433e+01 2.328308e+01 2.420696e+01 2.025178e+01 2.066522e+01 1.163145e+00 1.067951e+00 1.292819e+00 1.276690e+00 2.573063e+00 2.024609e+00 2.117887e+00 2.118643e+00 1.897709e+00 1.706674e+00 1.691923e+00 1.402981e+00 5.617860e-01 1.461532e-01 1.811557e-01 1.872269e-01 2.096801e-01 3.983008e-01 3.595345e-01 3.725300e-01 3.722687e-01 3.444382e-01 3.329507e-01 3.128991e-01 2.661451e-01 7.774684e-02
<GCONST> 1.035739e+02
<STATE> 3
<MEAN> 39
 -1.120491e+01 3.397233e+00 -3.790060e-01 2.322581e+00 -4.148837e+00 -3.111643e+00 -2.944577e+00 -2.619418e+00 -3.230122e+00 -2.215694e+00 -1.573524e+00 -3.239017e-01 6.268778e+01 3.685911e-02 -1.651049e-02 -1.940672e-02 -1.863801e-02 -2.861805e-02 -3.089349e-02 -8.225637e-03 1.690055e-02 1.536744e-02 1.465880e-02 -4.156283e-03 -1.662016e-02 2.624508e-02 -6.102824e-04 -6.362632e-04 -1.544846e-03 -8.879556e-04 1.473804e-03 2.051106e-03 1.115949e-03 8.198902e-04 1.275941e-03 2.889151e-04 -9.582593e-04 -4.632843e-04 -3.506569e-04
<VARIANCE> 39
 5.153712e+01 1.886321e+01 3.000057e+01 2.522960e+01 5.519839e+01 4.720399e+01 4.227837e+01 3.718832e+01 3.408553e+01 2.333654e+01 2.451043e+01 2.062663e+01 2.120240e+01 1.173822e+00 1.089525e+00 1.299451e+00 1.281197e+00 2.634845e+00 2.058316e+00 2.118133e+00 2.125419e+00 1.890106e+00 1.713033e+00 1.700389e+00 1.412321e+00 5.811796e-01 1.492214e-01 1.858243e-01 1.874268e-01 2.110178e-01 4.085751e-01 3.640784e-01 3.713291e-01 3.745660e-01 3.423209e-01 3.334742e-01 3.130845e-01 2.671118e-01 8.164517e-02
<GCONST> 1.039790e+02
<STATE> 4
<MEAN> 39
 -1.100508e+01 3.240762e+00 -5.373102e-01 2.195248e+00 -4.261865e+00 -3.263711e+00 -2.967956e+00 -2.447538e+00 -3.079901e+00 -2.075292e+00 -1.600698e+00 -4.616312e-01 6.282974e+01 3.562700e-02 -2.026804e-02 -2.810879e-02 -2.411531e-02 -2.152277e-02 -2.154550e-02 -3.732563e-03 2.193799e-02 2.213628e-02 1.491644e-02 -1.224592e-02 -2.070422e-02 2.593634e-02 -1.852493e-03 -5.788652e-04 -1.158760e-03 -2.373101e-04 2.408445e-03 3.043187e-03 1.883050e-03 1.187855e-03 1.364007e-03 7.150291e-05 -9.856606e-04 -5.322948e-05 -1.243180e-03
<VARIANCE> 39
 5.223119e+01 1.947207e+01 3.135469e+01 2.570490e+01 5.578325e+01 4.781942e+01 4.201668e+01 3.690727e+01 3.464189e+01 2.343702e+01 2.533928e+01 2.137110e+01 2.231542e+01 1.183727e+00 1.114991e+00 1.313786e+00 1.276608e+00 2.676826e+00 2.084620e+00 2.096897e+00 2.133605e+00 1.878027e+00 1.718205e+00 1.716100e+00 1.421385e+00 6.104195e-01 1.533552e-01 1.911883e-01 1.884811e-01 2.111111e-01 4.162707e-01 3.668491e-01 3.654986e-01 3.771326e-01 3.389646e-01 3.329800e-01 3.138412e-01 2.667468e-01 8.743410e-02
<GCONST> 1.044968e+02
<TRANSP> 5
 0.000000e+00 1.000000e+00 0.000000e+00 0.000000e+00 0.000000e+00
 0.000000e+00 7.627583e-01 2.372417e-01 0.000000e+00 0.000000e+00
 0.000000e+00 0.000000e+00 7.627573e-01 2.372427e-01 0.000000e+00
 0.000000e+00 0.000000e+00 0.000000e+00 8.904905e-01 1.095095e-01
 0.000000e+00 0.000000e+00 0.000000e+00 0.000000e+00 0.000000e+00
<ENDHMM>
~h "f"
<BEGINHMM>
<NUMSTATES> 5
<STATE> 2
<MEAN> 39
 -1.256419e+01 2.498423e+00 -1.694927e-01 1.350652e+00 -3.775935e+00 -1.877485e+00 -2.796847e+00 -8.826270e-01 -2.135017e+00 -1.348911e+00 -2.848573e-01 1.772545e+00 6.187173e+01 1.176595e-01 5.655980e-02 2.168375e-03 -6.070848e-02 -9.540215e-02 -5.699360e-02 -1.075985e-01 -8.076224e-02 -7.172606e-02 -6.126685e-02 -3.393469e-02 -3.316910e-02 9.151328e-02 -1.431206e-03 -4.767389e-04 -2.985559e-03 -6.205809e-04 3.797809e-03 4.946331e-03 3.162986e-03 7.311323e-04 1.813159e-04 2.923304e-04 1.044862e-04 -2.315660e-04 -1.828212e-03
<VARIANCE> 39
 4.165993e+01 1.592531e+01 2.499920e+01 2.643424e+01 6.714006e+01 5.314289e+01 5.379559e+01 3.008768e+01 2.580480e+01 2.235648e+01 1.672550e+01 1.401597e+01 2.391861e+01 1.492844e+00 1.043421e+00 1.359331e+00 2.235725e+00 3.557818e+00 2.268829e+00 2.007571e+00 1.912816e+00 1.677447e+00 1.653722e+00 1.551326e+00 1.347905e+00 7.685631e-01 2.007077e-01 1.910276e-01 2.356085e-01 3.743246e-01 5.661339e-01 3.685147e-01 3.345953e-01 3.675281e-01 3.275973e-01 3.149167e-01 2.983028e-01 2.716882e-01 1.157877e-01
<GCONST> 1.054175e+02
<STATE> 3
<MEAN> 39
 -1.208677e+01 2.731761e+00 -1.889589e-01 1.089722e+00 -4.133916e+00 -2.065132e+00 -3.212640e+00 -1.215364e+00 -2.435256e+00 -1.604681e+00 -4.289177e-01 1.629360e+00 6.223524e+01 1.106319e-01 5.481746e-02 -9.872385e-03 -6.314300e-02 -7.853416e-02 -3.626674e-02 -9.294416e-02 -7.771127e-02 -7.069245e-02 -5.977136e-02 -3.385004e-02 -3.413476e-02 8.289661e-02 -1.772602e-03 -3.815616e-04 -2.808447e-03 -5.779088e-04 4.149619e-03 4.993727e-03 3.636035e-03 7.640196e-04 2.581994e-04 3.765564e-04 -3.800226e-05 -2.262219e-04 -2.207592e-03
<VARIANCE> 39
 4.280067e+01 1.652057e+01 2.651591e+01 2.897442e+01 6.723503e+01 5.348945e+01 5.365798e+01 3.069542e+01 2.655826e+01 2.299125e+01 1.729085e+01 1.427841e+01 2.360816e+01 1.612137e+00 1.104526e+00 1.469485e+00 2.469198e+00 3.713761e+00 2.353698e+00 2.036191e+00 1.942564e+00 1.721259e+00 1.693389e+00 1.591939e+00 1.375669e+00 7.974802e-01 2.146113e-01 2.022323e-01 2.529601e-01 4.093366e-01 5.926765e-01 3.819506e-01 3.332033e-01 3.702464e-01 3.346043e-01 3.185534e-01 3.047003e-01 2.773700e-01 1.209864e-01
<GCONST> 1.067934e+02
<STATE> 4
<MEAN> 39
 -1.135541e+01 3.131508e+00 -3.442873e-01 6.007891e-01 -4.533092e+00 -2.189202e+00 -3.726286e+00 -1.820595e+00 -2.938693e+00 -2.070374e+00 -7.125093e-01 1.347141e+00 6.274336e+01 9.206805e-02 5.149466e-02 -2.583030e-02 -6.270032e-02 -4.661712e-02 -3.867612e-03 -6.212750e-02 -7.065783e-02 -6.670222e-02 -5.549570e-02 -3.453770e-02 -3.447828e-02 6.304419e-02 -2.460024e-03 -3.974029e-04 -2.043501e-03 2.251333e-05 4.181331e-03 4.256451e-03 4.060111e-03 1.024619e-03 5.238209e-04 5.913235e-04 -1.146457e-04 -2.810425e-05 -2.716438e-03
<VARIANCE> 39
 4.418486e+01 1.734165e+01 2.881677e+01 3.332238e+01 6.521296e+01 5.313170e+01 5.222969e+01 3.187609e+01 2.793166e+01 2.420726e+01 1.838490e+01 1.473836e+01 2.241117e+01 1.789769e+00 1.192314e+00 1.660120e+00 2.871879e+00 3.839644e+00 2.456543e+00 2.089723e+00 1.981989e+00 1.799936e+00 1.773189e+00 1.665795e+00 1.426877e+00 8.319572e-01 2.336674e-01 2.183698e-01 2.829369e-01 4.681302e-01 6.173118e-01 4.010867e-01 3.327397e-01 3.711766e-01 3.467593e-01 3.262146e-01 3.166077e-01 2.879869e-01 1.275049e-01
<GCONST> 1.086909e+02
<TRANSP> 5
 0.000000e+00 1.000000e+00 0.000000e+00 0.000000e+00 0.000000e+00
 0.000000e+00 7.626341e-01 2.373659e-01 0.000000e+00 0.000000e+00
 0.000000e+00 0.000000e+00 7.626353e-01 2.373647e-01 0.000000e+00
 0.000000e+00 0.000000e+00 0.000000e+00 8.902500e-01 1.097500e-01
 0.000000e+00 0.000000e+00 0.000000e+00 0.000000e+00 0.000000e+00
<ENDHMM>
~h "g"
<BEGINHMM>
<NUMSTATES> 5
<STATE> 2
<MEAN> 39
 -1.166087e+01 3.202545e+00 -1.183117e+00 2.571436e+00 -2.759146e+00 -2.293473e+00 -3.195954e+00 -2.570659e+00 -2.778173e+00 -2.111943e+00 -2.116748e+00 -1.089565e+00 6.271979e+01 -3.699113e-02 -1.040051e-02 -6.331692e-03 1.626529e-02 6.516218e-03 1.149655e-02 2.823553e-02 1.836525e-02 6.867858e-03 2.644332e-03 1.280162e-02 -1.900446e-05 -1.032287e-02 -1.210249e-03 -1.817849e-03 -1.855619e-04 5.136638e-04 1.658069e-03 1.765543e-03 1.825869e-03 3.054733e-03 1.421302e-03 1.925593e-03 2.135195e-03 9.340147e-04 -1.864414e-03
<VARIANCE> 39
 5.637105e+01 2.375357e+01 4.589908e+01 2.280931e+01 3.666699e+01 3.546015e+01 4.921565e+01 4.511089e+01 3.669113e+01 2.458519e+01 3.106144e+01 2.667620e+01 2.174768e+01 1.393772e+00 1.243250e+00 1.874809e+00 1.193784e+00 2.164418e+00 1.823046e+00 2.228187e+00 2.274040e+00 2.273495e+00 1.728920e+00 1.893062e+00 1.667007e+00 5.987198e-01 1.803871e-01 2.207216e-01 2.771851e-01 2.071576e-01 3.742135e-01 3.412763e-01 3.857618e-01 3.863866e-01 4.150591e-01 3.308623e-01 3.272397e-01 3.073789e-01 8.239588e-02
<GCONST> 1.068453e+02
<STATE> 3
<MEAN> 39
 -1.182764e+01 3.136650e+00 -1.220935e+00 2.643993e+00 -2.720553e+00 -2.230468e+00 -3.060894e+00 -2.463248e+00 -2.735643e+00 -2.084129e+00 -2.050037e+00 -1.090723e+00 6.266428e+01 -4.029756e-02 -1.741280e-02 -6.602664e-03 1.784695e-02 1.188510e-02 1.666583e-02 3.444381e-02 3.054416e-02 1.251599e-02 1.157081e-02 2.139405e-02 3.658594e-03 -1.738855e-02 8.069983e-04 -1.217046e-03 -2.006837e-04 -2.865997e-04 2.852559e-04 2.106241e-04 3.401201e-04 2.125704e-03 9.480005e-04 1.766121e-03 1.453269e-03 1.818298e-04 -6.750383e-04
<VARIANCE> 39
 5.649858e+01 2.337629e+01 4.474959e+01 2.255309e+01 3.673563e+01 3.612061e+01 4.848824e+01 4.461761e+01 3.625271e+01 2.438260e+01 3.067978e+01 2.661357e+01 2.180433e+01 1.374200e+00 1.236218e+00 1.831657e+00 1.161005e+00 2.173492e+00 1.841957e+00 2.234195e+00 2.258588e+00 2.243757e+00 1.725052e+00 1.846795e+00 1.637383e+00 5.967375e-01 1.772425e-01 2.194196e-01 2.693649e-01 2.012849e-01 3.740619e-01 3.453113e-01 3.900993e-01 3.851460e-01 4.116305e-01 3.319659e-01 3.207751e-01 3.005760e-01 8.222432e-02
<GCONST> 1.065240e+02
<STATE> 4
<MEAN> 39
 -1.201096e+01 2.971142e+00 -1.301947e+00 2.695953e+00 -2.546735e+00 -2.055151e+00 -2.766277e+00 -2.256224e+00 -2.596197e+00 -2.033365e+00 -1.972998e+00 -1.152639e+00 6.255351e+01 -3.290248e-02 -2.411906e-02 -6.143563e-03 1.552092e-02 8.379894e-03 1.183133e-02 3.335305e-02 4.121500e-02 1.712123e-02 2.498063e-02 2.876538e-02 4.898577e-03 -1.937100e-02 3.400096e-03 -3.797206e-04 -1.181649e-04 -1.343575e-03 -1.771473e-03 -2.051444e-03 -1.602078e-03 5.755788e-04 2.633947e-04 1.440502e-03 3.766497e-04 -6.152663e-04 1.109853e-03
<VARIANCE> 39
 5.619371e+01 2.273735e+01 4.252237e+01 2.218611e+01 3.722100e+01 3.664226e+01 4.651291e+01 4.309288e+01 3.528394e+01 2.417443e+01 3.016670e+01 2.675700e+01 2.233619e+01 1.303709e+00 1.224518e+00 1.752193e+00 1.125367e+00 2.193304e+00 1.846780e+00 2.190257e+00 2.236350e+00 2.165715e+00 1.719136e+00 1.801512e+00 1.608089e+00 5.931410e-01 1.675511e-01 2.160692e-01 2.567807e-01 1.950631e-01 3.759462e-01 3.457288e-01 3.861926e-01 3.827042e-01 3.993272e-01 3.326592e-01 3.160635e-01 2.936467e-01 8.149008e-02
<GCONST> 1.058715e+02
<TRANSP> 5
 0.000000e+00 1.000000e+00 0.000000e+00 0.000000e+00 0.000000e+00
 0.000000e+00 7.706491e-01 2.293509e-01 0.000000e+00 0.000000e+00
 0.000000e+00 0.000000e+00 7.706491e-01 2.293508e-01 0.000000e+00
 0.000000e+00 0.000000e+00 0.000000e+00 8.990766e-01 1.009234e-01
 0.000000e+00 0.000000e+00 0.000000e+00 0.000000e+00 0.000000e+00
<ENDHMM>
~h "j"
<BEGINHMM>
<NUMSTATES> 5
<STATE> 2
<MEAN> 39
 -1.037893e+01 1.285885e+00 -3.815736e+00 -4.317537e-01 -3.299910e+00 3.325351e-01 -2.090513e+00 -5.342829e-01 -1.572321e+00 -5.117180e-01 -1.241998e+00 -6.495047e-01 6.379076e+01 -2.950357e-02 1.545346e-02 5.218432e-02 2.785809e-02 -1.346050e-02 -7.764717e-03 3.925157e-03 -2.185930e-02 -1.921983e-02 9.831721e-03 2.225747e-02 9.215668e-03 -1.459258e-02 -2.859575e-03 6.136388e-04 1.751776e-03 1.794407e-03 1.676416e-03 7.855076e-04 1.248326e-03 -7.592658e-04 -6.580763e-04 -5.350017e-04 6.479169e-04 1.412256e-03 -2.371664e-03
<VARIANCE> 39
 5.365691e+01 2.025021e+01 3.818551e+01 4.790923e+01 4.862450e+01 4.713704e+01 4.564928e+01 3.902850e+01 2.723971e+01 2.536722e+01 3.532022e+01 3.051779e+01 2.466205e+01 1.741054e+00 1.347730e+00 1.596336e+00 2.633213e+00 2.985970e+00 2.162861e+00 2.221938e+00 2.847484e+00 2.253103e+00 2.058310e+00 2.152001e+00 1.740026e+00 7.687891e-01 2.097932e-01 2.432125e-01 2.565600e-01 4.097864e-01 4.719372e-01 3.678165e-01 3.598039e-01 4.983015e-01 4.231598e-01 3.873135e-01 4.026690e-01 3.250450e-01 1.115499e-01
<GCONST> 1.119859e+02
<STATE> 3
<MEAN> 39
 -1.053310e+01 1.359421e+00 -3.571526e+00 -2.957667e-01 -3.345645e+00 3.071828e-01 -2.060617e+00 -6.373493e-01 -1.663284e+00 -4.715348e-01 -1.137212e+00 -5.953686e-01 6.370668e+01 -4.051401e-02 1.861714e-02 5.862973e-02 3.399983e-02 -6.644331e-03 -3.878029e-03 9.080192e-03 -2.578335e-02 -2.232787e-02 6.582588e-03 2.493356e-02 1.506112e-02 -2.390051e-02 -2.044200e-03 7.935646e-04 1.013053e-03 9.221309e-04 1.502002e-03 9.885598e-04 9.909574e-04 -1.088500e-03 -7.071246e-04 -9.688613e-04 6.506803e-04 1.264466e-03 -1.723717e-03
<VARIANCE> 39
 5.268989e+01 1.994897e+01 3.851063e+01 4.766997e+01 4.960499e+01 4.688791e+01 4.594002e+01 3.895103e+01 2.727312e+01 2.532406e+01 3.471721e+01 2.984288e+01 2.398680e+01 1.737353e+00 1.320677e+00 1.537389e+00 2.634256e+00 3.044940e+00 2.184911e+00 2.253380e+00 2.820171e+00 2.234421e+00 2.068293e+00 2.157989e+00 1.727194e+00 7.507920e-01 2.085696e-01 2.391769e-01 2.475575e-01 4.114447e-01 4.804026e-01 3.708387e-01 3.626767e-01 4.957645e-01 4.203152e-01 3.892427e-01 4.057847e-01 3.231115e-01 1.103582e-01
<GCONST> 1.118139e+02
<STATE> 4
<MEAN> 39
 -1.085797e+01 1.480826e+00 -3.164351e+00 -8.564988e-02 -3.335407e+00 3.451653e-01 -1.926033e+00 -8.298776e-01 -1.827236e+00 -4.329835e-01 -9.247244e-01 -4.567342e-01 6.350080e+01 -4.818281e-02 2.558853e-02 6.268071e-02 3.583223e-02 2.992549e-04 2.512719e-03 1.378223e-02 -3.353019e-02 -2.741731e-02 -7.682634e-04 2.816423e-02 2.180089e-02 -3.128497e-02 -5.004118e-04 1.075030e-03 7.752447e-05 -7.467887e-05 9.233670e-04 7.778276e-04 1.879038e-04 -1.351600e-03 -6.399379e-04 -1.381350e-03 4.059734e-04 7.044827e-04 -4.923052e-04
<VARIANCE> 39
 5.109994e+01 1.949842e+01 3.885059e+01 4.726055e+01 5.093658e+01 4.685770e+01 4.667516e+01 3.881844e+01 2.751552e+01 2.506054e+01 3.334953e+01 2.846161e+01 2.302684e+01 1.707075e+00 1.260352e+00 1.439723e+00 2.592429e+00 3.092246e+00 2.213263e+00 2.296181e+00 2.757402e+00 2.193866e+00 2.049849e+00 2.136696e+00 1.711231e+00 7.117870e-01 2.028908e-01 2.286914e-01 2.322606e-01 4.071345e-01 4.852051e-01 3.741236e-01 3.663630e-01 4.891364e-01 4.136200e-01 3.853874e-01 4.042284e-01 3.224827e-01 1.057198e-01
<GCONST> 1.112416e+02
<TRANSP> 5
 0.000000e+00 1.000000e+00 0.000000e+00 0.000000e+00 0.000000e+00
 0.000000e+00 7.743434e-01 2.256567e-01 0.000000e+00 0.000000e+00
 0.000000e+00 0.000000e+00 7.743435e-01 2.256565e-01 0.000000e+00
 0.000000e+00 0.000000e+00 0.000000e+00 9.026430e-01 9.735695e-02
 0.000000e+00 0.000000e+00 0.000000e+00 0.000000e+00 0.000000e+00
<ENDHMM>
~h "k"
<BEGINHMM>
<NUMSTATES> 5
<STATE> 2
<MEAN> 39
 -1.281584e+01 3.174276e+00 -1.454255e+00 1.331047e+00 -1.927125e+00 -5.462700e-01 -1.530485e+00 -1.890013e+00 -2.776258e+00 -1.237689e+00 -1.094376e+00 5.102780e-01 6.162063e+01 4.053862e-02 -8.098223e-03 -2.501833e-02 -2.272206e-02 -2.453942e-02 -1.975227e-02 -1.234990e-02 8.946012e-03 3.918320e-03 -2.187910e-03 -2.003529e-02 -2.239647e-02 2.201768e-02 -1.144445e-03 -1.065264e-03 -5.805151e-04 8.144231e-05 2.149160e-05 -3.052438e-04 7.469142e-04 1.852206e-03 1.686170e-03 9.005810e-04 5.819131e-04 1.585530e-04 -2.598137e-04
<VARIANCE> 39
 5.060381e+01 1.865759e+01 2.774903e+01 3.581582e+01 4.190053e+01 3.108265e+01 4.196298e+01 4.255184e+01 3.602388e+01 2.145349e+01 2.385504e+01 2.142058e+01 1.810830e+01 1.635874e+00 1.025279e+00 1.551967e+00 2.115837e+00 2.123118e+00 1.947266e+00 2.219944e+00 2.176976e+00 2.028428e+00 1.719085e+00 1.867466e+00 1.526258e+00 6.289486e-01 2.015070e-01 1.748523e-01 2.479297e-01 3.477680e-01 3.459876e-01 3.602585e-01 3.893386e-01 3.812966e-01 3.620704e-01 3.294138e-01 3.484032e-01 2.878636e-01 8.379564e-02
<GCONST> 1.057132e+02
<STATE> 3
<MEAN> 39
 -1.264637e+01 3.132173e+00 -1.567106e+00 1.233006e+00 -2.035125e+00 -6.385817e-01 -1.582457e+00 -1.840030e+00 -2.750768e+00 -1.244107e+00 -1.177059e+00 4.146041e-01 6.171632e+01 3.544461e-02 -1.276260e-02 -2.755024e-02 -2.236097e-02 -2.397563e-02 -2.073149e-02 -9.037484e-03 1.681037e-02 1.108651e-02 1.710798e-03 -1.748495e-02 -2.178628e-02 2.073497e-02 -1.226771e-03 -1.054647e-03 -5.260617e-04 1.459358e-04 2.205376e-04 -2.560125e-04 6.774059e-04 1.714765e-03 1.589983e-03 9.392192e-04 6.545798e-04 1.270253e-04 -3.047331e-04
<VARIANCE> 39
 5.096504e+01 1.873883e+01 2.816988e+01 3.649446e+01 4.197829e+01 3.154852e+01 4.141917e+01 4.238842e+01 3.575078e+01 2.143904e+01 2.410323e+01 2.199515e+01 1.861329e+01 1.663909e+00 1.048342e+00 1.571907e+00 2.146743e+00 2.150649e+00 1.998239e+00 2.218075e+00 2.196805e+00 2.033782e+00 1.725522e+00 1.883468e+00 1.547896e+00 6.555220e-01 2.051635e-01 1.792473e-01 2.508201e-01 3.522355e-01 3.515477e-01 3.693027e-01 3.899808e-01 3.859363e-01 3.637495e-01 3.305458e-01 3.500430e-01 2.900035e-01 8.685921e-02
<GCONST> 1.061759e+02
<STATE> 4
<MEAN> 39
 -1.242356e+01 2.993649e+00 -1.777599e+00 1.123574e+00 -2.135745e+00 -7.900544e-01 -1.629107e+00 -1.683844e+00 -2.630361e+00 -1.221011e+00 -1.300978e+00 2.477383e-01 6.184388e+01 2.959395e-02 -1.857505e-02 -3.082742e-02 -2.201375e-02 -2.273398e-02 -2.174956e-02 -5.772246e-03 2.562777e-02 1.947502e-02 6.431023e-03 -1.433832e-02 -2.174652e-02 1.949146e-02 -1.276031e-03 -7.767097e-04 -2.534389e-04 2.751057e-04 5.466990e-04 1.408539e-04 6.150618e-04 1.189587e-03 1.267927e-03 9.284038e-04 6.785513e-04 1.524986e-04 -4.359785e-04
<VARIANCE> 39
 5.164984e+01 1.895847e+01 2.890309e+01 3.691095e+01 4.175064e+01 3.249514e+01 4.066228e+01 4.236580e+01 3.528407e+01 2.133923e+01 2.448659e+01 2.304406e+01 1.969585e+01 1.693107e+00 1.071895e+00 1.586939e+00 2.154553e+00 2.168507e+00 2.064171e+00 2.201821e+00 2.216408e+00 2.036151e+00 1.725769e+00 1.901898e+00 1.572221e+00 6.940410e-01 2.088927e-01 1.842400e-01 2.520733e-01 3.527622e-01 3.573185e-01 3.804889e-01 3.882552e-01 3.911725e-01 3.661903e-01 3.308509e-01 3.514988e-01 2.915224e-01 9.130386e-02
<GCONST> 1.066969e+02
<TRANSP> 5
 0.000000e+00 1.000000e+00 0.000000e+00 0.000000e+00 0.000000e+00
 0.000000e+00 7.618755e-01 2.381245e-01 0.000000e+00 0.000000e+00
 0.000000e+00 0.000000e+00 7.618764e-01 2.381236e-01 0.000000e+00
 0.000000e+00 0.000000e+00 0.000000e+00 8.896425e-01 1.103575e-01
 0.000000e+00 0.000000e+00 0.000000e+00 0.000000e+00 0.000000e+00
<ENDHMM>
~h "l"
<BEGINHMM>
<NUMSTATES> 5
<STATE> 2
<MEAN> 39
 -1.329170e+01 1.631032e+00 -1.401981e+00 2.259956e+00 -1.830940e+00 -3.949404e-01 -1.505234e+00 -2.991160e-01 -1.420785e+00 -7.324287e-01 -9.042554e-01 1.762028e-01 6.110139e+01 1.932398e-02 3.680884e-02 3.828419e-02 -3.665040e-03 -3.580337e-02 -3.275906e-02 -4.853559e-02 -4.491827e-02 -3.145768e-02 -2.465240e-02 1.981127e-03 1.064969e-02 1.503549e-02 1.827346e-03 2.215561e-03 1.408726e-03 -9.973295e-04 -2.144633e-03 -1.542923e-03 -2.205622e-03 -2.036446e-03 -1.269169e-03 -1.166335e-03 4.670438e-04 5.068866e-04 1.836243e-03
<VARIANCE> 39
 4.547281e+01 1.713018e+01 3.032679e+01 2.127416e+01 3.998872e+01 3.543997e+01 4.332238e+01 3.675665e+01 2.806299e+01 2.208493e+01 2.376227e+01 2.578274e+01 2.450757e+01 1.107757e+00 8.765616e-01 1.295485e+00 1.236132e+00 2.014527e+00 1.874258e+00 2.051306e+00 1.964358e+00 1.861062e+00 1.629773e+00 1.677501e+00 1.450475e+00 5.563155e-01 1.361806e-01 1.571825e-01 1.992959e-01 2.166076e-01 3.381058e-01 3.357048e-01 3.670271e-01 3.627424e-01 3.579567e-01 3.181717e-01 3.183009e-01 2.713990e-01 7.182788e-02
<GCONST> 1.016223e+02
<STATE> 3
<MEAN> 39
 -1.319822e+01 1.810986e+00 -1.218960e+00 2.242368e+00 -2.001773e+00 -5.455884e-01 -1.732557e+00 -5.115504e-01 -1.567646e+00 -8.496040e-01 -8.895676e-01 2.296591e-01 6.117666e+01 2.746202e-02 4.616364e-02 4.320331e-02 -8.660382e-03 -4.546862e-02 -3.916334e-02 -5.794551e-02 -5.378256e-02 -3.710825e-02 -3.021920e-02 3.577188e-03 1.178574e-02 2.341034e-02 1.793920e-03 2.049971e-03 9.593734e-04 -1.196670e-03 -2.227405e-03 -1.416212e-03 -2.020294e-03 -1.857204e-03 -1.186825e-03 -1.276661e-03 2.590326e-04 5.950823e-05 1.974697e-03
<VARIANCE> 39
 4.562322e+01 1.770569e+01 3.083813e+01 2.165612e+01 4.180016e+01 3.631366e+01 4.506731e+01 3.766168e+01 2.856959e+01 2.253151e+01 2.318252e+01 2.508508e+01 2.420170e+01 1.115942e+00 8.800900e-01 1.304557e+00 1.254864e+00 2.089483e+00 1.905601e+00 2.104740e+00 1.988045e+00 1.850118e+00 1.645607e+00 1.662072e+00 1.452108e+00 5.611979e-01 1.367165e-01 1.575182e-01 1.995341e-01 2.193437e-01 3.480908e-01 3.383227e-01 3.753145e-01 3.678351e-01 3.562841e-01 3.205802e-01 3.152731e-01 2.732544e-01 7.258051e-02
<GCONST> 1.020310e+02
<STATE> 4
<MEAN> 39
 -1.290853e+01 2.221351e+00 -8.480828e-01 2.157890e+00 -2.394223e+00 -9.163221e-01 -2.215748e+00 -1.060078e+00 -1.883721e+00 -1.153444e+00 -9.103147e-01 2.505310e-01 6.142203e+01 3.550619e-02 5.844454e-02 4.613531e-02 -1.528292e-02 -5.653785e-02 -4.309283e-02 -6.617410e-02 -6.442783e-02 -4.363482e-02 -3.894194e-02 5.046173e-03 1.084156e-02 3.373534e-02 1.023914e-03 1.427321e-03 -8.666039e-05 -1.113427e-03 -1.403317e-03 -4.799147e-04 -8.351009e-04 -1.060819e-03 -7.075368e-04 -1.163999e-03 -1.455400e-05 -4.662996e-04 1.540954e-03
<VARIANCE> 39
 4.683213e+01 1.887097e+01 3.239451e+01 2.309897e+01 4.570205e+01 3.788628e+01 4.838786e+01 3.965494e+01 2.986855e+01 2.363333e+01 2.274521e+01 2.383114e+01 2.386472e+01 1.147235e+00 8.966373e-01 1.344854e+00 1.328637e+00 2.257658e+00 1.970930e+00 2.203196e+00 2.045551e+00 1.854701e+00 1.681971e+00 1.658201e+00 1.457494e+00 5.698749e-01 1.387832e-01 1.597839e-01 2.016346e-01 2.295825e-01 3.699024e-01 3.452234e-01 3.872150e-01 3.782323e-01 3.565297e-01 3.244929e-01 3.121101e-01 2.769493e-01 7.408852e-02
<GCONST> 1.031192e+02
<TRANSP> 5
 0.000000e+00 1.000000e+00 0.000000e+00 0.000000e+00 0.000000e+00
 0.000000e+00 7.696787e-01 2.303213e-01 0.000000e+00 0.000000e+00
 0.000000e+00 0.000000e+00 7.696795e-01 2.303205e-01 0.000000e+00
 0.000000e+00 0.000000e+00 0.000000e+00 8.982750e-01 1.017250e-01
 0.000000e+00 0.000000e+00 0.000000e+00 0.000000e+00 0.000000e+00
<ENDHMM>
~h "m"
<BEGINHMM>
<NUMSTATES> 5
<STATE> 2
<MEAN> 39
 -1.600521e+01 9.022831e-01 -1.340237e+00 3.622044e+00 1.150465e+00 2.199465e+00 1.282569e+00 1.762888e+00 1.669129e-02 5.815851e-01 6.734077e-01 1.926940e+00 5.873112e+01 9.038733e-02 2.566946e-02 -1.076172e-02 -4.235601e-02 -6.332236e-02 -7.034422e-02 -8.791773e-02 -6.759444e-02 -4.219943e-02 -5.192207e-02 -5.677686e-02 -5.567787e-02 6.481049e-02 2.463230e-03 -2.648610e-04 -1.414151e-03 -2.854887e-04 -9.901762e-04 1.304469e-03 3.998640e-05 -1.380966e-04 5.739898e-04 -2.860486e-04 -1.035395e-03 -1.384206e-03 1.863929e-03
<VARIANCE> 39
 2.406788e+01 9.959304e+00 1.405831e+01 1.068481e+01 2.127629e+01 2.142008e+01 2.751290e+01 2.614876e+01 2.167834e+01 1.694180e+01 1.919333e+01 1.664956e+01 1.352638e+01 3.990326e-01 6.044056e-01 9.414629e-01 8.318911e-01 1.439140e+00 1.243459e+00 1.353134e+00 1.762036e+00 1.659913e+00 1.317629e+00 1.550832e+00 1.301628e+00 2.305342e-01 6.065167e-02 1.010269e-01 1.686393e-01 1.645329e-01 2.722678e-01 2.470185e-01 2.715322e-01 3.177296e-01 3.157480e-01 2.653642e-01 3.130082e-01 2.656127e-01 3.053457e-02
<GCONST> 8.666389e+01
<STATE> 3
<MEAN> 39
 -1.557092e+01 1.013366e+00 -1.403504e+00 3.432304e+00 8.596992e-01 1.904064e+00 8.938068e-01 1.458085e+00 -1.798438e-01 3.502916e-01 4.130572e-01 1.665806e+00 5.904625e+01 9.968258e-02 2.287263e-02 -1.822678e-02 -4.426345e-02 -6.588597e-02 -6.522622e-02 -8.698920e-02 -6.866281e-02 -4.457950e-02 -5.239975e-02 -6.073874e-02 -6.173467e-02 7.209860e-02 1.745891e-03 -7.957166e-04 -1.686133e-03 -3.178244e-04 -1.852403e-04 1.432612e-03 4.886093e-04 -6.383373e-05 -5.013197e-04 8.927570e-05 -8.000195e-04 -1.229109e-03 1.384232e-03
<VARIANCE> 39
 2.898500e+01 1.117831e+01 1.610782e+01 1.208721e+01 2.334391e+01 2.279304e+01 2.986163e+01 2.829762e+01 2.284076e+01 1.771424e+01 2.099300e+01 1.827901e+01 1.616219e+01 4.397491e-01 6.755773e-01 1.068113e+00 8.999032e-01 1.522678e+00 1.264024e+00 1.387544e+00 1.874334e+00 1.727122e+00 1.324829e+00 1.618690e+00 1.366084e+00 2.630119e-01 6.603653e-02 1.111835e-01 1.895455e-01 1.763805e-01 2.849187e-01 2.489916e-01 2.773385e-01 3.313580e-01 3.249203e-01 2.641200e-01 3.227224e-01 2.774930e-01 3.456023e-02
<GCONST> 8.954528e+01
<STATE> 4
<MEAN> 39
 -1.466142e+01 1.211244e+00 -1.566896e+00 3.056475e+00 3.297096e-01 1.356631e+00 1.902211e-01 8.063431e-01 -5.810993e-01 -1.314150e-01 -1.605276e-01 1.076322e+00 5.969750e+01 1.128564e-01 1.837923e-02 -2.813135e-02 -4.727412e-02 -6.367838e-02 -5.821599e-02 -8.628894e-02 -6.869881e-02 -4.812766e-02 -5.220844e-02 -6.955002e-02 -6.925486e-02 8.084045e-02 7.828932e-04 -8.416969e-04 -1.287141e-03 -2.240082e-04 6.910157e-04 1.252242e-03 5.391017e-04 3.521822e-04 9.150845e-06 3.180810e-04 -9.320645e-04 -9.022663e-04 4.745118e-04
<VARIANCE> 39
 3.798091e+01 1.360478e+01 2.022349e+01 1.487730e+01 2.650735e+01 2.517925e+01 3.412010e+01 3.195122e+01 2.517632e+01 1.937321e+01 2.497890e+01 2.197470e+01 2.075749e+01 5.198468e-01 8.258236e-01 1.303761e+00 1.026964e+00 1.621392e+00 1.298822e+00 1.443918e+00 2.068625e+00 1.840624e+00 1.356658e+00 1.728009e+00 1.473130e+00 3.275939e-01 7.583085e-02 1.333955e-01 2.272435e-01 1.968951e-01 2.961487e-01 2.519209e-01 2.851541e-01 3.540469e-01 3.392437e-01 2.659759e-01 3.343717e-01 2.956368e-01 4.226320e-02
<GCONST> 9.420587e+01
<TRANSP> 5
 0.000000e+00 1.000000e+00 0.000000e+00 0.000000e+00 0.000000e+00
 0.000000e+00 7.771404e-01 2.228595e-01 0.000000e+00 0.000000e+00
 0.000000e+00 0.000000e+00 7.771397e-01 2.228603e-01 0.000000e+00
 0.000000e+00 0.000000e+00 0.000000e+00 9.066680e-01 9.333198e-02
 0.000000e+00 0.000000e+00 0.000000e+00 0.000000e+00 0.000000e+00
<ENDHMM>
~h "n"
<BEGINHMM>
<NUMSTATES> 5
<STATE> 2
<MEAN> 39
 -1.101909e+01 4.597113e+00 -7.390346e-01 6.472893e-01 -3.319107e+00 -1.064685e+00 -2.767689e+00 -2.889449e+00 -4.031232e+00 -2.941379e+00 -1.956204e+00 1.704070e-01 6.217569e+01 -2.847470e-02 -2.236642e-03 -4.947118e-03 2.200383e-02 4.234472e-02 3.112308e-02 2.852227e-02 4.157339e-03 -2.616913e-03 -1.780309e-03 -9.132748e-03 -1.879322e-03 -2.352576e-02 -2.315815e-03 -1.700997e-03 4.024116e-05 8.620500e-04 3.469082e-04 2.008559e-05 1.381394e-03 1.673686e-03 2.019213e-03 2.099985e-03 1.665821e-03 1.201689e-03 -8.213742e-04
<VARIANCE> 39
 4.802342e+01 1.913576e+01 2.449967e+01 4.082133e+01 5.145195e+01 4.054608e+01 4.184059e+01 3.651049e+01 3.220991e+01 2.764528e+01 2.316846e+01 1.843684e+01 1.727303e+01 1.396073e+00 9.250835e-01 1.437997e+00 2.432823e+00 2.447096e+00 2.056669e+00 2.011532e+00 1.920085e+00 1.845655e+00 1.880334e+00 1.719300e+00 1.419628e+00 5.340766e-01 1.639241e-01 1.524092e-01 2.259085e-01 3.640434e-01 3.860972e-01 3.527736e-01 3.354480e-01 3.361995e-01 3.375590e-01 3.433086e-01 3.238459e-01 2.739418e-01 7.476655e-02
<GCONST> 1.045312e+02
<STATE> 3
<MEAN> 39
 -1.117182e+01 4.568823e+00 -7.592027e-01 7.569143e-01 -3.124512e+00 -9.262481e-01 -2.626056e+00 -2.851353e+00 -4.019692e+00 -2.928260e+00 -1.979151e+00 1.751118e-01 6.206041e+01 -3.737125e-02 -9.324729e-03 -5.153564e-03 2.448579e-02 4.243946e-02 3.061399e-02 3.375854e-02 1.130595e-02 6.283142e-03 7.431021e-03 -1.618624e-03 3.436648e-03 -2.612604e-02 -1.655736e-03 -1.423611e-03 -2.351930e-04 2.025557e-04 -2.705980e-04 -2.794380e-04 1.019674e-03 1.515499e-03 1.968981e-03 1.981422e-03 1.649184e-03 1.132404e-03 -2.993543e-04
<VARIANCE> 39
 4.786496e+01 1.889013e+01 2.393117e+01 4.028100e+01 5.043413e+01 3.987021e+01 4.125353e+01 3.653928e+01 3.224078e+01 2.745999e+01 2.292557e+01 1.820762e+01 1.708324e+01 1.376353e+00 9.086922e-01 1.420499e+00 2.404296e+00 2.370663e+00 2.014377e+00 1.985702e+00 1.894839e+00 1.836866e+00 1.862870e+00 1.697273e+00 1.403770e+00 5.205268e-01 1.609300e-01 1.494423e-01 2.241592e-01 3.604997e-01 3.745545e-01 3.479677e-01 3.324116e-01 3.313484e-01 3.350240e-01 3.402902e-01 3.200114e-01 2.708956e-01 7.274289e-02
<GCONST> 1.039992e+02
<STATE> 4
<MEAN> 39
 -1.150361e+01 4.486869e+00 -7.859898e-01 9.446706e-01 -2.767109e+00 -6.946009e-01 -2.307860e+00 -2.757513e+00 -3.909674e+00 -2.863417e+00 -1.963240e+00 2.127413e-01 6.181643e+01 -4.850262e-02 -1.865070e-02 -5.971992e-03 2.590083e-02 4.011600e-02 2.840643e-02 3.978587e-02 2.188860e-02 2.002939e-02 2.084412e-02 9.888677e-03 1.164342e-02 -2.826128e-02 -4.992112e-04 -6.396496e-04 -2.672181e-04 -5.344832e-04 -1.188754e-03 -1.038928e-03 -1.976622e-06 8.085002e-04 1.318515e-03 1.227599e-03 1.206335e-03 8.255708e-04 4.316298e-04
<VARIANCE> 39
 4.785096e+01 1.845430e+01 2.287308e+01 3.940758e+01 4.913760e+01 3.861026e+01 4.057569e+01 3.675606e+01 3.238250e+01 2.733021e+01 2.259329e+01 1.793553e+01 1.689690e+01 1.329099e+00 8.705180e-01 1.373704e+00 2.317840e+00 2.233184e+00 1.937883e+00 1.953505e+00 1.869544e+00 1.822676e+00 1.838093e+00 1.661415e+00 1.381861e+00 4.924413e-01 1.542400e-01 1.424222e-01 2.175398e-01 3.477912e-01 3.529830e-01 3.381723e-01 3.297479e-01 3.275754e-01 3.313159e-01 3.361100e-01 3.133230e-01 2.669443e-01 6.832816e-02
<GCONST> 1.030230e+02
<TRANSP> 5
 0.000000e+00 1.000000e+00 0.000000e+00 0.000000e+00 0.000000e+00
 0.000000e+00 7.644952e-01 2.355048e-01 0.000000e+00 0.000000e+00
 0.000000e+00 0.000000e+00 7.644951e-01 2.355050e-01 0.000000e+00
 0.000000e+00 0.000000e+00 0.000000e+00 8.924099e-01 1.075902e-01
 0.000000e+00 0.000000e+00 0.000000e+00 0.000000e+00 0.000000e+00
<ENDHMM>
~h "r"
<BEGINHMM>
<NUMSTATES> 5
<STATE> 2
<MEAN> 39
 -1.199792e+01 2.034101e+00 -2.361452e+00 1.136550e+00 -2.698589e+00 -1.250359e+00 -1.703319e+00 -7.284812e-01 -1.636957e+00 -9.717389e-01 -1.313663e+00 -2.545304e-01 6.233769e+01 7.568777e-03 1.454344e-04 -5.892015e-03 -3.080508e-03 -1.888977e-03 -4.164523e-04 -2.446841e-03 -2.106869e-03 8.317560e-04 -3.183965e-03 -1.240631e-02 -1.352905e-02 7.972210e-03 -2.384025e-03 7.042512e-04 1.592834e-03 1.637148e-03 1.482080e-03 1.305337e-03 9.467733e-04 -2.116568e-05 -1.476078e-04 2.800949e-04 1.098570e-03 1.395581e-03 -1.730692e-03
<VARIANCE> 39
 5.582231e+01 1.882434e+01 3.152053e+01 3.171769e+01 4.887454e+01 4.130316e+01 3.892133e+01 3.559685e+01 3.047002e+01 2.150486e+01 2.856115e+01 2.711145e+01 2.529640e+01 1.491545e+00 1.132652e+00 1.527021e+00 1.764238e+00 2.224826e+00 2.002545e+00 2.016419e+00 2.212817e+00 1.991012e+00 1.677180e+00 1.906768e+00 1.624858e+00 7.047004e-01 1.914252e-01 1.958494e-01 2.377565e-01 2.997625e-01 3.642926e-01 3.603850e-01 3.656199e-01 3.897184e-01 3.590752e-01 3.200230e-01 3.522058e-01 3.036159e-01 9.698406e-02
<GCONST> 1.066093e+02
<STATE> 3
<MEAN> 39
 -1.198149e+01 2.039091e+00 -2.375331e+00 1.134349e+00 -2.698245e+00 -1.243587e+00 -1.707651e+00 -7.370371e-01 -1.634448e+00 -9.817829e-01 -1.358158e+00 -3.025623e-01 6.235936e+01 -2.894867e-03 3.136301e-03 1.228991e-03 3.973017e-03 4.115028e-03 4.862602e-03 1.394880e-03 -2.337423e-03 5.510853e-05 -2.052379e-03 -7.130925e-03 -7.097562e-03 3.951591e-04 -2.138798e-03 7.350711e-04 1.652276e-03 1.506880e-03 1.157690e-03 9.853635e-04 6.362282e-04 -2.064374e-04 -3.295504e-04 1.855773e-04 1.247546e-03 1.482293e-03 -1.568745e-03
<VARIANCE> 39
 5.570318e+01 1.883223e+01 3.161504e+01 3.181100e+01 4.874929e+01 4.101291e+01 3.888553e+01 3.564708e+01 3.043662e+01 2.157727e+01 2.872183e+01 2.723112e+01 2.512431e+01 1.502538e+00 1.129532e+00 1.521170e+00 1.766242e+00 2.213324e+00 1.997643e+00 2.023184e+00 2.211330e+00 1.992568e+00 1.687366e+00 1.908153e+00 1.625667e+00 7.061182e-01 1.920842e-01 1.956412e-01 2.365409e-01 2.988844e-01 3.615331e-01 3.594829e-01 3.661852e-01 3.899653e-01 3.601576e-01 3.218928e-01 3.522599e-01 3.031991e-01 9.694079e-02
<GCONST> 1.066104e+02
<STATE> 4
<MEAN> 39
 -1.197147e+01 2.022999e+00 -2.368511e+00 1.193018e+00 -2.613654e+00 -1.210107e+00 -1.711177e+00 -7.573181e-01 -1.625311e+00 -1.000492e+00 -1.432480e+00 -3.890372e-01 6.234590e+01 -1.608291e-02 7.033007e-03 1.169033e-02 1.212689e-02 9.157104e-03 9.866952e-03 4.933322e-03 -3.314719e-03 -1.750847e-03 -7.456023e-04 1.770415e-03 2.620659e-03 -9.209344e-03 -1.571208e-03 7.111660e-04 1.528418e-03 1.009254e-03 5.109391e-04 4.456897e-04 1.780293e-04 -3.904605e-04 -4.632894e-04 1.458778e-05 1.291582e-03 1.369981e-03 -1.114651e-03
<VARIANCE> 39
 5.525048e+01 1.885491e+01 3.179914e+01 3.142105e+01 4.789147e+01 4.035105e+01 3.913049e+01 3.603195e+01 3.036213e+01 2.175960e+01 2.896870e+01 2.743883e+01 2.503634e+01 1.493037e+00 1.123412e+00 1.516963e+00 1.738019e+00 2.185802e+00 1.978920e+00 2.026657e+00 2.217262e+00 1.994093e+00 1.693702e+00 1.905767e+00 1.620783e+00 7.019240e-01 1.898315e-01 1.947312e-01 2.360505e-01 2.926745e-01 3.566964e-01 3.569205e-01 3.657069e-01 3.914025e-01 3.623750e-01 3.230557e-01 3.511651e-01 3.012591e-01 9.566956e-02
<GCONST> 1.064738e+02
<TRANSP> 5
 0.000000e+00 1.000000e+00 0.000000e+00 0.000000e+00 0.000000e+00
 0.000000e+00 7.677110e-01 2.322890e-01 0.000000e+00 0.000000e+00
 0.000000e+00 0.000000e+00 7.677099e-01 2.322901e-01 0.000000e+00
 0.000000e+00 0.000000e+00 0.000000e+00 8.963007e-01 1.036993e-01
 0.000000e+00 0.000000e+00 0.000000e+00 0.000000e+00 0.000000e+00
<ENDHMM>
~h "s"
<BEGINHMM>
<NUMSTATES> 5
<STATE> 2
<MEAN> 39
 -1.475429e+01 3.956504e+00 -3.845986e-01 2.073344e+00 -2.925170e+00 -1.164700e+00 -1.558776e+00 -2.357234e+00 -2.029611e+00 -1.828305e+00 1.565177e-02 1.118372e+00 6.185207e+01 -4.204502e-02 -8.908880e-03 -8.857121e-03 1.820600e-02 3.405005e-02 2.027538e-02 3.514569e-02 2.142499e-02 2.259129e-02 1.397530e-02 1.365064e-02 1.084100e-02 -2.531678e-02 1.672620e-03 -8.136512e-04 5.666474e-04 -1.706792e-05 -3.490984e-04 2.178859e-04 -4.632106e-04 1.653945e-04 -1.046804e-03 2.243852e-04 -4.622098e-04 -1.709781e-04 -5.617607e-04
<VARIANCE> 39
 5.543782e+01 1.522451e+01 3.289168e+01 3.178129e+01 6.044868e+01 3.916614e+01 4.824406e+01 3.772237e+01 3.870041e+01 2.156393e+01 2.001927e+01 1.646719e+01 1.582362e+01 1.572857e+00 8.108520e-01 1.310659e+00 1.534463e+00 2.315059e+00 1.795217e+00 2.262457e+00 1.954769e+00 1.990654e+00 1.601238e+00 1.629435e+00 1.299027e+00 4.882573e-01 1.794977e-01 1.334963e-01 1.833986e-01 2.470493e-01 3.398762e-01 3.165375e-01 3.876398e-01 3.485507e-01 3.456652e-01 3.024040e-01 3.054550e-01 2.539518e-01 6.834789e-02
<GCONST> 1.024208e+02
<STATE> 3
<MEAN> 39
 -1.492731e+01 3.910646e+00 -4.230134e-01 2.150961e+00 -2.776445e+00 -1.071694e+00 -1.405925e+00 -2.258367e+00 -1.934857e+00 -1.763638e+00 7.309646e-02 1.165207e+00 6.173687e+01 -3.362124e-02 -1.237470e-02 -5.741826e-03 1.778306e-02 3.163120e-02 2.080531e-02 3.219819e-02 2.174583e-02 1.726576e-02 1.467331e-02 1.140778e-02 1.006867e-02 -2.739247e-02 2.192984e-03 -5.738830e-04 9.206696e-04 -1.726905e-04 -9.541301e-04 -1.060506e-04 -9.355928e-04 -2.263942e-04 -1.415760e-03 -1.634503e-05 -6.046921e-04 -2.252583e-04 -1.986761e-04
<VARIANCE> 39
 5.453094e+01 1.501454e+01 3.206504e+01 3.114819e+01 5.994757e+01 3.884433e+01 4.800073e+01 3.750566e+01 3.858652e+01 2.138162e+01 1.980087e+01 1.616303e+01 1.568910e+01 1.555293e+00 7.980909e-01 1.284186e+00 1.504529e+00 2.281906e+00 1.778189e+00 2.250400e+00 1.936813e+00 1.990774e+00 1.594572e+00 1.621156e+00 1.288485e+00 4.796732e-01 1.776118e-01 1.315355e-01 1.800896e-01 2.428349e-01 3.353754e-01 3.140632e-01 3.857831e-01 3.464049e-01 3.467070e-01 3.019403e-01 3.047067e-01 2.521858e-01 6.715196e-02
<GCONST> 1.020085e+02
<STATE> 4
<MEAN> 39
 -1.517259e+01 3.828467e+00 -4.491817e-01 2.296129e+00 -2.531556e+00 -9.005520e-01 -1.164016e+00 -2.107141e+00 -1.777820e+00 -1.660819e+00 1.437256e-01 1.205532e+00 6.152694e+01 -2.005317e-02 -1.716324e-02 -1.093330e-03 1.595056e-02 2.713174e-02 2.131302e-02 2.713809e-02 2.279712e-02 9.437299e-03 1.572266e-02 7.719127e-03 9.324713e-03 -2.955302e-02 2.488925e-03 -2.182199e-04 1.157824e-03 -3.014035e-04 -1.395393e-03 -5.409071e-04 -1.307521e-03 -4.570514e-04 -1.582679e-03 -2.224901e-04 -9.121983e-04 -4.100608e-04 2.575924e-04
<VARIANCE> 39
 5.273614e+01 1.479924e+01 3.090321e+01 3.002211e+01 5.879818e+01 3.831524e+01 4.746886e+01 3.739702e+01 3.836422e+01 2.119972e+01 1.946685e+01 1.578441e+01 1.557381e+01 1.506154e+00 7.762270e-01 1.243330e+00 1.447089e+00 2.220709e+00 1.747953e+00 2.221215e+00 1.913857e+00 1.982799e+00 1.581581e+00 1.605366e+00 1.271651e+00 4.635802e-01 1.720719e-01 1.279229e-01 1.751450e-01 2.343558e-01 3.275943e-01 3.098114e-01 3.817593e-01 3.443674e-01 3.475371e-01 3.007751e-01 3.031496e-01 2.492404e-01 6.476720e-02
<GCONST> 1.012767e+02
<TRANSP> 5
 0.000000e+00 1.000000e+00 0.000000e+00 0.000000e+00 0.000000e+00
 0.000000e+00 7.648699e-01 2.351300e-01 0.000000e+00 0.000000e+00
 0.000000e+00 0.000000e+00 7.648714e-01 2.351286e-01 0.000000e+00
 0.000000e+00 0.000000e+00 0.000000e+00 8.929672e-01 1.070328e-01
 0.000000e+00 0.000000e+00 0.000000e+00 0.000000e+00 0.000000e+00
<ENDHMM>
~h "t"
<BEGINHMM>
<NUMSTATES> 5
<STATE> 2
<MEAN> 39
 -1.449791e+01 2.640372e+00 -7.085730e-01 2.122538e+00 -2.079486e+00 -4.240898e-01 -4.052702e-01 -7.471740e-01 -1.716666e+00 -5.628079e-01 8.694697e-02 1.488864e+00 6.073104e+01 -2.652341e-03 -9.156335e-03 -1.431702e-03 2.402759e-03 -1.196915e-02 -1.710438e-02 -6.439960e-03 -5.170495e-03 -9.561959e-03 -9.968743e-03 -1.002674e-02 -7.991116e-03 -3.413676e-03 -4.438771e-04 4.467006e-04 5.507412e-05 3.221871e-04 1.103230e-03 1.123544e-03 1.104154e-03 3.280254e-04 2.940969e-04 2.642464e-04 4.422896e-04 7.465740e-04 3.753769e-05
<VARIANCE> 39
 4.085956e+01 1.474992e+01 2.462820e+01 2.879415e+01 5.361128e+01 3.696139e+01 3.832439e+01 3.517427e+01 3.259051e+01 2.047771e+01 1.914702e+01 1.694072e+01 1.667192e+01 1.240774e+00 8.276815e-01 1.130403e+00 1.590594e+00 2.267299e+00 1.854308e+00 2.105652e+00 1.834593e+00 1.818409e+00 1.561358e+00 1.587038e+00 1.337191e+00 5.241519e-01 1.528014e-01 1.432887e-01 1.741052e-01 2.796619e-01 3.518399e-01 3.338696e-01 3.786532e-01 3.358268e-01 3.259248e-01 3.012083e-01 3.058546e-01 2.587500e-01 7.283767e-02
<GCONST> 1.005657e+02
<STATE> 3
<MEAN> 39
 -1.450936e+01 2.607718e+00 -7.129992e-01 2.130344e+00 -2.120433e+00 -4.858109e-01 -4.240715e-01 -7.696896e-01 -1.753869e+00 -5.969865e-01 5.668187e-02 1.467269e+00 6.072171e+01 -4.172921e-03 -6.990161e-03 -1.407842e-03 2.127098e-03 -7.880092e-03 -1.318692e-02 -3.139667e-03 -5.421958e-03 -8.414077e-03 -8.514993e-03 -6.574765e-03 -4.093692e-03 -2.662596e-03 -3.904378e-04 5.527698e-04 -5.792570e-05 -1.299173e-04 9.879109e-04 1.015244e-03 8.154730e-04 -8.364263e-05 3.652146e-04 3.845119e-04 8.220936e-04 8.809175e-04 1.705972e-04
<VARIANCE> 39
 4.073621e+01 1.480498e+01 2.456699e+01 2.838086e+01 5.368336e+01 3.711190e+01 3.811243e+01 3.478999e+01 3.229633e+01 2.023055e+01 1.883678e+01 1.677897e+01 1.677074e+01 1.240702e+00 8.263542e-01 1.125760e+00 1.584764e+00 2.271455e+00 1.864069e+00 2.104009e+00 1.836610e+00 1.817915e+00 1.565844e+00 1.589572e+00 1.334876e+00 5.255678e-01 1.532845e-01 1.429547e-01 1.736850e-01 2.797245e-01 3.523893e-01 3.360023e-01 3.790391e-01 3.362449e-01 3.260964e-01 3.025643e-01 3.068472e-01 2.583363e-01 7.315389e-02
<GCONST> 1.005200e+02
<STATE> 4
<MEAN> 39
 -1.457314e+01 2.571282e+00 -7.070389e-01 2.145335e+00 -2.138750e+00 -5.543771e-01 -4.179373e-01 -8.189821e-01 -1.785916e+00 -6.321110e-01 4.115981e-02 1.460460e+00 6.068283e+01 -2.650233e-03 -1.981622e-03 -2.135628e-05 9.907858e-04 -5.327442e-03 -1.041658e-02 -1.761186e-03 -6.103452e-03 -5.404272e-03 -6.113554e-03 -1.819531e-03 2.138826e-06 5.959559e-04 -4.325967e-05 6.681200e-04 4.380691e-05 -1.345026e-04 4.906703e-04 5.528909e-04 3.210432e-04 -8.831230e-05 5.228964e-04 2.408195e-04 4.910349e-04 4.478350e-04 2.979714e-04
<VARIANCE> 39
 4.057986e+01 1.486383e+01 2.437818e+01 2.754512e+01 5.381386e+01 3.754727e+01 3.808502e+01 3.421982e+01 3.206936e+01 1.995147e+01 1.849783e+01 1.651261e+01 1.684347e+01 1.238401e+00 8.203078e-01 1.117267e+00 1.572071e+00 2.270870e+00 1.878456e+00 2.104190e+00 1.846313e+00 1.813519e+00 1.571449e+00 1.588053e+00 1.327204e+00 5.240818e-01 1.539414e-01 1.418310e-01 1.735729e-01 2.788192e-01 3.526796e-01 3.390583e-01 3.802912e-01 3.392722e-01 3.258756e-01 3.045847e-01 3.078925e-01 2.571338e-01 7.319430e-02
<GCONST> 1.004281e+02
<TRANSP> 5
 0.000000e+00 1.000000e+00 0.000000e+00 0.000000e+00 0.000000e+00
 0.000000e+00 7.605415e-01 2.394585e-01 0.000000e+00 0.000000e+00
 0.000000e+00 0.000000e+00 7.605422e-01 2.394578e-01 0.000000e+00
 0.000000e+00 0.000000e+00 0.000000e+00 8.878035e-01 1.121965e-01
 0.000000e+00 0.000000e+00 0.000000e+00 0.000000e+00 0.000000e+00
<ENDHMM>
~h "w"
<BEGINHMM>
<NUMSTATES> 5
<STATE> 2
<MEAN> 39
 -1.202357e+01 3.628411e+00 -9.029954e-01 9.755579e-01 -3.301168e+00 -1.390820e+00 -1.897883e+00 -2.395794e+00 -2.890536e+00 -1.829948e+00 -1.302223e+00 4.618647e-01 6.201589e+01 1.521668e-02 -8.263427e-03 -1.214933e-02 -8.881320e-03 -5.888239e-03 -1.491781e-03 3.384416e-04 7.886893e-03 7.522236e-03 8.882939e-03 -7.174535e-03 -1.129836e-02 4.430907e-03 1.211783e-04 -4.852977e-06 1.139700e-04 -6.637908e-06 -3.281215e-04 -4.920961e-04 -2.625985e-04 -1.670349e-04 -5.388041e-05 6.855010e-05 1.829712e-04 -3.216897e-06 4.306666e-04
<VARIANCE> 39
 4.876561e+01 1.761028e+01 2.677783e+01 4.064574e+01 5.210557e+01 3.872346e+01 4.050734e+01 3.876883e+01 3.383601e+01 2.381605e+01 2.283159e+01 1.991943e+01 1.717630e+01 1.432932e+00 1.047088e+00 1.275237e+00 2.186105e+00 2.457939e+00 2.038486e+00 2.207838e+00 2.188997e+00 1.974109e+00 1.794312e+00 1.869913e+00 1.546867e+00 5.943573e-01 1.699387e-01 1.716254e-01 2.005149e-01 3.682239e-01 3.877046e-01 3.664373e-01 3.930729e-01 3.903368e-01 3.549554e-01 3.428648e-01 3.546858e-01 2.939991e-01 7.865546e-02
<GCONST> 1.055976e+02
<STATE> 3
<MEAN> 39
 -1.196137e+01 3.595190e+00 -9.515640e-01 9.397747e-01 -3.326874e+00 -1.399749e+00 -1.898246e+00 -2.365059e+00 -2.861010e+00 -1.792845e+00 -1.329314e+00 4.160197e-01 6.203543e+01 1.555090e-02 -8.142615e-03 -1.155108e-02 -8.769676e-03 -7.084125e-03 -3.467304e-03 -7.403650e-04 7.030464e-03 7.121855e-03 9.012028e-03 -6.397801e-03 -1.113317e-02 6.064613e-03 -5.599950e-05 2.598847e-05 2.255133e-04 1.417143e-04 -2.485406e-04 -4.969339e-04 -2.157838e-04 -1.854914e-04 -1.323528e-04 -2.629371e-06 2.492819e-04 1.571457e-04 3.328647e-04
<VARIANCE> 39
 4.878690e+01 1.766080e+01 2.679142e+01 4.095127e+01 5.194992e+01 3.863993e+01 4.020695e+01 3.872839e+01 3.354096e+01 2.384889e+01 2.281598e+01 2.019106e+01 1.736548e+01 1.431439e+00 1.059551e+00 1.274862e+00 2.201846e+00 2.467301e+00 2.049370e+00 2.202788e+00 2.198138e+00 1.967480e+00 1.794157e+00 1.875656e+00 1.567043e+00 6.007375e-01 1.697918e-01 1.734691e-01 2.006912e-01 3.721130e-01 3.908550e-01 3.685068e-01 3.930414e-01 3.924406e-01 3.540538e-01 3.432012e-01 3.555991e-01 2.973055e-01 7.922424e-02
<GCONST> 1.057233e+02
<STATE> 4
<MEAN> 39
 -1.193837e+01 3.533848e+00 -9.881579e-01 9.495000e-01 -3.331019e+00 -1.395464e+00 -1.890985e+00 -2.283942e+00 -2.822657e+00 -1.711697e+00 -1.347970e+00 3.702725e-01 6.202345e+01 1.426456e-02 -7.350279e-03 -9.851794e-03 -7.420419e-03 -7.563875e-03 -5.640604e-03 -1.720062e-03 5.485451e-03 5.797703e-03 8.623487e-03 -4.682569e-03 -9.786210e-03 6.968809e-03 -3.628020e-04 8.806829e-05 3.596036e-04 3.669242e-04 -2.729158e-05 -4.077698e-04 -1.014239e-04 -1.959972e-04 -1.966571e-04 -8.222523e-05 3.140197e-04 3.420569e-04 1.172595e-04
<VARIANCE> 39
 4.873645e+01 1.764147e+01 2.664175e+01 4.080099e+01 5.175920e+01 3.881787e+01 3.995756e+01 3.869141e+01 3.326324e+01 2.385413e+01 2.270105e+01 2.043459e+01 1.762070e+01 1.423062e+00 1.069630e+00 1.268161e+00 2.202286e+00 2.467230e+00 2.057174e+00 2.190119e+00 2.212149e+00 1.957304e+00 1.788581e+00 1.877966e+00 1.589746e+00 6.061928e-01 1.693028e-01 1.751665e-01 2.001175e-01 3.745412e-01 3.931468e-01 3.697791e-01 3.914138e-01 3.955397e-01 3.523694e-01 3.428038e-01 3.560470e-01 3.014638e-01 7.980079e-02
<GCONST> 1.057783e+02
<TRANSP> 5
 0.000000e+00 1.000000e+00 0.000000e+00 0.000000e+00 0.000000e+00
 0.000000e+00 7.573619e-01 2.426381e-01 0.000000e+00 0.000000e+00
 0.000000e+00 0.000000e+00 7.573606e-01 2.426394e-01 0.000000e+00
 0.000000e+00 0.000000e+00 0.000000e+00 8.842076e-01 1.157924e-01
 0.000000e+00 0.000000e+00 0.000000e+00 0.000000e+00 0.000000e+00
<ENDHMM>
~h "y"
<BEGINHMM>
<NUMSTATES> 5
<STATE> 2
<MEAN> 39
 -1.450749e+01 4.205223e+00 2.439712e-01 2.709742e+00 -3.197776e+00 -1.745648e+00 -1.916288e+00 -2.947579e+00 -2.716590e+00 -2.139216e+00 -4.178436e-01 7.259246e-01 6.198404e+01 -3.988319e-02 1.160264e-02 1.238111e-02 1.864866e-02 7.048665e-03 2.776986e-03 1.890999e-02 -7.336818e-03 8.456959e-03 1.355422e-04 1.715724e-02 1.016776e-02 -1.209380e-02 9.431660e-05 -1.251317e-03 -1.117882e-03 -2.658501e-04 9.117484e-04 6.453575e-04 1.226997e-03 1.455342e-03 7.425548e-04 8.998772e-04 -1.835136e-04 1.675821e-04 -5.839057e-04
<VARIANCE> 39
 5.407354e+01 1.614409e+01 3.868809e+01 2.441702e+01 6.007731e+01 3.476691e+01 5.225171e+01 3.890488e+01 3.906580e+01 2.294456e+01 2.065601e+01 1.672586e+01 1.517376e+01 1.526257e+00 8.568109e-01 1.458350e+00 1.379853e+00 2.527842e+00 1.861487e+00 2.447181e+00 1.919972e+00 2.043392e+00 1.643965e+00 1.633142e+00 1.289518e+00 5.126119e-01 1.714820e-01 1.466969e-01 1.928534e-01 2.339776e-01 3.606400e-01 3.292532e-01 4.051784e-01 3.405012e-01 3.553205e-01 3.085816e-01 3.049830e-01 2.511728e-01 6.848700e-02
<GCONST> 1.029228e+02
<STATE> 3
<MEAN> 39
 -1.468238e+01 4.247189e+00 2.851256e-01 2.786776e+00 -3.159562e+00 -1.725907e+00 -1.821927e+00 -2.965957e+00 -2.672978e+00 -2.132648e+00 -3.429100e-01 7.720796e-01 6.192784e+01 -3.891587e-02 5.724121e-03 7.452769e-03 1.732181e-02 1.129472e-02 6.003316e-03 2.412484e-02 -5.616421e-04 1.153778e-02 4.237721e-03 1.616473e-02 1.084468e-02 -1.489179e-02 4.642633e-04 -1.416931e-03 -1.021860e-03 -3.336528e-04 8.780812e-04 7.480327e-04 9.969654e-04 1.531863e-03 5.524644e-04 9.078585e-04 -2.851436e-04 9.730829e-05 -6.136686e-04
<VARIANCE> 39
 5.347819e+01 1.578200e+01 3.840825e+01 2.390901e+01 6.014510e+01 3.455523e+01 5.252758e+01 3.846332e+01 3.924153e+01 2.273009e+01 2.038374e+01 1.626384e+01 1.488485e+01 1.513843e+00 8.458562e-01 1.445527e+00 1.350049e+00 2.517824e+00 1.847078e+00 2.450417e+00 1.903173e+00 2.045810e+00 1.639906e+00 1.622010e+00 1.274586e+00 5.061326e-01 1.697114e-01 1.447914e-01 1.899905e-01 2.294809e-01 3.582052e-01 3.269826e-01 4.055950e-01 3.382071e-01 3.545984e-01 3.085710e-01 3.028488e-01 2.485575e-01 6.755467e-02
<GCONST> 1.025703e+02
<STATE> 4
<MEAN> 39
 -1.496896e+01 4.282622e+00 3.294877e-01 2.944222e+00 -3.009144e+00 -1.638156e+00 -1.628878e+00 -2.977365e+00 -2.568084e+00 -2.106788e+00 -2.449442e-01 8.099913e-01 6.178761e+01 -3.576082e-02 -3.790258e-03 6.696809e-05 1.437151e-02 1.811997e-02 1.302311e-02 3.126269e-02 1.140861e-02 1.515666e-02 1.060855e-02 1.475398e-02 1.182937e-02 -1.989299e-02 1.226281e-03 -1.488722e-03 -6.742998e-04 -4.672848e-04 6.177925e-04 7.961473e-04 3.812788e-04 1.498617e-03 1.024768e-04 8.479661e-04 -4.516316e-04 -4.970779e-05 -5.879589e-04
<VARIANCE> 39
 5.219863e+01 1.537948e+01 3.764190e+01 2.286440e+01 5.938883e+01 3.415952e+01 5.261768e+01 3.819775e+01 3.947303e+01 2.248571e+01 2.007052e+01 1.565670e+01 1.453076e+01 1.473840e+00 8.237409e-01 1.413964e+00 1.298053e+00 2.470065e+00 1.816738e+00 2.430073e+00 1.883521e+00 2.043988e+00 1.632118e+00 1.606270e+00 1.253487e+00 4.895383e-01 1.647949e-01 1.407856e-01 1.846291e-01 2.221307e-01 3.521267e-01 3.229658e-01 4.029595e-01 3.366457e-01 3.537823e-01 3.085215e-01 3.000138e-01 2.448792e-01 6.521412e-02
<GCONST> 1.018877e+02
<TRANSP> 5
 0.000000e+00 1.000000e+00 0.000000e+00 0.000000e+00 0.000000e+00
 0.000000e+00 7.647679e-01 2.352321e-01 0.000000e+00 0.000000e+00
 0.000000e+00 0.000000e+00 7.647684e-01 2.352316e-01 0.000000e+00
 0.000000e+00 0.000000e+00 0.000000e+00 8.927675e-01 1.072325e-01
 0.000000e+00 0.000000e+00 0.000000e+00 0.000000e+00 0.000000e+00
<ENDHMM>
~h "ah"
<BEGINHMM>
<NUMSTATES> 5
<STATE> 2
<MEAN> 39
 -1.308018e+01 1.535166e+00 -1.943713e+00 2.142547e+00 -1.288677e+00 2.091433e-02 -8.016778e-01 2.818010e-01 -9.655660e-01 -4.849468e-01 -1.041519e+00 -5.282665e-02 6.109641e+01 4.475681e-02 2.483873e-03 -2.307754e-02 -2.643179e-02 -2.751207e-02 -3.363554e-02 -3.104446e-02 -1.363765e-02 -4.400609e-03 -1.801882e-02 -3.320434e-02 -3.569096e-02 4.119393e-02 -1.210861e-03 6.288848e-05 -5.536656e-04 5.009595e-04 1.781431e-03 1.010964e-03 8.534181e-04 4.570238e-04 7.276402e-04 6.508153e-04 6.482435e-04 4.902646e-04 -6.470574e-04
<VARIANCE> 39
 4.758247e+01 1.665354e+01 2.838061e+01 2.411404e+01 3.922585e+01 3.432391e+01 3.675563e+01 3.406866e+01 2.782667e+01 2.018884e+01 2.713783e+01 2.526427e+01 2.554569e+01 1.023047e+00 1.004798e+00 1.435430e+00 1.336748e+00 1.918489e+00 1.735912e+00 1.762714e+00 2.129430e+00 1.848219e+00 1.520398e+00 1.802757e+00 1.529652e+00 5.600280e-01 1.362734e-01 1.705638e-01 2.299794e-01 2.395344e-01 3.378668e-01 3.235335e-01 3.315660e-01 3.755563e-01 3.409078e-01 2.947312e-01 3.335488e-01 2.875860e-01 7.534999e-02
<GCONST> 1.018083e+02
<STATE> 3
<MEAN> 39
 -1.288254e+01 1.551482e+00 -2.048238e+00 2.028312e+00 -1.400424e+00 -1.241438e-01 -9.375150e-01 2.211218e-01 -9.809520e-01 -5.619981e-01 -1.185650e+00 -2.083372e-01 6.128140e+01 3.888910e-02 3.031416e-03 -2.516337e-02 -2.365828e-02 -1.971181e-02 -2.872181e-02 -2.686623e-02 -1.199976e-02 -1.298463e-03 -1.498165e-02 -3.013861e-02 -3.317732e-02 3.758870e-02 -1.366572e-03 1.604252e-04 -2.323364e-04 7.730942e-04 1.742928e-03 1.190402e-03 9.479391e-04 2.589123e-04 5.377576e-04 7.055392e-04 7.029013e-04 6.143249e-04 -9.795665e-04
<VARIANCE> 39
 4.903991e+01 1.709801e+01 2.933590e+01 2.466055e+01 3.947417e+01 3.466551e+01 3.683721e+01 3.427068e+01 2.804389e+01 2.038834e+01 2.783295e+01 2.590882e+01 2.616837e+01 1.062399e+00 1.034730e+00 1.483241e+00 1.365225e+00 1.941261e+00 1.760287e+00 1.769687e+00 2.165424e+00 1.875539e+00 1.533239e+00 1.844855e+00 1.563721e+00 5.812783e-01 1.402082e-01 1.749889e-01 2.372394e-01 2.440668e-01 3.410982e-01 3.268898e-01 3.323905e-01 3.801282e-01 3.456911e-01 2.963954e-01 3.396338e-01 2.930270e-01 7.752077e-02
<GCONST> 1.025328e+02
<STATE> 4
<MEAN> 39
 -1.260823e+01 1.597321e+00 -2.169757e+00 1.922725e+00 -1.481297e+00 -3.505222e-01 -1.130232e+00 8.536002e-02 -9.913478e-01 -7.041777e-01 -1.399840e+00 -4.622998e-01 6.154077e+01 3.033255e-02 4.462938e-03 -2.613144e-02 -1.761804e-02 -1.001402e-02 -2.007210e-02 -2.058674e-02 -1.133692e-02 1.168130e-03 -1.139885e-02 -2.572705e-02 -2.880815e-02 3.095625e-02 -1.559898e-03 4.344981e-05 2.582974e-04 1.065819e-03 1.509564e-03 1.582309e-03 1.094611e-03 1.646418e-04 9.119775e-05 5.217531e-04 7.422243e-04 7.981782e-04 -1.490360e-03
<VARIANCE> 39
 5.119602e+01 1.783803e+01 3.086276e+01 2.471257e+01 3.929051e+01 3.488024e+01 3.734098e+01 3.490948e+01 2.869463e+01 2.083156e+01 2.908270e+01 2.689618e+01 2.698742e+01 1.098936e+00 1.078416e+00 1.565770e+00 1.379133e+00 1.953656e+00 1.761463e+00 1.763795e+00 2.230984e+00 1.917717e+00 1.547515e+00 1.904807e+00 1.607097e+00 6.042289e-01 1.431294e-01 1.809857e-01 2.501655e-01 2.457586e-01 3.418306e-01 3.253392e-01 3.302591e-01 3.878800e-01 3.525711e-01 2.981831e-01 3.481087e-01 3.003431e-01 7.954093e-02
<GCONST> 1.033900e+02
<TRANSP> 5
 0.000000e+00 1.000000e+00 0.000000e+00 0.000000e+00 0.000000e+00
 0.000000e+00 7.726939e-01 2.273061e-01 0.000000e+00 0.000000e+00
 0.000000e+00 0.000000e+00 7.726956e-01 2.273044e-01 0.000000e+00
 0.000000e+00 0.000000e+00 0.000000e+00 9.021268e-01 9.787318e-02
 0.000000e+00 0.000000e+00 0.000000e+00 0.000000e+00 0.000000e+00
<ENDHMM>
~h "ch"
<BEGINHMM>
<NUMSTATES> 5
<STATE> 2
<MEAN> 39
 -1.339555e+01 2.855847e+00 -1.469338e+00 3.612905e-01 -2.248880e+00 2.471000e-01 -2.769679e-01 -2.554558e+00 -1.878274e+00 -9.957051e-01 -5.366431e-01 1.698093e+00 6.132713e+01 -1.714457e-02 -6.954068e-03 2.436050e-04 6.805693e-03 1.670435e-02 1.444722e-02 6.940652e-03 1.056945e-02 9.450443e-03 7.165028e-03 1.795346e-03 3.305637e-03 -9.988195e-03 -5.833198e-04 1.454616e-05 3.219098e-05 4.035638e-04 4.985304e-05 -1.445375e-04 -3.445121e-04 7.141698e-04 1.604869e-04 8.352181e-05 3.090385e-04 1.149301e-04 -3.396227e-04
<VARIANCE> 39
 5.118748e+01 1.803570e+01 1.643065e+01 5.261712e+01 4.683616e+01 2.871872e+01 3.855076e+01 4.206284e+01 3.440698e+01 2.404592e+01 2.051561e+01 1.734228e+01 1.727551e+01 2.196847e+00 9.863380e-01 1.092095e+00 2.909660e+00 2.472266e+00 1.845320e+00 2.450608e+00 2.404438e+00 2.407856e+00 1.964661e+00 1.965387e+00 1.649929e+00 7.669141e-01 2.788401e-01 1.504676e-01 1.885076e-01 4.397997e-01 4.029410e-01 3.386603e-01 4.351193e-01 4.371630e-01 4.318358e-01 3.708270e-01 3.958197e-01 3.337823e-01 1.077201e-01
<GCONST> 1.075939e+02
<STATE> 3
<MEAN> 39
 -1.347483e+01 2.825907e+00 -1.467403e+00 3.961186e-01 -2.174970e+00 3.067952e-01 -2.473034e-01 -2.504441e+00 -1.837022e+00 -9.643302e-01 -5.275904e-01 1.711319e+00 6.128255e+01 -1.952044e-02 -6.817421e-03 4.750984e-04 8.563695e-03 1.681590e-02 1.364612e-02 5.458545e-03 1.358779e-02 1.002146e-02 7.543705e-03 3.101006e-03 3.750963e-03 -1.135655e-02 -4.780175e-04 3.972754e-05 1.386573e-04 4.133519e-04 -1.086759e-04 -4.192704e-04 -3.363825e-04 5.274968e-04 1.180844e-04 6.164394e-05 3.064599e-04 5.765045e-05 -1.280529e-04
<VARIANCE> 39
 5.089827e+01 1.786245e+01 1.628637e+01 5.222107e+01 4.658833e+01 2.832684e+01 3.840044e+01 4.207861e+01 3.442391e+01 2.392010e+01 2.047517e+01 1.734361e+01 1.720841e+01 2.172513e+00 9.752436e-01 1.086332e+00 2.875155e+00 2.435997e+00 1.819058e+00 2.434526e+00 2.385267e+00 2.404661e+00 1.950670e+00 1.960411e+00 1.645726e+00 7.551380e-01 2.755452e-01 1.491542e-01 1.878334e-01 4.345694e-01 3.966944e-01 3.343182e-01 4.323692e-01 4.334913e-01 4.305180e-01 3.684568e-01 3.948710e-01 3.328721e-01 1.062355e-01
<GCONST> 1.073087e+02
<STATE> 4
<MEAN> 39
 -1.367416e+01 2.747949e+00 -1.467919e+00 4.677705e-01 -2.011706e+00 3.763352e-01 -1.229757e-01 -2.439610e+00 -1.714443e+00 -9.016105e-01 -4.761575e-01 1.734171e+00 6.115794e+01 -2.235757e-02 -6.281503e-03 1.622468e-03 1.196943e-02 1.678054e-02 1.063335e-02 4.101254e-03 1.674816e-02 1.000643e-02 7.886330e-03 4.455226e-03 3.312847e-03 -1.204329e-02 -2.215004e-04 1.176175e-04 2.512259e-04 3.625129e-04 -3.008682e-04 -6.557742e-04 -2.797917e-04 2.809752e-04 8.937307e-06 -4.324440e-05 2.381798e-04 -2.462071e-05 1.153817e-04
<VARIANCE> 39
 5.032951e+01 1.754454e+01 1.591164e+01 5.123399e+01 4.601655e+01 2.766034e+01 3.799079e+01 4.184346e+01 3.438628e+01 2.356962e+01 2.020286e+01 1.722416e+01 1.700209e+01 2.119527e+00 9.470708e-01 1.070539e+00 2.804197e+00 2.376726e+00 1.773580e+00 2.394124e+00 2.350111e+00 2.387888e+00 1.919939e+00 1.936108e+00 1.633655e+00 7.331778e-01 2.688374e-01 1.455292e-01 1.858952e-01 4.247687e-01 3.876913e-01 3.270222e-01 4.257280e-01 4.280634e-01 4.270465e-01 3.639069e-01 3.903357e-01 3.300636e-01 1.034434e-01
<GCONST> 1.066663e+02
<TRANSP> 5
 0.000000e+00 1.000000e+00 0.000000e+00 0.000000e+00 0.000000e+00
 0.000000e+00 7.674446e-01 2.325554e-01 0.000000e+00 0.000000e+00
 0.000000e+00 0.000000e+00 7.674448e-01 2.325552e-01 0.000000e+00
 0.000000e+00 0.000000e+00 0.000000e+00 8.961272e-01 1.038729e-01
 0.000000e+00 0.000000e+00 0.000000e+00 0.000000e+00 0.000000e+00
<ENDHMM>
~h "dh"
<BEGINHMM>
<NUMSTATES> 5
<STATE> 2
<MEAN> 39
 -1.252923e+01 3.411155e+00 -1.222830e+00 1.308475e-01 -2.850083e+00 3.731616e-01 -3.085418e+00 -2.567729e+00 -2.431427e+00 -1.960503e+00 -9.313267e-01 8.119811e-01 6.200948e+01 -4.480381e-02 4.168950e-03 2.853145e-02 1.286208e-02 6.294621e-03 3.553397e-02 1.549574e-02 1.058105e-02 2.065239e-02 5.509484e-03 1.216386e-02 2.627940e-02 -2.440990e-02 6.488910e-04 4.603533e-04 7.859217e-04 8.046043e-04 -9.167385e-04 -1.102227e-03 1.428585e-04 -9.666073e-05 -4.548852e-04 -5.206322e-05 9.568817e-05 -5.250273e-04 5.023752e-04
<VARIANCE> 39
 5.579155e+01 1.812885e+01 2.686345e+01 5.260029e+01 4.674453e+01 3.479688e+01 4.284403e+01 4.297212e+01 3.341625e+01 2.446630e+01 2.383538e+01 2.663515e+01 2.001007e+01 1.579500e+00 9.655848e-01 1.318446e+00 2.237287e+00 2.038766e+00 1.743806e+00 2.441566e+00 2.455962e+00 2.166626e+00 1.820425e+00 1.797786e+00 1.651543e+00 5.878844e-01 1.891038e-01 1.595507e-01 2.086365e-01 3.172492e-01 3.224831e-01 3.148586e-01 4.450209e-01 4.390537e-01 3.920362e-01 3.391778e-01 3.363096e-01 3.197752e-01 8.130024e-02
<GCONST> 1.065175e+02
<STATE> 3
<MEAN> 39
 -1.272743e+01 3.436269e+00 -1.083691e+00 1.930368e-01 -2.829571e+00 5.230947e-01 -3.016706e+00 -2.523844e+00 -2.345282e+00 -1.935836e+00 -8.710137e-01 9.280929e-01 6.190275e+01 -4.157588e-02 6.441204e-03 3.215243e-02 1.584001e-02 1.887396e-03 3.008678e-02 1.521804e-02 9.869658e-03 1.831529e-02 4.797770e-03 1.258804e-02 2.380409e-02 -2.142865e-02 9.736873e-04 4.247099e-04 6.143317e-04 4.939368e-04 -1.087889e-03 -1.451720e-03 -1.710676e-04 -1.003614e-04 -5.162884e-04 -1.530177e-04 8.290458e-05 -7.635024e-04 9.086038e-04
<VARIANCE> 39
 5.504508e+01 1.792233e+01 2.669050e+01 5.300270e+01 4.699635e+01 3.461333e+01 4.278402e+01 4.305084e+01 3.359499e+01 2.419216e+01 2.323946e+01 2.611021e+01 1.957969e+01 1.552917e+00 9.472619e-01 1.289566e+00 2.193041e+00 2.020490e+00 1.717097e+00 2.444876e+00 2.449342e+00 2.158053e+00 1.804941e+00 1.783543e+00 1.629642e+00 5.722385e-01 1.861414e-01 1.565698e-01 2.043613e-01 3.082075e-01 3.194562e-01 3.092659e-01 4.455713e-01 4.388345e-01 3.911506e-01 3.365485e-01 3.342726e-01 3.158100e-01 7.968716e-02
<GCONST> 1.060970e+02
<STATE> 4
<MEAN> 39
 -1.296259e+01 3.436440e+00 -8.734218e-01 3.712652e-01 -2.791868e+00 6.902406e-01 -2.866106e+00 -2.448356e+00 -2.211063e+00 -1.901764e+00 -8.472523e-01 9.845449e-01 6.174401e+01 -3.700847e-02 1.092812e-02 3.932583e-02 1.773684e-02 -6.205128e-03 1.952624e-02 1.209376e-02 7.968033e-03 1.421878e-02 2.853026e-03 1.500552e-02 2.071004e-02 -1.488333e-02 1.211987e-03 2.084423e-04 3.414271e-05 2.023135e-05 -1.113482e-03 -1.944536e-03 -4.201352e-04 7.425727e-05 -2.794437e-04 -1.913579e-04 3.188885e-05 -9.610192e-04 1.390428e-03
<VARIANCE> 39
 5.350423e+01 1.784096e+01 2.737719e+01 5.241553e+01 4.706531e+01 3.437548e+01 4.265656e+01 4.346948e+01 3.373434e+01 2.384805e+01 2.261987e+01 2.576950e+01 1.926024e+01 1.485624e+00 9.280320e-01 1.271785e+00 2.082204e+00 1.983958e+00 1.671999e+00 2.426835e+00 2.432945e+00 2.128441e+00 1.764372e+00 1.772718e+00 1.597835e+00 5.482591e-01 1.788142e-01 1.530738e-01 2.015042e-01 2.900978e-01 3.145409e-01 3.006153e-01 4.433692e-01 4.359833e-01 3.867497e-01 3.291542e-01 3.323196e-01 3.091340e-01 7.677523e-02
<GCONST> 1.054274e+02
<TRANSP> 5
 0.000000e+00 1.000000e+00 0.000000e+00 0.000000e+00 0.000000e+00
 0.000000e+00 7.699825e-01 2.300176e-01 0.000000e+00 0.000000e+00
 0.000000e+00 0.000000e+00 7.699816e-01 2.300184e-01 0.000000e+00
 0.000000e+00 0.000000e+00 0.000000e+00 8.992224e-01 1.007776e-01
 0.000000e+00 0.000000e+00 0.000000e+00 0.000000e+00 0.000000e+00
<ENDHMM>
~h "eh"
<BEGINHMM>
<NUMSTATES> 5
<STATE> 2
<MEAN> 39
 -1.391959e+01 3.189851e+00 -2.213513e-01 2.285187e+00 -3.051393e+00 -1.575981e+00 -1.414855e+00 -1.694797e+00 -2.403555e+00 -1.429123e+00 -2.857874e-01 1.166914e+00 6.144212e+01 1.455297e-02 1.026488e-02 1.016346e-02 -5.130196e-03 -2.214649e-02 -1.785710e-02 -1.515070e-02 -1.253793e-02 -1.043152e-02 -9.304191e-03 -2.776795e-03 -2.414806e-03 9.496234e-03 6.188205e-04 2.024919e-04 -4.550695e-04 -5.212743e-04 2.709692e-04 6.424679e-04 -9.903347e-05 -8.353778e-05 2.922277e-05 -1.273340e-04 -1.816078e-04 -1.998712e-04 2.746381e-04
<VARIANCE> 39
 4.790830e+01 1.581827e+01 2.834115e+01 2.516690e+01 6.015842e+01 4.250869e+01 4.502509e+01 3.537436e+01 3.373809e+01 2.178942e+01 2.032780e+01 1.650072e+01 1.800810e+01 1.355229e+00 8.407609e-01 1.231016e+00 1.450131e+00 2.521085e+00 1.949021e+00 2.197795e+00 1.875566e+00 1.907164e+00 1.630782e+00 1.630865e+00 1.290501e+00 5.301804e-01 1.631345e-01 1.443048e-01 1.806989e-01 2.428077e-01 3.728316e-01 3.373459e-01 3.815220e-01 3.392936e-01 3.434495e-01 3.151656e-01 3.122707e-01 2.516702e-01 7.358322e-02
<GCONST> 1.019970e+02
<STATE> 3
<MEAN> 39
 -1.384966e+01 3.238521e+00 -1.794425e-01 2.259007e+00 -3.146087e+00 -1.650000e+00 -1.482830e+00 -1.750906e+00 -2.449927e+00 -1.470959e+00 -2.988260e-01 1.155171e+00 6.148700e+01 1.687652e-02 1.102803e-02 8.045196e-03 -7.115540e-03 -2.068105e-02 -1.517406e-02 -1.540460e-02 -1.285763e-02 -1.035944e-02 -1.009494e-02 -3.944118e-03 -3.462826e-03 1.051637e-02 4.365706e-04 1.374835e-04 -4.921116e-04 -3.731565e-04 4.297549e-04 5.830105e-04 -4.922984e-05 -4.190370e-05 2.785281e-05 -1.737527e-04 -2.566097e-04 -2.285285e-04 2.092130e-04
<VARIANCE> 39
 4.822039e+01 1.587370e+01 2.843656e+01 2.549591e+01 6.076895e+01 4.273739e+01 4.538711e+01 3.521231e+01 3.375611e+01 2.184078e+01 2.031197e+01 1.643291e+01 1.806024e+01 1.360790e+00 8.467844e-01 1.234709e+00 1.467049e+00 2.554966e+00 1.969019e+00 2.206031e+00 1.883276e+00 1.906018e+00 1.638312e+00 1.635773e+00 1.295814e+00 5.353118e-01 1.641246e-01 1.452335e-01 1.808655e-01 2.449484e-01 3.776189e-01 3.398055e-01 3.827813e-01 3.408714e-01 3.431052e-01 3.164383e-01 3.130218e-01 2.528833e-01 7.435923e-02
<GCONST> 1.021919e+02
<STATE> 4
<MEAN> 39
 -1.369889e+01 3.329225e+00 -1.242411e-01 2.185097e+00 -3.283771e+00 -1.762429e+00 -1.605580e+00 -1.872815e+00 -2.526096e+00 -1.554963e+00 -3.403877e-01 1.101002e+00 6.156689e+01 1.964919e-02 1.278296e-02 5.109188e-03 -9.075929e-03 -1.771047e-02 -1.198388e-02 -1.592194e-02 -1.420541e-02 -1.125791e-02 -1.227108e-02 -6.457702e-03 -5.401224e-03 1.193505e-02 5.280575e-05 3.325237e-06 -5.396493e-04 -1.134749e-04 7.444051e-04 6.103132e-04 1.125651e-04 1.324921e-05 6.695886e-05 -1.338303e-04 -3.229378e-04 -2.539274e-04 1.512728e-05
<VARIANCE> 39
 4.893694e+01 1.607958e+01 2.868089e+01 2.637982e+01 6.135915e+01 4.299677e+01 4.602179e+01 3.510992e+01 3.400130e+01 2.207292e+01 2.048665e+01 1.646222e+01 1.823341e+01 1.370753e+00 8.627783e-01 1.247339e+00 1.509264e+00 2.606738e+00 2.000214e+00 2.220592e+00 1.905574e+00 1.908788e+00 1.654573e+00 1.649707e+00 1.309323e+00 5.443062e-01 1.656926e-01 1.479482e-01 1.825106e-01 2.502124e-01 3.859730e-01 3.437535e-01 3.839906e-01 3.454620e-01 3.434586e-01 3.185934e-01 3.148049e-01 2.558457e-01 7.575345e-02
<GCONST> 1.026441e+02
<TRANSP> 5
 0.000000e+00 1.000000e+00 0.000000e+00 0.000000e+00 0.000000e+00
 0.000000e+00 7.626585e-01 2.373415e-01 0.000000e+00 0.000000e+00
 0.000000e+00 0.000000e+00 7.626607e-01 2.373392e-01 0.000000e+00
 0.000000e+00 0.000000e+00 0.000000e+00 8.902805e-01 1.097195e-01
 0.000000e+00 0.000000e+00 0.000000e+00 0.000000e+00 0.000000e+00
<ENDHMM>
~h "ih"
<BEGINHMM>
<NUMSTATES> 5
<STATE> 2
<MEAN> 39
 -1.384337e+01 4.314873e+00 2.011535e-01 1.908835e+00 -2.442724e+00 -1.017445e+00 -2.427653e+00 -3.081407e+00 -3.407659e+00 -2.074169e+00 -8.455077e-01 4.031381e-01 6.174328e+01 8.456980e-03 2.403356e-02 3.363852e-02 9.889477e-03 -1.517894e-02 -1.751256e-02 -7.824791e-03 -2.429082e-02 -2.316332e-02 -1.445697e-02 -5.709113e-03 -3.169242e-03 3.341079e-03 2.168337e-03 -5.813257e-04 -1.482545e-03 -1.852457e-03 -1.406157e-03 -1.057120e-03 -9.187951e-04 7.159861e-04 4.321524e-04 -2.079448e-05 -4.325965e-05 -2.348320e-04 1.362183e-03
<VARIANCE> 39
 5.095657e+01 1.770925e+01 3.439782e+01 2.955788e+01 4.767469e+01 3.061251e+01 5.176174e+01 4.515656e+01 3.976310e+01 2.318507e+01 2.147892e+01 1.886567e+01 1.473016e+01 1.624228e+00 9.321143e-01 1.540946e+00 1.628024e+00 2.122514e+00 1.697898e+00 2.612828e+00 2.125811e+00 2.202863e+00 1.698331e+00 1.808364e+00 1.413660e+00 4.740796e-01 1.893338e-01 1.546865e-01 2.270285e-01 2.607498e-01 3.296660e-01 3.087613e-01 4.342484e-01 3.609850e-01 3.862311e-01 3.191616e-01 3.401754e-01 2.731110e-01 6.648166e-02
<GCONST> 1.041369e+02
<STATE> 3
<MEAN> 39
 -1.379791e+01 4.417390e+00 3.421232e-01 1.939789e+00 -2.518855e+00 -1.100732e+00 -2.468177e+00 -3.181176e+00 -3.504440e+00 -2.137580e+00 -8.661708e-01 3.904994e-01 6.176747e+01 1.697524e-02 2.099989e-02 2.582458e-02 1.910902e-03 -2.042176e-02 -2.202151e-02 -1.087618e-02 -2.023814e-02 -2.017953e-02 -1.405580e-02 -5.862829e-03 -4.075823e-03 9.114871e-03 1.422846e-03 -8.925784e-04 -2.251108e-03 -1.797222e-03 -7.560368e-04 -7.487820e-04 -2.386211e-04 1.348049e-03 1.075969e-03 2.767505e-04 9.764363e-05 -3.799500e-05 1.035393e-03
<VARIANCE> 39
 5.035664e+01 1.757978e+01 3.506432e+01 2.939944e+01 4.814060e+01 3.061089e+01 5.211967e+01 4.541191e+01 4.017159e+01 2.317405e+01 2.128881e+01 1.842676e+01 1.447903e+01 1.620175e+00 9.331115e-01 1.577519e+00 1.630045e+00 2.150222e+00 1.705539e+00 2.629861e+00 2.142518e+00 2.199085e+00 1.699638e+00 1.817520e+00 1.405788e+00 4.710141e-01 1.888166e-01 1.542234e-01 2.317616e-01 2.609475e-01 3.337139e-01 3.084924e-01 4.362894e-01 3.629556e-01 3.848569e-01 3.193755e-01 3.415790e-01 2.717617e-01 6.647760e-02
<GCONST> 1.041943e+02
<STATE> 4
<MEAN> 39
 -1.370420e+01 4.487067e+00 5.231544e-01 1.984408e+00 -2.630090e+00 -1.234308e+00 -2.486704e+00 -3.249278e+00 -3.537870e+00 -2.234371e+00 -8.991864e-01 3.096467e-01 6.179427e+01 2.144866e-02 1.625757e-02 1.064639e-02 -7.884977e-03 -2.308082e-02 -2.696417e-02 -1.000200e-02 -1.076884e-02 -1.060717e-02 -1.164030e-02 -4.188747e-03 -3.777892e-03 1.586818e-02 1.268031e-04 -1.086293e-03 -3.245048e-03 -1.360917e-03 5.225337e-04 -3.492003e-05 9.823372e-04 1.956981e-03 1.933957e-03 7.016081e-04 2.108624e-04 1.628674e-04 3.796847e-04
<VARIANCE> 39
 4.942425e+01 1.752532e+01 3.644579e+01 2.891417e+01 4.921791e+01 3.113195e+01 5.225525e+01 4.580147e+01 4.053102e+01 2.322842e+01 2.125767e+01 1.805973e+01 1.456984e+01 1.584726e+00 9.356956e-01 1.633333e+00 1.613216e+00 2.186881e+00 1.722433e+00 2.625098e+00 2.181251e+00 2.172808e+00 1.691378e+00 1.842362e+00 1.398611e+00 4.674084e-01 1.839297e-01 1.528863e-01 2.384832e-01 2.585005e-01 3.388934e-01 3.085927e-01 4.363148e-01 3.681315e-01 3.793390e-01 3.173449e-01 3.442500e-01 2.703203e-01 6.626311e-02
<GCONST> 1.042649e+02
<TRANSP> 5
 0.000000e+00 1.000000e+00 0.000000e+00 0.000000e+00 0.000000e+00
 0.000000e+00 7.672400e-01 2.327600e-01 0.000000e+00 0.000000e+00
 0.000000e+00 0.000000e+00 7.672404e-01 2.327596e-01 0.000000e+00
 0.000000e+00 0.000000e+00 0.000000e+00 8.962615e-01 1.037385e-01
 0.000000e+00 0.000000e+00 0.000000e+00 0.000000e+00 0.000000e+00
<ENDHMM>
~h "ll"
<BEGINHMM>
<NUMSTATES> 5
<STATE> 2
<MEAN> 39
 -1.774675e+01 1.965638e-01 -1.594699e+00 4.369666e+00 2.460802e+00 3.757875e+00 3.329874e+00 3.295779e+00 1.117186e+00 1.561604e+00 1.645806e+00 2.750565e+00 5.731644e+01 2.827402e-03 -9.144157e-03 -8.223051e-03 -1.659213e-02 -3.447638e-02 -3.148259e-02 -3.724582e-02 -4.370824e-02 -4.144995e-02 -2.817335e-02 -3.660773e-02 -2.761914e-02 -1.957993e-03 6.678521e-04 9.915944e-04 1.873842e-03 6.097873e-04 1.875901e-04 1.047773e-03 8.696984e-04 6.705268e-04 6.309067e-04 1.405647e-03 1.236762e-03 -8.046614e-05 1.543763e-03
<VARIANCE> 39
 2.274414e+00 2.766074e+00 4.328614e+00 5.235578e+00 7.880025e+00 9.301373e+00 1.104922e+01 1.215885e+01 1.348373e+01 1.222297e+01 1.077282e+01 9.976837e+00 1.212966e+00 1.172566e-01 2.200314e-01 3.505976e-01 5.222026e-01 7.869790e-01 8.682177e-01 1.024905e+00 1.158981e+00 1.243335e+00 1.173341e+00 1.059052e+00 9.183580e-01 4.746514e-02 2.075412e-02 4.379341e-02 6.999149e-02 1.078163e-01 1.646765e-01 1.798064e-01 2.154032e-01 2.357101e-01 2.572546e-01 2.408510e-01 2.209064e-01 1.889779e-01 7.504028e-03
<GCONST> 5.830560e+01
<STATE> 3
<MEAN> 39
 -1.772313e+01 1.742093e-01 -1.600197e+00 4.299920e+00 2.318997e+00 3.620493e+00 3.171077e+00 3.119261e+00 9.595891e-01 1.458216e+00 1.502977e+00 2.636919e+00 5.733771e+01 7.656934e-03 -2.580831e-03 9.650955e-04 -1.604124e-02 -3.286249e-02 -3.299165e-02 -3.876219e-02 -4.177224e-02 -3.696054e-02 -2.516293e-02 -3.319181e-02 -2.663168e-02 7.121584e-03 1.430299e-03 1.737842e-03 2.269616e-03 -1.084128e-05 1.738276e-04 -6.540103e-04 -7.899036e-04 1.740179e-04 9.307477e-04 3.655659e-04 5.100024e-04 1.547644e-04 2.239962e-03
<VARIANCE> 39
 2.948621e+00 3.150839e+00 4.758204e+00 5.449450e+00 8.613103e+00 9.892748e+00 1.202465e+01 1.268709e+01 1.395373e+01 1.226019e+01 1.102283e+01 1.004103e+01 1.603279e+00 1.377575e-01 2.415945e-01 3.761176e-01 5.432373e-01 8.425328e-01 8.932245e-01 1.062799e+00 1.206864e+00 1.279275e+00 1.197487e+00 1.084280e+00 9.423757e-01 5.697777e-02 2.366783e-02 4.689067e-02 7.427531e-02 1.120341e-01 1.748174e-01 1.844298e-01 2.226885e-01 2.447786e-01 2.629621e-01 2.464202e-01 2.261248e-01 1.935943e-01 8.741352e-03
<GCONST> 6.097069e+01
<STATE> 4
<MEAN> 39
 -1.754148e+01 2.734929e-01 -1.461457e+00 4.114508e+00 2.048191e+00 3.209525e+00 2.769175e+00 2.696909e+00 7.143751e-01 1.199123e+00 1.255967e+00 2.362259e+00 5.753827e+01 3.266501e-02 1.573654e-02 1.662024e-02 -2.026246e-02 -3.654415e-02 -4.676315e-02 -5.604538e-02 -4.819793e-02 -3.520289e-02 -3.037224e-02 -3.143039e-02 -2.776579e-02 3.131464e-02 3.394627e-03 2.307311e-03 1.680873e-03 -7.824732e-04 -1.141152e-03 -2.130087e-03 -2.646470e-03 -1.518552e-03 -5.535269e-04 -1.221785e-03 -3.407916e-04 -5.904172e-04 3.001306e-03
<VARIANCE> 39
 6.625878e+00 4.817912e+00 6.825835e+00 6.391301e+00 1.138972e+01 1.260402e+01 1.604137e+01 1.568362e+01 1.639250e+01 1.331621e+01 1.269534e+01 1.090387e+01 3.791604e+00 2.138146e-01 3.307389e-01 4.972807e-01 6.181187e-01 1.023295e+00 1.000199e+00 1.171554e+00 1.352689e+00 1.390987e+00 1.249108e+00 1.217202e+00 1.033086e+00 9.795467e-02 3.452863e-02 6.046834e-02 9.487750e-02 1.266621e-01 2.066324e-01 2.033189e-01 2.415590e-01 2.668017e-01 2.785705e-01 2.561089e-01 2.532321e-01 2.127697e-01 1.401694e-02
<GCONST> 6.983944e+01
<TRANSP> 5
 0.000000e+00 1.000000e+00 0.000000e+00 0.000000e+00 0.000000e+00
 0.000000e+00 7.809882e-01 2.190118e-01 0.000000e+00 0.000000e+00
 0.000000e+00 0.000000e+00 7.809876e-01 2.190124e-01 0.000000e+00
 0.000000e+00 0.000000e+00 0.000000e+00 9.106181e-01 8.938192e-02
 0.000000e+00 0.000000e+00 0.000000e+00 0.000000e+00 0.000000e+00
<ENDHMM>
~h "ng"
<BEGINHMM>
<NUMSTATES> 5
<STATE> 2
<MEAN> 39
 -1.385074e+01 4.550757e+00 -5.682770e-01 1.343042e+00 -1.814796e+00 -9.007453e-01 -1.804087e+00 -3.184258e+00 -3.763495e+00 -1.651810e+00 -7.338403e-01 1.115228e+00 6.161530e+01 2.271637e-02 1.509679e-03 -4.735178e-04 -8.713748e-03 -7.111457e-03 -2.064585e-03 -9.366348e-03 -8.270113e-03 -1.995430e-02 -7.487245e-03 -5.970282e-03 -2.425382e-03 -3.062546e-03 -3.494744e-04 -1.013520e-03 -1.042572e-03 -4.436551e-04 -9.798695e-05 7.396426e-04 1.171790e-03 1.612803e-03 1.120156e-03 2.671311e-04 9.030395e-05 2.140537e-04 -3.474432e-04
<VARIANCE> 39
 5.291525e+01 1.665047e+01 2.696326e+01 3.635410e+01 4.357064e+01 2.861660e+01 5.092038e+01 4.708838e+01 4.184272e+01 2.295608e+01 2.139373e+01 1.644444e+01 1.178811e+01 1.774903e+00 8.958085e-01 1.475307e+00 2.103292e+00 2.112450e+00 1.718823e+00 2.514752e+00 2.048419e+00 2.104753e+00 1.803933e+00 1.823378e+00 1.388996e+00 4.820753e-01 2.074553e-01 1.515377e-01 2.341359e-01 3.294313e-01 3.248607e-01 3.147732e-01 4.179276e-01 3.469363e-01 3.718981e-01 3.430388e-01 3.465660e-01 2.706800e-01 6.948692e-02
<GCONST> 1.041876e+02
<STATE> 3
<MEAN> 39
 -1.375665e+01 4.552736e+00 -5.745064e-01 1.304745e+00 -1.845833e+00 -9.063256e-01 -1.838444e+00 -3.213207e+00 -3.842052e+00 -1.682141e+00 -7.585459e-01 1.105548e+00 6.160178e+01 2.077462e-02 -2.725475e-03 -4.797521e-03 -1.036734e-02 -7.290377e-03 1.041719e-03 -4.203891e-03 -1.283054e-03 -1.481536e-02 -6.083569e-03 -5.441264e-03 -1.394884e-03 -4.585036e-03 -8.392424e-04 -1.031698e-03 -9.122394e-04 -1.585444e-04 1.908247e-04 8.018819e-04 1.383177e-03 1.822064e-03 1.554133e-03 5.590562e-04 2.139990e-04 2.651015e-04 -4.247015e-04
<VARIANCE> 39
 5.208027e+01 1.665577e+01 2.707809e+01 3.690987e+01 4.343856e+01 2.850810e+01 5.060616e+01 4.698199e+01 4.180056e+01 2.301431e+01 2.150414e+01 1.648564e+01 1.176550e+01 1.764403e+00 9.013286e-01 1.494283e+00 2.146988e+00 2.132679e+00 1.723127e+00 2.496481e+00 2.055605e+00 2.097027e+00 1.811277e+00 1.837980e+00 1.397089e+00 4.885226e-01 2.065957e-01 1.522969e-01 2.388837e-01 3.358109e-01 3.280796e-01 3.154213e-01 4.150195e-01 3.490489e-01 3.713234e-01 3.440162e-01 3.486932e-01 2.724104e-01 7.057483e-02
<GCONST> 1.043331e+02
<STATE> 4
<MEAN> 39
 -1.370189e+01 4.504145e+00 -5.919133e-01 1.258692e+00 -1.832150e+00 -8.728085e-01 -1.798067e+00 -3.200065e+00 -3.871404e+00 -1.693272e+00 -7.830635e-01 1.095796e+00 6.152914e+01 1.638548e-02 -7.520434e-03 -8.950577e-03 -1.086929e-02 -6.659455e-03 4.643666e-03 2.466210e-03 7.140887e-03 -6.506829e-03 -3.073779e-03 -4.102156e-03 4.797892e-05 -6.309200e-03 -1.257842e-03 -9.497965e-04 -6.318656e-04 2.044390e-04 4.398221e-04 7.432243e-04 1.387483e-03 1.810342e-03 1.852156e-03 8.060842e-04 3.431618e-04 2.727768e-04 -4.592836e-04
<VARIANCE> 39
 5.074350e+01 1.662624e+01 2.704824e+01 3.755349e+01 4.327274e+01 2.835108e+01 4.998925e+01 4.696255e+01 4.157778e+01 2.306734e+01 2.163657e+01 1.658443e+01 1.183191e+01 1.736733e+00 9.027571e-01 1.509090e+00 2.197891e+00 2.150812e+00 1.723320e+00 2.460389e+00 2.074156e+00 2.079767e+00 1.815868e+00 1.858544e+00 1.408366e+00 4.956119e-01 2.037720e-01 1.523061e-01 2.436127e-01 3.433663e-01 3.311140e-01 3.154413e-01 4.095432e-01 3.539661e-01 3.690329e-01 3.445484e-01 3.521000e-01 2.745772e-01 7.174686e-02
<GCONST> 1.044316e+02
<TRANSP> 5
 0.000000e+00 1.000000e+00 0.000000e+00 0.000000e+00 0.000000e+00
 0.000000e+00 7.611864e-01 2.388136e-01 0.000000e+00 0.000000e+00
 0.000000e+00 0.000000e+00 7.611855e-01 2.388145e-01 0.000000e+00
 0.000000e+00 0.000000e+00 0.000000e+00 8.886612e-01 1.113388e-01
 0.000000e+00 0.000000e+00 0.000000e+00 0.000000e+00 0.000000e+00
<ENDHMM>
~h "oh"
<BEGINHMM>
<NUMSTATES> 5
<STATE> 2
<MEAN> 39
 -1.233384e+01 3.663514e+00 -1.321512e+00 2.497685e-01 -2.936352e+00 -4.668940e-01 -1.977953e+00 -2.299361e+00 -2.850876e+00 -1.740927e+00 -9.977491e-01 1.012192e+00 6.197092e+01 -1.600828e-02 4.009391e-03 -3.292562e-03 1.246336e-03 1.872802e-02 2.132133e-02 1.225983e-02 1.987838e-03 1.252861e-03 -1.410266e-03 1.900949e-03 3.600523e-03 -7.707197e-03 -1.423957e-03 -3.896235e-04 3.940602e-04 1.177222e-03 8.461275e-04 2.274415e-05 7.298935e-04 5.477628e-04 5.433396e-04 4.260768e-04 3.046754e-04 1.882390e-04 -6.859967e-04
<VARIANCE> 39
 5.340091e+01 1.834947e+01 2.439067e+01 4.572666e+01 5.171551e+01 3.786353e+01 4.424604e+01 3.942915e+01 3.373193e+01 2.551635e+01 2.232678e+01 1.956693e+01 1.800237e+01 1.716918e+00 9.686207e-01 1.364567e+00 2.583345e+00 2.461973e+00 1.992668e+00 2.282736e+00 2.164911e+00 2.037138e+00 1.883575e+00 1.809925e+00 1.548668e+00 6.243716e-01 2.079675e-01 1.617958e-01 2.182218e-01 3.950213e-01 3.898107e-01 3.478948e-01 3.943283e-01 3.892016e-01 3.705280e-01 3.499635e-01 3.458713e-01 3.029296e-01 8.866296e-02
<GCONST> 1.067779e+02
<STATE> 3
<MEAN> 39
 -1.241262e+01 3.677705e+00 -1.332331e+00 2.636631e-01 -2.850350e+00 -3.750539e-01 -1.918636e+00 -2.286027e+00 -2.840162e+00 -1.743095e+00 -9.877872e-01 1.028643e+00 6.193209e+01 -2.175047e-02 2.214208e-03 -1.375182e-03 6.392226e-03 2.185674e-02 2.089612e-02 1.504266e-02 4.320910e-03 3.573938e-03 5.154468e-04 3.197842e-03 4.358541e-03 -1.045671e-02 -1.102578e-03 -4.271413e-04 4.690305e-04 1.051681e-03 4.395190e-04 -3.163159e-04 5.510026e-04 4.862304e-04 4.977675e-04 4.128245e-04 2.675513e-04 1.993846e-04 -5.292195e-04
<VARIANCE> 39
 5.360052e+01 1.823281e+01 2.406179e+01 4.579108e+01 5.139026e+01 3.753168e+01 4.400922e+01 3.944442e+01 3.385590e+01 2.557741e+01 2.233905e+01 1.942551e+01 1.782570e+01 1.710297e+00 9.557989e-01 1.351024e+00 2.567254e+00 2.427217e+00 1.970643e+00 2.272453e+00 2.153453e+00 2.034247e+00 1.877269e+00 1.801748e+00 1.539429e+00 6.131325e-01 2.065878e-01 1.594332e-01 2.159331e-01 3.919541e-01 3.843587e-01 3.447349e-01 3.922691e-01 3.867638e-01 3.693433e-01 3.484884e-01 3.443008e-01 3.013549e-01 8.714734e-02
<GCONST> 1.065217e+02
<STATE> 4
<MEAN> 39
 -1.258326e+01 3.677911e+00 -1.332743e+00 3.067389e-01 -2.675462e+00 -2.232507e-01 -1.766523e+00 -2.289339e+00 -2.785163e+00 -1.741076e+00 -9.713231e-01 1.059299e+00 6.181963e+01 -2.823197e-02 -9.105328e-04 2.003113e-03 1.353339e-02 2.386891e-02 1.848858e-02 1.827827e-02 7.865221e-03 7.266750e-03 3.959899e-03 5.101088e-03 5.458205e-03 -1.376657e-02 -6.499530e-04 -4.631094e-04 5.250052e-04 9.067101e-04 -9.099423e-05 -6.865046e-04 2.839365e-04 3.838665e-04 4.676692e-04 4.692596e-04 2.717410e-04 1.953204e-04 -3.043020e-04
<VARIANCE> 39
 5.372274e+01 1.809882e+01 2.345012e+01 4.596807e+01 5.077579e+01 3.684733e+01 4.365238e+01 3.960254e+01 3.411620e+01 2.571641e+01 2.232030e+01 1.924860e+01 1.760374e+01 1.692249e+00 9.316223e-01 1.320646e+00 2.528499e+00 2.363239e+00 1.930649e+00 2.257551e+00 2.139406e+00 2.030709e+00 1.867374e+00 1.789527e+00 1.527781e+00 5.945293e-01 2.036771e-01 1.548798e-01 2.110295e-01 3.845972e-01 3.742848e-01 3.393097e-01 3.897269e-01 3.839977e-01 3.678164e-01 3.467250e-01 3.422060e-01 2.994173e-01 8.451891e-02
<GCONST> 1.060703e+02
<TRANSP> 5
 0.000000e+00 1.000000e+00 0.000000e+00 0.000000e+00 0.000000e+00
 0.000000e+00 7.642134e-01 2.357866e-01 0.000000e+00 0.000000e+00
 0.000000e+00 0.000000e+00 7.642163e-01 2.357837e-01 0.000000e+00
 0.000000e+00 0.000000e+00 0.000000e+00 8.921533e-01 1.078467e-01
 0.000000e+00 0.000000e+00 0.000000e+00 0.000000e+00 0.000000e+00
<ENDHMM>
~h "th"
<BEGINHMM>
<NUMSTATES> 5
<STATE> 2
<MEAN> 39
 -1.407595e+01 3.973397e+00 -9.963258e-01 1.268812e+00 -2.595674e+00 -1.270407e+00 -1.442808e+00 -2.214257e+00 -2.753448e+00 -1.502886e+00 -3.641996e-01 1.295333e+00 6.185188e+01 -9.654189e-03 3.551587e-03 1.955911e-03 5.453115e-03 6.271718e-03 -1.121967e-02 3.069042e-03 1.087296e-03 3.236949e-04 3.795927e-03 1.661884e-03 3.668464e-03 -7.345219e-04 1.513216e-03 1.974542e-04 4.682250e-04 -4.341488e-04 -1.059570e-03 -4.504689e-04 -9.832685e-04 -7.801789e-04 -6.664994e-04 -2.131765e-04 -2.140042e-04 -2.189054e-04 3.254168e-04
<VARIANCE> 39
 5.841024e+01 1.573355e+01 2.681395e+01 3.539249e+01 5.556106e+01 3.806961e+01 4.724030e+01 4.013717e+01 3.806052e+01 2.216542e+01 2.107030e+01 1.637227e+01 1.481626e+01 1.836780e+00 9.082681e-01 1.378215e+00 2.004938e+00 2.291095e+00 1.878006e+00 2.376930e+00 1.979560e+00 2.095218e+00 1.756980e+00 1.789328e+00 1.395507e+00 5.311864e-01 2.160753e-01 1.540158e-01 2.105222e-01 3.197947e-01 3.399210e-01 3.265204e-01 4.058916e-01 3.449013e-01 3.680882e-01 3.343315e-01 3.421788e-01 2.740011e-01 7.675526e-02
<GCONST> 1.046643e+02
<STATE> 3
<MEAN> 39
 -1.410625e+01 3.988378e+00 -9.847342e-01 1.288645e+00 -2.576518e+00 -1.320203e+00 -1.437087e+00 -2.213658e+00 -2.756671e+00 -1.488633e+00 -3.585250e-01 1.308728e+00 6.185114e+01 -3.255726e-03 4.306962e-03 3.811895e-03 3.516396e-03 2.046334e-03 -1.258728e-02 -9.614156e-04 -2.219969e-03 -2.657273e-03 2.783214e-03 6.882772e-04 2.676168e-03 4.503353e-04 1.592726e-03 1.412381e-04 3.980271e-04 -5.349964e-04 -9.611234e-04 -1.256047e-04 -9.365767e-04 -7.487347e-04 -7.665487e-04 -2.854274e-04 -2.570569e-04 -2.594418e-04 2.090906e-04
<VARIANCE> 39
 5.850571e+01 1.575506e+01 2.674767e+01 3.490902e+01 5.561755e+01 3.812937e+01 4.752836e+01 4.030412e+01 3.812963e+01 2.214741e+01 2.105853e+01 1.629139e+01 1.474653e+01 1.855245e+00 9.081407e-01 1.375153e+00 1.991980e+00 2.291042e+00 1.877675e+00 2.392830e+00 1.974448e+00 2.097899e+00 1.762682e+00 1.796592e+00 1.392048e+00 5.279381e-01 2.186646e-01 1.542933e-01 2.097509e-01 3.186076e-01 3.397815e-01 3.263335e-01 4.083708e-01 3.437150e-01 3.684511e-01 3.359402e-01 3.441591e-01 2.733244e-01 7.662056e-02
<GCONST> 1.046750e+02
<STATE> 4
<MEAN> 39
 -1.414513e+01 3.985808e+00 -9.509614e-01 1.307480e+00 -2.533302e+00 -1.376908e+00 -1.409255e+00 -2.221422e+00 -2.753857e+00 -1.454662e+00 -3.562279e-01 1.326910e+00 6.180526e+01 4.743008e-03 4.604178e-03 5.640695e-03 5.128374e-04 -2.053506e-03 -1.187116e-02 -5.480677e-03 -5.820358e-03 -6.924880e-03 1.052834e-03 -9.189249e-04 9.733537e-04 1.060874e-03 1.338881e-03 5.088519e-05 2.212357e-04 -5.746335e-04 -6.009060e-04 3.425229e-04 -6.419429e-04 -5.573477e-04 -7.126119e-04 -3.088386e-04 -2.855074e-04 -2.620963e-04 3.477810e-06
<VARIANCE> 39
 5.817286e+01 1.584615e+01 2.650290e+01 3.431922e+01 5.556219e+01 3.813242e+01 4.789717e+01 4.062897e+01 3.823090e+01 2.211353e+01 2.105928e+01 1.619337e+01 1.471200e+01 1.861947e+00 9.089264e-01 1.365001e+00 1.976985e+00 2.287423e+00 1.872934e+00 2.409685e+00 1.975098e+00 2.092713e+00 1.770710e+00 1.812414e+00 1.390341e+00 5.239685e-01 2.204068e-01 1.549191e-01 2.079301e-01 3.169636e-01 3.396715e-01 3.256897e-01 4.116585e-01 3.438114e-01 3.672170e-01 3.384420e-01 3.480645e-01 2.729772e-01 7.661469e-02
<GCONST> 1.046693e+02
<TRANSP> 5
 0.000000e+00 1.000000e+00 0.000000e+00 0.000000e+00 0.000000e+00
 0.000000e+00 7.615640e-01 2.384360e-01 0.000000e+00 0.000000e+00
 0.000000e+00 0.000000e+00 7.615646e-01 2.384354e-01 0.000000e+00
 0.000000e+00 0.000000e+00 0.000000e+00 8.889819e-01 1.110181e-01
 0.000000e+00 0.000000e+00 0.000000e+00 0.000000e+00 0.000000e+00
<ENDHMM>
~h "uh"
<BEGINHMM>
<NUMSTATES> 5
<STATE> 2
<MEAN> 39
 -1.203591e+01 4.223929e+00 -6.247721e-01 1.772316e+00 -2.454001e+00 -7.988945e-01 -2.415920e+00 -2.660616e+00 -3.292634e+00 -2.240081e+00 -1.924746e+00 -2.222787e-01 6.174301e+01 -2.484861e-02 3.203227e-02 1.455876e-02 2.022489e-02 1.351418e-02 6.963708e-03 1.663858e-03 -2.643738e-02 -6.938656e-03 -1.973612e-02 4.452092e-03 7.978025e-04 -3.769848e-03 -7.084401e-04 4.269191e-05 -6.380698e-04 -5.109122e-04 -4.495475e-04 -2.400155e-04 6.947167e-04 2.902012e-04 5.713188e-04 1.845032e-04 5.286213e-04 1.865156e-04 4.186014e-04
<VARIANCE> 39
 5.061767e+01 2.237770e+01 2.878527e+01 3.199607e+01 4.281330e+01 3.235553e+01 4.396275e+01 4.589845e+01 3.516662e+01 2.763343e+01 2.350615e+01 2.184122e+01 1.714933e+01 1.324087e+00 9.117292e-01 1.377478e+00 1.802451e+00 2.179740e+00 1.948450e+00 2.072899e+00 2.008291e+00 1.927270e+00 1.876602e+00 1.755281e+00 1.504291e+00 4.847118e-01 1.508978e-01 1.511559e-01 2.071881e-01 2.835228e-01 3.425867e-01 3.509496e-01 3.551643e-01 3.507000e-01 3.543508e-01 3.497090e-01 3.315282e-01 2.843899e-01 6.280354e-02
<GCONST> 1.038093e+02
<STATE> 3
<MEAN> 39
 -1.215793e+01 4.368604e+00 -5.648624e-01 1.860489e+00 -2.396939e+00 -7.701280e-01 -2.400617e+00 -2.778979e+00 -3.318143e+00 -2.326840e+00 -1.898808e+00 -2.154567e-01 6.172970e+01 -2.911313e-02 3.120924e-02 1.090036e-02 1.817429e-02 1.253393e-02 6.701485e-03 6.200742e-03 -2.370572e-02 -3.562958e-03 -1.822541e-02 7.054241e-03 2.043757e-03 -2.827483e-03 -1.147862e-03 -4.307735e-04 -8.472697e-04 -4.037471e-04 -2.647613e-05 8.376445e-05 1.265834e-03 8.579345e-04 8.634918e-04 4.777823e-04 5.852580e-04 4.357728e-04 -5.264318e-05
<VARIANCE> 39
 5.152253e+01 2.231118e+01 2.915579e+01 3.185817e+01 4.256707e+01 3.183662e+01 4.475085e+01 4.610744e+01 3.555244e+01 2.775385e+01 2.321592e+01 2.141389e+01 1.666414e+01 1.307847e+00 8.893924e-01 1.378758e+00 1.782426e+00 2.143292e+00 1.918954e+00 2.072214e+00 1.988194e+00 1.920443e+00 1.866562e+00 1.717998e+00 1.481138e+00 4.689765e-01 1.480342e-01 1.465894e-01 2.047116e-01 2.798301e-01 3.351608e-01 3.462871e-01 3.545482e-01 3.473719e-01 3.524839e-01 3.472108e-01 3.241811e-01 2.806887e-01 6.045153e-02
<GCONST> 1.034108e+02
<STATE> 4
<MEAN> 39
 -1.244946e+01 4.589767e+00 -4.474183e-01 2.036971e+00 -2.278485e+00 -7.490418e-01 -2.333193e+00 -3.016785e+00 -3.319444e+00 -2.460639e+00 -1.829732e+00 -2.004196e-01 6.169823e+01 -4.238473e-02 2.607880e-02 2.145666e-03 1.734086e-02 1.696955e-02 1.052430e-02 2.024964e-02 -1.406298e-02 5.760239e-03 -1.298991e-02 1.294113e-02 6.727263e-03 -5.884158e-03 -1.566562e-03 -1.374104e-03 -1.262496e-03 -2.551031e-04 8.026662e-04 6.814424e-04 2.086039e-03 1.957592e-03 1.383505e-03 1.111901e-03 6.528307e-04 7.742638e-04 -7.891011e-04
<VARIANCE> 39
 5.320708e+01 2.187894e+01 3.016386e+01 3.124097e+01 4.200986e+01 3.082238e+01 4.614149e+01 4.634951e+01 3.640174e+01 2.774450e+01 2.290644e+01 2.050978e+01 1.587590e+01 1.282833e+00 8.464906e-01 1.383442e+00 1.740045e+00 2.090638e+00 1.873443e+00 2.082373e+00 1.962236e+00 1.903639e+00 1.839534e+00 1.665313e+00 1.433587e+00 4.425189e-01 1.435598e-01 1.387459e-01 1.998451e-01 2.736705e-01 3.253973e-01 3.401062e-01 3.558654e-01 3.437791e-01 3.475560e-01 3.408164e-01 3.135720e-01 2.725669e-01 5.668947e-02
<GCONST> 1.027087e+02
<TRANSP> 5
 0.000000e+00 1.000000e+00 0.000000e+00 0.000000e+00 0.000000e+00
 0.000000e+00 7.696105e-01 2.303895e-01 0.000000e+00 0.000000e+00
 0.000000e+00 0.000000e+00 7.696105e-01 2.303896e-01 0.000000e+00
 0.000000e+00 0.000000e+00 0.000000e+00 8.979899e-01 1.020101e-01
 0.000000e+00 0.000000e+00 0.000000e+00 0.000000e+00 0.000000e+00
<ENDHMM>
~h "sil"
<BEGINHMM>
<NUMSTATES> 5
<STATE> 2
<MEAN> 39
 -1.739015e+01 1.258613e+00 -1.356990e+00 4.503385e+00 2.292516e+00 3.497778e+00 3.039538e+00 2.729207e+00 1.029130e+00 1.112602e+00 1.227692e+00 2.343301e+00 5.812423e+01 -1.240687e-02 -5.668798e-02 -2.140494e-02 -4.169859e-03 4.656797e-02 1.336863e-03 4.446274e-03 1.395851e-02 2.215685e-02 1.868365e-02 2.068047e-02 4.395919e-02 -7.257430e-02 -1.566537e-02 7.462768e-03 -7.003990e-03 -3.339851e-03 -9.867830e-03 -1.023395e-02 1.416243e-03 -2.423592e-04 -1.828350e-02 -4.401753e-03 -3.071998e-03 -8.264830e-03 1.667528e-02
<VARIANCE> 39
 1.065543e+01 6.540220e+00 8.006281e+00 7.839028e+00 1.309412e+01 1.569005e+01 1.672410e+01 1.830078e+01 1.839848e+01 1.643768e+01 1.699202e+01 1.354653e+01 4.568794e+00 2.758709e-01 2.961129e-01 5.013140e-01 6.082327e-01 8.718304e-01 1.021058e+00 1.209061e+00 1.325582e+00 1.336284e+00 1.202457e+00 1.247002e+00 1.058098e+00 9.540183e-02 3.477158e-02 5.016275e-02 8.423886e-02 1.083136e-01 1.526099e-01 1.863762e-01 2.156591e-01 2.392019e-01 2.417365e-01 2.202574e-01 2.207976e-01 1.951391e-01 1.385712e-02
<GCONST> 7.091518e+01
<STATE> 3
<MEAN> 39
 -1.750914e+01 1.052941e+00 -1.448979e+00 4.481782e+00 2.396641e+00 3.463819e+00 3.051683e+00 2.782923e+00 9.960450e-01 1.166848e+00 1.263912e+00 2.441472e+00 5.788258e+01 -2.410134e-02 -3.577682e-02 -1.633456e-02 -6.348069e-03 1.068906e-02 -1.936809e-02 -9.046064e-03 3.168148e-03 -1.782116e-02 4.279627e-03 -1.502733e-03 8.723683e-03 -4.233866e-02 -1.513166e-03 4.201072e-03 7.059669e-04 -4.343744e-04 -6.836358e-03 -3.841849e-03 -4.190393e-03 -2.165226e-03 -5.629843e-03 -2.375565e-03 -4.871806e-03 -7.392604e-03 6.156875e-03
<VARIANCE> 39
 7.863816e+00 5.573357e+00 6.756145e+00 6.930108e+00 1.091108e+01 1.351306e+01 1.454614e+01 1.627207e+01 1.698158e+01 1.490913e+01 1.554147e+01 1.268764e+01 3.434646e+00 2.295662e-01 2.728937e-01 4.469776e-01 5.801951e-01 8.079529e-01 9.866950e-01 1.131415e+00 1.250924e+00 1.279517e+00 1.177765e+00 1.171591e+00 1.005110e+00 8.187991e-02 3.187726e-02 5.134451e-02 8.448011e-02 1.141745e-01 1.592640e-01 1.996363e-01 2.275910e-01 2.537549e-01 2.583234e-01 2.390767e-01 2.342248e-01 2.050783e-01 1.246229e-02
<GCONST> 6.832629e+01
<STATE> 4
<MEAN> 39
 -1.762433e+01 8.544024e-01 -1.502141e+00 4.418968e+00 2.346961e+00 3.312971e+00 2.965013e+00 2.705594e+00 8.674868e-01 1.097297e+00 1.121039e+00 2.338433e+00 5.764225e+01 -1.710862e-02 -2.167711e-02 -8.581896e-03 -3.835150e-03 -8.128620e-03 -2.037613e-02 -1.771093e-02 3.887301e-03 -1.313656e-02 -4.112701e-04 -1.698526e-02 -6.988843e-03 -1.735232e-02 -5.137113e-03 1.977188e-03 -5.696933e-03 -2.766288e-03 -4.615239e-03 -3.765836e-03 -1.516659e-04 3.917833e-03 1.480664e-03 9.905947e-05 -3.103514e-03 9.666036e-04 8.940860e-03
<VARIANCE> 39
 5.542754e+00 4.807278e+00 5.832318e+00 6.285786e+00 9.637441e+00 1.195962e+01 1.327827e+01 1.492017e+01 1.552957e+01 1.351086e+01 1.364904e+01 1.157390e+01 2.487762e+00 1.888803e-01 2.560705e-01 4.179996e-01 5.724937e-01 8.001478e-01 9.753066e-01 1.135403e+00 1.285086e+00 1.285401e+00 1.208550e+00 1.149043e+00 1.005520e+00 6.946494e-02 2.742502e-02 4.739877e-02 7.846773e-02 1.094503e-01 1.541355e-01 1.922353e-01 2.210069e-01 2.464580e-01 2.506502e-01 2.369774e-01 2.220830e-01 1.961786e-01 1.034584e-02
<GCONST> 6.514648e+01
<TRANSP> 5
 0.000000e+00 1.000000e+00 0.000000e+00 0.000000e+00 0.000000e+00
 0.000000e+00 7.718399e-01 2.281601e-01 0.000000e+00 0.000000e+00
 0.000000e+00 0.000000e+00 7.718393e-01 2.281608e-01 0.000000e+00
 0.000000e+00 0.000000e+00 0.000000e+00 9.009082e-01 9.909182e-02
 0.000000e+00 0.000000e+00 0.000000e+00 0.000000e+00 0.000000e+00
<ENDHMM>
