~o
<STREAMINFO> 1 39
<VECSIZE> 39<NULLD><MFCC_D_A_0><DIAGC>
~s "silst"
<MEAN> 39
 -1.653880e+01 2.091471e+00 7.938470e-02 5.748232e+00 3.515964e+00 4.004529e+00 3.056237e+00 2.452197e+00 2.503406e-01 3.915794e-01 5.196130e-01 1.213501e+00 5.784500e+01 -4.072777e-02 -4.064713e-02 -2.545801e-02 -1.838510e-02 6.903930e-03 3.532182e-02 3.847409e-02 5.016424e-02 5.682848e-02 1.107624e-01 8.469751e-02 4.169510e-02 -3.185090e-02 -1.204149e-02 -1.133969e-02 -3.985120e-02 -4.266306e-02 -4.241493e-02 -4.384956e-02 -1.697347e-02 -2.549721e-02 -1.414989e-02 -2.425581e-02 -1.234933e-02 -1.179830e-02 1.313734e-02
<VARIANCE> 39
 1.732681e+00 3.037751e+00 4.132792e+00 5.437229e+00 8.622995e+00 1.164476e+01 1.493970e+01 1.566146e+01 1.830075e+01 1.467299e+01 1.482791e+01 1.120695e+01 7.532033e-01 1.369147e-01 2.878244e-01 4.288442e-01 5.624604e-01 7.867282e-01 9.829301e-01 1.171189e+00 1.314336e+00 1.447722e+00 1.322766e+00 1.237555e+00 1.060079e+00 4.301514e-02 2.614176e-02 5.530818e-02 8.573344e-02 1.138681e-01 1.641462e-01 2.129187e-01 2.423789e-01 2.784813e-01 2.891044e-01 2.610683e-01 2.419288e-01 2.180332e-01 7.699881e-03
<GCONST> 6.262016e+01
~h "b"
<BEGINHMM>
<NUMSTATES> 5
<STATE> 2
<MEAN> 39
 -4.986061e+00 6.790104e+00 -1.383995e-01 1.109928e+00 -4.551075e+00 -4.346546e+00 -9.286758e+00 -1.035105e+01 -6.702412e+00 -3.971047e+00 -4.633727e+00 -3.517068e+00 6.514935e+01 4.024133e-01 -4.802601e-01 -4.114651e-01 -3.613946e-01 -5.572647e-01 -2.066338e-01 -5.837018e-02 4.645680e-01 4.782008e-01 -2.511738e-01 -2.864992e-01 1.057422e-01 4.390024e-01 -8.059810e-02 -3.537885e-02 8.210669e-02 7.003417e-02 -2.847270e-02 -3.623648e-02 8.251116e-02 1.000491e-01 -1.156834e-02 -9.988221e-02 -5.734841e-02 6.067933e-02 -2.941757e-02
<VARIANCE> 39
 8.126583e+00 1.079387e+01 2.216690e+01 2.044464e+01 3.482068e+01 1.790089e+01 1.221962e+01 2.015592e+01 1.714161e+01 1.843045e+01 2.120510e+01 8.482091e+00 6.972535e+00 2.378126e-01 4.868661e-01 1.610219e+00 1.168656e+00 1.131197e+00 1.448080e+00 1.076642e+00 1.536059e+00 1.565530e+00 1.494005e+00 1.410221e+00 9.291998e-01 9.791516e-02 3.411818e-02 8.740442e-02 2.453725e-01 1.614494e-01 3.038865e-01 2.441024e-01 2.523264e-01 2.630369e-01 3.673066e-01 2.650175e-01 3.304063e-01 1.899583e-01 2.019803e-02
<GCONST> 8.201056e+01
<STATE> 3
<MEAN> 39
 -4.673742e+00 2.369979e+00 3.897170e+00 1.498698e-01 -1.578655e+01 -9.879963e+00 -6.020401e+00 -3.026150e+00 -7.405215e+00 -6.748912e+00 -2.524938e+00 2.590519e-01 6.814802e+01 -1.424065e-01 1.850521e-04 2.546374e-01 4.089312e-01 -8.877812e-02 -6.768304e-01 -5.008788e-02 1.417281e-01 -2.246369e-01 -2.444376e-02 5.657303e-01 4.640778e-01 -1.285489e-01 -5.939710e-03 1.548186e-01 -2.201264e-01 6.026664e-02 4.624506e-01 1.091537e-01 -2.226236e-01 -2.567212e-01 1.396757e-01 1.284642e-01 -1.219925e-01 -1.351283e-01 -1.182200e-01
<VARIANCE> 39
 2.970710e+00 1.041665e+01 1.212291e+01 7.948524e+00 1.367029e+01 1.447338e+01 1.287304e+01 1.284594e+01 1.722322e+01 1.215567e+01 2.200179e+01 8.498409e+00 1.916717e+00 1.377504e-01 3.379360e-01 1.266867e+00 5.547930e-01 1.885734e+00 7.487642e-01 1.450886e+00 1.007237e+00 1.495644e+00 8.134588e-01 8.908750e-01 4.985031e-01 9.278324e-02 2.088477e-02 7.783685e-02 7.405265e-02 9.210477e-02 1.978401e-01 1.975398e-01 1.610883e-01 2.077194e-01 2.389484e-01 1.963792e-01 2.070776e-01 1.206944e-01 2.139118e-02
<GCONST> 6.696800e+01
<STATE> 4
<MEAN> 39
 -6.834033e+00 5.537768e+00 2.974986e+00 4.377542e+00 -8.322830e+00 -1.152809e+01 -9.059189e+00 -5.240028e+00 -5.951521e+00 -4.535891e+00 -1.501329e+00 4.295263e-01 6.446309e+01 -4.293025e-01 4.831656e-01 -3.595897e-01 2.418077e-01 1.429765e+00 7.851948e-01 -1.084814e-01 -3.766788e-01 2.722108e-01 4.090409e-01 -2.891947e-01 -3.262518e-01 -6.128538e-01 -2.086241e-02 -1.237961e-01 1.235170e-01 -1.270672e-01 -2.760614e-01 1.434714e-01 2.689088e-01 1.122369e-01 -8.702661e-02 3.331897e-02 1.081377e-01 1.785273e-02 7.698310e-02
<VARIANCE> 39
 8.999957e+00 1.142237e+01 1.213482e+01 8.036032e+00 3.280873e+01 2.486597e+01 1.571807e+01 1.545764e+01 1.515679e+01 1.399122e+01 1.758208e+01 1.092269e+01 7.519399e+00 6.304680e-01 1.202351e+00 1.171602e+00 8.190091e-01 4.274828e+00 2.809341e+00 1.943457e+00 2.073176e+00 1.561124e+00 1.126824e+00 1.183910e+00 1.051953e+00 6.786089e-01 1.333630e-01 2.508971e-01 1.423765e-01 1.411830e-01 6.644990e-01 7.610528e-01 3.121184e-01 4.260094e-01 3.117525e-01 2.786980e-01 2.137734e-01 2.411175e-01 1.466862e-01
<GCONST> 9.234498e+01
<TRANSP> 5
 0.000000e+00 1.000000e+00 0.000000e+00 0.000000e+00 0.000000e+00
 0.000000e+00 8.192997e-01 1.807003e-01 0.000000e+00 0.000000e+00
 0.000000e+00 0.000000e+00 8.500201e-01 1.499799e-01 0.000000e+00
 0.000000e+00 0.000000e+00 0.000000e+00 8.469676e-01 1.530324e-01
 0.000000e+00 0.000000e+00 0.000000e+00 0.000000e+00 0.000000e+00
<ENDHMM>
~h "f"
<BEGINHMM>
<NUMSTATES> 5
<STATE> 2
<MEAN> 39
 -7.631178e+00 7.542343e+00 7.038766e+00 1.465231e+00 -8.064654e+00 -8.428303e+00 -1.323586e+01 -8.719798e+00 -7.863095e+00 -5.438905e+00 -4.570025e+00 -3.171025e+00 6.420377e+01 3.465092e-01 -1.423351e+00 -6.042757e-03 -8.137403e-01 -1.993473e+00 -8.702135e-01 3.993405e-01 2.037242e+00 1.026782e-01 -4.085393e-01 1.418793e+00 1.123424e+00 1.011764e+00 1.724334e-01 -5.291123e-01 -2.031009e-02 -4.089603e-01 -9.234537e-01 -3.383692e-01 1.347204e-01 6.947473e-01 3.445384e-01 9.121149e-02 5.329551e-01 4.846738e-01 4.247754e-01
<VARIANCE> 39
 1.674623e+00 6.448423e+00 6.678802e+00 6.524867e+00 1.010709e+01 1.137034e+01 1.176529e+01 2.325352e+01 1.122663e+01 1.176866e+01 1.223898e+01 1.212407e+01 2.575369e+00 2.469777e-01 1.298012e+00 6.559861e-01 1.263541e+00 3.139603e+00 1.569052e+00 1.106170e+00 3.050529e+00 1.376555e+00 9.022095e-01 1.954702e+00 1.656494e+00 7.351742e-01 2.929026e-02 1.388995e-01 1.501373e-01 1.714031e-01 2.154381e-01 2.747053e-01 2.114210e-01 4.871368e-01 2.581156e-01 2.134191e-01 2.600164e-01 2.735246e-01 5.143763e-02
<GCONST> 7.881172e+01
<STATE> 3
<MEAN> 39
 -5.233434e+00 -4.325012e-02 6.803980e+00 -2.056906e+00 -2.040397e+01 -1.280098e+01 -1.068804e+01 -1.116278e-01 -6.030654e+00 -4.938618e+00 2.457823e+00 1.777770e+00 6.989803e+01 1.990130e-01 -2.240715e-01 -4.271531e-01 6.702052e-01 8.457975e-02 -1.426083e-01 6.449121e-01 4.159816e-01 3.619297e-01 3.770040e-01 1.086672e-01 2.471708e-01 1.057697e-01 -2.140804e-01 3.916322e-01 -1.603315e-01 3.810085e-01 9.456884e-01 3.490314e-01 9.175164e-02 -3.312804e-01 1.391618e-01 1.436804e-01 -3.376860e-01 -1.845161e-01 -3.418703e-01
<VARIANCE> 39
 2.296565e+00 9.025274e+00 1.068294e+01 1.409302e+01 1.261083e+01 9.877534e+00 1.387199e+01 8.891766e+00 8.958153e+00 9.657351e+00 7.625854e+00 8.302575e+00 2.914731e+00 2.524345e-01 2.000232e+00 1.280760e+00 2.776120e+00 7.867908e+00 1.385839e+00 1.401195e+00 1.650541e+00 1.806316e+00 9.587736e-01 2.158132e+00 1.150011e+00 9.889013e-01 1.150552e-01 1.633762e-01 1.932570e-01 2.690200e-01 2.529075e-01 3.400497e-01 2.432184e-01 3.294946e-01 4.498418e-01 1.694237e-01 2.602167e-01 2.411757e-01 3.965004e-02
<GCONST> 8.382223e+01
<STATE> 4
<MEAN> 39
 -1.435255e+01 1.537410e+00 -1.826275e+00 4.941604e+00 -1.750804e+00 -1.694435e+00 -4.065984e+00 -1.690999e+00 -2.191181e-01 3.001574e-01 3.334216e-01 2.144733e+00 6.431765e+01 -6.461818e-01 1.099674e-01 -5.894834e-01 -2.741427e-01 1.088917e+00 1.255172e+00 5.636720e-01 -1.004885e-01 9.167398e-02 7.449485e-02 -9.794494e-02 -3.640526e-02 -5.585440e-01 3.598499e-01 8.625153e-02 8.224988e-02 -4.204838e-01 -5.852797e-01 -2.085902e-01 -5.268257e-02 5.285528e-03 -2.919334e-01 -2.497114e-01 -5.942007e-02 -5.970168e-02 1.270524e-01
<VARIANCE> 39
 2.428387e+01 7.746769e+00 1.333911e+01 9.642977e+00 2.239177e+01 3.411468e+01 1.880754e+01 1.688768e+01 1.586543e+01 1.461182e+01 1.255432e+01 1.078285e+01 6.620080e+00 4.045293e+00 1.535515e+00 1.143363e+00 1.508071e+00 4.393799e+00 2.316603e+00 1.348241e+00 1.779486e+00 2.849374e+00 2.171270e+00 1.704739e+00 1.254138e+00 4.774307e-01 4.665759e-01 3.328488e-01 2.024523e-01 3.643008e-01 5.732209e-01 3.510737e-01 3.153433e-01 3.666908e-01 4.187180e-01 3.743509e-01 3.661249e-01 2.436998e-01 1.295454e-01
<GCONST> 9.928073e+01
<TRANSP> 5
 0.000000e+00 1.000000e+00 0.000000e+00 0.000000e+00 0.000000e+00
 0.000000e+00 6.443342e-01 3.556658e-01 0.000000e+00 0.000000e+00
 0.000000e+00 0.000000e+00 8.713511e-01 1.286489e-01 0.000000e+00
 0.000000e+00 0.000000e+00 0.000000e+00 9.105536e-01 8.944643e-02
 0.000000e+00 0.000000e+00 0.000000e+00 0.000000e+00 0.000000e+00
<ENDHMM>
~h "g"
<BEGINHMM>
<NUMSTATES> 5
<STATE> 2
<MEAN> 39
 -1.469489e+01 4.342700e+00 1.845473e+00 6.772196e+00 3.183684e+00 1.897498e+00 -2.001861e-01 -2.642733e-01 -5.010477e+00 -4.050907e+00 -4.761187e+00 -1.963735e+00 5.900478e+01 8.971867e-01 1.012302e+00 1.034658e+00 5.158857e-01 -3.429439e-01 -9.705120e-01 -1.582527e+00 -1.620095e+00 -1.424133e+00 -1.155210e+00 -1.026330e+00 -9.288542e-01 3.737261e-01 1.743812e-01 7.325280e-02 7.384020e-03 -1.599599e-01 -4.378040e-01 -4.820127e-01 -3.787946e-01 -4.893187e-01 -1.293647e-01 2.875790e-01 2.539289e-01 2.499469e-01 1.715671e-01
<VARIANCE> 39
 7.853607e+00 1.341730e+01 7.000635e+00 6.709178e+00 1.143138e+01 2.002972e+01 1.923247e+01 3.454390e+01 1.928140e+01 1.542114e+01 1.613945e+01 1.251590e+01 2.356664e+00 1.540407e+00 2.139032e+00 8.498027e-01 8.180150e-01 1.904682e+00 3.019927e+00 3.769101e+00 3.575084e+00 2.544404e+00 1.835232e+00 1.416180e+00 1.731772e+00 4.641360e-01 1.228445e-01 1.955798e-01 1.474965e-01 1.506618e-01 2.323729e-01 2.782237e-01 4.806312e-01 4.254747e-01 3.478519e-01 3.530049e-01 2.879226e-01 3.352416e-01 4.203892e-02
<GCONST> 9.136113e+01
<STATE> 3
<MEAN> 39
 -9.935332e+00 9.544683e+00 4.786798e+00 6.868540e+00 -1.194026e+00 -5.252954e+00 -8.804003e+00 -9.297385e+00 -1.064633e+01 -5.675255e+00 -4.446601e+00 -1.317023e+00 6.113240e+01 1.077047e-01 -2.736758e-01 1.017624e-01 -1.955387e-01 -4.831388e-01 -2.483733e-01 -1.184476e-01 -6.623068e-01 -4.214004e-01 2.573300e-01 1.350551e-01 2.775378e-01 2.351443e-01 -3.512407e-01 -6.334194e-01 -2.752615e-01 -2.602547e-01 -1.638096e-01 4.287879e-01 9.201217e-01 6.408482e-01 4.965662e-01 4.854117e-01 1.907087e-01 -2.386948e-02 8.137561e-02
<VARIANCE> 39
 6.789272e+00 4.778727e+00 4.078099e+00 5.637154e+00 8.281530e+00 1.667382e+01 1.188728e+01 1.075132e+01 1.026541e+01 1.396413e+01 1.227294e+01 1.233924e+01 1.636535e+00 1.436285e+00 2.062148e+00 5.537888e-01 7.276111e-01 1.698102e+00 3.283768e+00 3.321787e+00 3.137573e+00 1.572729e+00 2.170494e+00 2.053730e+00 1.458799e+00 5.447552e-01 2.203607e-01 2.265766e-01 1.090926e-01 2.314330e-01 6.658970e-01 5.737230e-01 3.421866e-01 3.449258e-01 2.478463e-01 5.391625e-01 4.592863e-01 3.386588e-01 1.466906e-01
<GCONST> 8.893687e+01
<STATE> 4
<MEAN> 39
 -1.266998e+01 4.194772e+00 3.317546e+00 5.954618e+00 -2.312049e+00 -1.896517e+00 -2.726711e+00 -7.255924e+00 -9.087029e+00 -3.802556e+00 -4.450225e+00 -1.925408e+00 6.184914e+01 1.805225e-02 -1.572964e+00 -5.463652e-02 -1.421072e+00 -2.630081e+00 -5.526806e-01 1.918063e+00 2.382988e-02 9.875051e-01 2.432555e+00 8.775578e-01 -2.696629e-01 1.442899e+00 5.702548e-01 4.322645e-01 3.789996e-01 -3.022656e-01 -9.113813e-01 -7.486508e-01 -4.076144e-01 2.241950e-02 -7.683107e-02 8.846848e-02 6.096482e-01 6.386100e-02 2.596763e-01
<VARIANCE> 39
 4.635514e+00 1.431087e+01 6.210914e+00 1.020325e+01 2.649151e+01 9.317468e+00 2.047311e+01 1.044308e+01 1.981666e+01 3.193497e+01 7.978238e+00 7.063196e+00 8.345621e+00 6.527378e-01 1.186692e+00 9.929540e-01 1.250577e+00 1.742176e+00 2.026978e+00 1.300712e+00 1.942663e+00 1.281713e+00 1.075090e+00 1.149375e+00 8.524017e-01 6.118967e-01 1.198203e-01 3.070468e-01 1.606458e-01 3.070519e-01 4.692245e-01 3.418129e-01 4.680507e-01 3.007007e-01 3.982853e-01 6.778013e-01 2.292430e-01 2.936993e-01 1.611075e-01
<GCONST> 8.952090e+01
<TRANSP> 5
 0.000000e+00 1.000000e+00 0.000000e+00 0.000000e+00 0.000000e+00
 0.000000e+00 6.191308e-01 3.808692e-01 0.000000e+00 0.000000e+00
 0.000000e+00 0.000000e+00 6.610442e-01 3.389558e-01 0.000000e+00
 0.000000e+00 0.000000e+00 0.000000e+00 4.739653e-01 5.260347e-01
 0.000000e+00 0.000000e+00 0.000000e+00 0.000000e+00 0.000000e+00
<ENDHMM>
~h "j"
<BEGINHMM>
<NUMSTATES> 5
<STATE> 2
<MEAN> 39
 -1.225659e+01 9.458190e-01 -8.345671e+00 -8.433000e+00 -6.428023e-01 8.698771e+00 4.674948e+00 -2.016950e+00 -6.065635e-01 -2.363396e+00 2.015001e+00 1.785252e+00 6.405383e+01 1.030955e+00 6.583584e-01 1.579036e-01 -6.225150e-01 -1.180449e+00 -4.982045e-01 -5.041128e-01 -3.997285e-01 -4.264287e-01 -1.267815e-01 2.510271e-02 -4.259391e-02 4.658001e-01 1.247045e-01 -5.867262e-02 -5.509373e-02 -3.465882e-02 -1.389351e-01 -1.033003e-01 -1.957804e-01 -5.523706e-02 9.458903e-03 1.438490e-01 5.312113e-02 1.599307e-04 7.449343e-02
<VARIANCE> 39
 4.250542e+01 2.129415e+01 1.212226e+01 2.917007e+01 4.930616e+01 3.869074e+01 3.241663e+01 2.364378e+01 3.433185e+01 2.026689e+01 2.632647e+01 2.247306e+01 7.773654e+00 3.465236e+00 1.660119e+00 1.318603e+00 3.334182e+00 3.452950e+00 2.820753e+00 3.217377e+00 2.487466e+00 3.216124e+00 2.199212e+00 2.559985e+00 2.188266e+00 1.144225e+00 4.078442e-01 3.698247e-01 2.342388e-01 5.635259e-01 4.960305e-01 4.770334e-01 4.217597e-01 4.288778e-01 6.332664e-01 4.542903e-01 5.440216e-01 3.638141e-01 1.720654e-01
<GCONST> 1.132348e+02
<STATE> 3
<MEAN> 39
 -2.274687e-01 4.737946e+00 -9.476762e+00 -1.146050e+01 -1.198749e+01 -6.001565e-01 -7.624976e+00 -9.675768e+00 -3.753565e+00 4.024214e+00 4.509638e+00 1.083906e+00 6.916245e+01 -8.198548e-01 -6.689486e-01 2.713750e-01 1.993818e+00 1.421921e+00 -7.728683e-01 -1.034764e+00 2.175606e-01 9.439253e-01 7.885458e-01 1.371161e-01 -2.536445e-01 -3.951440e-01 -3.591992e-01 -9.586155e-02 2.771832e-01 7.094761e-01 5.576020e-01 -9.899452e-02 1.163960e-01 5.322782e-01 1.338400e-01 -4.402908e-01 -4.803767e-01 -2.051204e-01 -2.269189e-01
<VARIANCE> 39
 2.321545e+01 1.061917e+01 1.252321e+01 4.555888e+01 2.629533e+01 1.593651e+01 2.661794e+01 2.461909e+01 1.785594e+01 2.057903e+01 1.747501e+01 1.610014e+01 7.207600e+00 1.425146e+00 9.381159e-01 1.306970e+00 4.475847e+00 3.814773e+00 1.828297e+00 1.479832e+00 4.868492e+00 1.887546e+00 3.652144e+00 2.882818e+00 1.577920e+00 7.968376e-01 2.561098e-01 1.792897e-01 1.901055e-01 4.200991e-01 4.923966e-01 2.929022e-01 3.116896e-01 5.426434e-01 3.004305e-01 5.184278e-01 3.095597e-01 2.847928e-01 1.319223e-01
<GCONST> 1.031325e+02
<STATE> 4
<MEAN> 39
 -1.152579e+01 2.065366e-01 -1.272764e+00 4.793397e+00 -1.621749e+00 -4.124043e+00 -6.546292e+00 1.894364e+00 5.576995e-01 1.724460e+00 -5.571156e-01 -2.069787e+00 6.571145e+01 -1.120242e+00 -5.926385e-02 9.906520e-01 3.616303e-01 5.191643e-02 4.934111e-01 1.101889e+00 6.224689e-01 -5.012930e-02 -5.598141e-02 -8.627230e-02 7.810655e-02 -1.944204e-01 1.891500e-01 1.604246e-01 -1.420916e-01 -3.957342e-01 -2.005594e-01 1.796869e-01 1.584321e-01 -2.948628e-01 -1.648013e-01 9.976541e-02 1.365698e-01 4.895886e-02 1.405333e-02
<VARIANCE> 39
 2.261006e+01 1.491971e+01 1.678948e+01 2.090171e+01 2.506678e+01 2.017010e+01 3.737130e+01 3.739175e+01 2.329450e+01 2.180334e+01 2.863865e+01 1.674648e+01 6.814644e+00 1.238619e+00 1.874087e+00 1.301021e+00 4.412156e+00 3.054371e+00 2.122610e+00 2.243623e+00 5.056047e+00 2.651998e+00 2.809676e+00 3.676734e+00 2.242469e+00 4.883250e-01 2.720419e-01 4.198204e-01 2.641834e-01 7.017307e-01 6.645955e-01 4.344416e-01 4.126672e-01 9.965945e-01 6.052704e-01 5.572521e-01 6.958879e-01 4.642381e-01 1.253612e-01
<GCONST> 1.111589e+02
<TRANSP> 5
 0.000000e+00 1.000000e+00 0.000000e+00 0.000000e+00 0.000000e+00
 0.000000e+00 8.451231e-01 1.548769e-01 0.000000e+00 0.000000e+00
 0.000000e+00 0.000000e+00 7.636992e-01 2.363008e-01 0.000000e+00
 0.000000e+00 0.000000e+00 0.000000e+00 8.297529e-01 1.702471e-01
 0.000000e+00 0.000000e+00 0.000000e+00 0.000000e+00 0.000000e+00
<ENDHMM>
~h "k"
<BEGINHMM>
<NUMSTATES> 5
<STATE> 2
<MEAN> 39
 -1.557812e+01 1.549981e+00 -5.561933e-01 4.369947e+00 6.429840e-01 1.285363e+00 6.412640e-01 4.609361e-02 -2.038529e+00 -7.885658e-01 -1.987413e+00 7.117183e-01 5.901768e+01 -1.330094e-01 -2.764961e-01 -3.934066e-01 -5.501609e-01 -3.261997e-01 -1.472186e-02 1.827176e-01 4.559253e-01 3.254993e-01 4.494491e-01 5.386863e-01 4.776042e-01 7.114840e-02 7.297782e-01 2.495172e-01 -4.618281e-01 -7.394067e-01 -3.703834e-01 -2.512951e-01 -4.652601e-01 -3.250228e-01 -3.304304e-01 -7.096144e-02 3.354693e-02 -1.530183e-01 4.413448e-01
<VARIANCE> 39
 8.327893e+00 7.525950e+00 8.201951e+00 8.746699e+00 1.702022e+01 1.428003e+01 2.243017e+01 2.131934e+01 2.078478e+01 2.002389e+01 1.870222e+01 1.643029e+01 6.060225e+00 1.575039e+00 8.249090e-01 2.660593e+00 3.446702e+00 1.550374e+00 1.512550e+00 1.403474e+00 1.505786e+00 1.479726e+00 1.751611e+00 1.768177e+00 1.563148e+00 4.770173e-01 1.547796e-01 1.531680e-01 2.169695e-01 3.791090e-01 4.143974e-01 3.814393e-01 3.796737e-01 4.417325e-01 4.826814e-01 3.599574e-01 3.712609e-01 2.757711e-01 8.009167e-02
<GCONST> 9.419541e+01
<STATE> 3
<MEAN> 39
 -1.479810e+01 1.051336e+00 -1.808203e+00 2.505697e+00 -1.051589e+00 -1.930589e-01 2.413294e-02 6.929727e-01 -5.794767e-01 5.522068e-01 -1.176018e+00 9.202682e-01 5.995938e+01 1.848100e+00 4.967644e-01 -1.701460e+00 -2.886211e+00 -1.445368e+00 -5.339355e-01 -8.682912e-01 -2.552460e-01 -4.474694e-01 3.157979e-01 7.256988e-01 1.089610e-02 1.238523e+00 4.600234e-01 3.431231e-01 -4.289358e-02 -2.579946e-01 -2.052425e-01 -1.346849e-01 -2.016867e-01 -3.348428e-01 -4.001575e-01 -3.193094e-01 -1.396706e-01 -1.440169e-01 1.714943e-01
<VARIANCE> 39
 1.098570e+01 8.322948e+00 9.399659e+00 1.544381e+01 1.954616e+01 1.638681e+01 2.376131e+01 2.249854e+01 2.249032e+01 1.600053e+01 1.749392e+01 1.372569e+01 1.059813e+01 1.804635e+00 1.483271e+00 4.509141e+00 6.329092e+00 4.464313e+00 4.423462e+00 2.275264e+00 2.332748e+00 2.246135e+00 2.444419e+00 3.243050e+00 1.647496e+00 9.871496e-01 2.449925e-01 1.982095e-01 2.931237e-01 5.682861e-01 4.673622e-01 3.740372e-01 3.066158e-01 3.606572e-01 3.375328e-01 2.929193e-01 3.180328e-01 2.615090e-01 8.425986e-02
<GCONST> 1.032649e+02
<STATE> 4
<MEAN> 39
 -9.169429e+00 3.755104e+00 -5.111737e+00 -3.912405e+00 -4.562871e+00 -1.644939e+00 -2.668158e+00 -1.361163e+00 -3.790804e+00 -6.051276e-01 -3.477065e-01 4.700675e-02 6.300082e+01 8.837177e-01 1.116498e+00 4.499865e-01 -3.014320e-01 -7.423568e-01 -5.598919e-01 -4.259992e-01 -9.348245e-01 -1.151265e+00 -9.737222e-01 -3.218550e-01 -6.740917e-02 1.989475e-01 -1.519077e-01 1.063712e-01 3.669501e-01 2.780677e-01 -9.810241e-02 -6.181210e-03 1.566069e-01 -6.750195e-02 9.105795e-03 -2.569431e-01 -2.581670e-01 7.124938e-02 -1.715989e-01
<VARIANCE> 39
 1.207026e+01 1.167328e+01 4.245544e+01 5.294861e+01 4.092446e+01 4.910213e+01 3.565063e+01 3.957373e+01 3.951316e+01 2.035626e+01 3.016040e+01 1.747289e+01 7.905229e+00 2.614195e+00 1.523110e+00 3.350137e+00 5.517911e+00 4.850223e+00 3.751279e+00 2.569203e+00 2.401157e+00 2.110575e+00 2.163723e+00 3.243317e+00 1.731950e+00 1.303304e+00 4.723601e-01 3.526852e-01 1.090466e+00 1.734250e+00 1.248221e+00 9.497229e-01 5.194185e-01 5.597700e-01 5.484599e-01 4.942143e-01 6.577332e-01 3.598294e-01 2.224336e-01
<GCONST> 1.202845e+02
<TRANSP> 5
 0.000000e+00 1.000000e+00 0.000000e+00 0.000000e+00 0.000000e+00
 0.000000e+00 4.684332e-01 5.315668e-01 0.000000e+00 0.000000e+00
 0.000000e+00 0.000000e+00 3.031649e-01 6.968351e-01 0.000000e+00
 0.000000e+00 0.000000e+00 0.000000e+00 6.981838e-01 3.018162e-01
 0.000000e+00 0.000000e+00 0.000000e+00 0.000000e+00 0.000000e+00
<ENDHMM>
~h "l"
<BEGINHMM>
<NUMSTATES> 5
<STATE> 2
<MEAN> 39
 -1.673104e+01 6.563557e-01 -1.300588e+00 4.167222e+00 9.546732e-01 2.336834e+00 1.483361e+00 1.821711e+00 2.121626e-01 7.247104e-01 -1.061298e-02 1.752513e+00 5.810159e+01 -1.922509e-01 -7.595504e-02 -2.787529e-02 6.097836e-02 1.955954e-01 1.531627e-01 1.441200e-01 7.611005e-02 2.642562e-02 4.881395e-02 1.232307e-01 1.333758e-01 -1.355968e-01 5.141375e-02 1.939393e-02 2.432293e-02 -1.202847e-02 -5.810945e-02 -4.704894e-02 -4.663733e-02 -5.277362e-02 -4.777368e-02 -3.197822e-02 -3.654150e-02 -5.694075e-02 4.390201e-02
<VARIANCE> 39
 8.088152e+00 5.174574e+00 5.975523e+00 7.343004e+00 1.528108e+01 1.779361e+01 1.996299e+01 1.751036e+01 1.723910e+01 1.613462e+01 1.457724e+01 1.396231e+01 4.104318e+00 2.985687e-01 4.230289e-01 5.729279e-01 7.427089e-01 1.278895e+00 1.196007e+00 1.227827e+00 1.592827e+00 1.618324e+00 1.406317e+00 1.380436e+00 1.415171e+00 1.756710e-01 4.193759e-02 7.997556e-02 1.133997e-01 1.445255e-01 2.196407e-01 2.288681e-01 2.433361e-01 3.183997e-01 3.249267e-01 2.759524e-01 2.792188e-01 2.686845e-01 2.369663e-02
<GCONST> 7.683508e+01
<STATE> 3
<MEAN> 39
 -1.424736e+01 2.338371e+00 8.933282e-01 4.033298e+00 -1.575983e+00 -7.054431e-01 -1.496152e+00 -1.206144e+00 -2.651139e+00 -1.307116e+00 -1.597197e+00 -9.119623e-03 5.999545e+01 7.229995e-01 1.124001e+00 9.708085e-01 6.304114e-01 2.970532e-01 -5.056280e-01 -1.125066e+00 -1.460330e+00 -1.420472e+00 -1.175568e+00 -1.242766e+00 -1.237152e+00 2.352260e-01 4.236499e-01 3.339877e-01 1.514075e-01 -1.163067e-01 -2.398306e-01 -4.141684e-01 -7.024789e-01 -3.889363e-01 -1.533112e-01 -1.055542e-01 -1.019822e-01 -1.059306e-02 2.171352e-01
<VARIANCE> 39
 1.643992e+01 1.332737e+01 1.074137e+01 1.293554e+01 3.300502e+01 3.894580e+01 3.508250e+01 2.502267e+01 1.983459e+01 1.542705e+01 1.765007e+01 1.559098e+01 9.774723e+00 1.570475e+00 1.361434e+00 8.047201e-01 1.010214e+00 2.921613e+00 2.508961e+00 3.463391e+00 2.237020e+00 1.674629e+00 1.744860e+00 1.825578e+00 1.534479e+00 7.539032e-01 1.226182e-01 2.190118e-01 2.089515e-01 2.924750e-01 6.179641e-01 4.570348e-01 4.775460e-01 4.494823e-01 3.853577e-01 3.740438e-01 3.543251e-01 3.810067e-01 9.146529e-02
<GCONST> 1.004233e+02
<STATE> 4
<MEAN> 39
 -8.089955e+00 7.834114e+00 4.687623e+00 4.449858e+00 -3.189454e+00 -6.289832e+00 -1.185420e+01 -8.767414e+00 -6.955975e+00 -4.667116e+00 -4.906023e+00 -2.151062e+00 6.294326e+01 7.773321e-01 2.232080e-01 1.698190e-01 -2.956312e-01 -5.852784e-01 -5.285991e-01 -8.642285e-01 -6.069344e-01 -2.731665e-01 3.636795e-02 2.295987e-01 7.386734e-02 5.457797e-01 -7.608448e-02 -2.929668e-01 -2.250311e-01 -2.107823e-01 -2.788142e-01 1.149044e-01 4.109825e-01 3.833687e-01 2.101876e-01 2.122175e-01 3.321581e-01 2.193461e-01 4.789389e-02
<VARIANCE> 39
 8.272473e+00 5.277013e+00 1.476676e+01 1.341190e+01 1.775757e+01 1.803935e+01 2.407800e+01 1.844960e+01 1.544291e+01 1.548421e+01 1.511386e+01 1.308288e+01 3.915949e+00 1.223931e+00 1.235608e+00 1.265068e+00 9.806696e-01 2.083706e+00 3.354698e+00 4.831831e+00 3.257343e+00 1.879783e+00 1.497596e+00 1.654010e+00 1.528036e+00 5.518768e-01 1.807196e-01 1.690798e-01 1.701179e-01 1.885909e-01 4.538457e-01 5.801628e-01 5.580064e-01 3.975107e-01 3.877080e-01 3.260849e-01 2.701745e-01 2.715528e-01 9.723232e-02
<GCONST> 9.465531e+01
<TRANSP> 5
 0.000000e+00 1.000000e+00 0.000000e+00 0.000000e+00 0.000000e+00
 0.000000e+00 9.232820e-01 7.671801e-02 0.000000e+00 0.000000e+00
 0.000000e+00 0.000000e+00 5.347371e-01 4.652629e-01 0.000000e+00
 0.000000e+00 0.000000e+00 0.000000e+00 7.529182e-01 2.470817e-01
 0.000000e+00 0.000000e+00 0.000000e+00 0.000000e+00 0.000000e+00
<ENDHMM>
~h "m"
<BEGINHMM>
<NUMSTATES> 5
<STATE> 2
<MEAN> 39
 -1.779797e+01 1.351741e-02 -1.871184e+00 4.167218e+00 1.811899e+00 3.438077e+00 2.302449e+00 2.810571e+00 4.084534e-01 1.277476e+00 8.110145e-01 2.126928e+00 5.730271e+01 -4.826120e-02 -4.148012e-03 -1.989774e-02 -2.139576e-03 7.615493e-02 7.978074e-02 6.083718e-02 4.389837e-02 1.575853e-02 1.797472e-02 3.441641e-02 2.532149e-02 -3.478985e-02 1.675364e-02 9.158942e-03 1.278362e-02 1.853624e-04 -1.170151e-02 -9.816074e-03 -6.174039e-03 -1.088808e-02 -1.257156e-02 -1.092087e-02 -1.885427e-02 -2.767028e-02 1.538610e-02
<VARIANCE> 39
 1.871770e+00 2.292066e+00 3.895118e+00 5.181719e+00 7.600747e+00 1.047377e+01 1.099247e+01 1.275916e+01 1.201089e+01 1.159536e+01 1.206315e+01 9.800304e+00 9.699621e-01 1.280383e-01 2.387011e-01 3.874585e-01 5.161860e-01 7.694362e-01 1.021535e+00 1.119355e+00 1.208860e+00 1.255284e+00 1.193481e+00 1.283102e+00 1.108001e+00 5.244230e-02 2.438056e-02 4.920029e-02 7.924370e-02 1.061216e-01 1.591852e-01 2.100771e-01 2.433584e-01 2.518228e-01 2.637945e-01 2.361341e-01 2.563661e-01 2.265110e-01 9.420557e-03
<GCONST> 5.992841e+01
<STATE> 3
<MEAN> 39
 -1.795599e+01 1.121344e-01 -1.856511e+00 3.612267e+00 2.118866e+00 3.652179e+00 2.485182e+00 2.807174e+00 8.794314e-01 1.800815e+00 6.270441e-01 2.123023e+00 5.730789e+01 2.112475e-01 2.226888e-01 2.649305e-01 3.290844e-01 8.219992e-02 -1.361995e-01 -8.053596e-02 -4.642859e-01 -3.878149e-01 -3.364482e-01 -3.602529e-01 -2.475692e-01 1.102026e-01 2.622772e-01 2.799134e-01 2.781500e-01 1.906462e-01 7.300239e-03 -1.639161e-01 -3.235727e-01 -4.428075e-01 -4.710110e-01 -4.267206e-01 -3.296179e-01 -3.379036e-01 1.381250e-01
<VARIANCE> 39
 1.504454e+00 2.987828e+00 6.256828e+00 5.867864e+00 8.387402e+00 1.020397e+01 1.230954e+01 1.261750e+01 1.409551e+01 1.401480e+01 1.179155e+01 1.087919e+01 8.202071e-01 1.280787e-01 2.566989e-01 4.351839e-01 7.622689e-01 6.287099e-01 1.093960e+00 9.358160e-01 1.557261e+00 1.342419e+00 1.453313e+00 1.403587e+00 1.302366e+00 6.171674e-02 4.119849e-02 7.881866e-02 1.231165e-01 1.580324e-01 1.775331e-01 2.149775e-01 2.720106e-01 2.532261e-01 2.680085e-01 2.655534e-01 2.494600e-01 2.642899e-01 1.387570e-02
<GCONST> 6.494035e+01
<STATE> 4
<MEAN> 39
 -1.722095e+01 1.526533e-01 -2.681822e+00 2.746429e+00 2.375935e+00 4.555095e+00 2.986553e+00 6.400687e-01 -3.511604e-01 3.690840e-01 1.052428e+00 2.211637e+00 5.833879e+01 5.248598e-01 6.252136e-01 6.002214e-01 3.368620e-01 1.547069e-01 -5.706797e-02 -3.972949e-01 -7.567618e-01 -9.431860e-01 -1.002762e+00 -8.506331e-01 -1.073843e+00 3.099278e-01 4.398080e-01 4.239304e-01 3.000052e-01 5.939210e-02 -1.679963e-01 -3.465897e-01 -5.567404e-01 -4.498355e-01 -5.057927e-01 -3.609840e-01 -2.404937e-01 -2.648350e-01 2.304771e-01
<VARIANCE> 39
 1.768436e+00 3.930697e+00 1.662585e+01 2.218489e+01 1.017574e+01 2.158337e+01 1.985119e+01 1.697190e+01 1.302690e+01 1.540028e+01 2.120258e+01 1.263529e+01 3.318829e+00 2.011575e-01 3.972363e-01 7.513127e-01 1.204468e+00 1.441685e+00 1.284025e+00 1.499339e+00 1.705933e+00 1.715678e+00 1.745829e+00 1.706221e+00 1.403114e+00 1.069944e-01 1.371179e-01 1.569815e-01 1.431424e-01 2.015249e-01 2.450867e-01 3.154643e-01 4.053495e-01 5.013517e-01 3.238347e-01 3.558734e-01 3.253771e-01 2.673551e-01 5.683160e-02
<GCONST> 8.248515e+01
<TRANSP> 5
 0.000000e+00 1.000000e+00 0.000000e+00 0.000000e+00 0.000000e+00
 0.000000e+00 9.279038e-01 7.209612e-02 0.000000e+00 0.000000e+00
 0.000000e+00 0.000000e+00 4.219311e-01 5.780689e-01 0.000000e+00
 0.000000e+00 0.000000e+00 0.000000e+00 2.577839e-01 7.422162e-01
 0.000000e+00 0.000000e+00 0.000000e+00 0.000000e+00 0.000000e+00
<ENDHMM>
~h "n"
<BEGINHMM>
<NUMSTATES> 5
<STATE> 2
<MEAN> 39
 -5.826822e+00 7.678892e+00 -1.072984e-01 1.263514e-01 -2.925007e+00 -1.688778e+00 -9.772172e+00 -1.085254e+01 -7.175237e+00 -3.301334e+00 -2.899729e+00 -1.749563e+00 6.430418e+01 6.869906e-01 -3.838393e-01 -1.358553e+00 -1.718088e+00 -2.924591e-01 1.137368e+00 3.910564e-01 2.204499e-01 4.721569e-02 -7.182546e-01 -1.435599e-01 -1.220245e-03 5.794811e-01 8.801874e-02 4.890320e-03 -3.041206e-01 -3.440282e-01 -5.617167e-02 1.762582e-01 3.354347e-01 2.446011e-01 -1.016890e-01 -1.531692e-01 1.315609e-02 1.571154e-02 2.256483e-02
<VARIANCE> 39
 8.739323e+00 9.878626e+00 2.618225e+01 4.062349e+01 1.173800e+01 2.623022e+01 1.605913e+01 1.681064e+01 1.372225e+01 1.319449e+01 1.190003e+01 8.677735e+00 6.414045e+00 8.315685e-01 9.953306e-01 2.832412e+00 3.855311e+00 7.335446e-01 2.728651e+00 1.991965e+00 1.904443e+00 1.568703e+00 1.413143e+00 1.037802e+00 9.899068e-01 5.198021e-01 1.450750e-01 2.176735e-01 5.522375e-01 7.858202e-01 1.246593e-01 5.705677e-01 2.361402e-01 2.269713e-01 3.390013e-01 2.307066e-01 2.059584e-01 2.171712e-01 1.379084e-01
<GCONST> 9.302862e+01
<STATE> 3
<MEAN> 39
 -3.003045e+00 7.290584e+00 -7.539382e+00 -9.332949e+00 -5.650271e+00 4.021992e+00 -1.492609e+00 -5.370632e+00 -9.650831e+00 -9.699412e+00 -5.418842e+00 -1.260562e+00 6.572021e+01 -4.850312e-01 3.170417e-01 4.665935e-01 5.732282e-01 5.190773e-02 -2.316282e-01 1.073467e+00 7.957478e-01 -4.143546e-01 -6.942830e-01 -8.830341e-01 -3.322875e-01 -4.931192e-01 -2.558343e-01 -4.123987e-02 3.913420e-01 5.274050e-01 1.866462e-01 -2.175696e-01 -2.350665e-01 -8.736122e-02 1.623300e-01 2.411507e-01 -1.552371e-02 -1.358854e-01 -1.325151e-01
<VARIANCE> 39
 5.361449e+00 4.471865e+00 1.020704e+01 1.642602e+01 1.182208e+01 1.387571e+01 1.679545e+01 1.609863e+01 1.261519e+01 1.422676e+01 1.570057e+01 1.138067e+01 2.914914e+00 3.754924e-01 2.314034e-01 1.029002e+00 1.636607e+00 7.861219e-01 9.686225e-01 1.271933e+00 1.039921e+00 1.241181e+00 1.063453e+00 1.024162e+00 1.325610e+00 1.410825e-01 2.932948e-02 5.521763e-02 1.259708e-01 1.428851e-01 1.082291e-01 1.738981e-01 1.753075e-01 2.083443e-01 2.434684e-01 2.071023e-01 2.223365e-01 2.310189e-01 1.912372e-02
<GCONST> 7.119324e+01
<STATE> 4
<MEAN> 39
 -9.385130e+00 8.010417e+00 1.087036e+00 2.230783e+00 -1.207679e+00 1.321909e-01 -1.712072e+00 -4.609652e+00 -9.442740e+00 -9.193817e+00 -8.336798e+00 -4.221572e+00 6.126324e+01 -9.195963e-01 -4.259318e-01 5.150902e-01 1.070519e+00 7.023296e-01 -2.901407e-02 -1.308651e-01 6.738625e-02 3.641827e-01 5.407513e-01 3.367116e-01 1.612366e-01 -5.081704e-01 1.147082e-02 -1.428340e-01 -2.300676e-01 -2.299300e-01 -7.333578e-02 7.702389e-02 -3.069462e-02 2.394404e-03 1.268965e-01 1.960646e-01 2.998935e-01 2.556163e-01 4.005918e-02
<VARIANCE> 39
 9.438430e+00 5.520605e+00 1.148827e+01 2.055569e+01 1.541264e+01 1.879153e+01 2.423360e+01 2.008474e+01 1.457168e+01 1.456814e+01 1.314561e+01 1.003621e+01 3.010334e+00 4.145314e-01 3.698277e-01 9.189678e-01 1.431032e+00 1.018357e+00 1.353720e+00 1.414087e+00 1.467256e+00 1.475183e+00 1.352374e+00 1.310127e+00 1.282337e+00 1.414152e-01 3.109587e-02 5.660905e-02 1.146775e-01 1.820883e-01 1.818192e-01 2.340422e-01 2.576484e-01 2.696383e-01 2.723710e-01 2.882325e-01 2.836971e-01 2.644431e-01 1.053657e-02
<GCONST> 7.727393e+01
<TRANSP> 5
 0.000000e+00 1.000000e+00 0.000000e+00 0.000000e+00 0.000000e+00
 0.000000e+00 7.936374e-01 2.063626e-01 0.000000e+00 0.000000e+00
 0.000000e+00 0.000000e+00 8.140951e-01 1.859049e-01 0.000000e+00
 0.000000e+00 0.000000e+00 0.000000e+00 8.128182e-01 1.871818e-01
 0.000000e+00 0.000000e+00 0.000000e+00 0.000000e+00 0.000000e+00
<ENDHMM>
~h "r"
<BEGINHMM>
<NUMSTATES> 5
<STATE> 2
<MEAN> 39
 -1.225869e+01 1.623246e+00 -1.506456e+00 1.264433e+00 -3.233625e+00 -3.917345e+00 -3.007559e+00 -1.155624e+00 -2.497271e+00 -8.058354e-01 1.242516e-02 1.612534e+00 6.302534e+01 1.340497e+00 -5.371075e-02 -2.792588e-01 -6.598889e-01 -1.120094e+00 -1.065222e+00 -8.831284e-01 -2.624711e-01 1.283967e-01 -2.526104e-01 -5.688267e-01 -5.956174e-01 1.181537e+00 3.636936e-01 7.053636e-02 1.193941e-02 2.713848e-02 -1.991578e-01 -9.374182e-02 -2.849682e-01 -9.468752e-02 7.816086e-02 9.393998e-02 -1.193420e-01 -2.879232e-01 3.421369e-02
<VARIANCE> 39
 2.018933e+01 2.620141e+01 1.777821e+01 2.090580e+01 2.450072e+01 3.467272e+01 3.531477e+01 4.166725e+01 2.841957e+01 1.807009e+01 1.793877e+01 1.621209e+01 1.605786e+01 2.606761e+00 2.793079e+00 2.960347e+00 2.905069e+00 3.560701e+00 6.591197e+00 4.887613e+00 3.633804e+00 2.732312e+00 2.149701e+00 1.893594e+00 1.874930e+00 1.673983e+00 3.436477e-01 4.845130e-01 3.821358e-01 6.549922e-01 5.510673e-01 7.263534e-01 6.585883e-01 6.133831e-01 4.968858e-01 4.828846e-01 4.686406e-01 3.416119e-01 3.941862e-01
<GCONST> 1.171273e+02
<STATE> 3
<MEAN> 39
 -4.190002e+00 1.780146e+00 -4.334702e+00 -1.621972e+00 -7.436023e+00 -7.159677e+00 -7.877496e+00 -2.574319e+00 -2.403346e+00 -1.581634e+00 -1.988159e+00 -2.672646e+00 6.733893e+01 1.259921e+00 -7.885665e-01 -1.435044e+00 -7.623748e-01 -2.203154e-01 1.143696e-01 -3.430594e-01 5.291339e-01 1.046978e+00 -4.177768e-03 -9.340469e-01 -1.247459e+00 7.602437e-01 -4.978538e-01 -9.246022e-02 2.806693e-02 1.923971e-01 5.118598e-01 4.598387e-01 3.931966e-01 1.545240e-02 -1.136892e-01 1.741158e-02 3.575947e-02 1.688650e-01 -2.623501e-01
<VARIANCE> 39
 2.442504e+01 2.478463e+01 3.927560e+01 2.667241e+01 3.477000e+01 6.314336e+01 2.749669e+01 4.654023e+01 2.645624e+01 2.174681e+01 1.519532e+01 2.193414e+01 1.280523e+01 1.696571e+00 2.548477e+00 3.537762e+00 4.044206e+00 2.047474e+00 2.813986e+00 3.159599e+00 4.895058e+00 2.827085e+00 2.424831e+00 2.681183e+00 1.824843e+00 9.833513e-01 3.643197e-01 4.603291e-01 5.970369e-01 6.942710e-01 4.974022e-01 9.667778e-01 8.536422e-01 5.936766e-01 4.710128e-01 3.691550e-01 4.638247e-01 3.080270e-01 1.530421e-01
<GCONST> 1.170601e+02
<STATE> 4
<MEAN> 39
 -3.060062e+00 -1.544051e+00 -9.118908e+00 -3.523494e+00 -6.255636e+00 -4.679289e+00 -5.481925e+00 9.196488e-01 6.791995e-01 -1.754327e+00 -7.687311e+00 -7.658274e+00 6.885441e+01 -5.197839e-01 1.734695e-01 4.416741e-01 3.243680e-01 1.242101e-01 2.718128e-01 2.498343e-01 -1.482586e-01 -7.369088e-03 1.652071e-01 -1.904599e-02 1.055249e-01 -3.935245e-01 -1.310325e-01 9.657186e-02 1.579490e-01 5.714243e-02 2.155630e-02 3.844370e-02 4.122961e-02 -5.755772e-02 -1.139554e-01 7.392792e-03 1.780223e-01 1.610270e-01 -1.039948e-01
<VARIANCE> 39
 2.036614e+01 1.982928e+01 2.964450e+01 1.846711e+01 1.578512e+01 2.174346e+01 1.749950e+01 2.459474e+01 1.745141e+01 2.729077e+01 2.677427e+01 2.075019e+01 1.378830e+01 1.208082e+00 1.447850e+00 1.650596e+00 1.368646e+00 1.337168e+00 1.517674e+00 1.556172e+00 1.803548e+00 1.389104e+00 1.901220e+00 1.889392e+00 1.549305e+00 7.832531e-01 1.751378e-01 3.133478e-01 2.486033e-01 2.451819e-01 2.198652e-01 2.449156e-01 2.840174e-01 3.218780e-01 3.099340e-01 3.376022e-01 2.932905e-01 2.715391e-01 1.200558e-01
<GCONST> 9.798959e+01
<TRANSP> 5
 0.000000e+00 1.000000e+00 0.000000e+00 0.000000e+00 0.000000e+00
 0.000000e+00 5.737153e-01 4.262847e-01 0.000000e+00 0.000000e+00
 0.000000e+00 0.000000e+00 4.541327e-01 5.458673e-01 0.000000e+00
 0.000000e+00 0.000000e+00 0.000000e+00 8.491206e-01 1.508794e-01
 0.000000e+00 0.000000e+00 0.000000e+00 0.000000e+00 0.000000e+00
<ENDHMM>
~h "s"
<BEGINHMM>
<NUMSTATES> 5
<STATE> 2
<MEAN> 39
 -1.806439e+01 5.693992e+00 4.715437e-01 5.399783e+00 7.493986e-01 -1.220262e+00 -5.484444e-01 -4.586326e+00 -1.273483e+00 -4.255256e+00 -1.813299e+00 1.453370e-01 6.178222e+01 -2.480627e+00 -1.778091e-01 -1.357411e+00 -1.859837e-02 6.096534e-01 6.743189e-01 1.276486e+00 6.893929e-01 1.809029e+00 3.896602e-01 9.013644e-01 6.407407e-01 2.493105e-01 1.773765e-01 6.582332e-02 -1.397050e-01 -3.135719e-01 -4.283323e-01 -1.019948e-01 -2.150849e-01 3.907824e-02 -1.929648e-01 1.458425e-01 1.624931e-01 1.306636e-01 8.281637e-02
<VARIANCE> 39
 1.875524e+01 7.410665e+00 1.276836e+01 1.292896e+01 1.712169e+01 2.948628e+01 3.676227e+01 2.814395e+01 2.693922e+01 2.066619e+01 1.739002e+01 1.512195e+01 4.140730e+00 1.267121e+00 9.050753e-01 1.321800e+00 1.215124e+00 2.307884e+00 2.010730e+00 2.746169e+00 2.181343e+00 2.222903e+00 1.783707e+00 1.750007e+00 1.493761e+00 2.553831e-01 2.963057e-01 1.203148e-01 1.989891e-01 2.516109e-01 2.769071e-01 3.064844e-01 4.616854e-01 3.658747e-01 4.449637e-01 3.124035e-01 3.322024e-01 3.246698e-01 4.263639e-02
<GCONST> 9.517978e+01
<STATE> 3
<MEAN> 39
 -2.473692e+01 6.090589e+00 -5.244060e+00 4.325236e+00 1.131956e+00 5.750167e-01 3.212623e+00 -1.033657e+00 3.615695e+00 -1.844880e+00 1.950395e+00 2.061400e+00 6.232235e+01 -1.083695e-01 -9.608833e-02 -1.504933e-01 2.364792e-02 -2.726862e-02 1.291831e-01 2.260267e-01 1.780799e-01 2.024078e-01 9.151360e-02 1.633146e-01 4.970384e-02 -7.092988e-02 2.269042e-01 -8.958637e-02 1.626986e-01 2.783466e-02 1.843642e-02 -1.027351e-02 -4.717986e-02 -3.543809e-02 -1.210767e-01 -1.176196e-02 -8.348314e-02 -4.887373e-02 -7.162006e-02
<VARIANCE> 39
 4.123826e+00 5.043160e+00 1.010089e+01 1.204540e+01 1.487542e+01 2.177869e+01 3.275329e+01 1.957385e+01 1.562220e+01 1.517125e+01 1.336719e+01 1.140314e+01 2.853143e+00 4.775989e-01 3.858693e-01 6.520604e-01 6.583046e-01 9.322155e-01 1.159044e+00 1.294429e+00 1.467800e+00 1.426602e+00 1.341357e+00 1.278255e+00 1.059042e+00 1.599726e-01 7.168534e-02 6.114246e-02 1.081800e-01 1.351949e-01 1.811208e-01 2.358038e-01 2.834305e-01 2.948509e-01 3.069117e-01 2.733583e-01 2.645301e-01 2.223969e-01 1.533237e-02
<GCONST> 7.582228e+01
<STATE> 4
<MEAN> 39
 -1.913511e+01 9.095069e-01 -2.132197e+00 4.279882e+00 1.910457e+00 3.308542e+00 2.592220e+00 2.190841e+00 1.531024e+00 7.255378e-01 1.352308e+00 2.652351e+00 5.830910e+01 1.762595e-01 -1.402843e-01 8.227448e-02 1.301813e-02 3.103343e-02 -8.839041e-03 5.803260e-02 5.988630e-02 -1.129102e-01 7.861889e-02 -9.158272e-02 -3.970773e-02 -1.096636e-01 1.140232e-02 5.237274e-02 1.096792e-02 -4.254219e-04 -2.009755e-02 -2.940543e-02 -4.649296e-02 -4.386729e-02 -2.591474e-02 -4.584937e-02 -3.473357e-02 -2.796527e-02 2.824181e-02
<VARIANCE> 39
 6.078237e+00 6.250024e+00 6.324450e+00 6.899128e+00 9.988061e+00 1.545552e+01 1.752208e+01 1.485544e+01 1.481169e+01 1.266840e+01 1.189735e+01 1.055282e+01 3.289571e+00 3.349133e-01 4.522867e-01 5.284224e-01 6.077406e-01 8.757550e-01 1.143570e+00 1.383548e+00 1.458375e+00 1.359231e+00 1.270276e+00 1.179050e+00 1.078529e+00 1.318571e-01 6.577296e-02 7.393680e-02 9.822338e-02 1.220559e-01 1.786632e-01 2.217620e-01 2.862135e-01 2.875500e-01 2.863206e-01 2.509472e-01 2.432197e-01 2.194146e-01 1.726508e-02
<GCONST> 7.229174e+01
<TRANSP> 5
 0.000000e+00 1.000000e+00 0.000000e+00 0.000000e+00 0.000000e+00
 0.000000e+00 6.464710e-01 3.535291e-01 0.000000e+00 0.000000e+00
 0.000000e+00 0.000000e+00 9.000485e-01 9.995154e-02 0.000000e+00
 0.000000e+00 0.000000e+00 0.000000e+00 9.146490e-01 8.535100e-02
 0.000000e+00 0.000000e+00 0.000000e+00 0.000000e+00 0.000000e+00
<ENDHMM>
~h "t"
<BEGINHMM>
<NUMSTATES> 5
<STATE> 2
<MEAN> 39
 -1.500194e+01 3.324679e+00 1.192767e+00 4.896414e+00 1.659365e-01 1.034156e-01 -8.856426e-01 -2.551050e+00 -4.765850e+00 -2.517602e+00 -3.520435e+00 -6.390734e-01 5.886190e+01 -7.445539e-01 -7.597579e-01 -6.341341e-01 7.057309e-02 7.460108e-01 6.686674e-01 6.442901e-01 8.278591e-01 7.336550e-01 5.898406e-01 6.779494e-01 6.974555e-01 -4.323518e-01 1.143924e-01 2.317281e-02 -2.380821e-02 -1.837829e-01 -2.445752e-01 -1.184369e-01 -3.160056e-02 1.046802e-02 7.893860e-02 1.227638e-01 1.498542e-01 9.121551e-02 1.089947e-01
<VARIANCE> 39
 5.076879e+00 7.640228e+00 1.112392e+01 8.801600e+00 1.102448e+01 1.309114e+01 1.600403e+01 2.158558e+01 2.098568e+01 1.590267e+01 1.890751e+01 1.737286e+01 1.768765e+00 2.709356e-01 3.776033e-01 6.411933e-01 9.076592e-01 1.391197e+00 1.332375e+00 1.370764e+00 1.515659e+00 1.287533e+00 1.370204e+00 1.406386e+00 1.380052e+00 9.662341e-02 5.155633e-02 9.668098e-02 1.216883e-01 1.941023e-01 2.366905e-01 2.562380e-01 2.915050e-01 3.181415e-01 2.663433e-01 2.692481e-01 3.189684e-01 2.945908e-01 1.833615e-02
<GCONST> 7.710603e+01
<STATE> 3
<MEAN> 39
 -1.777686e+01 1.328700e-01 -1.765720e+00 3.980988e+00 2.011990e+00 2.770006e+00 2.755116e+00 2.483271e+00 2.228009e-01 1.322995e+00 7.411146e-01 2.895452e+00 5.753659e+01 -5.444587e-02 -4.485063e-02 -3.000614e-02 2.049517e-03 4.945364e-02 8.418351e-02 9.946325e-02 1.034704e-01 1.299875e-01 9.322878e-02 5.548882e-02 3.268154e-02 -2.589887e-02 1.766977e-02 2.285019e-02 1.155629e-02 -3.737196e-04 -1.844169e-02 -2.640548e-02 -3.365943e-02 -4.527021e-02 -4.180573e-02 -5.835376e-02 -4.153171e-02 -3.754940e-02 2.131946e-02
<VARIANCE> 39
 1.395897e+00 2.418593e+00 3.826983e+00 5.510840e+00 7.588551e+00 1.002042e+01 1.062800e+01 1.181140e+01 1.226204e+01 1.149996e+01 1.124552e+01 9.817744e+00 7.990932e-01 1.098049e-01 2.133895e-01 3.537095e-01 5.718659e-01 6.647531e-01 8.834006e-01 1.019508e+00 1.183694e+00 1.143919e+00 1.164110e+00 1.070251e+00 9.753367e-01 4.091929e-02 2.254326e-02 4.536845e-02 7.465634e-02 1.193288e-01 1.407087e-01 1.858761e-01 2.129508e-01 2.521056e-01 2.327963e-01 2.460553e-01 2.224714e-01 1.996454e-01 9.865822e-03
<GCONST> 5.720533e+01
<STATE> 4
<MEAN> 39
 -1.864596e+01 -2.070793e-01 -1.979557e+00 3.168668e+00 1.776589e+00 2.109585e+00 3.184077e+00 1.943308e+00 1.485722e+00 1.255896e+00 1.152878e+00 2.211069e+00 5.697928e+01 5.712515e-02 -6.020869e-02 -1.281046e-01 -2.136162e-01 -1.525661e-01 -1.553386e-01 -5.459015e-02 -4.444914e-02 -2.986246e-02 -1.703659e-01 1.632083e-02 6.630023e-02 2.135766e-01 1.935012e-01 8.552927e-02 4.799782e-04 -1.675216e-01 -2.501318e-01 -2.897397e-01 -1.454885e-01 -9.422948e-02 -6.177059e-02 -1.447008e-01 -1.890391e-02 -1.892918e-02 2.648820e-01
<VARIANCE> 39
 3.194783e+00 3.277395e+00 4.888597e+00 7.184451e+00 8.547022e+00 1.104852e+01 1.204550e+01 1.300786e+01 1.319931e+01 1.188048e+01 1.215311e+01 1.108208e+01 2.688699e+00 2.346268e-01 3.774932e-01 5.206866e-01 8.978279e-01 1.096618e+00 1.251775e+00 1.320844e+00 1.292063e+00 1.293298e+00 1.222698e+00 1.237575e+00 1.097696e+00 3.351217e-01 8.413240e-02 9.936594e-02 1.257428e-01 2.078354e-01 2.619286e-01 2.971213e-01 3.065572e-01 3.214960e-01 2.824410e-01 2.704014e-01 2.624452e-01 2.603459e-01 1.001058e-01
<GCONST> 7.461571e+01
<TRANSP> 5
 0.000000e+00 1.000000e+00 0.000000e+00 0.000000e+00 0.000000e+00
 0.000000e+00 6.995574e-01 3.004427e-01 0.000000e+00 0.000000e+00
 0.000000e+00 0.000000e+00 9.135877e-01 8.641230e-02 0.000000e+00
 0.000000e+00 0.000000e+00 0.000000e+00 7.392290e-01 2.607710e-01
 0.000000e+00 0.000000e+00 0.000000e+00 0.000000e+00 0.000000e+00
<ENDHMM>
~h "w"
<BEGINHMM>
<NUMSTATES> 5
<STATE> 2
<MEAN> 39
 -3.089689e+00 9.826259e+00 -4.108159e+00 -9.779696e+00 -1.315040e+01 -5.719584e+00 -2.273115e+00 -2.384953e+00 -4.773541e+00 -5.367252e+00 -4.303985e+00 -4.977258e-01 6.519357e+01 1.519611e+00 -2.941253e-01 -1.649897e+00 -2.488160e+00 -1.194833e+00 9.299144e-01 2.897259e-01 -5.791799e-01 -3.633452e-01 2.539022e-01 1.250752e+00 1.080383e+00 1.098606e+00 -4.042995e-01 -6.991093e-01 -3.065539e-01 3.037313e-01 8.033778e-01 7.853619e-01 2.246612e-01 5.199020e-02 2.404265e-01 5.087953e-01 4.070638e-01 -5.062896e-02 -7.953130e-02
<VARIANCE> 39
 1.700442e+01 8.790639e+00 1.287879e+01 4.073043e+01 4.022279e+01 2.086732e+01 1.232375e+01 1.595808e+01 1.293668e+01 9.726286e+00 1.254716e+01 1.227501e+01 6.247210e+00 1.663870e+00 1.562857e+00 1.158026e+00 3.204238e+00 4.121023e+00 3.420287e+00 1.675566e+00 1.608559e+00 1.452486e+00 1.545605e+00 1.657458e+00 1.064971e+00 5.525732e-01 1.507624e-01 1.625441e-01 2.920134e-01 6.721260e-01 5.809658e-01 4.191869e-01 4.252971e-01 3.931102e-01 3.117517e-01 2.441347e-01 3.639756e-01 4.392489e-01 5.022079e-02
<GCONST> 9.741456e+01
<STATE> 3
<MEAN> 39
 -1.247982e+00 3.925564e+00 -1.044519e+01 -1.317672e+01 -8.595776e+00 3.343331e+00 -1.516569e+00 -6.241120e+00 -6.236542e+00 -1.662531e+00 1.582515e+00 -1.141279e-01 6.806675e+01 -2.460558e-02 -1.730412e+00 -8.606890e-01 5.943668e-01 1.778970e+00 1.215450e+00 -8.574178e-01 -7.990492e-01 6.090682e-01 1.478087e+00 2.774676e-01 -1.746975e+00 5.135438e-01 -2.269519e-01 5.068148e-02 4.980091e-01 6.154122e-01 2.147298e-03 -7.050729e-01 -3.017571e-01 3.868901e-01 4.346854e-01 -9.236196e-02 -7.823141e-01 -5.906295e-01 -1.321705e-01
<VARIANCE> 39
 1.904177e+01 1.480980e+01 2.300430e+01 4.305658e+01 2.932900e+01 2.093229e+01 1.582468e+01 1.787392e+01 1.243394e+01 1.848221e+01 1.752077e+01 1.915811e+01 1.020471e+01 2.083447e-01 7.109780e-01 1.040434e+00 1.157276e+00 1.546316e+00 2.858007e+00 1.446685e+00 1.561711e+00 1.650367e+00 9.086366e-01 2.555573e+00 2.772240e+00 1.879399e-01 5.035793e-02 1.302604e-01 1.089597e-01 2.209480e-01 3.953617e-01 3.172348e-01 2.322241e-01 3.077630e-01 2.015079e-01 2.836442e-01 2.703107e-01 4.473143e-01 3.031112e-02
<GCONST> 8.918805e+01
<STATE> 4
<MEAN> 39
 -3.038584e+00 -2.724718e-01 -8.792264e+00 -6.926629e+00 -4.149273e+00 -1.838804e+00 -7.064581e+00 -2.891726e+00 8.139582e-01 2.056540e+00 -6.099214e+00 -8.749064e+00 6.863841e+01 -7.633799e-01 3.964503e-01 1.042704e+00 1.316497e+00 1.278494e-01 -1.305860e+00 -3.842280e-01 6.567054e-01 6.876363e-01 6.627406e-03 -7.734178e-01 1.627506e-01 -6.165346e-01 -2.180619e-01 2.438522e-01 1.795075e-01 5.126025e-02 -9.490981e-02 1.711404e-01 3.886963e-01 1.538357e-02 -3.060326e-01 -2.582586e-01 3.003876e-01 4.501034e-01 -2.503485e-01
<VARIANCE> 39
 1.106297e+01 1.820585e+01 1.833307e+01 1.973197e+01 1.205261e+01 3.205769e+01 1.808187e+01 2.220985e+01 1.888299e+01 1.321255e+01 2.240690e+01 1.687073e+01 9.678874e+00 6.024786e-01 1.709249e+00 8.251572e-01 8.384922e-01 1.049545e+00 1.938568e+00 1.865159e+00 1.722339e+00 1.988507e+00 1.193775e+00 3.011982e+00 2.649571e+00 8.996456e-01 8.644689e-02 2.295379e-01 1.321833e-01 1.484040e-01 2.499363e-01 5.697321e-01 4.091749e-01 4.194915e-01 2.739023e-01 2.653474e-01 3.929904e-01 2.984614e-01 5.228663e-02
<GCONST> 9.364563e+01
<TRANSP> 5
 0.000000e+00 1.000000e+00 0.000000e+00 0.000000e+00 0.000000e+00
 0.000000e+00 6.217459e-01 3.782541e-01 0.000000e+00 0.000000e+00
 0.000000e+00 0.000000e+00 6.508143e-01 3.491857e-01 0.000000e+00
 0.000000e+00 0.000000e+00 0.000000e+00 8.104317e-01 1.895683e-01
 0.000000e+00 0.000000e+00 0.000000e+00 0.000000e+00 0.000000e+00
<ENDHMM>
~h "y"
<BEGINHMM>
<NUMSTATES> 5
<STATE> 2
<MEAN> 39
 -1.329589e+01 5.575417e+00 4.781246e+00 3.868074e+00 -4.863366e+00 -2.995953e+00 -3.554651e+00 -7.381797e+00 -4.456238e+00 -3.497960e+00 -2.138126e+00 -5.630431e-01 6.286187e+01 1.804659e+00 8.230225e-01 2.202868e+00 -3.092504e-01 -1.235988e+00 -5.066505e-01 -2.652288e+00 -1.347071e+00 -1.908317e+00 -1.203641e+00 -6.800821e-01 -4.472119e-01 1.741668e-01 -1.268413e-01 1.087847e-01 -4.687495e-02 -1.933194e-01 -2.392017e-01 -3.708399e-02 -1.149192e-01 5.246421e-02 2.391636e-02 1.382374e-03 2.790139e-01 1.293010e-01 1.508329e-01
<VARIANCE> 39
 5.061697e+01 1.519701e+01 3.129987e+01 1.332739e+01 5.544313e+01 2.694241e+01 8.848803e+01 2.779951e+01 4.598138e+01 2.361050e+01 1.849225e+01 1.257568e+01 9.366661e+00 3.073892e+00 1.683260e+00 1.663993e+00 1.193621e+00 3.338499e+00 2.231199e+00 6.475818e+00 2.948163e+00 3.412413e+00 2.090978e+00 2.601990e+00 1.320369e+00 6.923374e-01 4.884439e-01 4.648697e-01 3.853298e-01 1.855014e-01 4.054860e-01 4.635665e-01 1.662530e+00 6.423040e-01 9.340099e-01 5.926150e-01 4.763297e-01 2.535801e-01 8.495542e-02
<GCONST> 1.133704e+02
<STATE> 3
<MEAN> 39
 -7.779281e+00 6.656495e+00 1.027987e+01 -1.752898e-01 -1.425591e+01 -7.022549e+00 -1.091905e+01 -9.162538e+00 -9.406632e+00 -5.018437e+00 -4.034984e-01 -4.740162e-01 6.573220e+01 -1.876010e-01 2.477693e-02 -2.178893e-01 2.274746e-01 4.926796e-01 -4.999041e-02 6.209305e-02 1.415037e-01 -4.128809e-02 -8.730090e-02 -1.087587e-01 8.996165e-02 -2.270394e-01 -1.084827e-01 -1.071219e-02 -2.200185e-01 1.565161e-01 3.611666e-01 7.994758e-02 1.568196e-01 4.839288e-02 7.588179e-02 4.244840e-02 -8.335187e-02 6.513711e-03 -1.236841e-01
<VARIANCE> 39
 3.959605e+00 9.948508e+00 1.379268e+01 1.042436e+01 2.710746e+01 1.914935e+01 1.286411e+01 1.406628e+01 1.104838e+01 1.690894e+01 1.111179e+01 9.753724e+00 4.358810e+00 3.929588e-01 6.580628e-01 1.108857e+00 1.243674e+00 3.852453e+00 1.469612e+00 1.126979e+00 1.063307e+00 8.955802e-01 1.206846e+00 1.107127e+00 7.130261e-01 5.652589e-01 6.290298e-02 1.037142e-01 1.568026e-01 1.367347e-01 2.866416e-01 2.866747e-01 2.803916e-01 2.100222e-01 1.928316e-01 2.100897e-01 1.704035e-01 1.323870e-01 4.347115e-02
<GCONST> 7.897246e+01
<STATE> 4
<MEAN> 39
 -1.207084e+01 7.311119e+00 5.562056e+00 5.466127e+00 -1.965056e+00 -4.054945e+00 -7.921011e+00 -8.628440e+00 -9.472556e+00 -6.584793e+00 -3.867784e+00 -4.034806e-01 6.075264e+01 -9.190748e-01 -2.431088e-01 -8.690560e-01 5.499599e-01 1.385352e+00 7.818415e-01 1.236512e+00 2.649368e-01 6.906841e-01 1.299820e-01 -2.177444e-01 3.099329e-02 -4.830449e-01 -1.215718e-01 -1.289998e-01 -8.266060e-02 -1.900226e-01 -3.299243e-01 -8.606589e-03 2.601457e-01 1.335243e-01 2.994306e-01 1.571205e-01 2.179933e-01 4.003075e-02 1.810884e-01
<VARIANCE> 39
 4.413519e+00 6.063339e+00 1.224994e+01 6.717263e+00 1.322646e+01 1.331192e+01 1.582860e+01 1.507667e+01 1.536824e+01 1.565097e+01 1.224946e+01 1.306186e+01 2.579370e+00 7.019690e-01 3.736536e-01 6.091142e-01 6.945697e-01 1.976682e+00 1.850862e+00 1.563877e+00 1.404809e+00 1.659827e+00 1.248276e+00 1.208475e+00 9.745058e-01 4.262426e-01 1.506002e-01 7.541154e-02 1.162876e-01 1.349942e-01 2.701931e-01 2.631585e-01 2.244852e-01 2.633488e-01 2.861815e-01 2.320714e-01 2.347812e-01 2.174478e-01 3.522646e-02
<GCONST> 7.831400e+01
<TRANSP> 5
 0.000000e+00 1.000000e+00 0.000000e+00 0.000000e+00 0.000000e+00
 0.000000e+00 6.710097e-01 3.289902e-01 0.000000e+00 0.000000e+00
 0.000000e+00 0.000000e+00 8.945386e-01 1.054614e-01 0.000000e+00
 0.000000e+00 0.000000e+00 0.000000e+00 8.171989e-01 1.828011e-01
 0.000000e+00 0.000000e+00 0.000000e+00 0.000000e+00 0.000000e+00
<ENDHMM>
~h "ah"
<BEGINHMM>
<NUMSTATES> 5
<STATE> 2
<MEAN> 39
 -1.498367e+01 2.092758e+00 -7.116370e-01 3.672616e+00 -1.250613e-01 6.876254e-01 -2.777863e-02 4.167941e-01 -7.663121e-01 -2.819431e-01 -1.375925e+00 2.827570e-01 5.922896e+01 -2.944750e-01 1.292634e-01 2.276685e-01 2.158900e-01 3.936690e-01 3.688374e-01 1.862760e-01 -1.340856e-01 -4.105932e-01 -3.284549e-01 -1.387144e-02 -8.796548e-03 -2.106324e-01 2.661159e-01 -4.945436e-02 -4.736872e-02 -1.300494e-01 -2.415102e-01 -2.722693e-01 -2.181147e-01 -4.618147e-02 -2.587710e-02 1.862345e-02 -1.371767e-02 -4.340299e-02 2.518545e-01
<VARIANCE> 39
 1.390897e+01 7.179461e+00 1.085012e+01 9.931877e+00 2.081702e+01 2.219430e+01 2.735698e+01 2.134860e+01 2.084237e+01 1.615428e+01 1.793791e+01 1.655212e+01 5.884382e+00 1.589627e+00 1.080369e+00 1.157108e+00 1.262792e+00 1.790413e+00 2.522454e+00 2.791651e+00 2.347034e+00 2.118260e+00 1.877287e+00 2.164914e+00 1.792414e+00 8.586751e-01 1.389819e-01 2.083821e-01 1.727652e-01 2.156767e-01 3.344793e-01 4.355489e-01 4.049187e-01 4.231501e-01 3.453107e-01 2.756542e-01 3.234111e-01 2.496396e-01 9.729408e-02
<GCONST> 9.592237e+01
<STATE> 3
<MEAN> 39
 -1.207251e+01 5.746274e+00 2.836966e+00 4.274692e+00 -7.287571e-01 -1.866314e+00 -4.231050e+00 -4.699333e+00 -6.120245e+00 -3.945599e+00 -3.405007e+00 -1.883906e+00 6.115709e+01 1.158742e+00 7.263989e-01 4.773782e-01 -3.180978e-01 -9.944481e-01 -1.189740e+00 -1.321335e+00 -1.172596e+00 -9.102430e-01 -2.917819e-01 1.487581e-01 7.657829e-02 8.563856e-01 1.094780e-01 -3.284945e-01 -3.399603e-01 -2.914419e-01 -2.903499e-01 -8.212647e-02 1.030778e-01 3.353517e-01 4.312604e-01 3.844516e-01 3.259117e-01 2.787161e-01 1.554988e-01
<VARIANCE> 39
 1.577969e+01 1.773238e+01 2.128709e+01 1.664116e+01 2.995022e+01 2.555728e+01 3.193503e+01 3.779761e+01 3.085639e+01 2.192713e+01 2.170518e+01 1.548334e+01 8.007007e+00 2.735641e+00 2.424736e+00 1.848401e+00 1.537728e+00 2.573097e+00 3.275674e+00 4.369725e+00 4.779745e+00 3.386842e+00 2.641425e+00 2.841794e+00 2.205338e+00 1.190868e+00 3.011906e-01 2.542471e-01 2.428258e-01 2.925126e-01 5.094794e-01 5.614261e-01 6.006433e-01 5.591830e-01 4.719090e-01 4.383004e-01 4.701269e-01 4.015414e-01 1.567810e-01
<GCONST> 1.109883e+02
<STATE> 4
<MEAN> 39
 -5.631651e+00 3.274808e+00 -1.921839e+00 -1.494429e-01 -5.689287e+00 -5.265834e+00 -6.865744e+00 -3.506872e+00 -3.781198e+00 -3.307647e+00 -3.857486e+00 -3.031566e+00 6.628951e+01 -1.324378e-02 -1.107267e-01 -3.356790e-01 2.035665e-02 2.004712e-01 8.299888e-02 1.713393e-01 1.069162e-01 1.123335e-01 1.376454e-01 3.257146e-02 -3.216345e-02 -5.434751e-02 -6.797664e-02 -2.266192e-02 -4.301921e-02 -1.419116e-03 8.086376e-02 8.555333e-02 7.909559e-02 5.905343e-02 4.339506e-02 -1.080833e-02 -1.706253e-02 -3.630320e-02 -3.272498e-02
<VARIANCE> 39
 2.139527e+01 3.096067e+01 5.281310e+01 2.000187e+01 4.087011e+01 2.342538e+01 2.132769e+01 5.377106e+01 3.573287e+01 2.083651e+01 3.747752e+01 3.161570e+01 1.540078e+01 1.390664e+00 2.081297e+00 3.388459e+00 1.918504e+00 3.349847e+00 1.868154e+00 1.685771e+00 3.780521e+00 2.859550e+00 1.671158e+00 2.968939e+00 2.504810e+00 1.068997e+00 2.025656e-01 3.509464e-01 6.028219e-01 3.584371e-01 5.542486e-01 3.444415e-01 3.564612e-01 6.291904e-01 5.046071e-01 3.193473e-01 5.628073e-01 4.879459e-01 1.362051e-01
<GCONST> 1.132890e+02
<TRANSP> 5
 0.000000e+00 1.000000e+00 0.000000e+00 0.000000e+00 0.000000e+00
 0.000000e+00 6.229657e-01 3.770343e-01 0.000000e+00 0.000000e+00
 0.000000e+00 0.000000e+00 4.898865e-01 5.101136e-01 0.000000e+00
 0.000000e+00 0.000000e+00 0.000000e+00 8.755296e-01 1.244703e-01
 0.000000e+00 0.000000e+00 0.000000e+00 0.000000e+00 0.000000e+00
<ENDHMM>
~h "ch"
<BEGINHMM>
<NUMSTATES> 5
<STATE> 2
<MEAN> 39
 -1.970125e+01 -3.065065e+00 5.209148e-03 2.515710e+00 -3.118644e+00 -1.485727e+00 5.260983e+00 -5.127285e+00 1.272159e+00 5.886883e-01 1.953877e+00 1.046767e+00 6.316779e+01 -1.609159e+00 -1.044784e+00 8.343499e-01 3.199088e-02 -2.101819e-01 -9.699699e-01 1.660544e+00 -6.520764e-01 1.822925e+00 -5.220692e-02 3.628213e-01 -2.724063e-01 1.561335e+00 1.263234e-02 2.907340e-01 1.548872e-01 2.298379e-01 4.298164e-01 -2.774128e-01 -3.787707e-01 1.883060e-01 1.311610e-01 -1.655454e-01 -2.578333e-01 7.443438e-02 -1.138090e-01
<VARIANCE> 39
 2.429957e+01 1.484214e+01 1.936729e+01 1.498989e+01 1.964175e+01 1.988519e+01 3.087464e+01 2.358035e+01 3.158991e+01 1.937717e+01 1.433215e+01 1.258330e+01 1.563703e+01 1.899835e+00 1.713464e+00 2.277153e+00 2.057733e+00 3.211518e+00 2.095111e+00 2.384706e+00 3.068744e+00 2.340137e+00 2.444663e+00 1.826607e+00 1.646435e+00 7.772877e-01 7.821531e-01 3.189350e-01 5.267258e-01 4.037250e-01 5.552984e-01 3.776616e-01 7.790775e-01 6.542624e-01 5.657862e-01 4.465232e-01 3.859625e-01 2.932392e-01 3.870565e-01
<GCONST> 1.096940e+02
<STATE> 3
<MEAN> 39
 -2.273580e+01 -3.740083e+00 2.762274e+00 5.597368e+00 2.130394e+00 -7.149206e+00 5.361722e+00 -4.320861e+00 9.049521e+00 -4.951559e-03 -5.326515e-01 7.916252e-01 6.588374e+01 2.170886e+00 1.063959e+00 -6.119338e-01 6.719173e-01 1.271506e+00 1.609807e-01 -2.323186e+00 3.538764e-01 -1.472252e-01 5.143678e-01 -1.313613e+00 -5.474048e-01 -9.766788e-01 1.076461e+00 5.073321e-01 -4.088261e-01 -5.518183e-01 -6.590065e-01 6.457708e-01 -6.262129e-01 -4.173145e-01 -1.143365e+00 1.647826e-01 8.649407e-02 -1.479961e-01 -2.444242e-01
<VARIANCE> 39
 1.398159e+01 6.250937e+00 1.084277e+01 1.486482e+01 2.018827e+01 2.218922e+01 2.704943e+01 1.751630e+01 2.219759e+01 2.503463e+01 1.616829e+01 1.439690e+01 8.630142e+00 2.546493e+00 1.444061e+00 1.467089e+00 1.828379e+00 2.277794e+00 3.473207e+00 3.176057e+00 2.559734e+00 5.349807e+00 1.861063e+00 1.960690e+00 1.707814e+00 6.579139e-01 5.131308e-01 1.823611e-01 3.325956e-01 5.759817e-01 6.552854e-01 3.707993e-01 7.466388e-01 6.422809e-01 6.080392e-01 5.394242e-01 4.519778e-01 3.519774e-01 2.852747e-01
<GCONST> 1.065835e+02
<STATE> 4
<MEAN> 39
 -1.760701e+01 -4.876229e-01 -1.527996e+00 4.525846e+00 3.243622e+00 2.011483e+00 3.413742e+00 9.411808e-01 2.796585e+00 1.275961e+00 1.301469e-02 1.317729e+00 5.829856e+01 8.520396e-01 5.458642e-01 -1.780315e-01 -4.276952e-01 -4.349264e-01 2.653159e-01 -5.876456e-01 -2.720370e-01 -8.625557e-01 -6.150559e-02 -1.141583e-01 -1.199519e-01 -6.034371e-02 3.310513e-02 1.944258e-02 -2.822559e-02 -2.671843e-01 -2.692941e-01 -4.640532e-02 6.119038e-02 -1.707005e-01 -1.163330e-01 -4.956872e-02 1.367924e-01 7.675022e-02 1.605056e-01
<VARIANCE> 39
 2.838201e+00 2.559016e+00 5.961469e+00 7.517240e+00 9.061872e+00 1.700588e+01 1.820511e+01 1.744898e+01 1.432838e+01 1.172917e+01 1.569417e+01 1.324434e+01 4.302888e+00 3.489832e+00 1.463229e+00 6.567110e-01 1.213126e+00 1.750042e+00 1.558737e+00 3.126197e+00 1.919119e+00 3.661513e+00 1.565135e+00 1.260127e+00 1.222196e+00 1.325531e-01 8.310915e-02 8.133418e-02 1.382348e-01 3.741107e-01 4.412132e-01 2.955212e-01 3.081730e-01 3.545699e-01 3.729535e-01 2.753020e-01 4.145069e-01 2.887265e-01 8.710746e-02
<GCONST> 8.548719e+01
<TRANSP> 5
 0.000000e+00 1.000000e+00 0.000000e+00 0.000000e+00 0.000000e+00
 0.000000e+00 8.036683e-01 1.963317e-01 0.000000e+00 0.000000e+00
 0.000000e+00 0.000000e+00 7.159361e-01 2.840639e-01 0.000000e+00
 0.000000e+00 0.000000e+00 0.000000e+00 8.044973e-01 1.955027e-01
 0.000000e+00 0.000000e+00 0.000000e+00 0.000000e+00 0.000000e+00
<ENDHMM>
~h "dh"
<BEGINHMM>
<NUMSTATES> 5
<STATE> 2
<MEAN> 39
 -1.061284e+01 5.624492e+00 2.844480e+00 2.808048e+00 -1.338892e+00 -1.127392e+00 -7.987587e+00 -7.013032e+00 -5.641835e+00 -3.949667e+00 -3.195867e+00 -1.650043e+00 6.210837e+01 1.229551e+00 2.340207e-01 -2.462610e-01 -1.485415e+00 -1.137510e+00 -9.274004e-02 -1.348184e+00 -1.260700e+00 3.846778e-02 3.142199e-01 5.431079e-01 3.411165e-01 9.397656e-01 2.566771e-02 -9.318043e-03 -2.135144e-01 -2.418823e-01 -1.270807e-01 1.323195e-01 2.452941e-01 1.890574e-02 3.027075e-02 9.501986e-02 1.650508e-01 2.770931e-01 -2.198902e-02
<VARIANCE> 39
 2.038256e+01 1.908052e+01 1.438553e+01 5.119939e+01 2.705907e+01 1.976368e+01 4.702741e+01 3.777131e+01 4.129333e+01 2.803424e+01 2.273950e+01 1.216948e+01 1.795017e+01 2.241085e+00 2.631784e+00 2.103232e+00 4.645409e+00 2.427296e+00 2.750820e+00 5.318511e+00 5.215046e+00 4.974410e+00 3.470349e+00 2.752240e+00 2.179284e+00 1.344240e+00 4.491789e-01 4.118055e-01 1.863492e-01 5.072271e-01 4.337590e-01 4.367988e-01 1.389732e+00 1.032583e+00 8.791932e-01 6.329911e-01 4.438448e-01 3.431581e-01 3.099753e-01
<GCONST> 1.187946e+02
<STATE> 3
<MEAN> 39
 -2.035797e+00 5.909003e+00 -4.464873e+00 -1.411469e+01 -1.200381e+01 3.104425e+00 -9.800486e+00 -1.298516e+01 -4.054894e+00 -7.778184e-01 3.354854e+00 6.724525e+00 6.813331e+01 1.356477e-01 5.105148e-01 -5.816944e-01 -1.086439e+00 -7.645642e-01 3.736407e-01 1.965880e+00 9.826619e-01 -7.703096e-01 -1.566101e+00 -7.304718e-01 1.193211e+00 -2.645998e-01 -3.889901e-01 -1.319871e-01 3.556504e-01 5.463839e-01 3.239329e-01 -2.583086e-01 5.994435e-02 7.474104e-01 2.044650e-01 -3.315860e-01 -4.798860e-01 -5.289792e-01 -1.625465e-01
<VARIANCE> 39
 1.115107e+01 6.933784e+00 1.761004e+01 5.160580e+01 1.998128e+01 1.669974e+01 2.028110e+01 1.697514e+01 1.278545e+01 1.854107e+01 1.810681e+01 1.359072e+01 7.425560e+00 2.274739e-01 3.884212e-01 7.040098e-01 1.059832e+00 8.578057e-01 1.121960e+00 1.186206e+00 1.564090e+00 1.137648e+00 1.289729e+00 1.466129e+00 1.622900e+00 1.029676e-01 9.651209e-02 9.504520e-02 1.371081e-01 1.917996e-01 1.553447e-01 2.043910e-01 4.793279e-01 5.549953e-01 2.318619e-01 4.685018e-01 3.131757e-01 1.807145e-01 6.114780e-02
<GCONST> 8.331532e+01
<STATE> 4
<MEAN> 39
 -2.834756e+00 7.795107e+00 -4.459783e+00 -1.522471e+01 -1.328795e+01 1.742947e+00 -4.539103e+00 -7.176208e+00 -5.389977e+00 -5.848285e+00 -6.092204e-01 7.339524e+00 6.659872e+01 -3.001520e-01 1.761885e-02 1.490851e-01 4.762897e-01 3.722901e-01 -1.408084e-01 9.213617e-02 9.960231e-02 -1.335078e-01 -2.952878e-02 -4.462560e-03 -5.509508e-02 -2.457114e-01 -3.920962e-02 -5.383502e-02 2.278056e-02 1.957967e-01 1.515909e-01 -1.224282e-02 -1.495913e-01 -2.191860e-01 -2.050568e-02 2.071692e-01 1.516158e-01 -6.625052e-02 -6.483117e-03
<VARIANCE> 39
 6.120503e+00 3.774410e+00 8.957479e+00 3.454200e+01 1.706606e+01 1.732921e+01 1.722568e+01 1.281298e+01 1.210489e+01 1.089626e+01 1.587021e+01 9.782643e+00 3.913166e+00 7.574907e-02 2.426981e-01 2.635693e-01 7.281089e-01 6.039709e-01 6.575090e-01 1.033551e+00 1.323183e+00 7.009018e-01 1.045332e+00 9.475518e-01 5.379514e-01 5.742615e-02 1.195786e-02 3.462257e-02 6.040219e-02 1.008830e-01 9.179837e-02 1.101644e-01 1.634802e-01 1.326022e-01 1.337325e-01 1.512560e-01 1.493840e-01 1.265985e-01 1.303041e-02
<GCONST> 5.930518e+01
<TRANSP> 5
 0.000000e+00 1.000000e+00 0.000000e+00 0.000000e+00 0.000000e+00
 0.000000e+00 8.847917e-01 1.152083e-01 0.000000e+00 0.000000e+00
 0.000000e+00 0.000000e+00 6.693795e-01 3.306204e-01 0.000000e+00
 0.000000e+00 0.000000e+00 0.000000e+00 8.625787e-01 1.374213e-01
 0.000000e+00 0.000000e+00 0.000000e+00 0.000000e+00 0.000000e+00
<ENDHMM>
~h "eh"
<BEGINHMM>
<NUMSTATES> 5
<STATE> 2
<MEAN> 39
 -1.625294e+01 1.913949e+00 -6.721087e-01 3.701128e+00 -2.112097e-01 -4.320406e-01 8.721492e-01 3.677803e-01 -5.686777e-01 -5.949433e-01 -1.018501e-01 2.108482e+00 6.012102e+01 8.869152e-01 8.211084e-02 3.808508e-01 -1.716544e-01 -8.711554e-01 -6.773252e-01 -2.920678e-01 -7.308411e-02 -3.925543e-01 -3.797872e-01 -9.758891e-02 -1.605774e-01 4.576634e-01 3.877073e-01 1.936008e-01 2.147401e-01 -1.217479e-01 -5.482295e-01 -4.513037e-01 -4.084357e-01 -2.322593e-01 -2.982044e-01 -1.096615e-01 -5.272836e-03 -7.066437e-02 2.331916e-01
<VARIANCE> 39
 1.765730e+01 8.220412e+00 1.430368e+01 1.135590e+01 2.092204e+01 2.326995e+01 2.779846e+01 2.246585e+01 2.271465e+01 1.704436e+01 1.610007e+01 1.365090e+01 1.079357e+01 2.695554e+00 1.305450e+00 1.645207e+00 1.469305e+00 3.249711e+00 2.994131e+00 3.124222e+00 2.642827e+00 2.714531e+00 1.977193e+00 1.930171e+00 1.453029e+00 1.112031e+00 1.858445e-01 1.741861e-01 2.706616e-01 3.016080e-01 5.250452e-01 4.197303e-01 4.417486e-01 4.178410e-01 3.989546e-01 3.403067e-01 3.673767e-01 2.660198e-01 1.581478e-01
<GCONST> 1.021407e+02
<STATE> 3
<MEAN> 39
 -7.807381e+00 5.065093e+00 3.511998e+00 1.529905e+00 -1.050322e+01 -9.972263e+00 -6.591921e+00 -3.123047e+00 -5.304434e+00 -3.738930e+00 -9.170526e-01 5.576202e-01 6.543819e+01 1.913172e+00 1.047776e-01 1.118791e+00 -1.013602e+00 -3.318667e+00 -2.138016e+00 -1.743759e+00 -5.662236e-01 -1.119897e+00 2.164398e-02 5.180553e-01 -4.324046e-02 1.256859e+00 -5.294653e-01 -2.716751e-01 -2.340831e-01 -1.644016e-02 3.348262e-01 5.060887e-01 3.938019e-01 1.739701e-01 3.254827e-01 3.091261e-01 2.208100e-01 1.607661e-01 -1.847155e-01
<VARIANCE> 39
 1.624473e+01 1.392653e+01 1.856402e+01 1.962210e+01 4.712756e+01 3.331381e+01 2.845033e+01 2.035353e+01 2.000944e+01 1.370570e+01 1.918916e+01 1.350551e+01 1.126099e+01 2.466922e+00 2.163161e+00 2.068878e+00 1.748775e+00 3.232568e+00 2.719898e+00 3.416033e+00 2.612053e+00 2.242946e+00 1.948739e+00 2.195289e+00 1.595139e+00 7.635885e-01 3.690128e-01 2.541209e-01 3.656863e-01 3.391693e-01 7.569841e-01 5.083292e-01 5.938604e-01 4.305606e-01 4.201341e-01 3.371782e-01 3.561679e-01 2.666058e-01 1.818951e-01
<GCONST> 1.073053e+02
<STATE> 4
<MEAN> 39
 -6.718800e+00 3.670266e+00 6.403115e+00 1.134523e-02 -1.644064e+01 -1.161765e+01 -7.689802e+00 -4.506896e+00 -7.855043e+00 -1.990343e+00 1.498540e+00 8.744036e-01 6.678532e+01 -2.851615e-01 2.405715e-01 -1.866916e-02 1.865109e-01 5.864484e-01 4.911147e-01 1.087688e-01 -2.987157e-01 -6.487207e-03 -5.118356e-02 -2.972288e-01 -1.530084e-01 -3.303832e-01 -1.722783e-01 4.426428e-02 -1.367675e-01 1.616907e-01 4.669246e-01 2.385989e-01 1.155996e-01 1.808914e-02 1.261334e-01 -7.079551e-02 -1.472712e-01 -5.067282e-02 -1.476375e-01
<VARIANCE> 39
 7.432943e+00 1.247070e+01 1.302670e+01 1.081744e+01 3.050227e+01 1.664337e+01 1.444758e+01 1.540470e+01 1.425565e+01 1.071240e+01 1.611680e+01 1.111841e+01 7.702480e+00 2.971826e-01 5.883843e-01 8.582180e-01 7.599279e-01 2.290784e+00 1.018139e+00 9.879723e-01 9.625551e-01 1.033624e+00 9.100796e-01 1.160730e+00 7.882116e-01 3.291345e-01 8.828384e-02 1.394966e-01 1.306214e-01 1.531431e-01 3.302255e-01 2.380237e-01 2.337728e-01 2.164773e-01 1.923714e-01 1.830474e-01 2.052499e-01 1.618498e-01 5.993835e-02
<GCONST> 7.901107e+01
<TRANSP> 5
 0.000000e+00 1.000000e+00 0.000000e+00 0.000000e+00 0.000000e+00
 0.000000e+00 6.913114e-01 3.086886e-01 0.000000e+00 0.000000e+00
 0.000000e+00 0.000000e+00 5.742214e-01 4.257785e-01 0.000000e+00
 0.000000e+00 0.000000e+00 0.000000e+00 8.368242e-01 1.631758e-01
 0.000000e+00 0.000000e+00 0.000000e+00 0.000000e+00 0.000000e+00
<ENDHMM>
~h "ih"
<BEGINHMM>
<NUMSTATES> 5
<STATE> 2
<MEAN> 39
 -1.546385e+01 5.142062e+00 3.422834e+00 5.464156e+00 -9.492167e-01 3.569620e-01 -4.451117e-01 -6.590275e+00 -3.947220e+00 -4.777096e+00 -3.214441e+00 -1.863714e+00 6.163689e+01 2.494988e+00 1.053516e+00 1.739186e+00 -5.235537e-01 -1.634382e+00 -7.927623e-01 -2.486395e+00 -1.384117e+00 -1.878255e+00 -1.096734e+00 -4.183891e-01 -8.558249e-01 4.729366e-01 1.252480e-01 3.574308e-01 1.003410e-01 -3.387943e-01 -4.645907e-01 -3.241047e-01 -5.287734e-01 -1.298722e-01 -1.750622e-01 1.526618e-01 3.868594e-01 1.363452e-01 2.713860e-01
<VARIANCE> 39
 2.155169e+01 1.085570e+01 1.240220e+01 8.463125e+00 2.016705e+01 1.624537e+01 3.592717e+01 2.146514e+01 3.577859e+01 1.868618e+01 2.056236e+01 1.426165e+01 8.362734e+00 4.608660e+00 2.400346e+00 2.376155e+00 1.083507e+00 3.423105e+00 2.249763e+00 9.338577e+00 3.284516e+00 5.805288e+00 2.076479e+00 2.716432e+00 1.334635e+00 1.037955e+00 3.020287e-01 2.391594e-01 4.488724e-01 2.130793e-01 4.098807e-01 3.217832e-01 7.496532e-01 4.618772e-01 6.382463e-01 4.463232e-01 5.677158e-01 3.258822e-01 1.670609e-01
<GCONST> 1.083705e+02
<STATE> 3
<MEAN> 39
 -8.122049e+00 9.822709e+00 8.871082e+00 8.213487e-01 -8.267327e+00 -4.014174e+00 -1.054205e+01 -1.074738e+01 -9.725701e+00 -5.279959e+00 -1.629074e+00 -2.140395e+00 6.410110e+01 1.518994e+00 7.013732e-01 1.006115e+00 -1.248078e+00 -1.649750e+00 -4.875232e-01 -2.495756e+00 -9.297650e-01 -1.062522e+00 4.432158e-01 9.589818e-01 9.151929e-02 5.709105e-01 -9.553003e-01 -5.707386e-01 -7.022002e-01 1.775004e-01 7.286158e-01 4.909859e-01 1.036498e+00 5.614588e-01 8.256508e-01 4.984953e-01 2.441179e-01 2.451745e-01 -1.733429e-01
<VARIANCE> 39
 2.874907e+00 3.890000e+00 7.688988e+00 1.296948e+01 1.622142e+01 7.950879e+00 1.205735e+01 1.052742e+01 8.955687e+00 1.227459e+01 1.070922e+01 9.257545e+00 1.978842e+00 2.045594e+00 1.212467e+00 1.524196e+00 9.749402e-01 2.218999e+00 1.923854e+00 3.285263e+00 2.463756e+00 2.530794e+00 1.727092e+00 1.772022e+00 1.128077e+00 3.563961e-01 1.629218e-01 1.081330e-01 1.320817e-01 2.528088e-01 3.292737e-01 2.257608e-01 4.643645e-01 2.487809e-01 3.695292e-01 3.412569e-01 4.333777e-01 2.275068e-01 6.282689e-02
<GCONST> 8.500854e+01
<STATE> 4
<MEAN> 39
 -8.958220e+00 8.658692e+00 8.997446e+00 6.942997e-01 -7.808788e+00 -2.485694e+00 -1.198896e+01 -1.075443e+01 -9.197604e+00 -4.116700e+00 -9.897135e-01 -2.456432e+00 6.379239e+01 -3.771584e-02 -1.823481e-01 -4.143373e-01 2.650683e-01 2.879800e-01 -4.091174e-02 2.055740e-01 -8.598618e-02 1.098804e-02 3.134463e-01 -2.527725e-01 -2.160263e-02 -1.025794e-01 -6.474097e-02 -6.370685e-02 -1.590267e-01 1.809676e-01 8.985381e-02 -1.172218e-01 3.057597e-01 9.977445e-02 4.914743e-02 -5.291800e-02 -1.339220e-01 1.502640e-02 -4.737521e-02
<VARIANCE> 39
 3.762217e+00 4.275751e+00 1.433667e+01 1.266729e+01 2.039080e+01 1.128004e+01 1.290585e+01 1.238048e+01 1.043352e+01 2.148119e+01 1.433750e+01 1.018354e+01 3.675866e+00 1.482613e-01 2.667017e-01 5.687469e-01 8.213483e-01 1.208883e+00 1.043003e+00 1.200962e+00 9.903763e-01 9.023504e-01 9.427466e-01 1.015433e+00 7.795643e-01 1.106142e-01 5.088326e-02 6.860039e-02 1.136708e-01 1.717494e-01 2.789496e-01 1.928244e-01 2.017037e-01 2.117236e-01 2.009113e-01 2.174642e-01 2.877458e-01 1.601512e-01 2.715021e-02
<GCONST> 7.019890e+01
<TRANSP> 5
 0.000000e+00 1.000000e+00 0.000000e+00 0.000000e+00 0.000000e+00
 0.000000e+00 5.780591e-01 4.219408e-01 0.000000e+00 0.000000e+00
 0.000000e+00 0.000000e+00 6.127179e-01 3.872822e-01 0.000000e+00
 0.000000e+00 0.000000e+00 0.000000e+00 8.164723e-01 1.835277e-01
 0.000000e+00 0.000000e+00 0.000000e+00 0.000000e+00 0.000000e+00
<ENDHMM>
~h "ll"
<BEGINHMM>
<NUMSTATES> 5
<STATE> 2
<MEAN> 39
 -1.772424e+01 2.758408e-03 -2.093161e+00 4.463846e+00 2.165159e+00 3.768692e+00 2.840021e+00 3.117089e+00 6.529364e-01 1.412694e+00 1.273395e+00 2.965032e+00 5.750833e+01 -8.071201e-03 -6.611890e-03 -5.360400e-03 1.205332e-03 -8.878444e-03 -8.100798e-03 -7.398801e-03 -1.411178e-02 -2.159995e-03 -7.384969e-03 -1.347059e-02 -2.681976e-02 -4.750248e-03 -3.793118e-03 -1.223584e-03 5.765714e-04 -1.726584e-03 4.052582e-03 5.279269e-03 3.088047e-03 2.072415e-03 6.175708e-03 4.327490e-03 2.910770e-04 -4.862949e-03 -1.457755e-03
<VARIANCE> 39
 9.344155e-01 1.622956e+00 3.343150e+00 4.199927e+00 6.765067e+00 7.751691e+00 8.996596e+00 9.780935e+00 1.150266e+01 1.082928e+01 9.768950e+00 8.515911e+00 4.476746e-01 8.100276e-02 1.536756e-01 2.801150e-01 4.313772e-01 6.510734e-01 7.331504e-01 8.932561e-01 9.739760e-01 1.161011e+00 1.090352e+00 9.461840e-01 8.133606e-01 3.178705e-02 1.449306e-02 3.003255e-02 5.610782e-02 8.672936e-02 1.326394e-01 1.476971e-01 1.837902e-01 1.931855e-01 2.397881e-01 2.230835e-01 1.926632e-01 1.665666e-01 4.905529e-03
<GCONST> 4.874123e+01
<STATE> 3
<MEAN> 39
 -1.912064e+01 3.579178e-01 -9.466776e-01 3.865736e+00 3.302311e+00 3.613757e+00 4.086147e+00 3.295432e+00 2.741765e+00 2.123860e+00 2.083348e+00 2.188707e+00 5.619427e+01 -4.657078e-03 -6.829602e-03 -1.179056e-02 -2.373463e-02 -6.813092e-03 9.061771e-03 1.201237e-03 -1.623068e-02 -5.985864e-03 -3.773656e-02 -2.140918e-02 3.438721e-03 -1.212399e-03 1.046349e-02 2.165165e-03 1.341895e-03 -5.768493e-03 -2.095996e-02 -1.870289e-02 -2.185279e-02 -1.514759e-02 -2.740425e-02 -1.852630e-02 -1.056039e-02 4.004462e-03 7.605370e-03
<VARIANCE> 39
 1.153921e+00 2.687724e+00 3.868358e+00 6.352242e+00 8.793676e+00 9.698432e+00 1.254631e+01 1.218422e+01 1.504719e+01 1.189317e+01 1.273878e+01 1.020310e+01 5.928223e-01 9.640746e-02 2.372481e-01 3.827684e-01 5.733978e-01 8.681974e-01 9.364190e-01 1.124132e+00 1.299146e+00 1.258065e+00 1.172354e+00 1.177864e+00 1.013160e+00 3.531459e-02 1.896706e-02 4.995432e-02 7.966545e-02 1.207330e-01 1.843205e-01 1.952001e-01 2.387380e-01 2.761533e-01 2.682590e-01 2.442563e-01 2.496246e-01 2.108030e-01 6.266946e-03
<GCONST> 5.872498e+01
<STATE> 4
<MEAN> 39
 -1.799978e+01 -4.190886e-01 -1.853903e+00 4.266424e+00 2.017591e+00 3.405736e+00 3.009255e+00 2.710707e+00 1.310791e+00 9.734261e-01 1.727403e+00 2.339321e+00 5.760245e+01 6.199502e-02 1.005840e-01 1.424475e-01 -2.390802e-02 -1.605365e-01 -2.762825e-01 -2.452297e-01 -2.840367e-01 -2.888195e-01 -1.326108e-01 -2.079671e-01 -9.372590e-02 1.040119e-01 6.673969e-02 1.350941e-01 1.256085e-01 2.120294e-02 -5.963180e-03 -1.054822e-01 -1.163563e-01 -1.665854e-01 -1.507109e-01 -9.782710e-02 -1.466392e-01 -1.009700e-01 5.617729e-02
<VARIANCE> 39
 1.564848e+00 3.162009e+00 4.944765e+00 7.198487e+00 1.124682e+01 1.120971e+01 1.241229e+01 1.297465e+01 1.056574e+01 1.023633e+01 1.134613e+01 9.346701e+00 9.942633e-01 2.007314e-01 3.072593e-01 4.815440e-01 8.978246e-01 1.308884e+00 1.566788e+00 1.408346e+00 1.401235e+00 1.297154e+00 9.960102e-01 1.307408e+00 1.002907e+00 1.050305e-01 5.380093e-02 9.590021e-02 1.241593e-01 1.829690e-01 2.805527e-01 3.720146e-01 3.065541e-01 3.379537e-01 3.119306e-01 2.318379e-01 2.810414e-01 2.294350e-01 2.433625e-02
<GCONST> 6.949342e+01
<TRANSP> 5
 0.000000e+00 1.000000e+00 0.000000e+00 0.000000e+00 0.000000e+00
 0.000000e+00 9.679778e-01 3.202226e-02 0.000000e+00 0.000000e+00
 0.000000e+00 0.000000e+00 9.220935e-01 7.790647e-02 0.000000e+00
 0.000000e+00 0.000000e+00 0.000000e+00 7.503914e-01 2.496085e-01
 0.000000e+00 0.000000e+00 0.000000e+00 0.000000e+00 0.000000e+00
<ENDHMM>
~h "ng"
<BEGINHMM>
<NUMSTATES> 5
<STATE> 2
<MEAN> 39
 -7.584163e+00 9.334887e+00 4.269311e+00 4.027647e+00 -3.427935e+00 -5.291806e+00 -9.862885e+00 -1.275672e+01 -1.073579e+01 -2.675950e+00 -2.618039e+00 -1.190856e+00 6.282143e+01 -1.604126e-01 5.437070e-02 -7.685816e-02 5.310512e-01 3.945064e-01 -3.116724e-01 3.975967e-02 1.126032e-01 -2.423081e-01 -5.764835e-01 -2.905980e-01 1.646108e-01 -2.333446e-01 -6.922504e-02 -5.573180e-02 1.030923e-01 4.323532e-03 -2.186298e-02 4.336990e-02 -3.087644e-02 7.914617e-02 1.433527e-02 -9.534767e-02 -3.193530e-02 -3.935543e-02 -1.130428e-03
<VARIANCE> 39
 2.191787e+00 3.953343e+00 3.324132e+00 6.044470e+00 9.341031e+00 7.476767e+00 7.897018e+00 1.041380e+01 9.755752e+00 1.265780e+01 1.148697e+01 8.601143e+00 1.227158e+00 7.372216e-02 2.747304e-01 4.304491e-01 5.798514e-01 5.719868e-01 7.621146e-01 6.872477e-01 6.878458e-01 6.288732e-01 8.620715e-01 8.708035e-01 7.192172e-01 4.614144e-02 1.322931e-02 6.539515e-02 6.595259e-02 1.192059e-01 1.151606e-01 1.371430e-01 1.423054e-01 1.385988e-01 1.307705e-01 1.776506e-01 1.800277e-01 1.608913e-01 9.947752e-03
<GCONST> 5.219674e+01
<STATE> 3
<MEAN> 39
 -9.749782e+00 8.105511e+00 5.295751e+00 8.267913e+00 -1.430295e+00 -6.767781e+00 -9.998742e+00 -1.095458e+01 -1.202112e+01 -6.860850e+00 -5.456307e+00 -1.414625e+00 6.155067e+01 -9.378895e-01 -6.841809e-01 -1.416605e-01 4.094395e-01 9.100090e-01 9.279711e-01 9.545571e-01 8.855055e-01 2.972434e-01 -5.746211e-01 -7.142978e-01 -4.337281e-01 -5.009516e-01 -1.988423e-01 -1.917503e-01 -3.257974e-01 -3.488161e-01 9.981303e-02 4.695269e-01 4.759702e-01 3.502824e-01 3.962685e-01 3.751042e-01 2.773740e-01 1.136712e-01 -1.098395e-01
<VARIANCE> 39
 2.354202e+00 1.339657e+01 3.644137e+00 1.466828e+01 1.080482e+01 1.505210e+01 1.103808e+01 1.235888e+01 1.203479e+01 1.797531e+01 1.408742e+01 1.083810e+01 2.631617e+00 2.976349e-01 1.471095e+00 5.205940e-01 2.230106e+00 7.047226e-01 2.300164e+00 1.666675e+00 1.599007e+00 1.439114e+00 1.795594e+00 1.233152e+00 1.202480e+00 2.204504e-01 2.811806e-02 3.242462e-01 8.769885e-02 3.760707e-01 1.372119e-01 2.959138e-01 2.311499e-01 2.863816e-01 2.530063e-01 4.328259e-01 2.883219e-01 2.763278e-01 3.284849e-02
<GCONST> 7.891914e+01
<STATE> 4
<MEAN> 39
 -1.420859e+01 4.744790e+00 2.522090e+00 6.715776e+00 2.252998e+00 -6.398027e-01 -3.858634e+00 -5.932647e+00 -8.293009e+00 -6.101265e+00 -5.445142e+00 -1.223474e+00 5.901272e+01 -1.106233e+00 -1.229986e+00 -1.137546e+00 -6.615165e-01 3.029933e-01 1.137204e+00 1.677371e+00 1.797274e+00 1.657414e+00 1.332991e+00 1.038877e+00 8.354357e-01 -5.097820e-01 3.384497e-01 9.149981e-02 -2.117169e-01 -3.451268e-01 -3.526705e-01 -2.841834e-01 -2.947300e-01 -1.842503e-01 -3.665643e-02 2.634616e-01 3.746549e-01 2.436638e-01 2.224335e-01
<VARIANCE> 39
 2.255534e+00 3.686982e+00 5.027915e+00 5.039262e+00 8.114461e+00 1.177868e+01 1.806534e+01 1.774671e+01 1.693878e+01 1.579261e+01 1.300267e+01 1.216553e+01 8.685254e-01 2.634092e-01 4.602414e-01 4.093518e-01 5.777842e-01 8.021808e-01 1.491663e+00 1.457156e+00 1.347430e+00 1.380419e+00 1.487768e+00 1.136796e+00 1.143816e+00 9.360958e-02 9.716693e-02 9.208962e-02 1.703476e-01 2.447462e-01 1.419221e-01 2.985671e-01 2.747331e-01 2.701354e-01 2.775944e-01 3.700576e-01 2.928969e-01 2.892515e-01 4.607386e-02
<GCONST> 7.230839e+01
<TRANSP> 5
 0.000000e+00 1.000000e+00 0.000000e+00 0.000000e+00 0.000000e+00
 0.000000e+00 8.944738e-01 1.055262e-01 0.000000e+00 0.000000e+00
 0.000000e+00 0.000000e+00 7.247726e-01 2.752274e-01 0.000000e+00
 0.000000e+00 0.000000e+00 0.000000e+00 6.529508e-01 3.470492e-01
 0.000000e+00 0.000000e+00 0.000000e+00 0.000000e+00 0.000000e+00
<ENDHMM>
~h "oh"
<BEGINHMM>
<NUMSTATES> 5
<STATE> 2
<MEAN> 39
 -6.408422e+00 5.440073e+00 -3.526697e+00 -4.441999e+00 -6.858200e+00 -1.412762e+00 -4.469483e+00 -6.156203e+00 -4.653875e+00 -1.929493e+00 -1.623076e+00 2.509815e-01 6.429108e+01 1.538254e+00 8.519315e-01 -8.892747e-01 -2.448643e+00 -1.423894e+00 4.392384e-01 -2.315252e-01 -9.749826e-01 -7.253447e-01 -9.645569e-02 5.388192e-01 5.396231e-01 6.507670e-01 -3.073929e-01 -2.099246e-01 -5.461888e-02 2.094357e-02 2.016894e-01 2.202604e-01 2.786055e-01 2.664307e-01 1.435650e-01 -1.968320e-02 1.419307e-01 2.486974e-01 -2.688040e-02
<VARIANCE> 39
 2.801690e+01 1.323286e+01 1.350723e+01 5.902965e+01 3.656985e+01 2.553171e+01 4.136316e+01 3.885398e+01 2.614571e+01 3.730194e+01 2.605136e+01 1.756930e+01 1.234844e+01 3.012547e+00 1.771230e+00 1.752666e+00 5.217907e+00 4.790735e+00 3.038420e+00 2.354653e+00 2.695726e+00 3.218661e+00 3.434719e+00 3.287120e+00 2.299027e+00 1.002697e+00 4.695888e-01 3.207801e-01 3.220682e-01 1.150040e+00 8.279825e-01 4.034702e-01 6.291040e-01 6.448200e-01 5.474953e-01 7.672962e-01 5.697801e-01 3.863201e-01 1.910387e-01
<GCONST> 1.179388e+02
<STATE> 3
<MEAN> 39
 -4.264003e+00 7.016721e+00 -5.301867e+00 -8.908069e+00 -8.631019e+00 4.772090e-02 -3.801200e+00 -7.328567e+00 -7.018718e+00 -3.504792e+00 -7.209476e-01 2.408699e+00 6.518006e+01 -8.738030e-01 -2.490748e-02 6.118834e-01 1.345484e+00 9.608636e-01 -1.234078e-01 2.169024e-01 6.040948e-01 1.206543e-01 -2.285992e-01 -4.739450e-01 -5.010958e-01 -5.879723e-01 -3.469385e-01 -1.114659e-01 2.645959e-01 5.091109e-01 2.678474e-01 -6.107955e-02 -4.020391e-03 1.999420e-01 1.909330e-01 4.488834e-02 -1.305456e-01 -1.520382e-01 -1.580898e-01
<VARIANCE> 39
 1.351421e+01 5.413307e+00 9.766144e+00 3.471641e+01 2.283833e+01 1.656594e+01 2.704620e+01 3.046199e+01 1.500142e+01 2.602242e+01 2.794117e+01 2.129102e+01 6.715367e+00 8.119929e-01 5.870410e-01 1.211012e+00 3.173113e+00 1.591071e+00 1.871070e+00 2.627753e+00 3.099867e+00 1.936093e+00 2.988044e+00 2.654403e+00 2.424048e+00 3.214850e-01 1.046243e-01 1.110530e-01 1.927328e-01 4.453875e-01 3.106647e-01 4.093231e-01 3.701221e-01 4.892949e-01 3.431713e-01 4.719298e-01 5.389216e-01 4.881667e-01 4.997045e-02
<GCONST> 9.814801e+01
<STATE> 4
<MEAN> 39
 -1.633282e+01 1.533463e+00 -1.428250e+00 3.449082e+00 1.464697e+00 2.189067e+00 1.358431e+00 1.259674e+00 -1.192434e+00 -6.931950e-02 -6.085534e-01 1.793810e+00 5.826241e+01 -4.367687e-01 -2.164018e-01 4.050171e-02 2.302866e-01 3.087401e-01 1.504888e-01 1.682862e-01 2.520128e-01 2.649559e-01 2.545677e-01 2.044731e-01 1.481976e-01 -1.553461e-01 9.028687e-02 4.463533e-02 -5.316681e-02 -1.303420e-01 -1.036572e-01 -3.375980e-02 -2.606865e-02 -8.013886e-02 -3.703894e-02 -2.949070e-02 -1.062454e-02 5.320107e-04 8.409447e-02
<VARIANCE> 39
 8.340384e+00 7.235672e+00 5.902550e+00 8.667274e+00 1.174538e+01 1.467811e+01 1.890396e+01 2.071970e+01 1.975179e+01 1.881007e+01 1.727980e+01 1.420506e+01 2.804516e+00 6.563894e-01 4.791583e-01 6.548238e-01 1.176442e+00 1.116553e+00 1.222290e+00 1.403518e+00 1.588176e+00 1.568449e+00 1.582120e+00 1.512000e+00 1.376377e+00 1.789574e-01 6.461810e-02 7.826141e-02 1.235051e-01 2.082960e-01 2.075808e-01 2.380823e-01 2.730617e-01 3.126508e-01 3.003923e-01 2.998472e-01 3.063128e-01 3.018034e-01 2.326818e-02
<GCONST> 7.993634e+01
<TRANSP> 5
 0.000000e+00 1.000000e+00 0.000000e+00 0.000000e+00 0.000000e+00
 0.000000e+00 5.909022e-01 4.090979e-01 0.000000e+00 0.000000e+00
 0.000000e+00 0.000000e+00 7.912492e-01 2.087508e-01 0.000000e+00
 0.000000e+00 0.000000e+00 0.000000e+00 9.081905e-01 9.180943e-02
 0.000000e+00 0.000000e+00 0.000000e+00 0.000000e+00 0.000000e+00
<ENDHMM>
~h "sp"
<BEGINHMM>
<NUMSTATES> 3
<STATE> 2
~s "silst"
<TRANSP> 3
 0.000000e+00 7.000000e-01 3.000000e-01
 0.000000e+00 9.000000e-01 9.999999e-02
 0.000000e+00 0.000000e+00 0.000000e+00
<ENDHMM>
~h "th"
<BEGINHMM>
<NUMSTATES> 5
<STATE> 2
<MEAN> 39
 -1.939712e+01 1.535481e+00 -2.266260e+00 3.586473e+00 3.121678e+00 2.103493e+00 3.067066e+00 2.796385e+00 5.651794e-01 1.205905e+00 9.696866e-01 2.486914e+00 5.847543e+01 -4.593469e-01 2.910233e-01 -2.477309e-01 -4.440307e-02 1.614185e-01 -2.012758e-01 2.631386e-01 -9.057477e-03 2.340655e-01 3.591327e-02 9.191959e-02 6.143792e-02 1.914101e-01 -3.196791e-02 4.655623e-02 -2.832981e-02 1.305251e-03 -3.589150e-02 -2.766793e-02 8.627274e-03 -4.044872e-02 8.183278e-03 -3.561895e-02 -6.231618e-03 3.154523e-04 4.373891e-02
<VARIANCE> 39
 8.088017e+00 7.525699e+00 6.325831e+00 9.177305e+00 1.105733e+01 1.209470e+01 1.489963e+01 1.579592e+01 1.647004e+01 1.305938e+01 1.235591e+01 1.000927e+01 3.170984e+00 4.536985e-01 4.840697e-01 5.307677e-01 6.752682e-01 8.490044e-01 1.073874e+00 1.250982e+00 1.426918e+00 1.550407e+00 1.276375e+00 1.200674e+00 1.043005e+00 1.437352e-01 5.377190e-02 6.552903e-02 8.761066e-02 1.321220e-01 1.747698e-01 2.018427e-01 2.304200e-01 2.753654e-01 2.933040e-01 2.510141e-01 2.388952e-01 2.032252e-01 1.219171e-02
<GCONST> 7.220967e+01
<STATE> 3
<MEAN> 39
 -2.634793e+01 6.399854e+00 -6.485130e+00 3.512873e+00 2.949331e+00 -8.557079e-01 5.807045e+00 8.221855e-01 4.022639e+00 -1.812602e-01 1.936519e+00 2.863461e+00 6.281978e+01 -1.070369e-01 -1.430847e-01 5.885341e-02 3.537298e-02 -2.703198e-01 -1.180743e-01 1.541354e-01 -9.883621e-02 1.815591e-01 -9.211349e-02 -1.097279e-02 1.843629e-02 2.365443e-01 3.108554e-01 -1.440842e-01 2.566857e-01 2.055272e-02 -3.305824e-02 1.219785e-03 -1.302188e-01 -3.920515e-02 -1.517131e-01 -1.782368e-02 -9.915589e-02 -4.749066e-02 -1.132356e-01
<VARIANCE> 39
 2.411347e+00 3.171813e+00 5.951010e+00 1.095717e+01 1.475431e+01 1.359946e+01 1.192825e+01 1.584975e+01 1.489266e+01 1.346985e+01 1.317430e+01 1.075315e+01 2.625837e+00 4.819606e-01 5.179736e-01 8.163391e-01 7.093276e-01 8.915078e-01 1.304854e+00 1.249323e+00 1.400550e+00 1.268221e+00 1.309129e+00 1.220497e+00 1.105613e+00 1.584269e-01 1.318787e-01 7.064105e-02 1.269504e-01 1.513640e-01 1.928185e-01 2.619483e-01 3.174497e-01 2.920350e-01 2.889543e-01 2.822276e-01 2.711105e-01 2.319562e-01 2.122618e-02
<GCONST> 7.427644e+01
<STATE> 4
<MEAN> 39
 -2.342168e+01 2.598356e+00 -2.223979e+00 3.566391e+00 1.448424e+00 -1.355463e+00 6.497841e+00 -8.659409e-02 3.908592e+00 3.091192e-01 1.291277e+00 3.102182e+00 6.223975e+01 3.080895e+00 -1.478978e-01 2.291698e+00 4.939604e-01 -6.025419e-01 -2.274836e-01 -2.093812e+00 -1.109025e+00 -1.936185e+00 -9.423827e-01 -1.393907e+00 -7.667330e-01 -6.824756e-01 1.016884e+00 7.099106e-01 2.713296e-01 -2.138893e-01 -7.404265e-01 -5.135145e-01 -1.260353e+00 -4.875673e-01 -9.557011e-01 -3.970809e-01 -1.637147e-01 -3.329992e-01 2.778632e-01
<VARIANCE> 39
 9.334352e+00 5.973045e+00 1.084371e+01 9.160296e+00 1.524566e+01 2.338096e+01 1.492190e+01 2.022614e+01 1.966764e+01 1.623292e+01 1.183246e+01 1.089950e+01 5.475216e+00 1.483173e+00 1.373305e+00 9.975591e-01 8.893476e-01 1.659335e+00 2.538751e+00 3.452838e+00 2.662479e+00 2.512485e+00 1.998283e+00 1.361230e+00 1.545723e+00 2.428601e-01 1.991707e-01 1.464784e-01 1.837918e-01 2.167114e-01 4.021378e-01 3.859068e-01 3.563520e-01 3.591730e-01 3.578733e-01 3.736899e-01 3.150838e-01 2.361841e-01 1.008038e-01
<GCONST> 9.181783e+01
<TRANSP> 5
 0.000000e+00 1.000000e+00 0.000000e+00 0.000000e+00 0.000000e+00
 0.000000e+00 9.246512e-01 7.534885e-02 0.000000e+00 0.000000e+00
 0.000000e+00 0.000000e+00 8.904904e-01 1.095096e-01 0.000000e+00
 0.000000e+00 0.000000e+00 0.000000e+00 5.196086e-01 4.803914e-01
 0.000000e+00 0.000000e+00 0.000000e+00 0.000000e+00 0.000000e+00
<ENDHMM>
~h "uh"
<BEGINHMM>
<NUMSTATES> 5
<STATE> 2
<MEAN> 39
 -8.411029e+00 7.103863e+00 -7.846094e-01 -1.088567e+00 -5.861033e+00 -3.398651e+00 -2.720519e+00 -1.172054e+00 -2.650103e+00 -2.920798e+00 -5.059426e+00 -3.325763e+00 6.227246e+01 2.364898e+00 1.727476e+00 -6.015907e-02 -1.943189e+00 -2.519382e+00 -1.555140e+00 -1.027274e+00 -5.198564e-01 -2.380864e-01 -4.636710e-01 -5.875517e-01 -1.178140e+00 1.218901e+00 -1.138402e-01 -5.335091e-02 -2.369103e-02 2.041629e-02 1.133934e-01 1.033580e-01 6.127960e-03 7.338979e-02 1.848361e-01 2.691455e-01 2.577125e-01 1.283779e-01 -6.352268e-02
<VARIANCE> 39
 3.937341e+01 2.274565e+01 6.868745e+00 3.648289e+01 5.132156e+01 3.357764e+01 2.771650e+01 3.206937e+01 1.778800e+01 2.232722e+01 2.461286e+01 2.772789e+01 1.274938e+01 1.782767e+00 1.450431e+00 9.078642e-01 2.186571e+00 3.247592e+00 2.724734e+00 1.899097e+00 1.889220e+00 2.064112e+00 3.109149e+00 3.287999e+00 2.692648e+00 4.777375e-01 6.771011e-01 4.486084e-01 1.942334e-01 6.849534e-01 1.079879e+00 6.923506e-01 4.448732e-01 4.064968e-01 3.613800e-01 6.040799e-01 6.099889e-01 6.171427e-01 1.890658e-01
<GCONST> 1.123165e+02
<STATE> 3
<MEAN> 39
 -2.930953e+00 1.101595e+01 -1.670645e+00 -4.714497e+00 -8.690848e+00 -5.015581e+00 -5.261747e+00 -4.548240e+00 -5.486800e+00 -3.952277e+00 -5.080605e+00 -4.070908e+00 6.503368e+01 -1.878078e-01 -1.616499e-01 1.996814e-01 5.718013e-01 6.947317e-01 3.958132e-01 -3.150015e-01 -8.489794e-01 -7.805862e-01 -1.710175e-01 2.286344e-01 3.575671e-01 -6.878787e-02 -1.881263e-01 -8.163005e-02 2.078935e-01 3.085720e-01 1.313101e-01 -7.606927e-02 -6.790291e-02 -2.920415e-02 -4.645768e-03 -1.832623e-02 -5.576546e-02 -2.509391e-02 -9.357627e-02
<VARIANCE> 39
 2.792042e+00 4.984152e+00 6.698708e+00 1.663503e+01 2.264224e+01 1.835103e+01 1.610423e+01 3.316224e+01 3.143050e+01 2.594800e+01 1.978647e+01 1.690727e+01 1.506351e+00 1.986806e-01 3.478733e-01 9.514655e-01 1.364814e+00 1.354112e+00 1.768811e+00 1.492448e+00 1.749329e+00 1.876897e+00 2.727250e+00 1.716841e+00 1.296288e+00 7.949594e-02 4.928829e-02 7.185295e-02 1.740761e-01 1.895879e-01 2.419607e-01 3.924984e-01 2.926601e-01 3.556449e-01 4.440287e-01 5.623896e-01 3.422936e-01 2.585471e-01 2.083275e-02
<GCONST> 8.222867e+01
<STATE> 4
<MEAN> 39
 -7.216261e+00 9.420729e+00 4.005555e+00 5.310737e+00 -1.662490e+00 -4.946118e+00 -9.946123e+00 -1.168818e+01 -8.923129e+00 -2.516488e+00 -3.492828e+00 -1.903524e+00 6.278585e+01 -3.054305e-01 -8.656820e-02 6.090066e-01 6.220502e-01 -1.073547e-02 -4.096537e-01 -3.192969e-01 -7.355587e-02 1.899106e-01 1.712351e-01 -7.254010e-02 -8.342674e-02 -1.256950e-01 1.543940e-01 -1.010275e-01 -3.084322e-01 -4.166195e-01 -1.551460e-01 2.653335e-01 2.123552e-01 1.351708e-01 -3.127423e-02 -2.590929e-01 -7.156233e-02 3.789506e-02 1.407240e-01
<VARIANCE> 39
 3.125061e+00 3.278125e+00 4.776757e+00 6.810629e+00 1.127487e+01 8.171531e+00 9.943213e+00 9.972014e+00 9.837578e+00 1.221278e+01 1.109629e+01 8.346890e+00 1.850710e+00 2.639147e-01 2.624149e-01 1.204619e+00 1.340311e+00 7.505553e-01 1.264078e+00 1.164490e+00 9.238863e-01 1.094073e+00 1.430584e+00 8.320878e-01 6.681985e-01 1.425319e-01 3.481813e-02 6.113756e-02 1.626062e-01 1.898752e-01 1.320675e-01 1.992628e-01 2.272779e-01 2.081971e-01 2.038710e-01 1.976495e-01 1.830148e-01 1.430761e-01 1.885114e-02
<GCONST> 6.513751e+01
<TRANSP> 5
 0.000000e+00 1.000000e+00 0.000000e+00 0.000000e+00 0.000000e+00
 0.000000e+00 7.078733e-01 2.921267e-01 0.000000e+00 0.000000e+00
 0.000000e+00 0.000000e+00 8.770689e-01 1.229312e-01 0.000000e+00
 0.000000e+00 0.000000e+00 0.000000e+00 8.130860e-01 1.869140e-01
 0.000000e+00 0.000000e+00 0.000000e+00 0.000000e+00 0.000000e+00
<ENDHMM>
~h "sil"
<BEGINHMM>
<NUMSTATES> 5
<STATE> 2
<MEAN> 39
 -1.710093e+01 1.307850e+00 -1.411214e+00 4.176817e+00 1.956737e+00 2.437018e+00 2.082649e+00 1.297045e+00 2.586955e-01 -5.461090e-01 -3.736064e-01 1.221270e+00 5.855081e+01 3.199913e-02 -2.680537e-01 1.509428e-01 1.033012e-01 1.876953e-01 3.114758e-01 3.813659e-03 3.610408e-01 1.299580e-01 3.740539e-01 2.896371e-01 3.792458e-01 -2.956855e-01 -1.224054e-02 5.599665e-02 -2.563617e-02 2.881244e-02 7.484065e-04 4.764578e-02 9.334210e-02 9.412578e-02 6.234480e-02 6.299941e-02 5.168436e-02 2.687631e-02 4.490035e-02
<VARIANCE> 39
 8.897848e+00 7.792826e+00 9.689879e+00 8.635873e+00 1.296065e+01 1.668669e+01 1.791254e+01 2.446913e+01 2.069468e+01 1.965683e+01 2.607493e+01 1.935292e+01 3.163851e+00 6.549633e-01 5.180687e-01 8.388193e-01 7.676241e-01 1.196198e+00 1.589833e+00 1.711897e+00 2.122148e+00 1.682041e+00 1.755923e+00 1.759537e+00 1.591732e+00 2.405618e-01 6.840693e-02 8.682772e-02 1.303314e-01 1.530138e-01 2.157017e-01 2.824926e-01 2.948369e-01 3.783394e-01 3.051831e-01 2.931634e-01 2.618049e-01 2.762301e-01 3.621036e-02
<GCONST> 8.389517e+01
<STATE> 3
~s "silst"
<STATE> 4
<MEAN> 39
 -1.795905e+01 3.793643e-02 -1.942523e+00 4.103624e+00 2.309287e+00 3.552756e+00 3.173605e+00 3.109760e+00 9.730093e-01 1.529441e+00 1.386276e+00 2.830810e+00 5.727007e+01 -9.513783e-03 -1.060777e-02 -1.388661e-02 -1.409441e-02 -1.932401e-02 -3.273761e-02 -2.110080e-02 -1.507820e-02 -2.533468e-02 -2.320779e-02 -2.360787e-02 -1.635097e-02 -2.632675e-03 -9.729373e-04 6.964727e-03 4.464962e-03 5.320266e-03 2.548906e-03 -3.067497e-03 -2.242126e-03 -5.774785e-03 -3.895348e-03 -8.254447e-03 -7.333326e-03 -6.007958e-03 5.789748e-03
<VARIANCE> 39
 1.268207e+00 1.976054e+00 3.435113e+00 4.914523e+00 7.208513e+00 8.937773e+00 1.033617e+01 1.114763e+01 1.186049e+01 1.079714e+01 1.111044e+01 9.649290e+00 6.530552e-01 9.508628e-02 1.981085e-01 3.343013e-01 5.116097e-01 7.158984e-01 8.838750e-01 1.010502e+00 1.135233e+00 1.130005e+00 1.110934e+00 1.063250e+00 9.369310e-01 3.466570e-02 1.787131e-02 4.038139e-02 6.765120e-02 1.039855e-01 1.456564e-01 1.811917e-01 2.059206e-01 2.284240e-01 2.284133e-01 2.297648e-01 2.172727e-01 1.894613e-01 5.924589e-03
<GCONST> 5.409067e+01
<TRANSP> 5
 0.000000e+00 1.000000e+00 0.000000e+00 0.000000e+00 0.000000e+00
 0.000000e+00 4.496602e-01 3.128161e-01 2.375236e-01 0.000000e+00
 0.000000e+00 0.000000e+00 9.030073e-01 9.699266e-02 0.000000e+00
 0.000000e+00 9.279693e-03 0.000000e+00 9.586371e-01 3.208322e-02
 0.000000e+00 0.000000e+00 0.000000e+00 0.000000e+00 0.000000e+00
<ENDHMM>
