~o
<STREAMINFO> 1 39
<VECSIZE> 39<NULLD><MFCC_D_A_0><DIAGC>
~s "silst"
<MEAN> 39
 -1.652210e+01 2.153986e+00 1.716173e-01 5.865030e+00 3.638669e+00 4.131847e+00 3.134798e+00 2.512427e+00 2.663667e-01 4.584282e-01 5.687029e-01 1.244423e+00 5.784275e+01 -3.143297e-02 -3.352619e-02 -3.226297e-02 -2.191283e-02 5.764120e-04 1.446955e-02 1.805963e-02 3.146820e-02 4.850139e-02 8.864663e-02 7.058483e-02 2.485259e-02 -2.168651e-02 -1.706576e-02 -2.581359e-02 -4.969251e-02 -5.577533e-02 -5.361850e-02 -5.197442e-02 -2.284905e-02 -2.099733e-02 -1.221883e-02 -2.034504e-02 -8.607730e-03 -5.468608e-03 8.184996e-03
<VARIANCE> 39
 1.631996e+00 2.824181e+00 3.857103e+00 5.286675e+00 8.532403e+00 1.156153e+01 1.484412e+01 1.530728e+01 1.807145e+01 1.446380e+01 1.456351e+01 1.108426e+01 7.379254e-01 1.237918e-01 2.742794e-01 4.070432e-01 5.594087e-01 7.862863e-01 9.725927e-01 1.154806e+00 1.278021e+00 1.417747e+00 1.280086e+00 1.192582e+00 1.017457e+00 3.862846e-02 2.363051e-02 5.242103e-02 8.109273e-02 1.138931e-01 1.653050e-01 2.098936e-01 2.382400e-01 2.695940e-01 2.849500e-01 2.566361e-01 2.359845e-01 2.123905e-01 6.849064e-03
<GCONST> 6.130088e+01
~h "b"
<BEGINHMM>
<NUMSTATES> 5
<STATE> 2
<MEAN> 39
 -5.182754e+00 6.348150e+00 2.444220e-01 1.521672e+00 -4.839380e+00 -4.846673e+00 -8.993832e+00 -9.741952e+00 -6.658597e+00 -4.129908e+00 -4.848628e+00 -3.546258e+00 6.520286e+01 3.762310e-01 -4.504187e-01 -3.223776e-01 -2.595141e-01 -5.748205e-01 -3.118847e-01 -3.616787e-02 5.062739e-01 4.302998e-01 -2.573453e-01 -2.002870e-01 1.824754e-01 4.118814e-01 -8.012846e-02 -2.501879e-02 5.654725e-02 5.340785e-02 -4.732407e-04 -9.088982e-03 6.516284e-02 5.337929e-02 -2.927574e-02 -6.512125e-02 -3.142719e-02 5.940047e-02 -3.416296e-02
<VARIANCE> 39
 8.413949e+00 1.073522e+01 2.236345e+01 1.927576e+01 4.279620e+01 1.898543e+01 1.167036e+01 2.322612e+01 1.705559e+01 2.014464e+01 2.300659e+01 9.249962e+00 7.782337e+00 2.527605e-01 4.888432e-01 1.688536e+00 1.183777e+00 1.251512e+00 1.423323e+00 1.093348e+00 1.531115e+00 1.696673e+00 1.551766e+00 1.453428e+00 9.992159e-01 1.061050e-01 3.324726e-02 8.530372e-02 2.425116e-01 1.699920e-01 3.337814e-01 2.451730e-01 2.391844e-01 2.751525e-01 3.951390e-01 2.785672e-01 3.476024e-01 1.932142e-01 2.096228e-02
<GCONST> 8.354270e+01
<STATE> 3
<MEAN> 39
 -4.780426e+00 2.337614e+00 4.144357e+00 2.349347e-01 -1.597341e+01 -1.005315e+01 -5.859658e+00 -2.950792e+00 -7.669299e+00 -6.725291e+00 -2.209502e+00 4.181522e-01 6.811854e+01 -1.344206e-01 3.526162e-03 2.062079e-01 4.140745e-01 -1.195030e-03 -6.517336e-01 -1.414345e-01 6.655376e-02 -1.764525e-01 3.044750e-02 5.575511e-01 4.372161e-01 -1.383563e-01 -4.950584e-03 1.491521e-01 -2.213985e-01 7.143056e-02 4.695965e-01 1.005254e-01 -2.401711e-01 -2.414165e-01 1.720337e-01 1.111722e-01 -1.601821e-01 -1.396914e-01 -1.168904e-01
<VARIANCE> 39
 2.912491e+00 1.052569e+01 1.154095e+01 7.803798e+00 1.320469e+01 1.438010e+01 1.271320e+01 1.295456e+01 1.633309e+01 1.194306e+01 2.049784e+01 8.300702e+00 1.924507e+00 1.344238e-01 3.329084e-01 1.251402e+00 5.582474e-01 1.836952e+00 7.534528e-01 1.353658e+00 9.302423e-01 1.477100e+00 7.724930e-01 8.954322e-01 4.863372e-01 9.066629e-02 2.125241e-02 7.784745e-02 7.431175e-02 8.977784e-02 1.933820e-01 2.047216e-01 1.514910e-01 2.093517e-01 2.130616e-01 1.985781e-01 1.768477e-01 1.223106e-01 2.164918e-02
<GCONST> 6.608244e+01
<STATE> 4
<MEAN> 39
 -6.837611e+00 5.508501e+00 2.999539e+00 4.399230e+00 -8.447744e+00 -1.155469e+01 -9.004837e+00 -5.158355e+00 -6.015421e+00 -4.554184e+00 -1.565687e+00 4.311444e-01 6.446802e+01 -4.299116e-01 4.649577e-01 -3.428082e-01 2.398876e-01 1.395145e+00 7.764789e-01 -9.025462e-02 -3.615394e-01 2.645947e-01 3.941022e-01 -2.868657e-01 -3.231121e-01 -6.019599e-01 -2.343518e-02 -1.200196e-01 1.187034e-01 -1.251997e-01 -2.639619e-01 1.441246e-01 2.627213e-01 1.090981e-01 -8.285294e-02 3.348284e-02 1.059984e-01 1.889746e-02 7.170501e-02
<VARIANCE> 39
 8.970407e+00 1.151464e+01 1.184856e+01 8.017365e+00 3.369761e+01 2.544609e+01 1.571005e+01 1.558309e+01 1.514355e+01 1.378953e+01 1.750174e+01 1.119250e+01 7.509119e+00 6.165304e-01 1.231933e+00 1.155825e+00 8.319440e-01 4.296903e+00 2.762622e+00 1.911724e+00 2.038313e+00 1.552493e+00 1.134484e+00 1.190605e+00 1.075314e+00 6.754251e-01 1.298863e-01 2.515377e-01 1.429289e-01 1.446429e-01 6.617067e-01 7.429768e-01 3.092692e-01 4.171683e-01 3.097216e-01 2.792616e-01 2.153786e-01 2.439174e-01 1.433511e-01
<GCONST> 9.230444e+01
<TRANSP> 5
 0.000000e+00 1.000000e+00 0.000000e+00 0.000000e+00 0.000000e+00
 0.000000e+00 7.786232e-01 2.213768e-01 0.000000e+00 0.000000e+00
 0.000000e+00 0.000000e+00 8.399722e-01 1.600278e-01 0.000000e+00
 0.000000e+00 0.000000e+00 0.000000e+00 8.504899e-01 1.495101e-01
 0.000000e+00 0.000000e+00 0.000000e+00 0.000000e+00 0.000000e+00
<ENDHMM>
~h "f"
<BEGINHMM>
<NUMSTATES> 5
<STATE> 2
<MEAN> 39
 -7.638852e+00 7.470034e+00 7.072282e+00 1.458448e+00 -8.134311e+00 -8.417712e+00 -1.321792e+01 -8.642098e+00 -7.818186e+00 -5.455317e+00 -4.464403e+00 -3.118074e+00 6.423528e+01 3.614328e-01 -1.489685e+00 -9.203165e-03 -8.625675e-01 -2.089629e+00 -9.320029e-01 4.371927e-01 2.137750e+00 1.317791e-01 -4.048622e-01 1.516539e+00 1.177487e+00 1.069993e+00 1.712528e-01 -5.268487e-01 -1.807509e-02 -4.055471e-01 -9.223433e-01 -3.380824e-01 1.230764e-01 6.883911e-01 3.458827e-01 9.048361e-02 5.176622e-01 4.796446e-01 4.202981e-01
<VARIANCE> 39
 1.702229e+00 6.651224e+00 6.787404e+00 6.659155e+00 1.061825e+01 1.173219e+01 1.210817e+01 2.428881e+01 1.159917e+01 1.181724e+01 1.229922e+01 1.262704e+01 2.620873e+00 2.483386e-01 1.241372e+00 6.779178e-01 1.240813e+00 3.036429e+00 1.500359e+00 1.045453e+00 2.908674e+00 1.374061e+00 8.818316e-01 1.720547e+00 1.586361e+00 6.787971e-01 3.014486e-02 1.411859e-01 1.535669e-01 1.751340e-01 2.251726e-01 2.795136e-01 2.130507e-01 5.053374e-01 2.695774e-01 2.075715e-01 2.477604e-01 2.800808e-01 5.311516e-02
<GCONST> 7.888465e+01
<STATE> 3
<MEAN> 39
 -5.205532e+00 -3.282274e-02 6.744183e+00 -1.947649e+00 -2.031830e+01 -1.281917e+01 -1.063829e+01 -9.924511e-02 -6.015074e+00 -4.920666e+00 2.424302e+00 1.809743e+00 6.988499e+01 1.859807e-01 -1.959318e-01 -4.356687e-01 6.895645e-01 1.638332e-01 -1.043598e-01 6.488221e-01 4.063215e-01 3.947204e-01 3.863074e-01 8.541045e-02 2.413120e-01 8.388805e-02 -2.268692e-01 3.848869e-01 -1.570495e-01 3.672245e-01 9.379378e-01 3.595446e-01 9.072114e-02 -3.325390e-01 1.424571e-01 1.445618e-01 -3.315684e-01 -1.861842e-01 -3.396614e-01
<VARIANCE> 39
 2.301354e+00 8.962583e+00 1.093132e+01 1.473208e+01 1.309227e+01 9.903774e+00 1.396726e+01 8.830893e+00 8.943866e+00 9.635231e+00 7.709457e+00 8.330187e+00 2.916872e+00 2.621649e-01 2.017073e+00 1.272622e+00 2.757766e+00 8.088798e+00 1.463872e+00 1.398223e+00 1.630186e+00 1.871234e+00 9.621503e-01 2.168181e+00 1.139104e+00 9.987531e-01 1.245449e-01 1.669123e-01 1.929040e-01 2.813078e-01 2.559975e-01 3.455053e-01 2.471622e-01 3.290824e-01 4.487493e-01 1.684206e-01 2.609818e-01 2.401424e-01 3.991448e-02
<GCONST> 8.426414e+01
<STATE> 4
<MEAN> 39
 -1.446197e+01 1.532887e+00 -1.866787e+00 4.944786e+00 -1.638547e+00 -1.577919e+00 -4.046283e+00 -1.707330e+00 -1.637084e-01 3.370568e-01 3.388784e-01 2.127996e+00 6.428957e+01 -6.565257e-01 8.936767e-02 -5.871243e-01 -2.863495e-01 1.060452e+00 1.249313e+00 5.605699e-01 -1.025148e-01 7.012229e-02 7.059129e-02 -8.264746e-02 -3.337679e-02 -5.537394e-01 3.737713e-01 8.859693e-02 8.383769e-02 -4.168932e-01 -5.925624e-01 -2.217556e-01 -5.220241e-02 9.665378e-03 -2.992868e-01 -2.530019e-01 -6.132145e-02 -5.771797e-02 1.278250e-01
<VARIANCE> 39
 2.343155e+01 7.792305e+00 1.323366e+01 9.692026e+00 2.110159e+01 3.268587e+01 1.887385e+01 1.699818e+01 1.573345e+01 1.457260e+01 1.263210e+01 1.078342e+01 6.504399e+00 4.051486e+00 1.510082e+00 1.150705e+00 1.455235e+00 4.237647e+00 2.310204e+00 1.352190e+00 1.793748e+00 2.797192e+00 2.161719e+00 1.688092e+00 1.260508e+00 4.759209e-01 4.510486e-01 3.352209e-01 2.021665e-01 3.651704e-01 5.708233e-01 3.363557e-01 3.139015e-01 3.663628e-01 4.163358e-01 3.759118e-01 3.690272e-01 2.442494e-01 1.289868e-01
<GCONST> 9.895620e+01
<TRANSP> 5
 0.000000e+00 1.000000e+00 0.000000e+00 0.000000e+00 0.000000e+00
 0.000000e+00 6.310916e-01 3.689084e-01 0.000000e+00 0.000000e+00
 0.000000e+00 0.000000e+00 8.725832e-01 1.274169e-01 0.000000e+00
 0.000000e+00 0.000000e+00 0.000000e+00 9.094184e-01 9.058160e-02
 0.000000e+00 0.000000e+00 0.000000e+00 0.000000e+00 0.000000e+00
<ENDHMM>
~h "g"
<BEGINHMM>
<NUMSTATES> 5
<STATE> 2
<MEAN> 39
 -1.485163e+01 4.118579e+00 1.652705e+00 6.765376e+00 3.249245e+00 2.226260e+00 5.989461e-02 1.748503e-01 -4.665226e+00 -3.713943e+00 -4.502638e+00 -1.682247e+00 5.892707e+01 8.260694e-01 9.867616e-01 9.969052e-01 5.026671e-01 -2.484599e-01 -8.363107e-01 -1.460533e+00 -1.510735e+00 -1.364835e+00 -1.165321e+00 -1.031072e+00 -9.971103e-01 3.414847e-01 1.937862e-01 9.841204e-02 2.901889e-02 -1.552194e-01 -4.569851e-01 -5.138507e-01 -4.147263e-01 -5.363986e-01 -1.795511e-01 2.418162e-01 2.163772e-01 2.036536e-01 1.864499e-01
<VARIANCE> 39
 7.474968e+00 1.304395e+01 6.868337e+00 7.087133e+00 1.131997e+01 1.914441e+01 1.801230e+01 3.283482e+01 1.845466e+01 1.439250e+01 1.524784e+01 1.242922e+01 2.321387e+00 1.481304e+00 2.037816e+00 8.526326e-01 8.163064e-01 1.750168e+00 2.896583e+00 3.695193e+00 3.410725e+00 2.578155e+00 1.846984e+00 1.346315e+00 1.624814e+00 4.461310e-01 1.143964e-01 2.033469e-01 1.454035e-01 1.558141e-01 2.353216e-01 2.715560e-01 4.555865e-01 3.838103e-01 3.191242e-01 3.824200e-01 2.873633e-01 3.203388e-01 3.915939e-02
<GCONST> 9.023663e+01
<STATE> 3
<MEAN> 39
 -1.004123e+01 9.543707e+00 4.767960e+00 6.902564e+00 -1.110390e+00 -5.214571e+00 -8.736661e+00 -9.290279e+00 -1.064243e+01 -5.820538e+00 -4.628462e+00 -1.469905e+00 6.111814e+01 1.711100e-01 -2.393286e-01 1.354459e-01 -1.830490e-01 -5.544612e-01 -3.410731e-01 -1.911282e-01 -7.305740e-01 -4.719383e-01 2.539073e-01 1.206399e-01 2.935977e-01 2.629346e-01 -3.413318e-01 -6.216846e-01 -2.709959e-01 -2.621453e-01 -1.611184e-01 4.144922e-01 9.094501e-01 6.391700e-01 5.007107e-01 4.939213e-01 2.111574e-01 1.065436e-02 7.326268e-02
<VARIANCE> 39
 7.314053e+00 4.724610e+00 4.238956e+00 5.512389e+00 8.381257e+00 1.622145e+01 1.178928e+01 1.061154e+01 1.016018e+01 1.478499e+01 1.316595e+01 1.273482e+01 1.686054e+00 1.532928e+00 2.188665e+00 6.218904e-01 7.436991e-01 1.772396e+00 3.447702e+00 3.647448e+00 3.383716e+00 1.629893e+00 2.153925e+00 2.096514e+00 1.452028e+00 5.490993e-01 2.244277e-01 2.216853e-01 1.112894e-01 2.262919e-01 6.445354e-01 5.635568e-01 3.367485e-01 3.409306e-01 2.500091e-01 5.281380e-01 4.619657e-01 3.654579e-01 1.437475e-01
<GCONST> 8.969833e+01
<STATE> 4
<MEAN> 39
 -1.269007e+01 4.135301e+00 3.294573e+00 5.945938e+00 -2.326093e+00 -1.844297e+00 -2.586215e+00 -7.247364e+00 -9.118274e+00 -3.715382e+00 -4.421885e+00 -1.915391e+00 6.187145e+01 3.168280e-02 -1.566718e+00 -4.308358e-02 -1.431416e+00 -2.652775e+00 -5.800202e-01 1.904180e+00 -3.767149e-04 9.782088e-01 2.447591e+00 8.911531e-01 -2.651576e-01 1.458337e+00 5.761957e-01 4.408027e-01 3.818769e-01 -2.976271e-01 -9.124938e-01 -7.548040e-01 -4.328356e-01 2.241949e-02 -7.590274e-02 6.920858e-02 6.059296e-01 6.553355e-02 2.564174e-01
<VARIANCE> 39
 4.641599e+00 1.430895e+01 6.209852e+00 1.033088e+01 2.677927e+01 9.261313e+00 2.042211e+01 1.028976e+01 1.958297e+01 3.208297e+01 8.104802e+00 7.120742e+00 8.389432e+00 6.603261e-01 1.184652e+00 9.770258e-01 1.241154e+00 1.752283e+00 2.037835e+00 1.311196e+00 1.935421e+00 1.300323e+00 1.039834e+00 1.148434e+00 8.640207e-01 6.106474e-01 1.200993e-01 3.020985e-01 1.638181e-01 3.082173e-01 4.750606e-01 3.410307e-01 4.579470e-01 3.023377e-01 3.974767e-01 6.764526e-01 2.321063e-01 2.946695e-01 1.612736e-01
<GCONST> 8.955276e+01
<TRANSP> 5
 0.000000e+00 1.000000e+00 0.000000e+00 0.000000e+00 0.000000e+00
 0.000000e+00 6.218457e-01 3.781544e-01 0.000000e+00 0.000000e+00
 0.000000e+00 0.000000e+00 6.722593e-01 3.277407e-01 0.000000e+00
 0.000000e+00 0.000000e+00 0.000000e+00 4.709393e-01 5.290607e-01
 0.000000e+00 0.000000e+00 0.000000e+00 0.000000e+00 0.000000e+00
<ENDHMM>
~h "j"
<BEGINHMM>
<NUMSTATES> 5
<STATE> 2
<MEAN> 39
 -1.292108e+01 5.718152e-01 -8.540339e+00 -7.789694e+00 7.324683e-02 9.082140e+00 5.007597e+00 -1.756513e+00 -3.173591e-01 -2.454264e+00 2.137157e+00 1.720484e+00 6.363780e+01 1.056085e+00 7.902195e-01 2.220405e-01 -5.568848e-01 -1.182807e+00 -5.747073e-01 -4.686140e-01 -3.747203e-01 -5.394831e-01 -2.766193e-01 -8.856956e-02 -7.030781e-02 4.173574e-01 1.680625e-01 -2.691543e-02 -5.057493e-02 -8.951867e-02 -2.125455e-01 -1.291308e-01 -1.977182e-01 -5.497459e-02 -2.719879e-02 1.236836e-01 6.445800e-02 2.964511e-02 9.408465e-02
<VARIANCE> 39
 3.464375e+01 2.012846e+01 1.077202e+01 2.318280e+01 4.122778e+01 3.718339e+01 3.059343e+01 2.253775e+01 3.363071e+01 2.127236e+01 3.063691e+01 2.518781e+01 6.627164e+00 3.485424e+00 1.623455e+00 1.281084e+00 3.124760e+00 3.637072e+00 2.963684e+00 3.269639e+00 2.464680e+00 3.069497e+00 1.915740e+00 2.478056e+00 2.078739e+00 1.134372e+00 3.589206e-01 3.610791e-01 2.297362e-01 5.120341e-01 5.036052e-01 4.845844e-01 4.083423e-01 4.276206e-01 6.010041e-01 4.607004e-01 5.466979e-01 3.594281e-01 1.509893e-01
<GCONST> 1.117089e+02
<STATE> 3
<MEAN> 39
 3.449905e-01 5.090890e+00 -9.712843e+00 -1.222317e+01 -1.258978e+01 -5.086792e-01 -7.262036e+00 -9.580649e+00 -4.105651e+00 3.331938e+00 4.109189e+00 1.201721e+00 6.930540e+01 -6.550171e-01 -6.076342e-01 1.539935e-01 1.608222e+00 1.106095e+00 -6.351081e-01 -9.913776e-01 -8.621734e-03 8.013057e-01 8.896412e-01 3.967888e-01 -1.480435e-01 -2.916903e-01 -4.495614e-01 -1.672862e-01 2.629824e-01 7.523880e-01 6.416841e-01 -2.355571e-02 1.397794e-01 5.272849e-01 1.810189e-01 -3.579842e-01 -4.120122e-01 -2.014180e-01 -2.540144e-01
<VARIANCE> 39
 1.463043e+01 1.110302e+01 8.828175e+00 4.215370e+01 2.183076e+01 1.604547e+01 2.685146e+01 2.086163e+01 1.777199e+01 2.264488e+01 1.997109e+01 1.893066e+01 5.899528e+00 1.655652e+00 1.042078e+00 1.499941e+00 5.515270e+00 4.434474e+00 1.794559e+00 1.458159e+00 4.542919e+00 1.930585e+00 3.294234e+00 2.678468e+00 1.707844e+00 1.039456e+00 2.478858e-01 2.001223e-01 1.818392e-01 3.820226e-01 4.623308e-01 3.340034e-01 3.018748e-01 5.056421e-01 3.021610e-01 5.582801e-01 3.427016e-01 3.042557e-01 1.203796e-01
<GCONST> 1.030379e+02
<STATE> 4
<MEAN> 39
 -1.145052e+01 4.068864e-01 -1.390603e+00 4.559595e+00 -1.832701e+00 -4.019624e+00 -6.426536e+00 1.673587e+00 3.856538e-01 1.314286e+00 -6.100680e-01 -2.286294e+00 6.547818e+01 -1.184219e+00 -1.220274e-01 9.853284e-01 3.797231e-01 1.190024e-01 5.297154e-01 1.101745e+00 6.944169e-01 -4.578803e-02 -7.437824e-02 5.707297e-02 2.316560e-01 -2.316213e-01 1.731229e-01 1.263037e-01 -1.361030e-01 -3.716639e-01 -1.758845e-01 1.743017e-01 1.482335e-01 -2.652762e-01 -1.182509e-01 1.088340e-01 8.443160e-02 3.830429e-02 2.026148e-02
<VARIANCE> 39
 2.181177e+01 1.583071e+01 1.533356e+01 1.936966e+01 2.364607e+01 1.878434e+01 3.625067e+01 3.662553e+01 2.301529e+01 2.427817e+01 2.942987e+01 1.739709e+01 7.000464e+00 1.247168e+00 2.049105e+00 1.216297e+00 4.179350e+00 2.983053e+00 2.049421e+00 2.214130e+00 4.954539e+00 2.744048e+00 3.136941e+00 3.811679e+00 2.434400e+00 5.525390e-01 2.664820e-01 4.668585e-01 2.486916e-01 6.148523e-01 6.304923e-01 3.952177e-01 3.961512e-01 9.634778e-01 5.992605e-01 6.030511e-01 7.223251e-01 4.648392e-01 1.473891e-01
<GCONST> 1.112313e+02
<TRANSP> 5
 0.000000e+00 1.000000e+00 0.000000e+00 0.000000e+00 0.000000e+00
 0.000000e+00 8.596628e-01 1.403372e-01 0.000000e+00 0.000000e+00
 0.000000e+00 0.000000e+00 7.835045e-01 2.164955e-01 0.000000e+00
 0.000000e+00 0.000000e+00 0.000000e+00 8.584757e-01 1.415243e-01
 0.000000e+00 0.000000e+00 0.000000e+00 0.000000e+00 0.000000e+00
<ENDHMM>
~h "k"
<BEGINHMM>
<NUMSTATES> 5
<STATE> 2
<MEAN> 39
 -1.557231e+01 1.531207e+00 -5.084959e-01 4.399591e+00 6.709949e-01 1.238453e+00 5.882892e-01 -3.459354e-02 -2.098325e+00 -8.296958e-01 -2.025697e+00 7.267064e-01 5.903562e+01 -1.880636e-01 -3.125132e-01 -3.727981e-01 -5.033256e-01 -3.037889e-01 1.107825e-03 2.227248e-01 5.032696e-01 3.650152e-01 4.694734e-01 5.343901e-01 5.060949e-01 4.297654e-02 7.260529e-01 2.494104e-01 -4.607207e-01 -7.300542e-01 -3.624275e-01 -2.436153e-01 -4.580179e-01 -3.189480e-01 -3.237575e-01 -7.093114e-02 3.299507e-02 -1.560639e-01 4.382300e-01
<VARIANCE> 39
 8.127562e+00 7.830334e+00 8.193783e+00 8.366226e+00 1.702989e+01 1.405496e+01 2.224548e+01 2.118494e+01 2.083739e+01 2.008887e+01 1.872663e+01 1.663144e+01 6.134750e+00 1.497268e+00 7.786093e-01 2.520410e+00 3.225730e+00 1.469887e+00 1.446868e+00 1.366797e+00 1.474530e+00 1.453895e+00 1.741649e+00 1.759070e+00 1.543212e+00 4.410245e-01 1.575866e-01 1.564093e-01 2.194304e-01 3.840494e-01 4.102896e-01 3.723088e-01 3.821208e-01 4.415386e-01 4.782643e-01 3.583616e-01 3.738705e-01 2.693531e-01 8.058159e-02
<GCONST> 9.368394e+01
<STATE> 3
<MEAN> 39
 -1.500240e+01 9.146618e-01 -1.734056e+00 2.774500e+00 -9.201170e-01 -1.168972e-01 1.196386e-02 7.314470e-01 -5.750885e-01 6.051665e-01 -1.240071e+00 9.818451e-01 5.989329e+01 1.879525e+00 4.955355e-01 -1.765743e+00 -2.982105e+00 -1.508545e+00 -5.629127e-01 -8.778367e-01 -2.465198e-01 -4.184445e-01 3.434797e-01 7.658852e-01 1.450300e-02 1.262584e+00 4.876114e-01 3.648152e-01 -5.925636e-02 -2.870221e-01 -2.147337e-01 -1.427578e-01 -2.153462e-01 -3.364991e-01 -4.098557e-01 -3.218642e-01 -1.334498e-01 -1.566199e-01 1.823983e-01
<VARIANCE> 39
 1.052228e+01 8.123246e+00 8.803160e+00 1.381492e+01 1.926064e+01 1.630552e+01 2.441384e+01 2.271811e+01 2.234749e+01 1.632578e+01 1.756511e+01 1.368477e+01 1.098995e+01 1.637212e+00 1.392237e+00 4.395227e+00 6.062066e+00 4.359509e+00 4.439849e+00 2.287111e+00 2.312394e+00 2.191458e+00 2.423121e+00 3.188783e+00 1.675134e+00 9.314972e-01 2.054036e-01 1.733471e-01 2.738852e-01 5.118270e-01 4.449872e-01 3.620243e-01 3.073159e-01 3.603534e-01 3.428525e-01 2.991278e-01 3.195965e-01 2.618866e-01 7.765532e-02
<GCONST> 1.021423e+02
<STATE> 4
<MEAN> 39
 -9.273952e+00 3.690330e+00 -5.201385e+00 -4.005974e+00 -4.415710e+00 -1.434535e+00 -2.442403e+00 -1.259761e+00 -3.716871e+00 -5.653305e-01 -2.877536e-01 1.149101e-01 6.291830e+01 9.135541e-01 1.119356e+00 4.674047e-01 -2.958905e-01 -7.669653e-01 -5.842153e-01 -4.429927e-01 -9.120052e-01 -1.129570e+00 -9.729083e-01 -3.533263e-01 -9.421403e-02 2.249164e-01 -1.449383e-01 1.131276e-01 3.748216e-01 2.854019e-01 -1.027204e-01 -2.243756e-02 1.427077e-01 -8.033541e-02 -8.718680e-03 -2.633819e-01 -2.609805e-01 6.731834e-02 -1.679593e-01
<VARIANCE> 39
 1.247483e+01 1.154383e+01 4.126754e+01 5.159480e+01 4.102408e+01 4.830020e+01 3.558325e+01 3.966367e+01 3.968138e+01 2.019514e+01 2.950414e+01 1.727063e+01 7.998022e+00 2.517384e+00 1.504433e+00 3.401179e+00 5.614427e+00 4.737314e+00 3.610835e+00 2.458294e+00 2.372458e+00 2.106608e+00 2.149950e+00 3.264976e+00 1.758031e+00 1.251714e+00 4.851586e-01 3.457790e-01 1.080773e+00 1.752314e+00 1.246625e+00 9.362521e-01 5.178450e-01 5.515196e-01 5.362436e-01 4.789400e-01 6.468911e-01 3.596344e-01 2.262983e-01
<GCONST> 1.199712e+02
<TRANSP> 5
 0.000000e+00 1.000000e+00 0.000000e+00 0.000000e+00 0.000000e+00
 0.000000e+00 4.679905e-01 5.320094e-01 0.000000e+00 0.000000e+00
 0.000000e+00 0.000000e+00 2.952611e-01 7.047390e-01 0.000000e+00
 0.000000e+00 0.000000e+00 0.000000e+00 7.064247e-01 2.935753e-01
 0.000000e+00 0.000000e+00 0.000000e+00 0.000000e+00 0.000000e+00
<ENDHMM>
~h "l"
<BEGINHMM>
<NUMSTATES> 5
<STATE> 2
<MEAN> 39
 -1.669946e+01 6.641983e-01 -1.287854e+00 4.150594e+00 9.011703e-01 2.294246e+00 1.451212e+00 1.792152e+00 1.964707e-01 7.344087e-01 -8.019560e-03 1.732829e+00 5.812639e+01 -1.965605e-01 -7.026137e-02 -2.261054e-02 6.806812e-02 2.046776e-01 1.587442e-01 1.480899e-01 7.595554e-02 2.222079e-02 4.221961e-02 1.173834e-01 1.292474e-01 -1.418543e-01 5.141806e-02 2.021261e-02 2.422033e-02 -1.085530e-02 -5.531546e-02 -4.603229e-02 -4.762033e-02 -5.263903e-02 -4.809195e-02 -3.420734e-02 -3.917656e-02 -5.723600e-02 4.325468e-02
<VARIANCE> 39
 8.198130e+00 5.246983e+00 6.022282e+00 7.426136e+00 1.554621e+01 1.806034e+01 1.998102e+01 1.761333e+01 1.741971e+01 1.626225e+01 1.467458e+01 1.405532e+01 4.211605e+00 3.062077e-01 4.333786e-01 5.775919e-01 7.512037e-01 1.298581e+00 1.202860e+00 1.228671e+00 1.590917e+00 1.634303e+00 1.416531e+00 1.385100e+00 1.426084e+00 1.848507e-01 4.275211e-02 8.225768e-02 1.149146e-01 1.456888e-01 2.226293e-01 2.310544e-01 2.453862e-01 3.193781e-01 3.282296e-01 2.789603e-01 2.805137e-01 2.714016e-01 2.440571e-02
<GCONST> 7.731445e+01
<STATE> 3
<MEAN> 39
 -1.407992e+01 2.616797e+00 1.116009e+00 4.235156e+00 -1.379223e+00 -6.209292e-01 -1.662278e+00 -1.456481e+00 -2.973195e+00 -1.673621e+00 -2.032832e+00 -3.350534e-01 6.005420e+01 8.616095e-01 1.213546e+00 1.020359e+00 5.886834e-01 2.053873e-01 -6.716884e-01 -1.323150e+00 -1.648987e+00 -1.511367e+00 -1.170170e+00 -1.250365e+00 -1.236017e+00 3.126522e-01 4.281463e-01 2.949339e-01 1.238003e-01 -1.511634e-01 -2.887008e-01 -4.454310e-01 -7.167022e-01 -3.683661e-01 -1.215413e-01 -6.012809e-02 -3.967778e-02 3.890327e-02 2.277351e-01
<VARIANCE> 39
 1.624001e+01 1.311244e+01 1.079280e+01 1.299616e+01 3.287545e+01 3.730517e+01 3.425093e+01 2.470984e+01 1.971498e+01 1.621733e+01 1.902935e+01 1.628987e+01 9.650688e+00 1.758189e+00 1.366068e+00 8.121678e-01 1.065272e+00 3.005150e+00 2.750468e+00 3.843420e+00 2.397897e+00 1.609914e+00 1.757282e+00 1.861668e+00 1.557036e+00 8.234543e-01 1.169110e-01 2.337130e-01 2.185573e-01 2.841489e-01 5.935141e-01 4.355039e-01 4.397290e-01 4.462745e-01 3.832833e-01 3.862204e-01 3.878490e-01 3.943552e-01 8.569493e-02
<GCONST> 1.009747e+02
<STATE> 4
<MEAN> 39
 -7.829252e+00 7.937779e+00 4.719458e+00 4.363554e+00 -3.394763e+00 -6.624507e+00 -1.225886e+01 -9.001936e+00 -6.993814e+00 -4.588112e+00 -4.834435e+00 -2.094980e+00 6.310411e+01 7.222552e-01 1.615577e-01 1.231174e-01 -3.163152e-01 -5.672807e-01 -4.493982e-01 -7.824639e-01 -5.164742e-01 -2.112382e-01 8.623475e-02 2.823316e-01 9.870455e-02 5.162730e-01 -9.519655e-02 -2.943607e-01 -2.215972e-01 -2.014202e-01 -2.628054e-01 1.469762e-01 4.448691e-01 3.995807e-01 2.009403e-01 1.963582e-01 3.147424e-01 2.024288e-01 3.448249e-02
<VARIANCE> 39
 7.022988e+00 4.971121e+00 1.497845e+01 1.346892e+01 1.682551e+01 1.625951e+01 2.044366e+01 1.766220e+01 1.551850e+01 1.582150e+01 1.514244e+01 1.296957e+01 3.482002e+00 1.140826e+00 1.121305e+00 1.215469e+00 9.593735e-01 2.119643e+00 3.271086e+00 4.568007e+00 2.979293e+00 1.780648e+00 1.491534e+00 1.581491e+00 1.500279e+00 5.376630e-01 1.782473e-01 1.670380e-01 1.691018e-01 1.879604e-01 4.637300e-01 5.733795e-01 5.301796e-01 3.928441e-01 3.899947e-01 3.309076e-01 2.735021e-01 2.705367e-01 9.675923e-02
<GCONST> 9.339284e+01
<TRANSP> 5
 0.000000e+00 1.000000e+00 0.000000e+00 0.000000e+00 0.000000e+00
 0.000000e+00 9.238545e-01 7.614551e-02 0.000000e+00 0.000000e+00
 0.000000e+00 0.000000e+00 5.510172e-01 4.489828e-01 0.000000e+00
 0.000000e+00 0.000000e+00 0.000000e+00 7.496738e-01 2.503262e-01
 0.000000e+00 0.000000e+00 0.000000e+00 0.000000e+00 0.000000e+00
<ENDHMM>
~h "m"
<BEGINHMM>
<NUMSTATES> 5
<STATE> 2
<MEAN> 39
 -1.783458e+01 -2.195811e-02 -1.884933e+00 4.170480e+00 1.742492e+00 3.411285e+00 2.276203e+00 2.810455e+00 4.529053e-01 1.307696e+00 8.187793e-01 2.191226e+00 5.728732e+01 -3.908662e-02 6.021012e-04 -1.255304e-02 -3.247589e-03 5.513869e-02 7.104027e-02 5.905714e-02 4.550456e-02 9.976777e-03 1.007493e-02 2.088754e-02 1.256977e-02 -3.259551e-02 1.353353e-02 7.696107e-03 1.180397e-02 2.528929e-03 -6.028952e-03 -7.001764e-03 -2.718802e-03 -1.108690e-02 -1.113792e-02 -1.023164e-02 -2.040164e-02 -2.822850e-02 1.390945e-02
<VARIANCE> 39
 1.833459e+00 2.198699e+00 3.781289e+00 5.113782e+00 7.495230e+00 1.056535e+01 1.071995e+01 1.247261e+01 1.170509e+01 1.152346e+01 1.199477e+01 9.648623e+00 9.486184e-01 1.244937e-01 2.291448e-01 3.713682e-01 5.054965e-01 7.774972e-01 1.040943e+00 1.089329e+00 1.211508e+00 1.248008e+00 1.229152e+00 1.297363e+00 1.106562e+00 5.109048e-02 2.346773e-02 4.735878e-02 7.743267e-02 1.043530e-01 1.648103e-01 2.166856e-01 2.350998e-01 2.507228e-01 2.604685e-01 2.477209e-01 2.604100e-01 2.283233e-01 9.218929e-03
<GCONST> 5.952161e+01
<STATE> 3
<MEAN> 39
 -1.795555e+01 9.101114e-02 -1.870102e+00 3.627666e+00 2.079739e+00 3.604848e+00 2.556756e+00 2.961262e+00 1.014439e+00 1.904638e+00 5.669085e-01 1.973848e+00 5.732037e+01 2.102260e-01 2.456024e-01 2.929608e-01 3.640556e-01 7.228082e-02 -1.092055e-01 -6.906655e-02 -4.242900e-01 -3.859325e-01 -3.555285e-01 -3.814962e-01 -3.487856e-01 1.016175e-01 2.669957e-01 3.009788e-01 3.013968e-01 2.093168e-01 1.919446e-02 -1.688025e-01 -3.353041e-01 -4.701942e-01 -4.953192e-01 -4.399251e-01 -3.283779e-01 -3.296262e-01 1.424871e-01
<VARIANCE> 39
 1.497838e+00 2.919863e+00 5.973876e+00 5.644581e+00 8.372716e+00 9.549327e+00 1.229252e+01 1.255842e+01 1.374834e+01 1.324226e+01 1.227169e+01 1.114938e+01 8.316845e-01 1.250676e-01 2.510654e-01 4.095803e-01 6.862075e-01 6.218522e-01 1.084152e+00 9.168437e-01 1.515447e+00 1.257523e+00 1.418343e+00 1.345454e+00 1.226440e+00 5.687552e-02 4.331589e-02 7.760401e-02 1.112112e-01 1.400527e-01 1.791299e-01 2.220809e-01 2.705798e-01 2.505434e-01 2.520841e-01 2.607386e-01 2.611542e-01 2.668195e-01 1.477192e-02
<GCONST> 6.407329e+01
<STATE> 4
<MEAN> 39
 -1.736094e+01 6.154377e-01 -9.821963e-01 4.761959e+00 2.447968e+00 3.133641e+00 2.381465e+00 1.100125e+00 -6.382378e-01 5.802293e-01 -2.495361e-01 1.353791e+00 5.769101e+01 7.084363e-01 9.207631e-01 9.168656e-01 5.600658e-01 2.402116e-01 -2.518805e-01 -7.282934e-01 -1.132684e+00 -1.294993e+00 -1.247223e+00 -1.191651e+00 -1.315052e+00 3.956559e-01 5.346609e-01 5.081537e-01 3.355606e-01 5.314469e-03 -2.192900e-01 -4.411757e-01 -7.257753e-01 -6.293921e-01 -6.035050e-01 -4.039471e-01 -2.130019e-01 -2.417475e-01 3.037750e-01
<VARIANCE> 39
 1.703315e+00 3.222831e+00 4.784573e+00 7.732303e+00 7.520043e+00 9.578357e+00 1.557333e+01 1.454577e+01 1.171025e+01 1.357112e+01 1.166322e+01 9.740860e+00 1.213498e+00 2.183825e-01 4.227237e-01 6.124974e-01 1.008615e+00 1.273711e+00 1.439164e+00 1.496589e+00 1.559126e+00 1.484416e+00 1.642948e+00 1.358373e+00 1.254916e+00 1.103925e-01 1.168513e-01 1.384511e-01 1.450301e-01 2.131052e-01 1.712501e-01 2.913334e-01 3.482553e-01 4.807028e-01 2.710444e-01 2.804922e-01 2.869979e-01 2.585451e-01 3.969816e-02
<GCONST> 7.370554e+01
<TRANSP> 5
 0.000000e+00 1.000000e+00 0.000000e+00 0.000000e+00 0.000000e+00
 0.000000e+00 9.288850e-01 7.111505e-02 0.000000e+00 0.000000e+00
 0.000000e+00 0.000000e+00 4.273235e-01 5.726764e-01 0.000000e+00
 0.000000e+00 0.000000e+00 0.000000e+00 2.109714e-01 7.890286e-01
 0.000000e+00 0.000000e+00 0.000000e+00 0.000000e+00 0.000000e+00
<ENDHMM>
~h "n"
<BEGINHMM>
<NUMSTATES> 5
<STATE> 2
<MEAN> 39
 -5.886395e+00 7.814352e+00 1.674604e-01 4.664236e-01 -2.863152e+00 -1.924655e+00 -9.886853e+00 -1.102079e+01 -7.237480e+00 -3.324242e+00 -2.975715e+00 -1.857703e+00 6.422981e+01 7.353876e-01 -3.671609e-01 -1.371563e+00 -1.737220e+00 -3.140237e-01 1.112260e+00 3.287684e-01 1.485243e-01 2.794160e-02 -6.702312e-01 -1.182703e-01 -2.359997e-02 6.118693e-01 7.418481e-02 -8.900911e-03 -3.049909e-01 -3.371032e-01 -5.146556e-02 1.855581e-01 3.444251e-01 2.638309e-01 -8.480670e-02 -1.471204e-01 1.030309e-02 1.988356e-02 1.591806e-02
<VARIANCE> 39
 7.922287e+00 9.586143e+00 2.571865e+01 3.984657e+01 1.147383e+01 2.558917e+01 1.527600e+01 1.556798e+01 1.353879e+01 1.322618e+01 1.208363e+01 8.481883e+00 6.161993e+00 8.074217e-01 1.035666e+00 2.619671e+00 3.513446e+00 7.542481e-01 2.738238e+00 2.189736e+00 2.079962e+00 1.549705e+00 1.452484e+00 1.072984e+00 9.550093e-01 4.772418e-01 1.467658e-01 2.184997e-01 5.239540e-01 7.414272e-01 1.286040e-01 5.556921e-01 2.472680e-01 2.354963e-01 3.461629e-01 2.467661e-01 2.206734e-01 2.142503e-01 1.316078e-01
<GCONST> 9.270026e+01
<STATE> 3
<MEAN> 39
 -2.885731e+00 7.269125e+00 -7.592694e+00 -9.392279e+00 -5.645314e+00 4.063468e+00 -1.729993e+00 -5.600267e+00 -9.704937e+00 -9.608426e+00 -5.267148e+00 -1.205466e+00 6.581672e+01 -4.540667e-01 3.223493e-01 4.114259e-01 5.065243e-01 2.110716e-02 -1.993423e-01 1.117310e+00 8.207445e-01 -4.384810e-01 -7.322681e-01 -8.832849e-01 -2.991276e-01 -4.774389e-01 -2.615038e-01 -3.337885e-02 4.049049e-01 5.393293e-01 1.857924e-01 -2.325665e-01 -2.281485e-01 -7.323444e-02 1.671866e-01 2.330283e-01 -3.272473e-02 -1.491814e-01 -1.380231e-01
<VARIANCE> 39
 4.297703e+00 4.348418e+00 1.017182e+01 1.567174e+01 1.131465e+01 1.380354e+01 1.712617e+01 1.615122e+01 1.218858e+01 1.399202e+01 1.546553e+01 1.087260e+01 2.516714e+00 3.656769e-01 2.316148e-01 1.024035e+00 1.600956e+00 7.632455e-01 9.392412e-01 1.209598e+00 9.837378e-01 1.195379e+00 1.024408e+00 1.031822e+00 1.331492e+00 1.406197e-01 2.933150e-02 5.565349e-02 1.246557e-01 1.422242e-01 1.060312e-01 1.728890e-01 1.738354e-01 2.069811e-01 2.398633e-01 1.971486e-01 2.120736e-01 2.219028e-01 1.949591e-02
<GCONST> 7.014271e+01
<STATE> 4
<MEAN> 39
 -9.146048e+00 8.120950e+00 9.541302e-01 1.966496e+00 -1.386438e+00 1.270889e-01 -1.702355e+00 -4.610057e+00 -9.481750e+00 -9.321166e+00 -8.426823e+00 -4.281789e+00 6.139959e+01 -9.353945e-01 -4.095185e-01 5.633563e-01 1.121466e+00 7.179705e-01 -5.354429e-02 -1.244746e-01 9.190320e-02 3.817692e-01 5.245072e-01 2.804852e-01 1.093022e-01 -5.195820e-01 3.298542e-03 -1.518962e-01 -2.230136e-01 -2.132441e-01 -6.103628e-02 7.958314e-02 -4.534542e-02 -1.768925e-02 1.263970e-01 2.044851e-01 3.089446e-01 2.617863e-01 3.899786e-02
<VARIANCE> 39
 9.152604e+00 5.134080e+00 1.218982e+01 2.206558e+01 1.585230e+01 1.889407e+01 2.466875e+01 2.006727e+01 1.430381e+01 1.445855e+01 1.303694e+01 9.988791e+00 3.031773e+00 4.379769e-01 3.603193e-01 9.467109e-01 1.452079e+00 1.028840e+00 1.378381e+00 1.424958e+00 1.506662e+00 1.470387e+00 1.341682e+00 1.328440e+00 1.282991e+00 1.499477e-01 3.148383e-02 5.721182e-02 1.178662e-01 1.845736e-01 1.864217e-01 2.358054e-01 2.599994e-01 2.747061e-01 2.756537e-01 2.922178e-01 2.885863e-01 2.664068e-01 1.055822e-02
<GCONST> 7.769318e+01
<TRANSP> 5
 0.000000e+00 1.000000e+00 0.000000e+00 0.000000e+00 0.000000e+00
 0.000000e+00 8.013474e-01 1.986525e-01 0.000000e+00 0.000000e+00
 0.000000e+00 0.000000e+00 8.109846e-01 1.890154e-01 0.000000e+00
 0.000000e+00 0.000000e+00 0.000000e+00 8.138193e-01 1.861807e-01
 0.000000e+00 0.000000e+00 0.000000e+00 0.000000e+00 0.000000e+00
<ENDHMM>
~h "r"
<BEGINHMM>
<NUMSTATES> 5
<STATE> 2
<MEAN> 39
 -1.229846e+01 1.459932e+00 -1.549666e+00 1.308331e+00 -3.247438e+00 -3.707418e+00 -2.965522e+00 -1.233556e+00 -2.388434e+00 -7.917393e-01 2.348688e-02 1.775342e+00 6.303453e+01 1.316546e+00 -1.134782e-01 -3.549386e-01 -7.021378e-01 -1.062423e+00 -9.680731e-01 -8.372948e-01 -2.509553e-01 2.003105e-01 -2.188275e-01 -5.878999e-01 -6.365826e-01 1.203605e+00 4.034482e-01 9.480634e-02 1.703510e-02 -7.600957e-03 -2.378244e-01 -1.419955e-01 -3.289269e-01 -1.203756e-01 5.287345e-02 9.950341e-02 -1.089521e-01 -3.073011e-01 6.273670e-02
<VARIANCE> 39
 1.959121e+01 2.625932e+01 1.743830e+01 2.035910e+01 2.484344e+01 3.414421e+01 3.635402e+01 4.241583e+01 2.947405e+01 1.777041e+01 1.815943e+01 1.655151e+01 1.605013e+01 2.515889e+00 2.752753e+00 2.991471e+00 2.895196e+00 3.580892e+00 6.607255e+00 4.845724e+00 3.571791e+00 2.727367e+00 2.196771e+00 1.810723e+00 1.856665e+00 1.678774e+00 3.109427e-01 4.950351e-01 3.900179e-01 6.853797e-01 5.161716e-01 6.909726e-01 6.534085e-01 6.183311e-01 5.139529e-01 5.037342e-01 5.013295e-01 3.473789e-01 3.901970e-01
<GCONST> 1.170807e+02
<STATE> 3
<MEAN> 39
 -4.141075e+00 1.876777e+00 -4.368599e+00 -1.625179e+00 -7.386915e+00 -7.239310e+00 -8.045884e+00 -2.721057e+00 -2.273586e+00 -1.366018e+00 -2.061411e+00 -2.901016e+00 6.731963e+01 1.324293e+00 -7.350449e-01 -1.429208e+00 -7.785043e-01 -2.744575e-01 1.917124e-02 -4.375302e-01 4.678227e-01 1.013915e+00 3.162263e-03 -9.168040e-01 -1.284517e+00 7.666427e-01 -5.205137e-01 -9.888544e-02 2.948759e-02 2.092276e-01 5.284036e-01 4.779246e-01 4.303125e-01 4.151978e-02 -1.360913e-01 -2.257201e-02 4.003422e-02 2.074048e-01 -2.858834e-01
<VARIANCE> 39
 2.346590e+01 2.380961e+01 3.948503e+01 2.482453e+01 3.425305e+01 6.148162e+01 2.617006e+01 4.646442e+01 2.554524e+01 2.238638e+01 1.494175e+01 2.064396e+01 1.263759e+01 1.702937e+00 2.781878e+00 3.642172e+00 4.111843e+00 2.107711e+00 2.959283e+00 3.381031e+00 5.277187e+00 2.924881e+00 2.593102e+00 2.832551e+00 1.853375e+00 9.896072e-01 3.206307e-01 4.471774e-01 5.969311e-01 6.725717e-01 4.726510e-01 9.305976e-01 7.896883e-01 5.733730e-01 4.784768e-01 3.495198e-01 4.509577e-01 2.962538e-01 1.421507e-01
<GCONST> 1.166908e+02
<STATE> 4
<MEAN> 39
 -2.916041e+00 -1.602905e+00 -9.276756e+00 -3.606935e+00 -6.242294e+00 -4.670043e+00 -5.569059e+00 8.825888e-01 6.747466e-01 -1.874554e+00 -7.736530e+00 -7.782885e+00 6.895988e+01 -5.216897e-01 1.718574e-01 4.392223e-01 3.140225e-01 1.135893e-01 2.587660e-01 2.501217e-01 -1.386855e-01 -8.930713e-03 1.727799e-01 -5.717197e-03 1.154753e-01 -3.935940e-01 -1.381333e-01 1.007818e-01 1.646249e-01 6.321105e-02 2.300573e-02 4.226825e-02 5.114424e-02 -5.572119e-02 -1.177411e-01 2.003574e-03 1.768508e-01 1.674338e-01 -1.101802e-01
<VARIANCE> 39
 1.937198e+01 1.954297e+01 2.845446e+01 1.766649e+01 1.542919e+01 2.158806e+01 1.745451e+01 2.491579e+01 1.693070e+01 2.807465e+01 2.654852e+01 2.001943e+01 1.326582e+01 1.165741e+00 1.430969e+00 1.626927e+00 1.390391e+00 1.311591e+00 1.500235e+00 1.504670e+00 1.782272e+00 1.371431e+00 1.862002e+00 1.928804e+00 1.508736e+00 7.484642e-01 1.677170e-01 3.055788e-01 2.436152e-01 2.327355e-01 2.143030e-01 2.403682e-01 2.903869e-01 3.199586e-01 3.033478e-01 3.391808e-01 2.846536e-01 2.752849e-01 1.141686e-01
<GCONST> 9.727554e+01
<TRANSP> 5
 0.000000e+00 1.000000e+00 0.000000e+00 0.000000e+00 0.000000e+00
 0.000000e+00 5.792374e-01 4.207626e-01 0.000000e+00 0.000000e+00
 0.000000e+00 0.000000e+00 4.799168e-01 5.200832e-01 0.000000e+00
 0.000000e+00 0.000000e+00 0.000000e+00 8.501495e-01 1.498505e-01
 0.000000e+00 0.000000e+00 0.000000e+00 0.000000e+00 0.000000e+00
<ENDHMM>
~h "s"
<BEGINHMM>
<NUMSTATES> 5
<STATE> 2
<MEAN> 39
 -1.832598e+01 5.626088e+00 2.984370e-01 5.159277e+00 6.564851e-01 -1.093125e+00 -5.678462e-01 -4.388060e+00 -1.132095e+00 -4.129818e+00 -1.676992e+00 2.949373e-01 6.182782e+01 -2.355921e+00 -1.240017e-01 -1.334014e+00 -5.037488e-02 5.529634e-01 6.063775e-01 1.238630e+00 6.728310e-01 1.701937e+00 3.970592e-01 8.753645e-01 6.278341e-01 2.452592e-01 1.962388e-01 6.959352e-02 -1.112360e-01 -2.594431e-01 -3.844676e-01 -1.067792e-01 -2.031041e-01 3.113634e-02 -1.902877e-01 1.301656e-01 1.318704e-01 9.652644e-02 6.721850e-02
<VARIANCE> 39
 1.970954e+01 7.615260e+00 1.308955e+01 1.403247e+01 1.758630e+01 3.049418e+01 3.739541e+01 2.930510e+01 2.740302e+01 2.094368e+01 1.826082e+01 1.549215e+01 4.268896e+00 1.302436e+00 8.712637e-01 1.248924e+00 1.175820e+00 2.284578e+00 1.999509e+00 2.690496e+00 2.134629e+00 2.252135e+00 1.758732e+00 1.738259e+00 1.462725e+00 2.551591e-01 3.098035e-01 1.175328e-01 1.986634e-01 2.542212e-01 2.947890e-01 3.104089e-01 4.639199e-01 3.676548e-01 4.502399e-01 3.116160e-01 3.442923e-01 3.170748e-01 4.352299e-02
<GCONST> 9.558424e+01
<STATE> 3
<MEAN> 39
 -2.471853e+01 6.103675e+00 -5.367419e+00 4.442904e+00 1.270183e+00 5.078144e-01 3.523593e+00 -9.932665e-01 3.696622e+00 -1.804232e+00 2.011749e+00 2.023295e+00 6.221224e+01 -6.145215e-02 -1.077287e-01 -1.113455e-01 2.505460e-02 -2.243152e-02 1.167454e-01 1.987267e-01 1.414945e-01 1.684387e-01 7.410952e-02 1.357953e-01 3.395712e-02 -7.439566e-02 2.141824e-01 -9.938306e-02 1.597726e-01 2.059216e-02 1.371666e-02 -2.983596e-03 -5.011779e-02 -2.539565e-02 -1.145888e-01 -6.611683e-03 -7.942393e-02 -3.977101e-02 -7.007402e-02
<VARIANCE> 39
 4.056735e+00 4.760229e+00 9.305439e+00 1.158420e+01 1.476799e+01 2.048334e+01 3.057992e+01 1.891137e+01 1.519938e+01 1.503225e+01 1.300578e+01 1.122585e+01 2.977970e+00 4.592042e-01 4.002715e-01 6.367171e-01 6.462971e-01 9.223184e-01 1.142432e+00 1.291056e+00 1.462339e+00 1.425659e+00 1.337491e+00 1.252484e+00 1.052699e+00 1.615918e-01 6.458331e-02 5.972448e-02 1.052510e-01 1.332030e-01 1.807252e-01 2.339129e-01 2.754559e-01 2.937890e-01 3.030510e-01 2.748290e-01 2.593953e-01 2.229676e-01 1.497777e-02
<GCONST> 7.506213e+01
<STATE> 4
<MEAN> 39
 -1.896803e+01 6.981248e-01 -1.913213e+00 4.165143e+00 1.839602e+00 3.457810e+00 2.343110e+00 2.321729e+00 1.433610e+00 8.170435e-01 1.302533e+00 2.700250e+00 5.824127e+01 1.973192e-01 -1.499996e-01 9.016806e-02 2.473702e-02 3.190827e-02 -3.839761e-03 6.050204e-02 7.253512e-02 -1.240058e-01 8.801446e-02 -9.853850e-02 -4.180259e-02 -1.222091e-01 8.793474e-03 6.351453e-02 6.888693e-03 4.321959e-03 -1.935788e-02 -3.280845e-02 -4.312627e-02 -5.073080e-02 -2.467944e-02 -5.098673e-02 -3.524584e-02 -3.166915e-02 3.151788e-02
<VARIANCE> 39
 5.335237e+00 5.431047e+00 5.836323e+00 6.972312e+00 9.950336e+00 1.577838e+01 1.794824e+01 1.491691e+01 1.472045e+01 1.257613e+01 1.196202e+01 1.071140e+01 3.280892e+00 3.284391e-01 4.483611e-01 5.319444e-01 6.131691e-01 8.833975e-01 1.167988e+00 1.394025e+00 1.492506e+00 1.380113e+00 1.279958e+00 1.190665e+00 1.082010e+00 1.310625e-01 7.086483e-02 7.373969e-02 1.003018e-01 1.243520e-01 1.806499e-01 2.211850e-01 2.927320e-01 2.955594e-01 2.915510e-01 2.535023e-01 2.461314e-01 2.189529e-01 1.776657e-02
<GCONST> 7.231458e+01
<TRANSP> 5
 0.000000e+00 1.000000e+00 0.000000e+00 0.000000e+00 0.000000e+00
 0.000000e+00 6.774207e-01 3.225792e-01 0.000000e+00 0.000000e+00
 0.000000e+00 0.000000e+00 9.029395e-01 9.706051e-02 0.000000e+00
 0.000000e+00 0.000000e+00 0.000000e+00 9.089606e-01 9.103936e-02
 0.000000e+00 0.000000e+00 0.000000e+00 0.000000e+00 0.000000e+00
<ENDHMM>
~h "t"
<BEGINHMM>
<NUMSTATES> 5
<STATE> 2
<MEAN> 39
 -1.473474e+01 3.594612e+00 1.505189e+00 4.947635e+00 -1.007385e-01 -9.540645e-02 -1.019946e+00 -2.866642e+00 -5.048049e+00 -2.673169e+00 -3.845761e+00 -9.628057e-01 5.902099e+01 -7.599102e-01 -7.509639e-01 -6.395149e-01 1.431032e-01 8.531106e-01 7.042161e-01 6.272959e-01 8.166843e-01 7.113704e-01 5.307074e-01 6.248998e-01 6.727412e-01 -4.531130e-01 9.952223e-02 1.518751e-03 -3.818400e-02 -1.941571e-01 -2.478710e-01 -1.128873e-01 -2.233566e-02 3.187426e-02 8.648080e-02 1.434725e-01 1.859936e-01 1.217412e-01 1.042968e-01
<VARIANCE> 39
 5.765328e+00 8.243992e+00 1.185438e+01 8.791714e+00 1.198655e+01 1.380019e+01 1.651207e+01 2.224485e+01 2.080709e+01 1.573697e+01 1.839286e+01 1.714540e+01 2.035628e+00 2.605911e-01 3.790847e-01 6.640939e-01 9.959727e-01 1.568299e+00 1.373427e+00 1.371065e+00 1.515276e+00 1.306052e+00 1.368721e+00 1.474791e+00 1.431941e+00 1.022933e-01 5.174091e-02 1.007410e-01 1.212425e-01 1.915030e-01 2.329718e-01 2.536851e-01 2.890396e-01 3.129537e-01 2.602519e-01 2.595141e-01 3.155713e-01 2.936041e-01 1.769679e-02
<GCONST> 7.791514e+01
<STATE> 3
<MEAN> 39
 -1.776560e+01 1.403947e-01 -1.773263e+00 3.940298e+00 2.048802e+00 2.750825e+00 2.710859e+00 2.490157e+00 1.315901e-01 1.328459e+00 6.709878e-01 2.944042e+00 5.754887e+01 -5.621030e-02 -4.668551e-02 -3.510584e-02 -4.902291e-05 5.160984e-02 8.629785e-02 1.038304e-01 1.091534e-01 1.374073e-01 1.004596e-01 6.244421e-02 3.912074e-02 -2.670286e-02 1.834594e-02 2.348517e-02 1.401072e-02 6.846345e-04 -1.803454e-02 -2.549030e-02 -3.459320e-02 -4.502470e-02 -4.163127e-02 -5.804522e-02 -4.241429e-02 -3.979049e-02 2.009946e-02
<VARIANCE> 39
 1.386920e+00 2.413168e+00 3.789436e+00 5.556379e+00 7.594312e+00 9.939914e+00 1.064750e+01 1.190557e+01 1.245868e+01 1.150290e+01 1.135515e+01 9.882324e+00 7.912580e-01 1.101878e-01 2.164698e-01 3.547649e-01 5.741021e-01 6.557771e-01 8.813069e-01 1.018949e+00 1.187488e+00 1.152113e+00 1.168337e+00 1.076933e+00 9.688042e-01 4.095240e-02 2.245001e-02 4.557011e-02 7.447021e-02 1.196845e-01 1.380293e-01 1.846237e-01 2.117036e-01 2.486683e-01 2.329153e-01 2.454646e-01 2.219204e-01 1.969997e-01 9.312348e-03
<GCONST> 5.712222e+01
<STATE> 4
<MEAN> 39
 -1.849390e+01 -2.191215e-01 -2.014555e+00 3.291898e+00 1.723611e+00 2.172362e+00 3.106426e+00 2.125414e+00 1.383669e+00 1.261132e+00 1.110520e+00 2.148142e+00 5.713091e+01 6.407939e-02 -7.658028e-02 -1.444139e-01 -2.368851e-01 -1.662968e-01 -1.594166e-01 -6.710925e-02 -5.800531e-02 -4.428418e-02 -1.916893e-01 3.332099e-02 8.605592e-02 2.400283e-01 2.169711e-01 9.075126e-02 1.215646e-03 -1.874814e-01 -2.808699e-01 -3.232042e-01 -1.627107e-01 -1.053768e-01 -6.761533e-02 -1.599250e-01 -2.147901e-02 -1.835241e-02 2.984413e-01
<VARIANCE> 39
 3.176070e+00 3.177791e+00 4.935677e+00 7.072031e+00 8.594147e+00 1.125061e+01 1.180409e+01 1.263812e+01 1.320369e+01 1.193351e+01 1.241391e+01 1.111040e+01 2.655334e+00 2.437289e-01 3.630603e-01 5.195914e-01 9.032836e-01 1.124107e+00 1.293775e+00 1.275181e+00 1.236442e+00 1.265728e+00 1.209628e+00 1.252413e+00 1.099796e+00 3.729441e-01 8.408969e-02 9.945028e-02 1.281866e-01 2.094965e-01 2.644300e-01 3.000567e-01 3.014214e-01 3.131466e-01 2.810442e-01 2.702808e-01 2.677834e-01 2.651463e-01 1.021305e-01
<GCONST> 7.469020e+01
<TRANSP> 5
 0.000000e+00 1.000000e+00 0.000000e+00 0.000000e+00 0.000000e+00
 0.000000e+00 7.007470e-01 2.992530e-01 0.000000e+00 0.000000e+00
 0.000000e+00 0.000000e+00 9.163571e-01 8.364289e-02 0.000000e+00
 0.000000e+00 0.000000e+00 0.000000e+00 7.125592e-01 2.874408e-01
 0.000000e+00 0.000000e+00 0.000000e+00 0.000000e+00 0.000000e+00
<ENDHMM>
~h "w"
<BEGINHMM>
<NUMSTATES> 5
<STATE> 2
<MEAN> 39
 -2.738147e+00 9.913758e+00 -4.193990e+00 -1.000484e+01 -1.339004e+01 -5.752155e+00 -2.390789e+00 -2.618665e+00 -4.852206e+00 -5.449927e+00 -4.317200e+00 -4.814830e-01 6.541064e+01 1.515410e+00 -3.262470e-01 -1.663264e+00 -2.480122e+00 -1.161265e+00 9.721310e-01 2.872649e-01 -6.257715e-01 -3.799416e-01 2.324629e-01 1.228468e+00 1.053172e+00 1.109341e+00 -4.040079e-01 -6.971428e-01 -2.967604e-01 3.075266e-01 7.980846e-01 7.611279e-01 1.897269e-01 3.784448e-02 2.422563e-01 5.107661e-01 3.970910e-01 -7.112786e-02 -7.374146e-02
<VARIANCE> 39
 1.255068e+01 7.731224e+00 1.304943e+01 3.831966e+01 3.528193e+01 1.930289e+01 1.264582e+01 1.652102e+01 1.270299e+01 9.753850e+00 1.266914e+01 1.243774e+01 5.025123e+00 1.643822e+00 1.591551e+00 1.094105e+00 3.137614e+00 4.197154e+00 3.543513e+00 1.691831e+00 1.596538e+00 1.483168e+00 1.485684e+00 1.664700e+00 1.069080e+00 5.256821e-01 1.450040e-01 1.569801e-01 2.966504e-01 6.660181e-01 5.870296e-01 4.251820e-01 4.390555e-01 3.922900e-01 3.042414e-01 2.468698e-01 3.710884e-01 4.535965e-01 5.102108e-02
<GCONST> 9.654086e+01
<STATE> 3
<MEAN> 39
 -9.687210e-01 3.808518e+00 -1.058717e+01 -1.316838e+01 -8.390944e+00 3.385290e+00 -1.892639e+00 -6.675779e+00 -6.286518e+00 -1.522526e+00 1.371179e+00 -6.259178e-01 6.831715e+01 -4.655331e-02 -1.727837e+00 -7.995617e-01 6.537253e-01 1.737499e+00 1.065921e+00 -9.400781e-01 -7.397758e-01 7.277275e-01 1.460397e+00 1.137190e-01 -1.839949e+00 5.175673e-01 -2.283092e-01 6.198525e-02 5.101481e-01 5.898817e-01 -5.095611e-02 -7.267480e-01 -2.778959e-01 4.327188e-01 4.369417e-01 -1.265277e-01 -7.794659e-01 -5.236220e-01 -1.316786e-01
<VARIANCE> 39
 1.383864e+01 1.584896e+01 2.179827e+01 3.901228e+01 2.665879e+01 2.109929e+01 1.676647e+01 1.690503e+01 1.227933e+01 1.878507e+01 1.835789e+01 2.049480e+01 8.064385e+00 2.281460e-01 6.615387e-01 1.040650e+00 1.105405e+00 1.618009e+00 2.866550e+00 1.345099e+00 1.601471e+00 1.649215e+00 8.973547e-01 2.669596e+00 2.624772e+00 1.779158e-01 4.963779e-02 1.324480e-01 1.119806e-01 2.282601e-01 3.863256e-01 2.916139e-01 2.341545e-01 2.854950e-01 1.895892e-01 2.815649e-01 2.661501e-01 4.878094e-01 3.055149e-02
<GCONST> 8.837465e+01
<STATE> 4
<MEAN> 39
 -2.873438e+00 -2.638107e-01 -8.808046e+00 -6.908381e+00 -4.261094e+00 -2.056654e+00 -7.333234e+00 -2.981050e+00 9.205076e-01 1.958993e+00 -6.370389e+00 -8.884282e+00 6.879150e+01 -7.575393e-01 4.107774e-01 1.063211e+00 1.302070e+00 5.948499e-02 -1.360669e+00 -4.055220e-01 6.791553e-01 6.924965e-01 -2.852117e-02 -7.864024e-01 2.317472e-01 -6.084878e-01 -2.269157e-01 2.464168e-01 1.836037e-01 5.287383e-02 -9.268950e-02 1.870881e-01 4.075308e-01 9.084068e-03 -3.270671e-01 -2.483066e-01 3.362345e-01 4.613179e-01 -2.583735e-01
<VARIANCE> 39
 8.921484e+00 1.827335e+01 1.753671e+01 1.779096e+01 1.200402e+01 3.062258e+01 1.729907e+01 2.256449e+01 1.825346e+01 1.343217e+01 2.077255e+01 1.572598e+01 7.895542e+00 5.779597e-01 1.722519e+00 8.268363e-01 8.301629e-01 1.070674e+00 1.797046e+00 1.786878e+00 1.782766e+00 2.023471e+00 1.201637e+00 2.993965e+00 2.455863e+00 8.968297e-01 8.454244e-02 2.237569e-01 1.306664e-01 1.488001e-01 2.497393e-01 5.519844e-01 4.073857e-01 4.108070e-01 2.738830e-01 2.603198e-01 3.659271e-01 2.913896e-01 4.982638e-02
<GCONST> 9.239668e+01
<TRANSP> 5
 0.000000e+00 1.000000e+00 0.000000e+00 0.000000e+00 0.000000e+00
 0.000000e+00 6.314715e-01 3.685286e-01 0.000000e+00 0.000000e+00
 0.000000e+00 0.000000e+00 6.628172e-01 3.371827e-01 0.000000e+00
 0.000000e+00 0.000000e+00 0.000000e+00 8.055241e-01 1.944759e-01
 0.000000e+00 0.000000e+00 0.000000e+00 0.000000e+00 0.000000e+00
<ENDHMM>
~h "y"
<BEGINHMM>
<NUMSTATES> 5
<STATE> 2
<MEAN> 39
 -1.328851e+01 5.662823e+00 4.820868e+00 3.869892e+00 -4.702807e+00 -2.892719e+00 -3.693485e+00 -7.543583e+00 -4.538909e+00 -3.562618e+00 -2.266142e+00 -6.191789e-01 6.278998e+01 1.825510e+00 8.463287e-01 2.194647e+00 -2.910028e-01 -1.214983e+00 -5.397888e-01 -2.701561e+00 -1.348442e+00 -1.929942e+00 -1.226277e+00 -6.997190e-01 -4.667686e-01 1.797167e-01 -1.342347e-01 1.016961e-01 -4.720909e-02 -1.917488e-01 -2.530203e-01 -4.760496e-02 -9.475317e-02 7.161301e-02 3.395472e-02 7.371480e-03 2.966897e-01 1.390376e-01 1.566444e-01
<VARIANCE> 39
 4.933934e+01 1.528218e+01 3.075558e+01 1.320254e+01 5.215202e+01 2.594388e+01 8.853354e+01 2.792793e+01 4.589079e+01 2.311292e+01 1.801542e+01 1.265655e+01 8.930142e+00 3.082379e+00 1.648389e+00 1.722247e+00 1.236447e+00 3.449368e+00 2.199492e+00 6.426258e+00 3.004933e+00 3.420151e+00 2.103442e+00 2.589815e+00 1.322886e+00 6.931159e-01 4.853635e-01 4.686784e-01 3.790381e-01 1.859315e-01 3.957947e-01 4.619287e-01 1.673699e+00 6.351299e-01 9.323508e-01 5.859594e-01 4.684015e-01 2.535084e-01 8.350695e-02
<GCONST> 1.131348e+02
<STATE> 3
<MEAN> 39
 -7.738267e+00 6.638790e+00 1.027630e+01 -1.870885e-01 -1.431847e+01 -7.080781e+00 -1.093716e+01 -9.127173e+00 -9.387432e+00 -5.009160e+00 -4.007497e-01 -4.769936e-01 6.577517e+01 -1.770932e-01 4.067070e-03 -2.161214e-01 2.124480e-01 4.343559e-01 -8.245062e-02 7.996193e-02 1.720178e-01 -3.065438e-02 -6.500642e-02 -8.263596e-02 1.118013e-01 -2.105655e-01 -1.133511e-01 -6.858992e-03 -2.251221e-01 1.571603e-01 3.754380e-01 9.094222e-02 1.580925e-01 4.186354e-02 7.697173e-02 4.452426e-02 -8.489197e-02 9.366374e-03 -1.304076e-01
<VARIANCE> 39
 4.014054e+00 1.008237e+01 1.408278e+01 1.042647e+01 2.647053e+01 1.951536e+01 1.287284e+01 1.433195e+01 1.101469e+01 1.714429e+01 1.107707e+01 9.726873e+00 4.347906e+00 4.071953e-01 6.695040e-01 1.168393e+00 1.266496e+00 3.983449e+00 1.477967e+00 1.135454e+00 1.053755e+00 8.979926e-01 1.232541e+00 1.106588e+00 7.083728e-01 5.848686e-01 6.565990e-02 1.068355e-01 1.619385e-01 1.394114e-01 2.915955e-01 2.952908e-01 2.869965e-01 2.163904e-01 1.946030e-01 2.178727e-01 1.710052e-01 1.327139e-01 4.432024e-02
<GCONST> 7.954402e+01
<STATE> 4
<MEAN> 39
 -1.203320e+01 7.280495e+00 5.611041e+00 5.382924e+00 -2.094657e+00 -4.085117e+00 -8.021320e+00 -8.635309e+00 -9.495565e+00 -6.549472e+00 -3.803666e+00 -3.420565e-01 6.077310e+01 -8.937779e-01 -2.435140e-01 -8.522928e-01 5.541045e-01 1.403293e+00 7.855095e-01 1.193375e+00 2.637300e-01 6.475696e-01 1.186822e-01 -2.206530e-01 2.470405e-02 -4.939994e-01 -1.110454e-01 -1.280795e-01 -7.905681e-02 -1.841127e-01 -3.249667e-01 -9.978799e-03 2.609144e-01 1.331157e-01 2.948582e-01 1.536291e-01 2.094734e-01 3.555948e-02 1.787178e-01
<VARIANCE> 39
 4.474710e+00 6.158586e+00 1.286896e+01 6.656247e+00 1.354602e+01 1.322085e+01 1.566173e+01 1.521861e+01 1.540429e+01 1.581606e+01 1.210573e+01 1.314885e+01 2.644664e+00 6.740196e-01 3.781535e-01 5.957205e-01 6.889660e-01 1.943320e+00 1.836088e+00 1.536686e+00 1.400016e+00 1.625769e+00 1.250683e+00 1.196144e+00 9.601026e-01 4.141799e-01 1.471383e-01 7.544571e-02 1.142046e-01 1.344313e-01 2.672711e-01 2.610103e-01 2.236846e-01 2.606497e-01 2.816199e-01 2.304009e-01 2.302271e-01 2.127293e-01 3.550853e-02
<GCONST> 7.811945e+01
<TRANSP> 5
 0.000000e+00 1.000000e+00 0.000000e+00 0.000000e+00 0.000000e+00
 0.000000e+00 6.651343e-01 3.348658e-01 0.000000e+00 0.000000e+00
 0.000000e+00 0.000000e+00 8.907979e-01 1.092020e-01 0.000000e+00
 0.000000e+00 0.000000e+00 0.000000e+00 8.220223e-01 1.779777e-01
 0.000000e+00 0.000000e+00 0.000000e+00 0.000000e+00 0.000000e+00
<ENDHMM>
~h "ah"
<BEGINHMM>
<NUMSTATES> 5
<STATE> 2
<MEAN> 39
 -1.491665e+01 2.215400e+00 -6.081445e-01 3.700155e+00 -1.634059e-01 5.322612e-01 -3.342953e-01 1.789367e-01 -9.686335e-01 -4.110805e-01 -1.461238e+00 1.949630e-01 5.924979e+01 -2.971469e-01 1.729676e-01 2.712370e-01 2.220824e-01 3.859614e-01 3.479076e-01 1.615927e-01 -1.988025e-01 -4.784973e-01 -3.813995e-01 -2.707512e-02 -1.139088e-02 -2.121845e-01 2.614584e-01 -7.384063e-02 -6.382360e-02 -1.379406e-01 -2.486400e-01 -2.563313e-01 -1.972516e-01 -2.076935e-02 -9.894440e-03 3.532716e-02 -2.946025e-03 -3.571472e-02 2.525889e-01
<VARIANCE> 39
 1.383074e+01 7.699956e+00 1.071682e+01 1.010405e+01 1.950019e+01 2.244105e+01 2.792669e+01 2.172630e+01 2.119045e+01 1.662083e+01 1.766269e+01 1.706154e+01 5.479461e+00 1.819923e+00 1.205548e+00 1.182707e+00 1.278611e+00 1.868346e+00 2.705575e+00 3.078028e+00 2.564121e+00 2.205715e+00 1.958505e+00 2.248913e+00 1.807609e+00 9.685083e-01 1.393710e-01 2.115939e-01 1.729332e-01 2.162826e-01 3.285917e-01 4.392180e-01 4.068004e-01 4.071835e-01 3.394937e-01 2.832137e-01 3.437046e-01 2.615296e-01 9.867846e-02
<GCONST> 9.690199e+01
<STATE> 3
<MEAN> 39
 -1.151056e+01 6.670601e+00 3.652331e+00 4.312171e+00 -9.958217e-01 -2.669689e+00 -5.142210e+00 -5.951674e+00 -6.903899e+00 -4.155840e+00 -3.514637e+00 -1.644099e+00 6.154151e+01 9.324005e-01 5.361807e-01 3.882918e-01 -4.390841e-01 -9.707519e-01 -9.554884e-01 -1.052841e+00 -8.582503e-01 -5.926245e-01 -7.716092e-02 3.681159e-01 2.459278e-01 7.532896e-01 5.927479e-02 -3.731232e-01 -3.354077e-01 -2.709199e-01 -2.679285e-01 -7.617521e-03 1.615194e-01 4.164808e-01 4.497424e-01 3.322102e-01 3.020220e-01 2.406694e-01 1.227178e-01
<VARIANCE> 39
 1.467059e+01 1.712933e+01 2.058512e+01 1.519112e+01 2.666011e+01 2.348141e+01 2.976765e+01 3.802163e+01 2.829889e+01 2.100659e+01 2.014011e+01 1.499090e+01 7.310654e+00 2.566733e+00 2.116929e+00 1.560327e+00 1.454662e+00 2.729638e+00 3.063637e+00 4.194758e+00 4.490555e+00 3.194574e+00 2.418451e+00 2.496117e+00 1.972822e+00 1.078828e+00 3.020839e-01 2.269882e-01 2.290626e-01 2.700725e-01 5.148806e-01 5.156806e-01 5.809003e-01 5.167072e-01 4.226316e-01 4.438268e-01 4.482259e-01 3.916071e-01 1.512877e-01
<GCONST> 1.084993e+02
<STATE> 4
<MEAN> 39
 -5.561690e+00 3.128891e+00 -1.856067e+00 -2.403055e-01 -6.025836e+00 -5.292661e+00 -6.832064e+00 -3.301587e+00 -3.671087e+00 -3.229474e+00 -3.750697e+00 -2.974324e+00 6.639236e+01 -1.247552e-02 -1.224149e-01 -3.736896e-01 6.877072e-02 2.568560e-01 9.534250e-02 1.864210e-01 1.013774e-01 9.538466e-02 1.402891e-01 1.237084e-02 -6.172720e-02 -7.205841e-02 -6.685641e-02 -5.683697e-03 -4.238077e-02 4.517019e-03 1.000022e-01 7.964975e-02 7.315546e-02 4.145657e-02 3.739161e-02 -9.367457e-03 -2.810727e-02 -4.338876e-02 -3.470916e-02
<VARIANCE> 39
 2.119317e+01 2.959880e+01 5.387476e+01 1.957860e+01 4.398152e+01 2.451076e+01 2.206685e+01 5.425131e+01 3.585765e+01 2.079493e+01 3.853123e+01 3.127933e+01 1.519728e+01 1.367846e+00 2.063934e+00 3.497886e+00 1.864179e+00 3.363414e+00 1.949297e+00 1.672998e+00 3.854275e+00 2.863185e+00 1.609314e+00 2.958301e+00 2.484849e+00 1.075602e+00 1.969590e-01 3.373147e-01 6.238900e-01 3.596109e-01 5.574979e-01 3.542496e-01 3.494962e-01 6.259990e-01 5.010973e-01 3.117915e-01 5.643256e-01 4.891152e-01 1.384276e-01
<GCONST> 1.133638e+02
<TRANSP> 5
 0.000000e+00 1.000000e+00 0.000000e+00 0.000000e+00 0.000000e+00
 0.000000e+00 6.276993e-01 3.723007e-01 0.000000e+00 0.000000e+00
 0.000000e+00 0.000000e+00 5.525343e-01 4.474657e-01 0.000000e+00
 0.000000e+00 0.000000e+00 0.000000e+00 8.673674e-01 1.326325e-01
 0.000000e+00 0.000000e+00 0.000000e+00 0.000000e+00 0.000000e+00
<ENDHMM>
~h "ch"
<BEGINHMM>
<NUMSTATES> 5
<STATE> 2
<MEAN> 39
 -1.943778e+01 -2.927720e+00 -1.770094e-01 2.427588e+00 -3.204514e+00 -1.454305e+00 4.950138e+00 -5.135830e+00 9.882561e-01 5.791562e-01 1.919886e+00 1.060521e+00 6.300117e+01 -1.575780e+00 -1.081388e+00 8.090567e-01 2.435250e-02 -2.406448e-01 -9.016661e-01 1.706821e+00 -6.711844e-01 1.811687e+00 -4.397565e-02 3.921137e-01 -3.023510e-01 1.558982e+00 -2.158784e-02 2.771174e-01 1.796608e-01 2.295416e-01 4.241051e-01 -2.826399e-01 -3.430029e-01 1.778933e-01 1.587105e-01 -1.727500e-01 -2.432867e-01 6.861848e-02 -9.036765e-02
<VARIANCE> 39
 2.304648e+01 1.515526e+01 1.840096e+01 1.517183e+01 1.947367e+01 1.909511e+01 3.169354e+01 2.309124e+01 3.191132e+01 1.919436e+01 1.454122e+01 1.259267e+01 1.570272e+01 1.914849e+00 1.659129e+00 2.241181e+00 1.993292e+00 3.163087e+00 2.110130e+00 2.280890e+00 3.020316e+00 2.425124e+00 2.450456e+00 1.843116e+00 1.616646e+00 7.699326e-01 7.277429e-01 3.270581e-01 4.945533e-01 4.155552e-01 5.722487e-01 3.740481e-01 7.834757e-01 6.481271e-01 5.746579e-01 4.431487e-01 4.037637e-01 2.898314e-01 3.905830e-01
<GCONST> 1.094637e+02
<STATE> 3
<MEAN> 39
 -2.309425e+01 -3.865176e+00 3.023633e+00 5.637651e+00 2.113630e+00 -7.266353e+00 5.761254e+00 -4.389929e+00 9.200179e+00 -3.727807e-02 -3.756512e-01 7.161680e-01 6.610167e+01 2.109260e+00 1.065286e+00 -5.421693e-01 7.182199e-01 1.327322e+00 3.123415e-02 -2.353382e+00 3.341517e-01 -2.287403e-02 4.993456e-01 -1.361816e+00 -5.515822e-01 -9.286654e-01 1.139152e+00 5.116666e-01 -4.611894e-01 -5.630551e-01 -6.737575e-01 6.453165e-01 -6.952589e-01 -4.042415e-01 -1.161877e+00 1.897643e-01 6.532861e-02 -1.357737e-01 -2.775352e-01
<VARIANCE> 39
 1.248973e+01 5.844505e+00 1.024041e+01 1.374708e+01 1.926044e+01 2.145342e+01 2.611754e+01 1.747237e+01 2.037041e+01 2.463880e+01 1.606342e+01 1.464414e+01 7.094612e+00 2.880125e+00 1.463432e+00 1.609103e+00 1.841013e+00 2.207555e+00 3.409305e+00 3.099071e+00 2.355107e+00 4.879050e+00 1.933009e+00 1.883796e+00 1.630817e+00 7.310037e-01 4.451264e-01 1.780303e-01 3.095702e-01 5.352858e-01 6.351048e-01 3.624042e-01 7.072949e-01 6.478719e-01 5.803462e-01 5.352710e-01 4.521769e-01 3.481855e-01 2.743096e-01
<GCONST> 1.053907e+02
<STATE> 4
<MEAN> 39
 -1.597777e+01 -4.561309e-01 3.343034e-01 7.145434e+00 4.761879e+00 -1.937760e+00 -4.694609e-01 -2.996638e+00 5.387653e+00 1.767931e+00 -3.066749e+00 -1.227465e+00 6.109560e+01 3.439580e+00 2.070498e+00 -8.597116e-01 -1.589584e+00 -1.740047e+00 1.072659e+00 -2.641676e+00 -1.193766e+00 -3.237917e+00 8.631058e-02 -2.587020e-01 -3.848787e-01 -3.385258e-01 -1.459618e-02 -1.461819e-02 -1.604254e-01 -9.996107e-01 -9.709808e-01 -1.960415e-02 4.136927e-01 -5.330027e-01 -4.743140e-01 -8.986843e-02 7.151150e-01 3.763412e-01 5.474241e-01
<VARIANCE> 39
 5.042994e+00 5.231229e+00 8.583711e+00 5.987243e+00 9.744783e+00 2.571883e+01 2.295133e+01 1.973376e+01 2.356419e+01 1.708261e+01 2.157479e+01 1.412764e+01 5.654815e+00 4.890556e+00 1.929165e+00 8.755879e-01 1.796110e+00 2.625487e+00 2.596695e+00 4.121406e+00 3.214051e+00 4.094846e+00 2.506303e+00 1.597631e+00 1.406782e+00 3.589278e-01 1.690261e-01 1.310631e-01 2.735157e-01 5.230312e-01 5.386724e-01 4.873826e-01 4.212652e-01 4.836129e-01 5.768222e-01 4.624622e-01 6.345039e-01 3.780045e-01 1.190517e-01
<GCONST> 9.973311e+01
<TRANSP> 5
 0.000000e+00 1.000000e+00 0.000000e+00 0.000000e+00 0.000000e+00
 0.000000e+00 8.092541e-01 1.907460e-01 0.000000e+00 0.000000e+00
 0.000000e+00 0.000000e+00 7.199336e-01 2.800664e-01 0.000000e+00
 0.000000e+00 0.000000e+00 0.000000e+00 2.378196e-01 7.621804e-01
 0.000000e+00 0.000000e+00 0.000000e+00 0.000000e+00 0.000000e+00
<ENDHMM>
~h "dh"
<BEGINHMM>
<NUMSTATES> 5
<STATE> 2
<MEAN> 39
 -1.099126e+01 5.629652e+00 3.025149e+00 3.384507e+00 -9.916290e-01 -1.184293e+00 -7.535866e+00 -6.635450e+00 -5.774979e+00 -4.259018e+00 -3.506566e+00 -1.922348e+00 6.179530e+01 1.192071e+00 2.326332e-01 -1.767352e-01 -1.396575e+00 -1.079026e+00 -1.391064e-01 -1.427814e+00 -1.229481e+00 5.470792e-02 2.966657e-01 4.902816e-01 2.547963e-01 9.293947e-01 5.796605e-02 -1.907919e-02 -2.336789e-01 -2.859508e-01 -1.500181e-01 1.301695e-01 1.976437e-01 -1.223222e-02 6.059792e-02 1.453522e-01 2.036329e-01 2.851497e-01 6.726072e-03
<VARIANCE> 39
 1.797532e+01 1.895666e+01 1.324332e+01 4.380090e+01 2.461964e+01 1.971851e+01 4.634384e+01 3.595807e+01 3.995501e+01 2.569581e+01 2.128326e+01 1.174489e+01 1.638856e+01 2.271261e+00 2.641053e+00 2.055803e+00 4.641935e+00 2.433576e+00 2.706495e+00 4.983697e+00 5.274905e+00 4.927094e+00 3.472238e+00 2.796453e+00 2.059289e+00 1.348071e+00 4.237103e-01 4.177125e-01 1.840947e-01 4.657255e-01 4.225206e-01 4.369566e-01 1.359893e+00 9.940796e-01 8.639609e-01 5.735379e-01 4.196757e-01 3.430485e-01 2.954912e-01
<GCONST> 1.173819e+02
<STATE> 3
<MEAN> 39
 -2.076824e+00 5.659000e+00 -4.246417e+00 -1.373495e+01 -1.176430e+01 2.974710e+00 -1.060688e+01 -1.339586e+01 -3.591548e+00 -3.192749e-02 3.665144e+00 6.281816e+00 6.825140e+01 2.787660e-01 5.563219e-01 -7.514217e-01 -1.305453e+00 -9.011179e-01 5.099295e-01 2.020193e+00 6.571416e-01 -8.789055e-01 -1.404807e+00 -4.775530e-01 1.419100e+00 -2.180077e-01 -4.660566e-01 -1.257883e-01 3.626927e-01 6.148766e-01 3.657922e-01 -2.429691e-01 2.280754e-01 8.864229e-01 1.432268e-01 -4.733352e-01 -5.681792e-01 -4.947523e-01 -2.274043e-01
<VARIANCE> 39
 1.109653e+01 7.162152e+00 1.768235e+01 4.879903e+01 1.836563e+01 1.664983e+01 2.132997e+01 1.656813e+01 1.407226e+01 1.947941e+01 1.715182e+01 1.476420e+01 7.552983e+00 3.607786e-01 4.472210e-01 8.414970e-01 1.267866e+00 1.008566e+00 1.093600e+00 1.268927e+00 2.194535e+00 1.178714e+00 1.599257e+00 1.725080e+00 1.659536e+00 1.288130e-01 1.110033e-01 1.089281e-01 1.414980e-01 2.036649e-01 1.575736e-01 2.204940e-01 6.061052e-01 5.120310e-01 2.973273e-01 4.997641e-01 2.920240e-01 2.226326e-01 8.340350e-02
<GCONST> 8.695673e+01
<STATE> 4
<MEAN> 39
 -2.720084e+00 7.761429e+00 -4.537792e+00 -1.537286e+01 -1.336968e+01 1.832716e+00 -4.661815e+00 -7.327510e+00 -5.399372e+00 -5.770291e+00 -5.016364e-01 7.379516e+00 6.670258e+01 -2.857265e-01 4.386447e-02 1.489422e-01 4.208216e-01 3.322984e-01 -1.471189e-01 1.346283e-01 1.623569e-01 -1.290140e-01 -9.992535e-02 -5.933884e-02 -3.800166e-02 -2.444197e-01 -4.150284e-02 -5.414821e-02 2.859898e-02 1.991684e-01 1.521160e-01 -2.095206e-02 -1.642995e-01 -2.177763e-01 -7.778661e-03 2.132032e-01 1.512195e-01 -7.212927e-02 -7.189802e-03
<VARIANCE> 39
 5.946486e+00 3.811379e+00 8.973494e+00 3.308784e+01 1.620969e+01 1.733290e+01 1.716677e+01 1.276933e+01 1.181126e+01 1.093561e+01 1.577896e+01 9.816442e+00 3.819700e+00 7.189549e-02 2.452801e-01 2.627646e-01 7.224562e-01 6.079745e-01 6.633167e-01 1.067119e+00 1.372063e+00 6.774412e-01 1.131420e+00 1.017034e+00 5.237499e-01 5.592393e-02 1.180905e-02 3.310634e-02 6.030006e-02 9.729578e-02 9.086580e-02 1.083421e-01 1.607443e-01 1.255245e-01 1.363754e-01 1.501723e-01 1.475658e-01 1.216020e-01 1.183110e-02
<GCONST> 5.890254e+01
<TRANSP> 5
 0.000000e+00 1.000000e+00 0.000000e+00 0.000000e+00 0.000000e+00
 0.000000e+00 8.858586e-01 1.141414e-01 0.000000e+00 0.000000e+00
 0.000000e+00 0.000000e+00 6.643373e-01 3.356626e-01 0.000000e+00
 0.000000e+00 0.000000e+00 0.000000e+00 8.658872e-01 1.341128e-01
 0.000000e+00 0.000000e+00 0.000000e+00 0.000000e+00 0.000000e+00
<ENDHMM>
~h "eh"
<BEGINHMM>
<NUMSTATES> 5
<STATE> 2
<MEAN> 39
 -1.616287e+01 1.903347e+00 -7.348961e-01 3.637771e+00 -3.846446e-01 -5.299855e-01 8.546703e-01 3.271471e-01 -6.004007e-01 -6.774822e-01 -6.236934e-02 2.140522e+00 6.027309e+01 9.243437e-01 1.153321e-01 4.199066e-01 -1.984352e-01 -9.592365e-01 -7.312434e-01 -3.523294e-01 -8.965803e-02 -4.247855e-01 -3.758068e-01 -9.211453e-02 -1.575014e-01 4.879627e-01 3.669515e-01 1.852784e-01 2.179414e-01 -1.223454e-01 -5.433373e-01 -4.388869e-01 -4.042924e-01 -2.197772e-01 -2.875132e-01 -9.264228e-02 3.987074e-03 -6.632213e-02 2.208662e-01
<VARIANCE> 39
 1.838849e+01 8.431592e+00 1.468379e+01 1.185821e+01 2.150245e+01 2.300181e+01 2.773392e+01 2.237303e+01 2.242904e+01 1.738652e+01 1.658440e+01 1.379219e+01 1.138062e+01 2.831594e+00 1.356205e+00 1.772290e+00 1.478162e+00 3.470194e+00 3.150172e+00 3.313153e+00 2.589509e+00 2.734634e+00 1.948118e+00 1.925438e+00 1.457141e+00 1.136071e+00 1.853755e-01 1.772462e-01 2.820510e-01 3.060971e-01 5.274946e-01 4.200377e-01 4.555435e-01 4.075542e-01 4.001270e-01 3.471797e-01 3.722610e-01 2.728557e-01 1.655559e-01
<GCONST> 1.029119e+02
<STATE> 3
<MEAN> 39
 -7.379740e+00 5.112799e+00 3.734758e+00 1.275567e+00 -1.122433e+01 -1.044792e+01 -7.085140e+00 -3.218557e+00 -5.502885e+00 -3.719964e+00 -9.226834e-01 5.223685e-01 6.565824e+01 1.778281e+00 -8.108851e-03 1.037092e+00 -1.029657e+00 -3.242826e+00 -1.988754e+00 -1.590926e+00 -4.628209e-01 -1.038003e+00 7.162786e-02 5.803381e-01 7.822379e-03 1.202642e+00 -5.739385e-01 -2.712517e-01 -2.653164e-01 1.692566e-02 4.326867e-01 5.658886e-01 4.617704e-01 1.786145e-01 3.462521e-01 2.931544e-01 2.079652e-01 1.630829e-01 -2.077869e-01
<VARIANCE> 39
 1.505747e+01 1.361401e+01 1.756711e+01 1.932565e+01 4.511884e+01 3.159001e+01 2.492430e+01 1.876044e+01 1.911645e+01 1.354830e+01 1.911851e+01 1.293425e+01 1.107404e+01 2.443364e+00 2.025384e+00 1.991347e+00 1.690736e+00 3.302872e+00 2.814394e+00 3.426585e+00 2.531105e+00 2.233997e+00 1.912856e+00 2.128377e+00 1.588183e+00 7.684024e-01 3.442757e-01 2.552744e-01 3.257925e-01 3.304453e-01 7.144113e-01 4.661680e-01 5.194921e-01 4.137505e-01 4.014528e-01 3.284598e-01 3.529507e-01 2.589149e-01 1.696640e-01
<GCONST> 1.058290e+02
<STATE> 4
<MEAN> 39
 -6.712669e+00 3.631424e+00 6.481285e+00 -5.619541e-02 -1.657319e+01 -1.158753e+01 -7.692990e+00 -4.532663e+00 -7.877636e+00 -1.964620e+00 1.566782e+00 8.956159e-01 6.682452e+01 -2.870784e-01 2.636617e-01 -8.206303e-03 1.890665e-01 5.983353e-01 4.887977e-01 9.855819e-02 -3.163769e-01 -1.779427e-02 -6.464857e-02 -3.107405e-01 -1.515577e-01 -3.388210e-01 -1.613498e-01 4.893249e-02 -1.364221e-01 1.603505e-01 4.590836e-01 2.237539e-01 1.045366e-01 1.483523e-02 1.219924e-01 -7.504944e-02 -1.499235e-01 -5.532668e-02 -1.435160e-01
<VARIANCE> 39
 7.375590e+00 1.229072e+01 1.318906e+01 1.060206e+01 2.966099e+01 1.650936e+01 1.440622e+01 1.518872e+01 1.405025e+01 1.058188e+01 1.570774e+01 1.087293e+01 7.505688e+00 2.646382e-01 5.598814e-01 8.425793e-01 7.105988e-01 2.126779e+00 9.806255e-01 9.694141e-01 9.371765e-01 1.013370e+00 8.900967e-01 1.126920e+00 7.628835e-01 3.045593e-01 8.128587e-02 1.345755e-01 1.265220e-01 1.483850e-01 3.162140e-01 2.295380e-01 2.223072e-01 2.119319e-01 1.895898e-01 1.761587e-01 1.999051e-01 1.559331e-01 5.769776e-02
<GCONST> 7.774911e+01
<TRANSP> 5
 0.000000e+00 1.000000e+00 0.000000e+00 0.000000e+00 0.000000e+00
 0.000000e+00 7.069868e-01 2.930132e-01 0.000000e+00 0.000000e+00
 0.000000e+00 0.000000e+00 5.667575e-01 4.332425e-01 0.000000e+00
 0.000000e+00 0.000000e+00 0.000000e+00 8.342033e-01 1.657967e-01
 0.000000e+00 0.000000e+00 0.000000e+00 0.000000e+00 0.000000e+00
<ENDHMM>
~h "ih"
<BEGINHMM>
<NUMSTATES> 5
<STATE> 2
<MEAN> 39
 -1.555569e+01 5.110454e+00 3.406934e+00 5.423975e+00 -9.358376e-01 3.385977e-01 -5.119163e-01 -6.559328e+00 -3.824962e+00 -4.609169e+00 -3.199889e+00 -1.847292e+00 6.159026e+01 2.576058e+00 1.111382e+00 1.782872e+00 -4.952516e-01 -1.604596e+00 -8.445813e-01 -2.641248e+00 -1.464173e+00 -1.948781e+00 -1.168142e+00 -4.780152e-01 -8.639178e-01 4.389596e-01 1.112254e-01 3.528731e-01 7.829119e-02 -3.494930e-01 -4.663674e-01 -3.229704e-01 -5.109664e-01 -1.087572e-01 -1.659974e-01 1.545103e-01 3.908205e-01 1.362942e-01 2.781644e-01
<VARIANCE> 39
 2.172942e+01 1.099985e+01 1.256870e+01 8.307775e+00 1.980254e+01 1.647924e+01 3.584242e+01 2.209202e+01 3.611480e+01 1.830174e+01 2.067228e+01 1.423334e+01 8.100276e+00 4.567984e+00 2.317058e+00 2.311141e+00 1.091555e+00 3.395079e+00 2.195066e+00 8.814464e+00 3.125357e+00 5.804122e+00 2.010718e+00 2.650930e+00 1.354170e+00 1.003678e+00 3.013617e-01 2.422530e-01 4.401123e-01 2.098753e-01 3.914871e-01 3.243261e-01 6.956654e-01 4.550120e-01 6.393815e-01 4.433221e-01 5.644709e-01 3.219157e-01 1.578401e-01
<GCONST> 1.078569e+02
<STATE> 3
<MEAN> 39
 -8.147884e+00 9.836591e+00 8.765748e+00 8.137395e-01 -8.157570e+00 -4.050860e+00 -1.055944e+01 -1.071341e+01 -9.702779e+00 -5.330147e+00 -1.721020e+00 -2.138447e+00 6.404568e+01 1.557991e+00 7.215088e-01 9.962437e-01 -1.274778e+00 -1.693740e+00 -5.135971e-01 -2.496446e+00 -9.247501e-01 -1.094925e+00 4.537210e-01 9.821013e-01 8.501526e-02 5.894889e-01 -9.640948e-01 -5.743374e-01 -7.092561e-01 1.676846e-01 7.140712e-01 4.867612e-01 1.046032e+00 5.663229e-01 8.436107e-01 5.321563e-01 2.709813e-01 2.554484e-01 -1.672606e-01
<VARIANCE> 39
 2.916929e+00 3.898448e+00 7.934595e+00 1.320630e+01 1.629563e+01 8.037477e+00 1.195534e+01 1.057524e+01 9.329255e+00 1.259703e+01 1.061600e+01 9.078181e+00 2.033703e+00 2.082916e+00 1.212679e+00 1.507203e+00 9.599612e-01 2.164818e+00 1.918032e+00 3.265595e+00 2.484652e+00 2.585968e+00 1.730453e+00 1.747289e+00 1.129269e+00 3.485063e-01 1.653517e-01 1.083504e-01 1.327735e-01 2.553077e-01 3.467696e-01 2.285967e-01 4.528499e-01 2.486846e-01 3.653776e-01 3.198222e-01 4.225505e-01 2.210448e-01 6.327971e-02
<GCONST> 8.505392e+01
<STATE> 4
<MEAN> 39
 -8.981658e+00 8.716970e+00 8.741360e+00 7.466917e-01 -7.445159e+00 -2.477200e+00 -1.204989e+01 -1.071632e+01 -9.193706e+00 -4.061089e+00 -9.897773e-01 -2.471877e+00 6.365846e+01 -6.019743e-02 -1.633926e-01 -4.102480e-01 2.884474e-01 3.771193e-01 4.006901e-02 1.844382e-01 -1.293311e-01 3.828060e-03 3.162063e-01 -2.713267e-01 -3.275915e-02 -1.319292e-01 -7.875237e-02 -6.065976e-02 -1.513378e-01 1.903018e-01 9.876707e-02 -9.944034e-02 3.291778e-01 8.207048e-02 4.301962e-02 -5.639723e-02 -1.587869e-01 2.511593e-03 -5.639047e-02
<VARIANCE> 39
 3.857395e+00 4.092541e+00 1.337838e+01 1.295791e+01 1.779230e+01 1.108687e+01 1.311707e+01 1.251963e+01 1.039814e+01 2.124282e+01 1.498767e+01 1.008405e+01 3.563904e+00 1.371893e-01 2.440484e-01 5.472192e-01 8.120555e-01 9.828792e-01 9.237169e-01 1.240661e+00 9.474666e-01 9.006413e-01 9.232891e-01 1.044526e+00 7.939170e-01 8.725920e-02 5.391251e-02 6.492174e-02 1.116753e-01 1.768530e-01 2.804495e-01 1.941269e-01 2.016569e-01 2.117999e-01 2.058519e-01 2.165674e-01 2.948767e-01 1.649584e-01 2.638558e-02
<GCONST> 6.929867e+01
<TRANSP> 5
 0.000000e+00 1.000000e+00 0.000000e+00 0.000000e+00 0.000000e+00
 0.000000e+00 5.635583e-01 4.364416e-01 0.000000e+00 0.000000e+00
 0.000000e+00 0.000000e+00 6.013905e-01 3.986095e-01 0.000000e+00
 0.000000e+00 0.000000e+00 0.000000e+00 8.043369e-01 1.956631e-01
 0.000000e+00 0.000000e+00 0.000000e+00 0.000000e+00 0.000000e+00
<ENDHMM>
~h "ll"
<BEGINHMM>
<NUMSTATES> 5
<STATE> 2
<MEAN> 39
 -1.771097e+01 1.827346e-02 -2.105620e+00 4.457506e+00 2.197326e+00 3.758123e+00 2.815450e+00 3.076388e+00 6.059000e-01 1.371057e+00 1.231208e+00 2.953276e+00 5.752664e+01 -7.735452e-03 -6.380952e-03 -4.963100e-03 9.411113e-04 -1.022912e-02 -1.001869e-02 -6.976630e-03 -1.094085e-02 1.659005e-03 -4.606078e-03 -1.160094e-02 -2.202430e-02 -4.331109e-03 -4.531998e-03 -1.818108e-03 3.512940e-04 -2.041538e-03 3.315210e-03 5.588588e-03 5.317594e-03 4.299762e-03 1.001561e-02 7.490805e-03 1.628850e-03 -4.800959e-03 -1.869746e-03
<VARIANCE> 39
 9.365121e-01 1.600902e+00 3.335276e+00 4.198523e+00 6.744268e+00 7.667862e+00 8.937299e+00 9.828135e+00 1.153933e+01 1.077026e+01 9.745214e+00 8.543044e+00 4.478871e-01 8.130942e-02 1.487706e-01 2.775451e-01 4.293261e-01 6.489509e-01 7.154405e-01 9.042313e-01 9.755943e-01 1.160679e+00 1.060191e+00 9.505389e-01 8.056871e-01 3.174846e-02 1.463167e-02 2.874411e-02 5.531801e-02 8.653999e-02 1.313805e-01 1.422660e-01 1.860404e-01 1.929360e-01 2.389910e-01 2.132009e-01 1.939610e-01 1.641189e-01 4.867087e-03
<GCONST> 4.846793e+01
<STATE> 3
<MEAN> 39
 -1.915027e+01 4.005138e-01 -9.065667e-01 3.858023e+00 3.321681e+00 3.617986e+00 4.073658e+00 3.377792e+00 2.793865e+00 2.243144e+00 2.079286e+00 2.240825e+00 5.614944e+01 -7.446127e-03 -8.698256e-03 -1.271686e-02 -2.061228e-02 3.858232e-03 1.793765e-02 1.073736e-02 -8.091506e-03 -8.066531e-04 -2.860306e-02 -1.716183e-02 -1.830355e-04 -3.483260e-03 1.002016e-02 1.636899e-03 1.519016e-03 -5.891605e-03 -1.714113e-02 -1.572965e-02 -2.189083e-02 -1.983637e-02 -3.144701e-02 -2.202520e-02 -1.363901e-02 4.007291e-04 8.013131e-03
<VARIANCE> 39
 1.161062e+00 2.707172e+00 3.895348e+00 6.358172e+00 8.687547e+00 9.462014e+00 1.255864e+01 1.212207e+01 1.520748e+01 1.177008e+01 1.305908e+01 1.005815e+01 5.590142e-01 9.765254e-02 2.405777e-01 3.891401e-01 5.762313e-01 8.348723e-01 8.991079e-01 1.141923e+00 1.299115e+00 1.261260e+00 1.160649e+00 1.189300e+00 1.014621e+00 3.556517e-02 1.923060e-02 5.060804e-02 8.110617e-02 1.204769e-01 1.767526e-01 1.850659e-01 2.428856e-01 2.785103e-01 2.668465e-01 2.437738e-01 2.503395e-01 2.125608e-01 6.325487e-03
<GCONST> 5.863831e+01
<STATE> 4
<MEAN> 39
 -1.799890e+01 -4.379872e-01 -1.844715e+00 4.276317e+00 2.246882e+00 3.571121e+00 3.254292e+00 2.826374e+00 1.536671e+00 1.062181e+00 1.819764e+00 2.302169e+00 5.753390e+01 5.444760e-02 1.057291e-01 1.595382e-01 -3.743643e-02 -1.611350e-01 -3.013168e-01 -2.785109e-01 -3.423343e-01 -3.324555e-01 -1.540511e-01 -2.040973e-01 -8.130114e-02 1.054318e-01 6.923970e-02 1.309322e-01 1.290634e-01 2.765895e-02 -1.919221e-02 -1.228628e-01 -1.477740e-01 -1.722852e-01 -1.672209e-01 -1.066149e-01 -1.487844e-01 -9.778055e-02 5.702372e-02
<VARIANCE> 39
 1.494776e+00 3.267589e+00 4.858562e+00 7.364193e+00 1.111605e+01 1.154455e+01 1.245983e+01 1.228211e+01 1.086030e+01 1.045317e+01 1.145418e+01 9.160775e+00 9.111879e-01 2.030648e-01 3.226876e-01 4.690156e-01 9.072310e-01 1.317996e+00 1.628798e+00 1.386264e+00 1.343207e+00 1.353999e+00 1.001297e+00 1.319606e+00 9.771727e-01 1.067686e-01 5.522139e-02 9.909365e-02 1.232247e-01 1.895820e-01 2.851805e-01 3.985391e-01 3.110830e-01 3.376542e-01 3.272156e-01 2.264061e-01 2.818935e-01 2.190866e-01 2.525401e-02
<GCONST> 6.968687e+01
<TRANSP> 5
 0.000000e+00 1.000000e+00 0.000000e+00 0.000000e+00 0.000000e+00
 0.000000e+00 9.657354e-01 3.426463e-02 0.000000e+00 0.000000e+00
 0.000000e+00 0.000000e+00 9.178004e-01 8.219966e-02 0.000000e+00
 0.000000e+00 0.000000e+00 0.000000e+00 7.521852e-01 2.478148e-01
 0.000000e+00 0.000000e+00 0.000000e+00 0.000000e+00 0.000000e+00
<ENDHMM>
~h "ng"
<BEGINHMM>
<NUMSTATES> 5
<STATE> 2
<MEAN> 39
 -7.557201e+00 9.323695e+00 4.273823e+00 3.934444e+00 -3.513603e+00 -5.240023e+00 -9.878325e+00 -1.277828e+01 -1.065985e+01 -2.558384e+00 -2.610273e+00 -1.259226e+00 6.286114e+01 -1.483968e-01 7.087731e-02 -9.968849e-02 5.220549e-01 4.036442e-01 -3.239271e-01 4.758874e-02 1.074875e-01 -2.452418e-01 -5.711724e-01 -2.733028e-01 1.764067e-01 -2.372919e-01 -6.512134e-02 -5.033102e-02 1.067673e-01 4.355320e-03 -2.704667e-02 3.358383e-02 -4.154672e-02 7.714770e-02 6.469611e-03 -1.030392e-01 -2.242755e-02 -3.129096e-02 7.035777e-04
<VARIANCE> 39
 2.184456e+00 3.893737e+00 3.353896e+00 6.129284e+00 9.542274e+00 7.464493e+00 7.833277e+00 1.034848e+01 9.821894e+00 1.277733e+01 1.139999e+01 8.584975e+00 1.249245e+00 7.056133e-02 2.437542e-01 4.341761e-01 5.434641e-01 5.739880e-01 7.485776e-01 6.805971e-01 6.810461e-01 6.170229e-01 8.492264e-01 8.604075e-01 7.042011e-01 4.257623e-02 1.232634e-02 6.235167e-02 6.376366e-02 1.181286e-01 1.141724e-01 1.339113e-01 1.387508e-01 1.364119e-01 1.284228e-01 1.797031e-01 1.808611e-01 1.593289e-01 9.724434e-03
<GCONST> 5.156021e+01
<STATE> 3
<MEAN> 39
 -9.638934e+00 8.195889e+00 5.240175e+00 8.099168e+00 -1.542413e+00 -6.781939e+00 -1.003170e+01 -1.101898e+01 -1.201070e+01 -6.712552e+00 -5.235686e+00 -1.288191e+00 6.160336e+01 -9.039348e-01 -6.660881e-01 -9.642660e-02 4.676604e-01 8.727456e-01 8.432259e-01 8.819643e-01 8.308445e-01 2.511380e-01 -5.893350e-01 -7.381340e-01 -4.304895e-01 -4.759488e-01 -1.999769e-01 -1.957795e-01 -3.076232e-01 -3.258156e-01 1.086072e-01 4.669345e-01 4.688940e-01 3.436390e-01 3.857175e-01 3.507459e-01 2.393914e-01 8.831003e-02 -1.085177e-01
<VARIANCE> 39
 2.382279e+00 1.315096e+01 3.568391e+00 1.464285e+01 1.081422e+01 1.447069e+01 1.071670e+01 1.238277e+01 1.193725e+01 1.776219e+01 1.459552e+01 1.076330e+01 2.521521e+00 2.931186e-01 1.454002e+00 5.180949e-01 2.220809e+00 7.236828e-01 2.321954e+00 1.668528e+00 1.557539e+00 1.420954e+00 1.756598e+00 1.199887e+00 1.189484e+00 2.281420e-01 2.817669e-02 3.139765e-01 9.357665e-02 3.735187e-01 1.351016e-01 2.869884e-01 2.273285e-01 2.814747e-01 2.468540e-01 4.195627e-01 2.943711e-01 2.752282e-01 3.183550e-02
<GCONST> 7.860320e+01
<STATE> 4
<MEAN> 39
 -1.414355e+01 4.824643e+00 2.604373e+00 6.775851e+00 2.246044e+00 -6.806561e-01 -3.933865e+00 -6.061661e+00 -8.431715e+00 -6.201301e+00 -5.539976e+00 -1.305864e+00 5.904223e+01 -1.127048e+00 -1.245863e+00 -1.145510e+00 -6.636264e-01 3.244340e-01 1.168250e+00 1.706610e+00 1.820689e+00 1.673381e+00 1.323301e+00 1.033516e+00 8.269299e-01 -5.174648e-01 3.253266e-01 8.216593e-02 -2.107339e-01 -3.370275e-01 -3.537237e-01 -2.888322e-01 -2.881822e-01 -1.719723e-01 -1.715019e-02 2.801921e-01 3.839762e-01 2.560890e-01 2.149304e-01
<VARIANCE> 39
 2.298479e+00 3.802089e+00 5.168547e+00 5.034531e+00 8.012069e+00 1.177125e+01 1.791401e+01 1.756044e+01 1.688200e+01 1.573504e+01 1.289029e+01 1.220845e+01 8.670783e-01 2.547086e-01 4.551463e-01 3.976817e-01 5.805438e-01 7.987121e-01 1.511408e+00 1.450132e+00 1.348748e+00 1.382525e+00 1.512550e+00 1.141942e+00 1.150049e+00 9.197111e-02 9.661967e-02 9.516149e-02 1.649122e-01 2.417260e-01 1.410899e-01 2.933764e-01 2.718218e-01 2.676010e-01 2.799201e-01 3.716817e-01 2.902435e-01 2.888304e-01 4.449783e-02
<GCONST> 7.219106e+01
<TRANSP> 5
 0.000000e+00 1.000000e+00 0.000000e+00 0.000000e+00 0.000000e+00
 0.000000e+00 8.931522e-01 1.068477e-01 0.000000e+00 0.000000e+00
 0.000000e+00 0.000000e+00 7.393764e-01 2.606237e-01 0.000000e+00
 0.000000e+00 0.000000e+00 0.000000e+00 6.501252e-01 3.498748e-01
 0.000000e+00 0.000000e+00 0.000000e+00 0.000000e+00 0.000000e+00
<ENDHMM>
~h "oh"
<BEGINHMM>
<NUMSTATES> 5
<STATE> 2
<MEAN> 39
 -6.303394e+00 5.516487e+00 -3.603404e+00 -4.713738e+00 -6.954861e+00 -1.258888e+00 -4.332111e+00 -6.141299e+00 -4.770172e+00 -2.006306e+00 -1.558993e+00 3.977459e-01 6.431492e+01 1.519378e+00 8.409207e-01 -8.889086e-01 -2.460414e+00 -1.426979e+00 4.759882e-01 -1.647590e-01 -9.280498e-01 -7.450074e-01 -1.571965e-01 5.186026e-01 5.930732e-01 6.386977e-01 -3.166075e-01 -2.164305e-01 -4.487625e-02 5.161883e-02 2.168491e-01 2.037354e-01 2.724418e-01 2.716154e-01 1.625523e-01 -1.732548e-02 1.191061e-01 2.217064e-01 -2.852795e-02
<VARIANCE> 39
 2.757721e+01 1.297285e+01 1.327892e+01 5.984264e+01 3.718243e+01 2.512023e+01 3.997971e+01 3.944240e+01 2.510950e+01 3.672452e+01 2.656722e+01 1.762743e+01 1.233550e+01 2.929369e+00 1.752339e+00 1.654456e+00 4.989191e+00 4.743119e+00 2.994088e+00 2.282851e+00 2.625902e+00 3.194122e+00 3.365677e+00 3.163173e+00 2.248796e+00 9.823961e-01 4.672278e-01 3.148566e-01 3.223747e-01 1.173491e+00 8.409362e-01 4.046426e-01 6.067708e-01 6.586398e-01 5.214461e-01 7.574487e-01 5.782658e-01 3.794276e-01 1.887548e-01
<GCONST> 1.174389e+02
<STATE> 3
<MEAN> 39
 -4.603749e+00 7.026711e+00 -5.027632e+00 -8.372590e+00 -8.301528e+00 -3.201645e-02 -3.659119e+00 -7.011473e+00 -6.931547e+00 -3.649014e+00 -1.020116e+00 2.108054e+00 6.493575e+01 -9.485606e-01 -5.314951e-02 6.696549e-01 1.450795e+00 1.014926e+00 -1.165626e-01 2.143332e-01 6.258927e-01 1.598452e-01 -1.905113e-01 -4.617898e-01 -5.156353e-01 -6.276994e-01 -3.172156e-01 -1.172096e-01 2.269762e-01 4.403806e-01 2.325775e-01 -3.964271e-02 -1.216400e-02 1.600046e-01 1.795247e-01 7.012745e-02 -7.979167e-02 -1.016699e-01 -1.361990e-01
<VARIANCE> 39
 1.485171e+01 5.237206e+00 1.067911e+01 3.790052e+01 2.364851e+01 1.670441e+01 2.732631e+01 3.117344e+01 1.536367e+01 2.572651e+01 2.882412e+01 2.268195e+01 7.256070e+00 8.408412e-01 5.980442e-01 1.195873e+00 2.991138e+00 1.574942e+00 1.888966e+00 2.612844e+00 3.075873e+00 1.942223e+00 2.981288e+00 2.649930e+00 2.355710e+00 3.187501e-01 1.096499e-01 1.087306e-01 2.055785e-01 4.845771e-01 3.107184e-01 4.118061e-01 3.663912e-01 4.876166e-01 3.504222e-01 4.647225e-01 5.559235e-01 5.225502e-01 5.278200e-02
<GCONST> 9.890372e+01
<STATE> 4
<MEAN> 39
 -1.657682e+01 1.314773e+00 -1.489750e+00 3.578534e+00 1.633992e+00 2.364227e+00 1.611818e+00 1.392649e+00 -9.439943e-01 9.136628e-02 -3.824499e-01 1.939897e+00 5.812533e+01 -3.803189e-01 -1.974301e-01 1.138531e-02 1.703303e-01 2.596553e-01 1.322397e-01 1.481850e-01 2.217405e-01 2.465536e-01 2.398914e-01 1.987688e-01 1.495500e-01 -1.276581e-01 8.953459e-02 5.360415e-02 -4.140549e-02 -1.143644e-01 -9.403507e-02 -4.038762e-02 -2.899709e-02 -7.387817e-02 -4.049895e-02 -4.270206e-02 -3.150140e-02 -2.198810e-02 8.009205e-02
<VARIANCE> 39
 6.985758e+00 6.424304e+00 5.716645e+00 7.933807e+00 1.086987e+01 1.402018e+01 1.847429e+01 1.971464e+01 1.911973e+01 1.748960e+01 1.617161e+01 1.320170e+01 2.432747e+00 5.834321e-01 4.622973e-01 6.013801e-01 1.017116e+00 1.029795e+00 1.203112e+00 1.356617e+00 1.533512e+00 1.549866e+00 1.529809e+00 1.461840e+00 1.349284e+00 1.461150e-01 6.089465e-02 7.419609e-02 1.204953e-01 1.978929e-01 2.007351e-01 2.349814e-01 2.677988e-01 3.070795e-01 2.926955e-01 2.878306e-01 2.846391e-01 2.831792e-01 2.165935e-02
<GCONST> 7.753645e+01
<TRANSP> 5
 0.000000e+00 1.000000e+00 0.000000e+00 0.000000e+00 0.000000e+00
 0.000000e+00 5.932053e-01 4.067948e-01 0.000000e+00 0.000000e+00
 0.000000e+00 0.000000e+00 8.013629e-01 1.986371e-01 0.000000e+00
 0.000000e+00 0.000000e+00 0.000000e+00 9.132614e-01 8.673859e-02
 0.000000e+00 0.000000e+00 0.000000e+00 0.000000e+00 0.000000e+00
<ENDHMM>
~h "sp"
<BEGINHMM>
<NUMSTATES> 3
<STATE> 2
~s "silst"
<TRANSP> 3
 0.000000e+00 7.000000e-01 3.000000e-01
 0.000000e+00 9.000000e-01 9.999999e-02
 0.000000e+00 0.000000e+00 0.000000e+00
<ENDHMM>
~h "th"
<BEGINHMM>
<NUMSTATES> 5
<STATE> 2
<MEAN> 39
 -1.889869e+01 1.070072e+00 -1.969408e+00 3.611581e+00 3.028949e+00 2.296901e+00 2.969384e+00 2.908673e+00 4.925843e-01 1.234464e+00 9.480791e-01 2.473368e+00 5.822030e+01 -4.584282e-01 2.885624e-01 -2.383921e-01 -7.957899e-02 1.947529e-01 -2.188299e-01 2.656763e-01 5.666549e-04 2.211155e-01 1.762126e-02 7.891465e-02 3.950799e-02 1.822443e-01 -5.511240e-02 6.947666e-02 -4.524465e-02 4.254807e-03 -3.317455e-02 -4.398595e-02 1.489213e-02 -5.320599e-02 1.106578e-02 -3.244326e-02 -1.073931e-04 5.116243e-03 5.154596e-02
<VARIANCE> 39
 5.738265e+00 5.674647e+00 5.609046e+00 8.509252e+00 1.024652e+01 1.141754e+01 1.489450e+01 1.574286e+01 1.557171e+01 1.274731e+01 1.244365e+01 9.886726e+00 2.589053e+00 4.768057e-01 4.957556e-01 5.382280e-01 6.815814e-01 8.557048e-01 1.088804e+00 1.243267e+00 1.429988e+00 1.548119e+00 1.275091e+00 1.194906e+00 1.038616e+00 1.440657e-01 5.372353e-02 6.246864e-02 8.767682e-02 1.310700e-01 1.761749e-01 2.003362e-01 2.328036e-01 2.763894e-01 2.897172e-01 2.489721e-01 2.355368e-01 2.028729e-01 1.205318e-02
<GCONST> 7.097849e+01
<STATE> 3
<MEAN> 39
 -2.608244e+01 6.401476e+00 -6.311351e+00 3.508083e+00 3.163915e+00 -6.959122e-01 5.524799e+00 1.018085e+00 3.692271e+00 -2.454260e-02 1.888407e+00 2.805751e+00 6.254292e+01 -2.215432e-01 -2.415277e-02 -6.222296e-02 5.065186e-02 -2.507034e-01 -1.155152e-01 1.752897e-01 -1.127760e-01 1.981647e-01 -8.781239e-02 8.940152e-03 4.297516e-02 2.835833e-01 2.581731e-01 -1.601645e-01 2.205962e-01 1.142258e-02 -3.338514e-02 1.638696e-02 -8.824365e-02 -1.292000e-02 -1.047786e-01 -5.489339e-03 -7.573170e-02 -3.255069e-02 -9.791948e-02
<VARIANCE> 39
 2.676127e+00 3.094769e+00 6.161016e+00 1.180911e+01 1.528714e+01 1.367715e+01 1.274126e+01 1.614922e+01 1.640144e+01 1.381373e+01 1.307913e+01 1.085345e+01 2.847549e+00 4.048245e-01 5.111008e-01 7.157146e-01 6.889271e-01 8.847991e-01 1.217177e+00 1.257220e+00 1.356605e+00 1.284738e+00 1.296468e+00 1.220553e+00 1.080136e+00 1.316241e-01 9.565001e-02 6.252217e-02 1.169163e-01 1.518999e-01 1.841023e-01 2.546974e-01 2.777876e-01 2.786684e-01 2.809899e-01 2.688869e-01 2.695701e-01 2.248361e-01 2.011519e-02
<GCONST> 7.319588e+01
<STATE> 4
<MEAN> 39
 -2.391418e+01 2.925180e+00 -2.679198e+00 3.448717e+00 1.489205e+00 -1.447301e+00 6.586613e+00 -1.171887e-03 4.054105e+00 2.589108e-01 1.295218e+00 3.005623e+00 6.248676e+01 2.850084e+00 -2.903000e-01 2.195053e+00 4.497578e-01 -5.350496e-01 -2.231353e-01 -1.767233e+00 -9.573011e-01 -1.678594e+00 -7.840875e-01 -1.237145e+00 -6.293232e-01 -6.699377e-01 1.041449e+00 6.450288e-01 3.215269e-01 -1.578568e-01 -6.673650e-01 -4.478945e-01 -1.225296e+00 -4.716358e-01 -9.374280e-01 -3.930295e-01 -1.941348e-01 -3.177015e-01 2.064696e-01
<VARIANCE> 39
 9.730743e+00 5.991448e+00 1.133248e+01 9.054683e+00 1.533959e+01 2.208603e+01 1.491215e+01 2.008294e+01 1.913567e+01 1.629385e+01 1.184965e+01 1.088455e+01 5.389997e+00 1.658427e+00 1.329453e+00 9.987760e-01 9.119896e-01 1.566928e+00 2.563279e+00 3.700743e+00 2.727481e+00 2.802467e+00 2.060347e+00 1.455027e+00 1.647388e+00 2.223505e-01 1.898270e-01 1.589323e-01 1.979446e-01 2.155770e-01 4.257352e-01 3.866461e-01 3.504186e-01 3.654028e-01 3.471849e-01 3.777553e-01 3.066499e-01 2.360937e-01 1.183319e-01
<GCONST> 9.240551e+01
<TRANSP> 5
 0.000000e+00 1.000000e+00 0.000000e+00 0.000000e+00 0.000000e+00
 0.000000e+00 9.140117e-01 8.598834e-02 0.000000e+00 0.000000e+00
 0.000000e+00 0.000000e+00 9.014012e-01 9.859876e-02 0.000000e+00
 0.000000e+00 0.000000e+00 0.000000e+00 5.861578e-01 4.138422e-01
 0.000000e+00 0.000000e+00 0.000000e+00 0.000000e+00 0.000000e+00
<ENDHMM>
~h "uh"
<BEGINHMM>
<NUMSTATES> 5
<STATE> 2
<MEAN> 39
 -8.431419e+00 7.101646e+00 -7.732211e-01 -1.071542e+00 -5.797336e+00 -3.316311e+00 -2.689645e+00 -1.216143e+00 -2.651631e+00 -2.838743e+00 -4.980919e+00 -3.302845e+00 6.225648e+01 2.331801e+00 1.721159e+00 -4.629330e-02 -1.924225e+00 -2.497042e+00 -1.528415e+00 -9.994878e-01 -5.090051e-01 -2.574782e-01 -4.895844e-01 -5.985044e-01 -1.190871e+00 1.198417e+00 -1.021775e-01 -4.441645e-02 -1.974469e-02 1.745301e-02 9.856115e-02 7.955777e-02 -1.083384e-02 6.780065e-02 1.783274e-01 2.541667e-01 2.388289e-01 1.162554e-01 -5.632960e-02
<VARIANCE> 39
 3.970170e+01 2.252625e+01 6.711969e+00 3.605148e+01 5.128915e+01 3.339644e+01 2.773606e+01 3.264001e+01 1.818722e+01 2.247806e+01 2.484943e+01 2.758131e+01 1.287134e+01 1.815267e+00 1.431659e+00 9.081895e-01 2.209783e+00 3.257998e+00 2.750278e+00 1.868444e+00 1.806958e+00 2.025573e+00 3.051188e+00 3.231983e+00 2.671047e+00 4.933251e-01 6.722972e-01 4.473247e-01 1.939898e-01 6.855956e-01 1.076689e+00 6.855465e-01 4.374932e-01 4.047151e-01 3.668925e-01 6.112640e-01 6.154161e-01 6.147119e-01 1.870660e-01
<GCONST> 1.122490e+02
<STATE> 3
<MEAN> 39
 -2.919760e+00 1.105609e+01 -1.704435e+00 -4.789078e+00 -8.719106e+00 -5.009035e+00 -5.195122e+00 -4.467720e+00 -5.482609e+00 -3.996455e+00 -5.113968e+00 -4.092885e+00 6.502903e+01 -1.914604e-01 -1.695247e-01 1.929590e-01 5.806759e-01 7.119381e-01 4.040729e-01 -3.164319e-01 -8.553188e-01 -7.872831e-01 -1.754733e-01 2.286998e-01 3.644955e-01 -7.058658e-02 -1.859636e-01 -8.164159e-02 2.062877e-01 3.080429e-01 1.304320e-01 -7.724090e-02 -7.062901e-02 -3.109726e-02 -8.393421e-04 -1.307416e-02 -5.372064e-02 -2.417922e-02 -9.232454e-02
<VARIANCE> 39
 2.765790e+00 4.829974e+00 6.631695e+00 1.630037e+01 2.275537e+01 1.841136e+01 1.574266e+01 3.251733e+01 3.152195e+01 2.587237e+01 1.968071e+01 1.693921e+01 1.484881e+00 1.947761e-01 3.359276e-01 9.427453e-01 1.342051e+00 1.312744e+00 1.752719e+00 1.491590e+00 1.740797e+00 1.881031e+00 2.725538e+00 1.723233e+00 1.296554e+00 7.872564e-02 4.918822e-02 7.174049e-02 1.750227e-01 1.907993e-01 2.404874e-01 3.925596e-01 2.902588e-01 3.527184e-01 4.452655e-01 5.631357e-01 3.415916e-01 2.577297e-01 2.058796e-02
<GCONST> 8.194762e+01
<STATE> 4
<MEAN> 39
 -7.209566e+00 9.431127e+00 4.000719e+00 5.281025e+00 -1.674619e+00 -4.929597e+00 -9.914508e+00 -1.170826e+01 -8.934166e+00 -2.507286e+00 -3.482124e+00 -1.899517e+00 6.278291e+01 -3.127553e-01 -8.414385e-02 6.178328e-01 6.327504e-01 -6.627554e-03 -4.214034e-01 -3.315790e-01 -7.319168e-02 1.971525e-01 1.630960e-01 -8.080114e-02 -8.336728e-02 -1.293260e-01 1.535308e-01 -1.030643e-01 -3.084406e-01 -4.141825e-01 -1.521011e-01 2.656506e-01 2.146150e-01 1.384893e-01 -3.046181e-02 -2.612596e-01 -7.326113e-02 3.735987e-02 1.409784e-01
<VARIANCE> 39
 3.189576e+00 3.264859e+00 4.831764e+00 6.952640e+00 1.120282e+01 8.131899e+00 9.773904e+00 9.997371e+00 9.781490e+00 1.227689e+01 1.109197e+01 8.316175e+00 1.849088e+00 2.585645e-01 2.633474e-01 1.186721e+00 1.336986e+00 7.359260e-01 1.268297e+00 1.167960e+00 9.054517e-01 1.102759e+00 1.416330e+00 8.408200e-01 6.654165e-01 1.412365e-01 3.552568e-02 6.124279e-02 1.658013e-01 1.948089e-01 1.307953e-01 1.972051e-01 2.256410e-01 2.074454e-01 2.036443e-01 1.986929e-01 1.828546e-01 1.432343e-01 1.887753e-02
<GCONST> 6.512362e+01
<TRANSP> 5
 0.000000e+00 1.000000e+00 0.000000e+00 0.000000e+00 0.000000e+00
 0.000000e+00 7.105066e-01 2.894934e-01 0.000000e+00 0.000000e+00
 0.000000e+00 0.000000e+00 8.754097e-01 1.245904e-01 0.000000e+00
 0.000000e+00 0.000000e+00 0.000000e+00 8.121073e-01 1.878927e-01
 0.000000e+00 0.000000e+00 0.000000e+00 0.000000e+00 0.000000e+00
<ENDHMM>
~h "sil"
<BEGINHMM>
<NUMSTATES> 5
<STATE> 2
<MEAN> 39
 -1.732770e+01 9.435577e-01 -1.514610e+00 4.091604e+00 2.089673e+00 2.563237e+00 2.170802e+00 1.496095e+00 3.466323e-01 -4.469224e-01 -1.247511e-01 1.469777e+00 5.808077e+01 3.409459e-03 -1.751751e-01 1.447403e-01 1.192990e-01 1.662325e-01 2.959007e-01 6.599033e-02 3.234258e-01 1.450806e-01 3.805986e-01 3.044478e-01 3.399206e-01 -2.252057e-01 1.943497e-04 7.503205e-02 -8.582954e-03 3.848790e-02 2.359888e-02 4.699352e-02 9.837913e-02 7.808119e-02 6.591158e-02 6.912130e-02 6.072077e-02 7.901561e-03 5.469252e-02
<VARIANCE> 39
 6.672403e+00 6.656906e+00 8.025444e+00 7.998738e+00 1.166686e+01 1.486993e+01 1.641423e+01 2.183627e+01 1.953769e+01 1.846921e+01 2.231999e+01 1.752412e+01 2.666495e+00 5.152932e-01 4.963237e-01 7.522797e-01 7.722505e-01 1.136672e+00 1.499999e+00 1.632672e+00 2.045763e+00 1.674292e+00 1.769433e+00 1.756361e+00 1.573647e+00 2.018346e-01 6.353068e-02 8.176496e-02 1.296662e-01 1.457442e-01 2.095626e-01 2.760776e-01 2.977108e-01 3.677923e-01 3.160709e-01 3.004801e-01 2.761128e-01 2.812899e-01 3.015719e-02
<GCONST> 8.114282e+01
<STATE> 3
~s "silst"
<STATE> 4
<MEAN> 39
 -1.797315e+01 2.951878e-02 -1.945453e+00 4.097537e+00 2.294966e+00 3.558735e+00 3.200442e+00 3.120055e+00 1.026550e+00 1.554008e+00 1.434457e+00 2.817835e+00 5.725568e+01 -1.111383e-02 -1.313411e-02 -1.606353e-02 -1.777757e-02 -2.438386e-02 -3.754906e-02 -2.263925e-02 -1.788932e-02 -2.714074e-02 -2.631446e-02 -2.873003e-02 -1.785420e-02 -2.851341e-03 -6.858998e-04 7.566264e-03 5.676768e-03 6.818500e-03 3.069812e-03 -2.659591e-03 -3.675254e-03 -8.849040e-03 -7.126729e-03 -1.194841e-02 -1.018532e-02 -6.046637e-03 5.436987e-03
<VARIANCE> 39
 1.268999e+00 1.964400e+00 3.425474e+00 4.885141e+00 7.161125e+00 8.886941e+00 1.035900e+01 1.115107e+01 1.179803e+01 1.076292e+01 1.101834e+01 9.606019e+00 6.560474e-01 9.480843e-02 1.973459e-01 3.345858e-01 5.068405e-01 7.082627e-01 8.729149e-01 1.008497e+00 1.134793e+00 1.128010e+00 1.112830e+00 1.057326e+00 9.343192e-01 3.454536e-02 1.770782e-02 4.013880e-02 6.744403e-02 1.027979e-01 1.443615e-01 1.792353e-01 2.051877e-01 2.286961e-01 2.280681e-01 2.294542e-01 2.158263e-01 1.888236e-01 5.867459e-03
<GCONST> 5.392277e+01
<TRANSP> 5
 0.000000e+00 1.000000e+00 0.000000e+00 0.000000e+00 0.000000e+00
 0.000000e+00 5.008398e-01 2.556152e-01 2.435451e-01 0.000000e+00
 0.000000e+00 0.000000e+00 8.987432e-01 1.012568e-01 0.000000e+00
 0.000000e+00 1.410695e-02 0.000000e+00 9.533668e-01 3.252624e-02
 0.000000e+00 0.000000e+00 0.000000e+00 0.000000e+00 0.000000e+00
<ENDHMM>
