~o
<STREAMINFO> 1 39
<VECSIZE> 39<NULLD><MFCC_D_A_0><DIAGC>
~h "proto"
<BEGINHMM>
<NUMSTATES> 5
<STATE> 2
<MEAN> 39
 -1.376990e+01 2.798773e+00 -9.361687e-01 1.991652e+00 -2.060739e+00 -2.316674e-01 -1.111489e+00 -1.279857e+00 -1.805551e+00 -1.268581e+00 -4.252138e-01 6.266817e-01 6.115493e+01 -5.210009e-04 9.345296e-04 -1.253572e-03 -4.250972e-04 -1.751539e-03 -4.099471e-03 -3.017486e-03 -3.569369e-03 -2.960487e-03 -3.783858e-03 -4.054863e-03 -2.238532e-03 -4.686903e-05 -5.860444e-04 1.645866e-04 -3.994420e-04 -2.110550e-04 -3.521310e-04 -1.294602e-04 3.647172e-05 3.625722e-04 -2.249926e-04 -1.441270e-04 1.625079e-04 -1.653409e-04 5.959347e-04
<VARIANCE> 39
 4.839668e+01 1.709005e+01 2.662597e+01 3.071931e+01 4.841265e+01 3.699063e+01 4.391648e+01 3.903605e+01 3.384171e+01 2.325384e+01 2.277432e+01 1.993636e+01 1.945565e+01 1.269392e+00 8.615725e-01 1.257224e+00 1.655669e+00 2.108350e+00 1.776830e+00 2.069107e+00 1.996581e+00 1.904566e+00 1.645443e+00 1.698921e+00 1.410656e+00 5.138069e-01 1.542209e-01 1.466364e-01 1.956958e-01 2.716198e-01 3.360356e-01 3.197412e-01 3.646294e-01 3.581538e-01 3.472828e-01 3.133197e-01 3.214872e-01 2.732570e-01 7.078791e-02
<GCONST> 1.024174e+02
<STATE> 3
<MEAN> 39
 -1.376990e+01 2.798773e+00 -9.361687e-01 1.991652e+00 -2.060739e+00 -2.316674e-01 -1.111489e+00 -1.279857e+00 -1.805551e+00 -1.268581e+00 -4.252138e-01 6.266817e-01 6.115493e+01 -5.210009e-04 9.345296e-04 -1.253572e-03 -4.250972e-04 -1.751539e-03 -4.099471e-03 -3.017486e-03 -3.569369e-03 -2.960487e-03 -3.783858e-03 -4.054863e-03 -2.238532e-03 -4.686903e-05 -5.860444e-04 1.645866e-04 -3.994420e-04 -2.110550e-04 -3.521310e-04 -1.294602e-04 3.647172e-05 3.625722e-04 -2.249926e-04 -1.441270e-04 1.625079e-04 -1.653409e-04 5.959347e-04
<VARIANCE> 39
 4.839668e+01 1.709005e+01 2.662597e+01 3.071931e+01 4.841265e+01 3.699063e+01 4.391648e+01 3.903605e+01 3.384171e+01 2.325384e+01 2.277432e+01 1.993636e+01 1.945565e+01 1.269392e+00 8.615725e-01 1.257224e+00 1.655669e+00 2.108350e+00 1.776830e+00 2.069107e+00 1.996581e+00 1.904566e+00 1.645443e+00 1.698921e+00 1.410656e+00 5.138069e-01 1.542209e-01 1.466364e-01 1.956958e-01 2.716198e-01 3.360356e-01 3.197412e-01 3.646294e-01 3.581538e-01 3.472828e-01 3.133197e-01 3.214872e-01 2.732570e-01 7.078791e-02
<GCONST> 1.024174e+02
<STATE> 4
<MEAN> 39
 -1.376990e+01 2.798773e+00 -9.361687e-01 1.991652e+00 -2.060739e+00 -2.316674e-01 -1.111489e+00 -1.279857e+00 -1.805551e+00 -1.268581e+00 -4.252138e-01 6.266817e-01 6.115493e+01 -5.210009e-04 9.345296e-04 -1.253572e-03 -4.250972e-04 -1.751539e-03 -4.099471e-03 -3.017486e-03 -3.569369e-03 -2.960487e-03 -3.783858e-03 -4.054863e-03 -2.238532e-03 -4.686903e-05 -5.860444e-04 1.645866e-04 -3.994420e-04 -2.110550e-04 -3.521310e-04 -1.294602e-04 3.647172e-05 3.625722e-04 -2.249926e-04 -1.441270e-04 1.625079e-04 -1.653409e-04 5.959347e-04
<VARIANCE> 39
 4.839668e+01 1.709005e+01 2.662597e+01 3.071931e+01 4.841265e+01 3.699063e+01 4.391648e+01 3.903605e+01 3.384171e+01 2.325384e+01 2.277432e+01 1.993636e+01 1.945565e+01 1.269392e+00 8.615725e-01 1.257224e+00 1.655669e+00 2.108350e+00 1.776830e+00 2.069107e+00 1.996581e+00 1.904566e+00 1.645443e+00 1.698921e+00 1.410656e+00 5.138069e-01 1.542209e-01 1.466364e-01 1.956958e-01 2.716198e-01 3.360356e-01 3.197412e-01 3.646294e-01 3.581538e-01 3.472828e-01 3.133197e-01 3.214872e-01 2.732570e-01 7.078791e-02
<GCONST> 1.024174e+02
<TRANSP> 5
 0.000000e+00 1.000000e+00 0.000000e+00 0.000000e+00 0.000000e+00
 0.000000e+00 6.000000e-01 4.000000e-01 0.000000e+00 0.000000e+00
 0.000000e+00 0.000000e+00 6.000000e-01 4.000000e-01 0.000000e+00
 0.000000e+00 0.000000e+00 0.000000e+00 7.000000e-01 3.000000e-01
 0.000000e+00 0.000000e+00 0.000000e+00 0.000000e+00 0.000000e+00
<ENDHMM>
